{"weights": [[[0.034014202654361725, -0.05770343542098999, -0.07140173017978668, 0.06258583813905716, -0.08334453403949738, -0.08047885447740555, -0.01798275113105774, 0.05320969969034195, 0.010104499757289886, 0.03336092829704285, 0.018592022359371185, -0.03165990486741066, 0.24302825331687927, 0.3221668601036072, 0.042150355875492096, 0.018819458782672882, 0.031134970486164093, 0.0423409566283226, -0.02442510426044464, -0.058722008019685745, 0.016019292175769806, 0.0011127516627311707, 0.050212420523166656, 0.015441201627254486, -0.04487406089901924, 0.05137286335229874, -0.05515039712190628, -0.05188560113310814, 0.020298033952713013, 0.04723081737756729, -0.07374259829521179, -0.051281120628118515, 0.16415482759475708, 0.20294196903705597, 0.7108041048049927, 0.9245142936706543, 0.5600597858428955, 0.9611179232597351, 0.8064836859703064, 0.2332998663187027, 0.5286014080047607, 0.08818133175373077, -0.9235236048698425, -0.7339900135993958, -0.5327849984169006, 0.3561503291130066, 1.3187593221664429, 1.2334874868392944, 0.9141511917114258, 0.8929765224456787, 0.7440477609634399, 0.6764690279960632, 0.04775894433259964, 0.07899159938097, -0.025767706334590912, 0.07399987429380417, 0.048908524215221405, -0.024866074323654175, 0.14161080121994019, 0.34150728583335876, 0.3210335075855255, 0.6321010589599609, 0.37904438376426697, 1.0506209135055542, 0.9613538980484009, 0.49791383743286133, 0.4006343185901642, 0.32384034991264343, 0.6198622584342957, 0.2854023873806, 0.07770298421382904, 0.09549947082996368, -0.040453407913446426, -0.05334945395588875, 0.08948040008544922, 0.12704163789749146, -0.21681612730026245, 0.5524091720581055, 0.08273070305585861, 0.21732203662395477, 0.2576020061969757, 0.02133999951183796, 0.07788114994764328, 0.06301280111074448, -0.014692023396492004, -0.015344768762588501, -0.38992008566856384, 0.5201461911201477, 0.02269575372338295, 0.6562190651893616, 0.6530579924583435, -0.18597868084907532, -0.1936027705669403, 0.07735732942819595, 0.18007078766822815, -0.2306191474199295, -0.42254847288131714, -0.17589262127876282, 0.4459382891654968, 0.22646233439445496, -0.07671552151441574, -0.2257421314716339, -0.49381279945373535, 0.06561224907636642, -0.02392696589231491, 0.14482757449150085, 0.23191262781620026, 0.2394993007183075, 0.1318259984254837, -0.33489570021629333, 0.010797286406159401, -0.08002707362174988, 0.0127510204911232, 0.02533206343650818, -0.2745397388935089, 0.010816739872097969, 0.22868360579013824, 0.5190280675888062, 0.33087214827537537, -0.012433696538209915, -0.45484471321105957, -0.043183088302612305, -0.017028551548719406, -0.8209837675094604, -0.5054828524589539, -0.41743841767311096, -0.46482911705970764, -0.09119226783514023, -0.29817280173301697, -0.13386410474777222, 0.05010027438402176, 0.06603090465068817, 0.27482813596725464, -0.044029608368873596, 0.2825919985771179, 0.17139150202274323, 0.41978874802589417, 0.12807244062423706, -0.46697914600372314, 0.2890864312648773, 0.07766196876764297, 0.076259545981884, 0.2271271049976349, -0.23301322758197784, 0.6020286083221436, -0.013990983366966248, -0.22978584468364716, -0.19919998943805695, 0.28197556734085083, -0.024813512340188026, -0.040870651602745056, -0.8859935402870178, -0.27145856618881226, -0.38441944122314453, -0.20576384663581848, -0.10638248175382614, -0.3206500709056854, 0.17196053266525269, 0.23614290356636047, 0.09437574446201324, 0.10759133100509644, 0.3212954103946686, 0.4212482273578644, 0.5921768546104431, 0.5334887504577637, -0.5990955233573914, 0.15979458391666412, 0.4976294934749603, 0.08302200585603714, 0.047062814235687256, 0.6517456769943237, 0.10459411889314651, 0.3427041172981262, 0.26433536410331726, -0.2137705236673355, -0.21030350029468536, 0.13492922484874725, -0.2426084727048874, -0.527445375919342, -0.6265695691108704, -0.5873735547065735, -0.5184636116027832, -0.287575364112854, 0.19057895243167877, -0.17938828468322754, 0.13689352571964264, -0.07593471556901932, -0.44851604104042053, -0.29252326488494873, -0.02414025366306305, 0.07618413120508194, 0.38993966579437256, 0.3194800317287445, 0.12054464221000671, -0.8966512084007263, -0.4377206563949585, -0.05990995466709137, -0.4089577794075012, 0.3449389338493347, 0.07819409668445587, 0.6265580654144287, 0.12658385932445526, -0.19972606003284454, -0.3441658020019531, 0.1641431450843811, -0.22845658659934998, -0.5084366202354431, -0.4871844947338104, -0.6018157005310059, -0.4564112722873688, -0.23972706496715546, -0.023288309574127197, -0.21673840284347534, 0.1487942337989807, -0.09410273283720016, -0.6519821882247925, -0.4671732783317566, -0.8054924011230469, -0.8188515901565552, -0.7250659465789795, 0.4982902705669403, -0.06011183559894562, 0.1642615795135498, -0.5134083032608032, 0.5454385876655579, -0.11506757140159607, 0.2600885033607483, 0.13921508193016052, 0.09453078359365463, -0.0018998285522684455, -0.23916327953338623, -0.1655607521533966, -0.1299361288547516, -0.14308342337608337, -0.5862375497817993, -0.5457629561424255, -0.7728524804115295, -0.41935995221138, -0.15634940564632416, 0.11550795286893845, 0.015875624492764473, 0.1460472047328949, -0.7675554752349854, -0.8728663921356201, -0.5592520833015442, -1.0322329998016357, -1.3227592706680298, -0.9522398114204407, -0.3581094741821289, -0.41024285554885864, -0.19658006727695465, -0.33079010248184204, -0.21048299968242645, -0.8594384789466858, 0.4242417812347412, 0.06210761144757271, 0.4696110188961029, -0.24155595898628235, -0.23199906945228577, 0.11085959523916245, -0.030456237494945526, -0.2388869822025299, -0.3744382858276367, -0.48832598328590393, -0.4143132269382477, -0.4873061180114746, 0.26578396558761597, 0.5765981078147888, 0.22875124216079712, -0.3085155785083771, -1.0245798826217651, -1.0539363622665405, -0.4401814639568329, -0.030629834160208702, -0.44620418548583984, -0.8597643971443176, -0.9701151847839355, -0.5089719891548157, -0.27855435013771057, -0.4464184045791626, -0.1928006112575531, -0.4767843782901764, -0.06260493397712708, -0.021338913589715958, 0.11540970206260681, -0.09034500271081924, 0.03776133432984352, 0.26222899556159973, 0.06742070615291595, -0.22233819961547852, -0.12798167765140533, -0.3734242022037506, -0.32049599289894104, -0.01389503013342619, 0.11294270306825638, 0.2020910382270813, -0.08848274499177933, -0.601289689540863, -0.9100630879402161, -1.2261135578155518, -0.6175599694252014, -0.25327685475349426, 0.07504195719957352, -0.4363026022911072, -0.9110342860221863, -0.346976637840271, -0.4769882559776306, -0.6129348874092102, -0.13684171438217163, 0.06951869279146194, -0.3506268560886383, -0.11438695341348648, -0.5522777438163757, -0.11447832733392715, -0.16035084426403046, -0.03926372900605202, -0.1511436104774475, -0.4047662019729614, -0.33760613203048706, -0.6630489826202393, -0.7059575915336609, -0.2680295407772064, 0.02215714193880558, -0.22566381096839905, -0.06999541074037552, -0.41774117946624756, -0.5879329442977905, -0.43441689014434814, 0.04750148952007294, 0.36237281560897827, -0.18832482397556305, -0.09709405899047852, -0.727584183216095, 0.026817230507731438, -1.1922624111175537, -0.8524708151817322, 0.029510095715522766, -0.04254348203539848, -0.18448497354984283, -0.34411129355430603, -0.5045201182365417, 0.08577670156955719, -0.014402461238205433, -0.04885612055659294, -0.3768312931060791, -0.08109419047832489, 0.07226181775331497, 0.07644607871770859, 0.1015397161245346, 0.2410755753517151, -0.09263582527637482, -0.20898641645908356, 0.2355615198612213, -0.07053858786821365, 0.1380487084388733, 0.021020036190748215, 0.3150290250778198, 0.2187049239873886, -0.062259212136268616, 0.03301798924803734, -0.0842926949262619, 0.0480896420776844, -0.5598807334899902, -0.5283074378967285, 0.17577899992465973, 0.006777268368750811, -0.4150203764438629, -0.4673745930194855, -0.26226598024368286, 0.30772703886032104, 0.2759819030761719, 0.18144716322422028, -0.07184989005327225, -0.004933065734803677, 0.21456946432590485, 0.2179916948080063, 0.4310251772403717, 0.25058290362358093, -0.1748364120721817, 0.22946076095104218, 0.5588912963867188, 0.08450093865394592, 0.182288259267807, 0.34302958846092224, 0.15857729315757751, 0.18731679022312164, 0.20809613168239594, 0.3277226686477661, 0.4683481454849243, -0.07157159596681595, -0.01482241228222847, 0.5794245600700378, 0.13413597643375397, 0.24796797335147858, -0.28211238980293274, -0.1828894317150116, 0.2967017590999603, 0.01371684204787016, 0.24179714918136597, 0.14279805123806, 0.15375381708145142, 0.12414068728685379, 0.22283892333507538, 0.4031403660774231, 0.3579593598842621, 0.01257166638970375, 0.050378188490867615, 0.1964176893234253, 0.43017446994781494, -0.07947967946529388, -0.1915055215358734, 0.03860192373394966, 0.050810765475034714, -0.08786491304636002, 0.49062642455101013, 0.4866633713245392, 0.4327625036239624, -0.18086360394954681, -0.19081233441829681, 0.676429033279419, 0.04510130733251572, 0.3444267213344574, 0.4642326831817627, 0.23072625696659088, 0.4031611382961273, -0.16609899699687958, 0.2706870436668396, -0.21820279955863953, -0.07679648697376251, 0.02200382575392723, 0.22949710488319397, 0.09940638393163681, 0.19644640386104584, 0.21102115511894226, -0.2802796959877014, 0.006033545359969139, 0.2161368727684021, 0.13862764835357666, -0.14583265781402588, 0.1914486140012741, -0.0428449884057045, 0.1540517956018448, 0.6513352394104004, 0.29517582058906555, 0.09074103832244873, 0.25661951303482056, -0.09013974666595459, -0.006901128683239222, 0.0012558596208691597, 0.17426365613937378, 0.1165732741355896, -0.010866597294807434, -0.19045457243919373, -0.2347797155380249, 0.09351799637079239, 0.17943477630615234, -0.01945067197084427, 0.012065811082720757, 0.3344709277153015, 0.5391687750816345, 0.2704422175884247, 0.020351139828562737, 0.06055502966046333, 0.26571884751319885, -0.010923050343990326, -0.09494463354349136, 0.03887743875384331, -0.03574955835938454, 0.03296499699354172, 0.3566232919692993, 0.6247130632400513, 0.4653267562389374, 0.40346816182136536, 0.30115988850593567, 0.24154427647590637, -0.33550235629081726, 0.0687636062502861, 0.08848773688077927, -0.027678459882736206, 0.2937524914741516, -0.1270102709531784, -0.3217110335826874, 0.10344555228948593, -0.05132569372653961, 0.1939389705657959, 0.29372209310531616, 0.4467535614967346, 0.4242580533027649, -0.2627362608909607, -0.2815264165401459, 0.05242296680808067, -0.006031619850546122, 0.11710009723901749, -0.2169172167778015, -0.1162569522857666, -0.052949946373701096, -0.16241829097270966, 0.08458693325519562, 0.11963611841201782, 0.2571738064289093, -0.44564151763916016, -0.24096542596817017, 0.06744049489498138, -0.020832063630223274, -0.4540783762931824, 0.05043599009513855, -0.3147734999656677, 0.34333884716033936, 0.24745000898838043, 0.059609800577163696, -0.1336991786956787, 0.0032548103481531143, 0.17418478429317474, 0.28514838218688965, 0.2691645324230194, 0.28069961071014404, 0.2849310040473938, 0.15495598316192627, -0.03348670154809952, 0.0440567284822464, 0.13109040260314941, -0.1785535365343094, 0.05254718288779259, -0.11013947427272797, -0.05027216300368309, -0.11983786523342133, -0.1803315281867981, -0.19693338871002197, 0.04404845088720322, -0.2224806845188141, -0.02517915517091751, 0.2792392075061798, 0.21339860558509827, -0.698056697845459, -0.2630859613418579, -0.24937887489795685, 0.011922712437808514, -0.09071803838014603, -0.30787238478660583, 0.20064358413219452, -0.30190396308898926, 0.30827873945236206, 0.3997911214828491, 0.9403378367424011, 0.4472666382789612, -0.0155805554240942, -0.06539443135261536, 0.07173152267932892, 0.1016659140586853, 0.11111485958099365, 0.1293443739414215, 0.20620004832744598, 0.2737422585487366, -0.6627033948898315, -0.6026042699813843, -0.48088017106056213, -0.46654704213142395, -0.4005693197250366, -0.6638485789299011, -0.33072900772094727, 0.03317698836326599, -0.42778438329696655, -0.1145898774266243, -0.23315297067165375, 0.0007139042136259377, -0.41400548815727234, -0.316394180059433, -0.04664226993918419, -0.19927285611629486, -0.0716228112578392, 0.3120368421077728, 0.3595119118690491, 0.12143359333276749, -0.09561404585838318, 0.23367270827293396, 0.0570007786154747, -0.08531402796506882, 0.11497029662132263, 0.2719906270503998, -0.187568798661232, -0.25392213463783264, -0.8672210574150085, -0.9771173596382141, -1.0883018970489502, -1.151483178138733, -0.5683304071426392, -0.44378000497817993, -0.27450665831565857, 0.00965491309762001, 0.020516056567430496, -0.5205405354499817, -0.24397306144237518, 0.090482696890831, 0.044035762548446655, -0.43448543548583984, -0.3338314890861511, -0.2981429994106293, -0.7477630376815796, -0.23042483627796173, -0.2392856627702713, -0.10857720673084259, -0.11755754053592682, -0.14272047579288483, -0.24784287810325623, -0.1431809365749359, 0.2822469174861908, 0.5253474712371826, -0.7263210415840149, -0.54013991355896, -0.9884920716285706, -0.8493586182594299, -0.978121280670166, -0.8275159597396851, 0.11347027122974396, -0.14543303847312927, -0.08959045261144638, -0.06839248538017273, -0.0029451034497469664, 0.4608149230480194, -0.2402774840593338, 0.5081406831741333, 0.009251362644135952, -0.767525315284729, -0.5429785251617432, -0.5682146549224854, -0.8615309596061707, 0.010636446997523308, -0.4038618803024292, -0.3154778480529785, -0.4662303328514099, -0.649025022983551, -0.4298049509525299, -0.20623652637004852, -0.1264432817697525, -0.6898331046104431, -0.23460382223129272, -0.5413844585418701, 0.061333850026130676, -0.08729763329029083, -0.8905612230300903, -0.54910808801651, -0.42967766523361206, 0.002986746607348323, -0.11506088078022003, -0.08566097170114517, 0.07055891305208206, 0.3133006691932678, 0.11583162844181061, 0.5593917965888977, 0.14283639192581177, -0.9561976194381714, -0.6566733717918396, -1.0192896127700806, -0.6281415224075317, -0.6337383985519409, -0.6933095455169678, -0.6343435049057007, -0.709542453289032, -0.9181490540504456, -0.902656078338623, -0.8727763891220093, -0.6830207109451294, -0.3314884901046753, 0.1029878556728363, -0.07039658725261688, 0.2596316337585449, 0.32308289408683777, -0.5819557905197144, -0.37906908988952637, -0.4837789833545685, -0.04945331811904907, -0.026306089013814926, 0.06462458521127701, -0.018755078315734863, -0.3054383397102356, -0.3110418915748596, 0.17697621881961823, -0.10287699848413467, -0.19581139087677002, -0.6328485012054443, -0.8048625588417053, -0.004811024758964777, -0.23969291150569916, -0.06970982253551483, -0.08185023069381714, -1.1442009210586548, -1.1524001359939575, -0.873837947845459, -0.35808631777763367, 0.08016098290681839, -0.23519815504550934, 0.09461594372987747, -0.08869040012359619, 0.3587319850921631, 0.569534957408905, -0.477245956659317, -0.14562678337097168, 0.46598684787750244, -0.12521085143089294, 0.02925119549036026, 0.061099909245967865, 0.04647012799978256, 0.09119777381420135, -0.3659375309944153, 0.04568929597735405, -0.41451358795166016, 0.08913636207580566, -0.4007372260093689, 0.3270947337150574, 0.25848832726478577, 0.0825032964348793, 0.23470203578472137, -1.0503511428833008, -1.1345651149749756, -0.4206978976726532, -0.3692370355129242, -1.1872402429580688, -0.5412304997444153, -0.2856200039386749, -0.028512505814433098, 0.008348758332431316, -0.1395433098077774, -0.09211724251508713, 0.12144312262535095, -0.34145107865333557, 0.10064627975225449, -0.022182244807481766, -0.022791408002376556, 0.057904891669750214, -0.005715712904930115, -0.01355712115764618, -0.19928447902202606, 0.04002061113715172, 0.15789271891117096, -0.27193623781204224, -0.1546654850244522, -0.30798864364624023, -0.037843961268663406, 0.3742859959602356, -0.07591656595468521, -1.4088208675384521, -1.109960913658142, -0.8249839544296265, -1.0286219120025635, -1.1555397510528564, -0.44706979393959045, -0.5621048808097839, -0.07142771035432816, -0.5574349164962769, -0.48273128271102905, -0.6361806392669678, -0.5773654580116272, -0.2567879557609558, 0.022726334631443024, -0.011490799486637115, -0.057254113256931305, -0.014749705791473389, 0.011873394250869751, -0.07713418453931808, 0.07417026907205582, -0.09491477161645889, -0.25160229206085205, -0.25067922472953796, -0.33299720287323, -0.5024876594543457, -0.5818867683410645, -0.7661416530609131, -0.46682724356651306, -0.4771634340286255, -1.0024669170379639, -0.864309549331665, -0.3457311689853668, -0.6349632740020752, -0.8925619125366211, -0.9058964252471924, -0.32942965626716614, -0.4886345863342285, -0.4065168797969818, -0.33681944012641907, -0.05827205255627632, -0.045531123876571655, -0.08577987551689148, 0.07012581080198288, 0.044109366834163666], [-0.0564018115401268, 0.0053912922739982605, -0.03807621821761131, 0.060163043439388275, 0.026909977197647095, 0.05156830698251724, 0.001301094889640808, -0.04542097821831703, -0.04013946279883385, 0.002030573785305023, -0.048330508172512054, 0.026354990899562836, 0.25322139263153076, 0.07503339648246765, -0.16372451186180115, 0.004207263235002756, 0.004823066294193268, -0.059479206800460815, -0.051119495183229446, -0.05424100533127785, 0.07000661641359329, -0.027375265955924988, 0.01816924661397934, 0.051825009286403656, -0.08454406261444092, -0.03339686989784241, -0.022230133414268494, -0.03284468874335289, 0.05423847585916519, 0.0386401042342186, 0.046450547873973846, 0.04510880261659622, -0.16411852836608887, 0.095801442861557, 0.8087447881698608, 0.7964460849761963, 0.5641740560531616, 1.1332285404205322, 1.315521240234375, 0.6896106004714966, 0.8380074501037598, 0.6044083833694458, 0.4638042449951172, 0.3336160480976105, -0.5318678617477417, 0.07231996208429337, 1.4080168008804321, 1.1008700132369995, 1.0175367593765259, 1.0029008388519287, 0.6603074073791504, 0.4664725065231323, 0.08109166473150253, -0.0307203009724617, -0.08454907685518265, -0.07915233820676804, -0.028751827776432037, 0.04461293667554855, -0.08949259668588638, 0.32674163579940796, 0.3667525053024292, -0.0882052406668663, 0.37518876791000366, 1.3304567337036133, -0.14081484079360962, -0.17984770238399506, 0.2230956256389618, 0.5683273077011108, 0.4975253939628601, 0.4607754051685333, 0.7947496175765991, 1.3121676445007324, 0.9113722443580627, 0.0632692202925682, 0.2301134169101715, 0.8813876509666443, 0.7966688871383667, 0.5402798652648926, 0.7232242226600647, 0.045481570065021515, -0.18273834884166718, -0.2544078826904297, 0.03394628316164017, 0.05779457837343216, 0.0021710172295570374, 0.08500219136476517, -0.3175621032714844, 0.6809493899345398, 0.535607099533081, 0.02592066302895546, 0.9023770689964294, 0.8822553753852844, -0.03621872887015343, -0.4729316234588623, -0.3786330223083496, -0.23746880888938904, -0.5940802097320557, -0.5665779113769531, -0.42108476161956787, -0.08918841183185577, -0.14445221424102783, -0.5387327671051025, -0.09929940849542618, 0.346536785364151, 0.013545230031013489, -0.467365026473999, 0.2685801088809967, -0.02210267074406147, -0.1256767213344574, -0.5110688209533691, 0.562676727771759, 0.059471555054187775, 0.004689663648605347, 0.01776614971458912, 0.1164996549487114, 0.35176900029182434, -0.19892728328704834, -0.23886586725711823, -1.1095705032348633, -0.2876259684562683, -0.17960889637470245, -0.9512787461280823, -0.9106082916259766, -0.6918811798095703, -0.8412849307060242, -0.7158767580986023, -0.5845804214477539, -0.5246977806091309, -0.3464442789554596, -0.36419877409935, -0.32201269268989563, 0.14426353573799133, 0.04930272698402405, -0.07467848807573318, 0.12530703842639923, 0.9082585573196411, 0.8156841993331909, -0.23435911536216736, -0.6213961243629456, -0.08029285818338394, -0.08460178226232529, -0.05534759908914566, 0.42018261551856995, 0.08614102751016617, -0.11793875694274902, -0.10471218824386597, -0.13127478957176208, 0.14383582770824432, -0.523115336894989, -0.34079617261886597, -0.34682223200798035, -0.42523765563964844, -0.35813552141189575, -0.7733967304229736, -0.6206886172294617, -0.5712270736694336, -0.47009772062301636, -0.35750052332878113, -0.4978140592575073, -0.24211470782756805, -0.17055708169937134, -0.12234906852245331, 0.16024655103683472, 0.624423623085022, 0.4897823929786682, -0.6342107653617859, -0.2941395342350006, 0.25993627309799194, 0.03986824303865433, -0.36027905344963074, 0.57719886302948, -0.3040009140968323, 0.5563194751739502, -0.1808779537677765, -0.26910701394081116, -0.30122101306915283, -0.3087170720100403, -0.3395732343196869, -0.596131443977356, -0.31947061419487, -0.04115806519985199, -0.1308824121952057, 0.06570769846439362, -0.09301967173814774, -0.13096913695335388, -0.09482862800359726, -0.11594279110431671, 0.1224987730383873, 0.10723541676998138, -0.07580959051847458, -0.15521220862865448, 0.1203746423125267, 0.3879299759864807, -0.2635779082775116, -0.13328184187412262, -0.06390681862831116, -0.09229761362075806, -0.6512948870658875, 0.14261986315250397, -0.3193977475166321, -0.4090573787689209, -0.004851918667554855, -1.117297887802124, -0.42219507694244385, -0.3852996230125427, -0.10041623562574387, -0.18981453776359558, -0.02042500115931034, 0.14061209559440613, 0.07230018079280853, 0.46803632378578186, 0.1984829604625702, 0.05891231819987297, -0.0863969698548317, -0.05801594629883766, 0.016545988619327545, -0.028756260871887207, -0.1641804724931717, 0.14001192152500153, 0.18951822817325592, -0.09853342175483704, -0.33988523483276367, 0.08587276935577393, 0.03487975150346756, 0.044998347759246826, -0.7342162132263184, 0.21374686062335968, 0.03048873133957386, -0.2927243709564209, 0.09152651578187943, -0.5864951014518738, -0.14180782437324524, -0.28545987606048584, -0.0991351529955864, 0.011541164480149746, 0.0741216167807579, 0.03819536790251732, 0.23623809218406677, 0.4362610876560211, 0.20521043241024017, -0.21078580617904663, -0.012697098776698112, -0.061168670654296875, -0.07706455141305923, -0.02900717779994011, 0.3203396499156952, -0.06074327975511551, 0.24368830025196075, 0.1461447924375534, 0.31705787777900696, -0.02516305260360241, -0.45782217383384705, -0.37761855125427246, -0.44596654176712036, 0.4187488257884979, -0.5224682092666626, -0.5711504817008972, -0.792884886264801, -0.6390675902366638, -0.23650802671909332, -0.2560654282569885, -0.19097232818603516, 0.05726737901568413, 0.18270397186279297, 0.0251644104719162, 0.06385476887226105, 0.130634605884552, 0.18371398746967316, -0.12965255975723267, -0.39869457483291626, -0.058772973716259, -0.04749966412782669, -0.11114547401666641, 0.3245433270931244, -0.0632137879729271, 0.11310610175132751, 0.06897929310798645, 0.12641501426696777, 0.23236335813999176, -0.6294461488723755, -0.4626222252845764, -0.19730116426944733, -0.2809024453163147, -0.5312177538871765, 0.056038014590740204, -0.7723107933998108, -0.5528261661529541, 0.24611666798591614, 0.11493255198001862, -0.11489365994930267, 0.05852796137332916, -0.18204067647457123, 0.18665282428264618, 0.1328536570072174, 0.1994326263666153, 0.17304059863090515, 0.05529845133423805, -0.24365368485450745, -0.1052245944738388, -0.15647923946380615, -0.44946619868278503, -0.09523730725049973, 0.15506842732429504, -0.11917520314455032, 0.12753301858901978, 0.6260249614715576, 0.3234359323978424, -0.07987853139638901, -0.33473554253578186, 0.15108582377433777, 0.07054127752780914, -0.5465688705444336, -0.3018036186695099, -0.2217928171157837, 0.12935428321361542, 0.167255699634552, -0.03174041211605072, -0.2616539001464844, -0.198739156126976, 0.05518041178584099, 0.10369624942541122, 0.11292989552021027, 0.20368194580078125, 0.42732590436935425, 0.06193845346570015, -0.3717983663082123, -0.36951395869255066, -0.3621363937854767, -0.639090359210968, -0.39409205317497253, -0.4595458507537842, -0.1110614463686943, 0.20064318180084229, 0.18083079159259796, -0.32633715867996216, -0.19873623549938202, -0.14569275081157684, -0.5849640369415283, -0.05151275172829628, -0.2436247169971466, -1.1576074361801147, -0.5046312212944031, 0.3773576021194458, 0.10224100947380066, 0.17233116924762726, 0.00505851861089468, 0.14291754364967346, 0.33047106862068176, 0.27319908142089844, 0.4884117543697357, 0.5209499001502991, 0.5466184020042419, 0.14444945752620697, -0.2710179090499878, -0.5856112837791443, -0.6542781591415405, -0.48149538040161133, -0.7108174562454224, -0.7866591215133667, -1.239812970161438, -0.9947372674942017, -1.2326977252960205, -0.5580198764801025, -0.6196860074996948, 0.26124829053878784, -0.14954090118408203, -0.541870653629303, -0.3521902859210968, -0.5045561194419861, -0.2736325263977051, -0.09730540961027145, -0.1959943324327469, -0.0030498781707137823, 0.19379770755767822, 0.44976264238357544, 0.30968722701072693, 0.3074469268321991, 0.5670958161354065, 0.5884225964546204, 0.589145839214325, -0.0487295500934124, -0.24337685108184814, -0.34541967511177063, 0.011562132276594639, 0.03675329312682152, -0.11456235498189926, -0.7361573576927185, -1.3712291717529297, -1.5144935846328735, -1.4416958093643188, -1.2457175254821777, -0.693791925907135, 0.40078186988830566, 0.1190122663974762, -0.4436546564102173, -0.405096173286438, -0.17261992394924164, -0.038066111505031586, -0.384062260389328, -0.1947362869977951, 0.2973523736000061, 0.5661340951919556, 0.32310959696769714, 0.31179389357566833, 0.33992379903793335, 0.5879389643669128, 0.7087596654891968, 0.1985994279384613, 0.10383433848619461, -0.10661512613296509, -0.1720464527606964, -0.2683629095554352, 0.26300427317619324, 0.14871574938297272, 0.044497519731521606, -0.5782960057258606, -0.6336460113525391, -0.5262822508811951, -0.39647209644317627, -0.42889291048049927, -0.11969336867332458, 0.2968049943447113, 0.5962511301040649, -0.13578136265277863, -0.010148447938263416, -0.6078890562057495, -0.2373153567314148, -0.0008981622522696853, 0.41807088255882263, 0.6781229972839355, 0.4899725317955017, 0.5594170689582825, 0.5660415291786194, 0.687736988067627, 0.39566633105278015, -0.34064751863479614, 0.0437275655567646, -0.22820742428302765, -0.17196330428123474, -0.1271028369665146, -0.19096195697784424, 0.271220862865448, -0.09381327778100967, -0.5479686856269836, -0.6061795353889465, -0.5224069356918335, -0.13941478729248047, -0.08945664763450623, -0.5429717302322388, -0.22482968866825104, 0.018177280202507973, -0.5063933730125427, -0.29748207330703735, 0.004544607363641262, -0.47940248250961304, -0.118562713265419, 0.10183603316545486, -0.1979505866765976, -0.005802366882562637, 0.5155041217803955, 0.3696146011352539, 0.3900783658027649, 0.4312352240085602, 0.15801313519477844, -0.24251076579093933, -0.24849015474319458, 0.1495095044374466, -0.013674294576048851, -0.5640469193458557, -0.3449893295764923, -0.12326451390981674, -0.739212155342102, -0.6730622053146362, -0.6626843810081482, -1.0691590309143066, -0.08116710931062698, -0.0784129649400711, -0.0308180283755064, -0.23094302415847778, -0.42391058802604675, -0.5695856213569641, 0.0486278235912323, -0.05359005182981491, 0.02181296981871128, -0.16429181396961212, -0.1638539731502533, -0.12256263941526413, -0.13130371272563934, -0.10691703110933304, 0.1536305695772171, 0.3764117360115051, 0.30434533953666687, -0.09325814992189407, -0.07084603607654572, -0.021015534177422523, 0.01041521318256855, -0.18723252415657043, -0.4803185760974884, -0.18254227936267853, -0.6951742768287659, -0.7323193550109863, -1.1950716972351074, -0.6749230623245239, -0.08774659782648087, -0.47408705949783325, -0.31663116812705994, -0.40241268277168274, -0.43404316902160645, -0.2713676393032074, -0.03159414976835251, -0.11758176982402802, 0.06272325664758682, 0.09804531931877136, 0.0026382694486528635, -0.35493797063827515, -0.46673741936683655, -0.06427881121635437, 0.11770351231098175, 0.37539544701576233, 0.44990772008895874, 0.03687327727675438, -0.20253819227218628, -0.5919415950775146, -0.3112435042858124, -0.16537123918533325, -0.19127346575260162, -0.5615126490592957, -1.0393496751785278, -0.5775838494300842, -0.19717596471309662, -0.2114693820476532, 0.19710689783096313, 0.5438796281814575, -0.3915122449398041, -0.473525732755661, -0.4981466233730316, -0.2919841706752777, -0.10283496975898743, -0.16828764975070953, -0.23437781631946564, -0.015507758595049381, -0.2829163670539856, -0.6088753342628479, -0.3928818702697754, -0.31718218326568604, 0.14781521260738373, 0.3669309616088867, 0.31229034066200256, -0.07342728972434998, -0.2996196448802948, -0.2887049913406372, -0.15517687797546387, -0.0069316294975578785, -0.038850996643304825, -0.45322751998901367, -0.4563165307044983, -0.347476065158844, 0.4474337697029114, 0.1173226460814476, 0.4722868800163269, -0.03697877377271652, 0.001265025231987238, -0.12382135540246964, -0.8226010203361511, -0.48245254158973694, 0.1073460653424263, -0.028693320229649544, -0.22975322604179382, -0.12698638439178467, -0.2886489927768707, -0.48563677072525024, -0.31892284750938416, -0.3132190704345703, 0.05919158458709717, 0.17720922827720642, 0.24002386629581451, 0.2919042408466339, 0.2034345269203186, 0.08913630247116089, 0.07186568528413773, -0.06990589946508408, 0.09683296084403992, -0.11712104827165604, -0.7214646339416504, -0.4201132655143738, 0.3187132179737091, -0.3616601526737213, 0.4725702702999115, 0.384486585855484, -0.31782016158103943, 0.16953355073928833, 0.012973654083907604, -0.29314500093460083, 0.130560502409935, -0.5756044983863831, -0.17390817403793335, -0.3994918167591095, -0.17682144045829773, -0.034217242151498795, -0.24546892940998077, -0.3219348192214966, -0.004274264443665743, 0.13262005150318146, 0.2915079891681671, 0.061148159205913544, 0.20960596203804016, 0.17469526827335358, 0.08088919520378113, -0.07721419632434845, -0.40386348962783813, -0.2346082329750061, -0.19280770421028137, -0.06530241668224335, 0.14981254935264587, -0.2044316679239273, -0.14594227075576782, 0.46781933307647705, 0.23965300619602203, -0.050714459270238876, -0.14848937094211578, 0.07197859138250351, 0.04793369024991989, -0.11187400668859482, 0.18136587738990784, -0.026664838194847107, -0.1155230700969696, 0.033353570848703384, -0.3082284927368164, -0.21448904275894165, 0.02107090875506401, -0.15467442572116852, 0.16686996817588806, 0.3761792778968811, 0.09769802540540695, -0.07826128602027893, 0.2606528401374817, -0.18019801378250122, -0.35182273387908936, -1.033051609992981, 0.30293577909469604, -0.14445273578166962, -0.10554520040750504, 0.8356889486312866, -0.19163326919078827, 0.023423992097377777, 0.08090970665216446, -0.5951058864593506, 0.2662220597267151, 0.14618539810180664, 0.05343572422862053, 0.10239383578300476, 0.3371249735355377, 0.3222332298755646, 0.17832611501216888, 0.2434903234243393, -0.024321863427758217, 0.16958796977996826, 0.16848817467689514, -0.0450492799282074, -0.05101354420185089, -0.06295811384916306, -0.10114734619855881, 0.060725267976522446, 0.5245871543884277, 0.34056711196899414, -0.41603413224220276, -0.98138827085495, 0.1690763682126999, -0.41182059049606323, -0.2868759334087372, 0.7583021521568298, 0.007083922624588013, 0.007028631865978241, -0.02108681946992874, -0.7744986414909363, 0.2450648695230484, 0.11986884474754333, -0.1766786426305771, -0.19019381701946259, 0.17318764328956604, 0.29265502095222473, 0.22825147211551666, 0.06889574229717255, 0.14531384408473969, 0.1191609725356102, 0.26711541414260864, -0.03644978255033493, -0.12890081107616425, -0.19953559339046478, -0.009805385954678059, 0.2989374101161957, 0.39637723565101624, 0.39196276664733887, -0.21106936037540436, 0.09875167906284332, 0.7869534492492676, 0.4715500473976135, 0.8032945990562439, -0.08199431747198105, 0.05280794948339462, 0.05513034015893936, -0.06425335258245468, 0.39874279499053955, 0.29743725061416626, -0.37938010692596436, -0.3141365349292755, 0.34641405940055847, 0.07641752064228058, 0.2584749460220337, -0.024293897673487663, 0.1648568958044052, 0.23333877325057983, 0.3720443546772003, 0.6761382222175598, -0.12207376956939697, 0.004437013063579798, 0.10716544836759567, 0.5957918167114258, 0.4383939802646637, 0.29710274934768677, 0.13237181305885315, -0.13284413516521454, 0.6078755855560303, 0.5941193103790283, 0.4187326729297638, 0.4099576771259308, -0.11838292330503464, -0.03817197307944298, 0.05156675726175308, -0.014672495424747467, 0.07069570571184158, 0.012144530192017555, 0.4977026879787445, -0.4670499563217163, -0.40768131613731384, 0.03648006170988083, -0.3999950587749481, -0.1898801475763321, -0.20133554935455322, 0.06276924908161163, 0.3007384240627289, -0.025977659970521927, 0.32530656456947327, 0.4666108191013336, 0.06540104746818542, 0.20890530943870544, -0.10812261700630188, -0.06728766858577728, -0.10882450640201569, -0.3312538266181946, -0.1544722318649292, -0.5316117405891418, -0.165532648563385, -0.43923041224479675, -0.06142377480864525, -0.008910909295082092, -0.024833794683218002, -0.07834558188915253, -0.010131537914276123, -0.049741461873054504, -0.37463653087615967, -0.6075239181518555, 0.140757218003273, -0.18832477927207947, -0.4431239664554596, -0.1159774661064148, -0.5074160099029541, 0.18144646286964417, -0.2287648320198059, -0.7400283217430115, -0.06489739567041397, 0.026458995416760445, -0.07152372598648071, -0.9101243615150452, -0.7080010771751404, -0.16480328142642975, 0.12942185997962952, -0.3558613359928131, -0.4356788694858551, -0.10506238043308258, 0.029499612748622894, 0.06580599397420883, -0.015794500708580017, -0.04362815245985985], [0.03078041970729828, -0.026419244706630707, 0.049390293657779694, -0.07378978282213211, -0.017894811928272247, 0.007280752062797546, -0.021237581968307495, 0.0341792032122612, -0.02276555448770523, 0.01690199226140976, -0.048922136425971985, 0.049425624310970306, -0.1555699110031128, -0.28912055492401123, -0.2113608568906784, 2.7742719339585165e-06, 0.07428417354822159, 0.03942994028329849, -0.08493029326200485, 0.0574941411614418, -0.06281431764364243, 0.04539962857961655, -0.014004126191139221, 0.026014789938926697, 0.028756313025951385, -0.007884003221988678, 0.02208036184310913, -0.05319977179169655, -0.06846021115779877, -0.07555845379829407, -0.02401784434914589, -0.026569675654172897, 0.15694499015808105, -0.21136339008808136, -0.6367254257202148, -0.5683230757713318, -0.5585356950759888, -0.655056357383728, -0.7737067937850952, -1.8672873973846436, -2.130441188812256, -1.8491806983947754, -0.125109001994133, -0.5442813038825989, -0.6695135831832886, -1.0843662023544312, -1.3722435235977173, -0.19862015545368195, 0.21864789724349976, 0.35568392276763916, -0.10225163400173187, -0.2385653555393219, -0.0826544314622879, -0.03778897225856781, 0.07793740183115005, 7.495284080505371e-06, 0.03295765817165375, -0.08564858138561249, -0.04221777617931366, -0.10634975135326385, -0.48163729906082153, -0.18090781569480896, -0.17590653896331787, -0.4264858663082123, -0.0636368840932846, 0.07507915049791336, 0.19629517197608948, -0.236568883061409, -0.23333987593650818, -0.25634104013442993, -0.03257213532924652, -0.10905417054891586, -0.6797046661376953, -1.1154437065124512, -1.6320710182189941, -1.0493494272232056, -0.058350712060928345, -0.412486732006073, -0.2623732089996338, -0.6623196005821228, 0.046588391065597534, -0.08756553381681442, -0.04473091661930084, 0.07368289679288864, -0.03833378478884697, 0.05906877666711807, 0.24445733428001404, -0.15172827243804932, -0.4281582534313202, 0.3241744041442871, -0.02051651105284691, -0.06440632790327072, 0.31745684146881104, 0.2965357005596161, 0.26724475622177124, 0.2630634903907776, 0.004832826554775238, -0.35882657766342163, -0.03954498469829559, 0.006807153578847647, -0.1206832155585289, -0.10839635878801346, -0.981249213218689, -1.4665769338607788, -1.00460684299469, -1.0240908861160278, -0.7544859051704407, -0.917919933795929, -1.0693703889846802, -0.1363614946603775, 0.010801449418067932, 0.07166305929422379, 0.0788319930434227, 0.0444965735077858, -0.057816583663225174, 0.31492379307746887, 0.11453993618488312, -0.30163466930389404, 0.2666955888271332, 0.21328295767307281, -0.06329964101314545, -0.03271972015500069, -0.09923706203699112, 0.07524050027132034, 0.36129099130630493, 0.4591250419616699, 0.3800904452800751, 0.13531596958637238, -0.16112159192562103, -0.19974267482757568, -0.2030859887599945, -0.4190104901790619, -0.7880581617355347, -1.055630087852478, -1.2592719793319702, -0.8615890741348267, -0.2743001878261566, 0.12560071051120758, -0.10079928487539291, -0.02095051296055317, 0.03670336306095123, 0.0644732341170311, 0.006911615841090679, -0.4751792848110199, 0.23596923053264618, -0.39783424139022827, 0.1573619246482849, 0.17139220237731934, -0.14638102054595947, -0.4842945635318756, -0.5248216986656189, -0.013655616901814938, -0.1149565801024437, -0.08585446327924728, -0.1864718645811081, 0.013440058566629887, -0.10553859174251556, -0.3640202581882477, -0.40533632040023804, -0.43855294585227966, -0.21517489850521088, -0.2879336476325989, -0.2383355051279068, -0.5791007280349731, -0.4671539068222046, -0.007828804664313793, -0.16432446241378784, 0.1513081043958664, -0.008880943059921265, -0.027055814862251282, -0.5354037880897522, -0.6292672157287598, -0.17980949580669403, 0.19689756631851196, 0.10969491302967072, 0.37095585465431213, 0.32275959849357605, -0.23817075788974762, -0.1462288200855255, -0.0786745473742485, -0.2731776237487793, -0.26524561643600464, -0.19745902717113495, -0.03135726600885391, -0.09326310455799103, -0.028672095388174057, -0.23943640291690826, -0.6362535357475281, -0.05742873623967171, -0.022926753386855125, -0.1848660409450531, -0.1374901533126831, -0.39480578899383545, -0.8174851536750793, -0.3700087070465088, -0.14971137046813965, 0.0084667494520545, -0.44866815209388733, -0.45359116792678833, 0.12692926824092865, 0.49789056181907654, 0.12338674813508987, 0.18420732021331787, -0.048695895820856094, 0.2222277969121933, 0.039638590067625046, 0.15679822862148285, -0.14491815865039825, -0.08987321704626083, -0.03533979877829552, -0.3371562659740448, -0.12424510717391968, -0.6242467761039734, -0.6940701007843018, -0.5471954941749573, -0.37520262598991394, -0.42371609807014465, -0.3377619981765747, -0.46784940361976624, -0.4512137472629547, -0.6385083198547363, -0.46440160274505615, -1.603041648864746, -0.6109570264816284, -0.2249358892440796, 0.177332803606987, -0.3592536151409149, 0.4885576665401459, 0.2996433675289154, 0.10779673606157303, 0.00194286007899791, -0.0004552003229036927, 0.08391845971345901, 0.41896796226501465, 0.11995797604322433, -0.12659898400306702, -0.04345834627747536, -0.04158281162381172, -0.13284417986869812, 0.21213319897651672, -0.4191398024559021, -0.737637996673584, -0.3311874568462372, 0.014961695298552513, -0.206683948636055, -0.22909754514694214, -0.29023277759552, -0.4641738831996918, -0.5773420333862305, -0.09547149389982224, -1.2629008293151855, -0.41832593083381653, -0.016109688207507133, 0.37520143389701843, 0.08749490976333618, 0.8289632201194763, 0.39353564381599426, 0.36346206068992615, 0.248040109872818, 0.4693070352077484, -0.02146942727267742, 0.11467422544956207, 0.11185824126005173, -0.03731568530201912, 0.027532946318387985, 0.15159685909748077, 0.6230175495147705, 0.9788131713867188, 0.9591363668441772, 0.8750780820846558, 0.5726934671401978, 0.3541061282157898, 0.7020379900932312, 0.10388550162315369, 0.36412808299064636, 0.5190296769142151, -0.03287443891167641, -0.41736412048339844, -0.7743678092956543, -0.7114053964614868, -0.05369247496128082, 0.3695771396160126, -0.2086283266544342, 0.8345298767089844, -0.08067529648542404, 0.23570853471755981, 0.6534773111343384, 0.4615511894226074, -0.05544208735227585, -0.14534054696559906, 0.11109047383069992, -0.03152303397655487, 0.15654167532920837, 0.288525253534317, 1.306533932685852, 1.5273600816726685, 1.4178458452224731, 1.480899453163147, 2.2393321990966797, 2.540240526199341, 2.5393593311309814, 1.5911544561386108, 1.3152779340744019, 2.2750401496887207, 1.1664706468582153, 1.0703247785568237, -0.3920677900314331, -0.34050944447517395, 0.02280357852578163, 0.5170634388923645, 0.5929572582244873, 0.24470171332359314, -0.5449358224868774, 0.1222066581249237, 0.2342292070388794, 0.11957851052284241, 0.03805038705468178, 0.017620310187339783, -0.30134838819503784, -0.15036346018314362, 0.06452962011098862, 0.33879777789115906, 0.9070823788642883, 0.468938946723938, 0.142939954996109, 0.23472851514816284, 0.6493048071861267, 1.0109407901763916, 2.2261364459991455, 2.188042163848877, 2.213900327682495, 2.4848875999450684, 1.475899338722229, 0.9822712540626526, 0.11312811821699142, 0.19250552356243134, 0.05566515773534775, -0.05268583446741104, 0.17671340703964233, -0.8054133057594299, -0.4483059048652649, -0.1166239082813263, -0.021801119670271873, -0.01888517662882805, -0.23837585747241974, -0.40269970893859863, -0.5172684192657471, -0.42112311720848083, -0.24709902703762054, 0.18165019154548645, 0.4293910562992096, 0.4465748965740204, 0.19636964797973633, 0.05056130513548851, 0.09545127302408218, 0.37257516384124756, 0.4048524796962738, 1.432338833808899, 1.6491049528121948, 1.2977350950241089, 1.2637672424316406, 0.7686247229576111, 0.4226953983306885, 0.30146774649620056, -0.09855877608060837, -0.31723320484161377, 0.07907827198505402, -1.2781544923782349, -0.6037319302558899, -0.7507389783859253, -0.5670226216316223, -0.3958345055580139, 0.1413550227880478, -0.014432949014008045, -0.15548056364059448, 0.17308498919010162, -0.02239895612001419, 0.07739190757274628, 0.5825376510620117, 0.44850629568099976, 0.4333181381225586, 0.0886603444814682, 0.15955893695354462, -0.23877418041229248, -0.01800386980175972, -0.052978336811065674, 0.2083081752061844, 0.19016963243484497, 0.5928415656089783, 0.35309675335884094, -0.6140584945678711, -0.025254102423787117, -0.4752635061740875, -0.10474016517400742, 0.4185951054096222, -0.4158988893032074, -0.4573863744735718, -0.5973666310310364, -0.42174234986305237, -0.562012791633606, -0.1675025075674057, -0.11047643423080444, -0.41016605496406555, 0.030174385756254196, 0.4348810017108917, 0.8423988223075867, 0.6891006231307983, 0.34572601318359375, 0.30619561672210693, 0.11225384473800659, -0.019302647560834885, -0.3148225247859955, -0.3165069818496704, -0.39353638887405396, -0.4569879472255707, -0.21175719797611237, 0.11419084668159485, -0.18593384325504303, -0.2675458490848541, -0.44633394479751587, -0.446877121925354, 0.22006124258041382, -0.32004642486572266, 0.04171048104763031, -0.4642309248447418, -0.1583765149116516, -0.33341583609580994, -0.4962080419063568, -0.3280264437198639, -0.5416597127914429, -0.41143423318862915, -0.07272858172655106, 0.524517297744751, 0.837433934211731, 0.8939120173454285, 0.4113428592681885, -0.028475452214479446, -0.33498838543891907, -0.25618162751197815, -0.4126770496368408, -0.40546825528144836, -0.6066497564315796, 0.13283048570156097, 0.16034841537475586, 0.0306840967386961, -0.30867648124694824, -0.012928850017488003, 0.5771774053573608, 0.13810138404369354, 0.2564263343811035, 0.4357771575450897, -0.34271863102912903, 0.1800975352525711, -0.1767040342092514, 0.10632689297199249, -0.28307926654815674, -0.21723300218582153, -0.41817352175712585, 0.06954114139080048, 0.17154614627361298, 0.32619550824165344, 0.6037638783454895, 0.5202538371086121, 0.2723727524280548, 0.3435983955860138, -0.011160914786159992, -0.13035047054290771, -0.3216710686683655, -0.13453054428100586, -0.3474453389644623, -0.3035772740840912, 0.0497414655983448, -0.001815007533878088, -0.7844899892807007, -0.279336154460907, 0.2400369942188263, -0.003931969404220581, 0.23286159336566925, -0.04840664193034172, -0.5082618594169617, 0.04345408082008362, 0.05124597251415253, 0.1789712756872177, -0.3233812153339386, -0.18859730660915375, -0.28930675983428955, -0.10041092336177826, -0.17950856685638428, 0.3068181872367859, 1.0287292003631592, 0.644346296787262, 0.305797278881073, 0.43358054757118225, 0.1365327537059784, -0.2226860374212265, -0.5729283690452576, -0.14868229627609253, -0.05384329333901405, -0.40064746141433716, -0.22606422007083893, 0.15515032410621643, 0.07778873294591904, -0.06256378442049026, 0.01842467114329338, 0.44591718912124634, -0.1576334834098816, 0.0024598068557679653, -0.685632586479187, 0.1307700127363205, -0.08276592195034027, 0.2736946940422058, 0.10423289984464645, 0.332094669342041, 0.21466383337974548, 0.12847569584846497, 0.38238000869750977, 0.7657909989356995, 0.8761950731277466, 0.737829864025116, 0.5768295526504517, 0.017964385449886322, -0.2155587077140808, -0.145760178565979, -0.13921397924423218, -0.2911202907562256, -0.07707609236240387, -0.1869852989912033, 0.13149863481521606, 0.15663699805736542, 0.006700293626636267, 0.4132440984249115, 0.342098206281662, -0.014449210837483406, 0.08078973740339279, -0.1336163878440857, -0.4898301661014557, 0.1019333004951477, 0.22277069091796875, -0.12031576782464981, 0.2665196657180786, 0.18963435292243958, 0.22969390451908112, 0.4267050623893738, 0.16333279013633728, 0.3409681022167206, 0.6112445592880249, 0.4366247355937958, 0.13401204347610474, 0.14445944130420685, -0.03820294141769409, 0.04681050032377243, -0.08765926957130432, 0.04969969019293785, -0.04671548679471016, -0.05388253182172775, -0.11280094087123871, 0.1994263082742691, -0.6895671486854553, 0.1116868183016777, 0.07838579267263412, -0.07097584754228592, 0.4863852262496948, 0.1271628588438034, -0.05570012703537941, -0.14738832414150238, -0.07184743881225586, -0.023673873394727707, 0.017265409231185913, -0.014749541878700256, 0.024137388914823532, 0.29371628165245056, -0.39434903860092163, -0.12938129901885986, 0.004895965103060007, 0.17463639378547668, -0.15096090734004974, 0.33764585852622986, 0.28199654817581177, -0.09916532039642334, -0.04575107619166374, 0.11976661533117294, -0.006132389884442091, -0.3261255919933319, -0.04377668723464012, 0.1887906938791275, -0.23156122863292694, 0.0378081239759922, -0.1967964917421341, 0.06655596196651459, 0.28422656655311584, 1.1493239402770996, -0.20167265832424164, -0.7021912932395935, 0.0504312701523304, 0.46493983268737793, -0.009921184740960598, 0.32067540287971497, -0.0430971123278141, -0.08634597063064575, -0.29422423243522644, -0.3623548448085785, -0.16633673012256622, -0.3167087435722351, -0.07731202989816666, 0.37864577770233154, 0.03291388601064682, -0.05755789950489998, 0.2273547351360321, 0.006759066600352526, 0.11499760299921036, -0.22297385334968567, -0.2799452543258667, 0.035524290055036545, -0.9726884365081787, -0.47758951783180237, -0.19355835020542145, -0.008910570293664932, 0.24690265953540802, 0.8616130352020264, 0.16600920259952545, -0.20779570937156677, 0.102110855281353, 0.27232271432876587, 0.23589451611042023, 0.19360800087451935, -0.10619045794010162, -0.025128992274403572, -0.2852340638637543, 0.05329921469092369, -0.05284475162625313, 0.11225014179944992, -0.368583619594574, -0.14262129366397858, -0.10762622952461243, 0.31597962975502014, 0.24539226293563843, -0.08642039448022842, -0.31760409474372864, 0.20584264397621155, -1.0782372951507568, 0.10050367563962936, -0.06800813972949982, -0.6374592185020447, -0.13952764868736267, -0.08443591743707657, -0.00035665929317474365, 0.1748434603214264, -0.03129556030035019, -0.4692785143852234, -0.25528842210769653, 0.0588456466794014, 0.01756049506366253, 0.07593509554862976, -0.2415938377380371, -0.2192632555961609, 0.024680418893694878, 0.1694733053445816, 0.086827352643013, 0.13644146919250488, 0.029269663617014885, -0.02815759740769863, 0.03776704519987106, 0.23505298793315887, 0.23079708218574524, 0.20231977105140686, -0.22406283020973206, 0.14979329705238342, -0.914343535900116, -0.27156907320022583, 0.020199107006192207, -0.6511475443840027, 0.042111195623874664, 0.08424005657434464, -0.02820756658911705, 0.24585406482219696, 0.1700444221496582, -0.5432916879653931, -0.28619858622550964, -0.27088677883148193, -0.23783446848392487, -0.3640929162502289, -0.5615820288658142, -0.06679998338222504, -0.15543226897716522, -0.13179276883602142, 0.12636083364486694, 0.1101464033126831, 0.041709791868925095, -0.15481092035770416, -0.6934308409690857, -0.8365746736526489, -0.14034447073936462, -0.004724431317299604, 0.08148209005594254, 0.0502798855304718, 0.07276038825511932, -0.3942524194717407, -0.5860862135887146, 0.3212949335575104, 0.028552554547786713, 0.038457006216049194, -0.07731838524341583, 0.0369618758559227, -0.37643933296203613, 0.12464035302400589, -0.20939011871814728, -0.4271470904350281, 0.004360899794846773, 0.05879616737365723, -0.037684258073568344, -0.02341374196112156, -0.5819799304008484, -0.5853686928749084, -0.30875012278556824, 0.09322241693735123, -0.1510576605796814, -0.35436028242111206, -0.35049721598625183, -0.6039169430732727, -0.4322837293148041, -0.03129870817065239, -0.05375462397933006, -0.48486632108688354, -0.8569775223731995, -0.5813241004943848, -0.06674621254205704, 0.04716586321592331, 0.02056077867746353, 0.0057684630155563354, 0.038623012602329254, 0.004023633897304535, 0.03818051517009735, 0.44294264912605286, 0.2389618456363678, 0.5692179799079895, 0.06873153150081635, 0.08842457830905914, 0.3414369225502014, -0.12248319387435913, 0.05393996834754944, -0.055819131433963776, 0.0698181688785553, -0.039057839661836624, -0.5267391800880432, -0.31053900718688965, 0.2731790542602539, -0.03566083312034607, -0.663744330406189, -0.22492125630378723, -0.12837892770767212, -0.5913592576980591, 0.5046955347061157, 0.20577284693717957, 0.10969803482294083, -0.02315356582403183, 0.03670843690633774, -0.04353450611233711, 0.0026076287031173706, 0.061903201043605804, 0.015440113842487335, 0.021416742354631424, 0.03489574044942856, 0.14923840761184692, 0.22056378424167633, 0.20794236660003662, 0.45865145325660706, 0.45039644837379456, 0.5337910056114197, 0.4504507780075073, 0.5595561265945435, 1.1031005382537842, 1.0423288345336914, 1.0195282697677612, 0.7533136606216431, 0.9326116442680359, 0.7532683610916138, 0.1643097698688507, -0.19437968730926514, -0.11996240168809891, 0.10549735277891159, 0.05022447556257248, -0.07614332437515259, -0.06619124114513397, -0.0681578516960144], [0.08017254620790482, -0.07353076338768005, -0.04742138460278511, 0.020095698535442352, -0.008997596800327301, 0.07936448603868484, 0.01784546673297882, 0.07719681411981583, 0.0741950199007988, -0.018900655210018158, 0.07148166745901108, 0.08470343798398972, -0.12032361328601837, -0.023852046579122543, 0.27726373076438904, 0.1397249847650528, 0.031241118907928467, 0.05550026148557663, -0.07280625402927399, 0.08161749690771103, -0.0398855023086071, -0.0850740298628807, -0.035459645092487335, -0.05987668037414551, 0.052589766681194305, 0.022461682558059692, -0.0531281903386116, 0.02332950383424759, -0.07685795426368713, -0.023997213691473007, -0.03884070739150047, -0.04028870537877083, -0.11581885069608688, -0.16008536517620087, -0.21357861161231995, -0.44110655784606934, -0.4935285747051239, -1.2778805494308472, -0.9829857349395752, -1.1491817235946655, -0.2658095359802246, -0.8984564542770386, -0.28707024455070496, 0.1578037291765213, 0.30462658405303955, -0.1857491284608841, -0.5344849228858948, -0.6315402984619141, -0.7011882066726685, -0.22880247235298157, 0.2540926933288574, 0.40786007046699524, -0.08384980261325836, -0.0402507558465004, 0.07719845324754715, -0.02062182128429413, -0.07538129389286041, 0.04098188132047653, 0.07365945726633072, -0.2434360831975937, -0.34620827436447144, -0.20546764135360718, 0.14812275767326355, -0.7709035277366638, 0.419735312461853, 0.8787508606910706, 0.6322593092918396, 0.3039032220840454, 0.6455342769622803, 0.6510263681411743, 0.3077831268310547, -0.4176720976829529, -0.13781647384166718, -0.42567506432533264, -0.09870503842830658, -0.28665614128112793, -0.17378048598766327, -0.11317769438028336, -0.4149901568889618, 0.4306029677391052, 0.4285203814506531, 0.5858545303344727, -0.05927734076976776, -0.0442294180393219, 0.03190168738365173, 0.04068491607904434, 0.23430858552455902, -0.09481341391801834, 0.09309400618076324, -0.1944359838962555, -1.0760021209716797, -0.1387866735458374, 0.7472684979438782, 0.41798821091651917, 0.2783416509628296, 0.39130428433418274, 0.2746931314468384, 0.5030576586723328, 0.3497249186038971, 0.09146349132061005, 0.25767993927001953, -0.023901531472802162, -0.22241120040416718, -0.3785533905029297, 0.052085693925619125, -0.14972396194934845, -0.40935030579566956, -0.37452009320259094, 0.013638284988701344, 0.08318974077701569, 0.39341700077056885, 0.022495374083518982, -0.03313269093632698, 0.26052936911582947, 0.48534756898880005, 0.9523252248764038, 0.05919738858938217, 0.16320709884166718, -0.002466269303113222, 0.10173787921667099, 0.24342620372772217, 0.1340225487947464, 0.27594196796417236, 0.3197423815727234, -0.15246699750423431, -0.4690265357494354, -0.11813720315694809, 0.19059187173843384, 0.2074301838874817, -0.25742727518081665, -0.2116316854953766, -0.025226391851902008, -0.40674737095832825, -0.04849722608923912, 0.05175088718533516, -0.4277573227882385, 0.040814295411109924, -0.5152940154075623, -0.44537845253944397, -0.5526555776596069, -0.013940244913101196, 0.012248493731021881, -0.24791909754276276, 0.07527327537536621, 0.09662342816591263, -0.10981516540050507, 0.221117302775383, -0.10056957602500916, -0.19535160064697266, 0.05432597175240517, 0.3095044493675232, -0.1903504878282547, -0.32428592443466187, -0.26353636384010315, -0.145746111869812, 0.17122803628444672, 0.47548362612724304, 0.12940306961536407, -0.08629399538040161, -0.2408931702375412, -0.13559675216674805, 0.17064133286476135, -0.39771637320518494, 0.21491873264312744, -0.10605114698410034, -0.6555784940719604, -0.55372554063797, -0.49598217010498047, 0.07711408287286758, 0.40475451946258545, 0.34633997082710266, -0.7266635298728943, -0.5389941334724426, 0.3583325445652008, 0.15321452915668488, -0.15630723536014557, -0.4119090735912323, -0.0222247913479805, 0.13192428648471832, 0.06631654500961304, -0.19653025269508362, -0.05862058326601982, 0.04814605042338371, 0.17337431013584137, 0.36517998576164246, 0.026975532993674278, -0.07237592339515686, -0.13515079021453857, -0.20346038043498993, -0.304299533367157, -0.2486807256937027, -0.16185986995697021, -0.49424993991851807, -1.2883362770080566, -0.6073800325393677, -0.5127995014190674, -0.10293909162282944, 0.9673254489898682, 0.2753887474536896, -0.8149536848068237, -0.462863951921463, -0.039277687668800354, -0.007969727739691734, -0.0223624799400568, 0.21407096087932587, 0.2862725257873535, 0.08056040853261948, 0.1158151775598526, 0.199294775724411, 0.3196708559989929, 0.293024480342865, 0.050521448254585266, 0.07000864297151566, 0.2142302691936493, -0.13422611355781555, 0.2910911440849304, 0.34040963649749756, 0.14526189863681793, -0.0808713361620903, 0.29689013957977295, -0.09591339528560638, -0.7895423173904419, -0.06011372059583664, -0.37930360436439514, -0.4977511763572693, 0.023029740899801254, -0.09848383069038391, -0.20338153839111328, 0.41213634610176086, 0.22392310202121735, 0.052953556180000305, -0.08684113621711731, 0.3957778513431549, 0.27254819869995117, 0.42036160826683044, 0.5088622570037842, 0.6143984198570251, 0.3230172097682953, 0.3346201181411743, 0.18434728682041168, -0.192331925034523, 0.06009383872151375, 0.14750002324581146, 0.014861920848488808, 0.17709530889987946, -0.0488082692027092, -0.06931928545236588, 0.3075248897075653, -0.35576993227005005, -0.6495952606201172, -0.4958953261375427, 0.07126574963331223, 0.1338444948196411, 0.12146036326885223, 0.5828697085380554, 0.19796635210514069, 0.6526569128036499, 0.4511915445327759, 0.5685259699821472, 0.18564927577972412, 0.5792288184165955, 0.5678035020828247, 0.45417895913124084, 0.6283600330352783, 0.5188196897506714, -0.056686438620090485, 0.0014337754109874368, 0.19645072519779205, 0.1615326702594757, 0.20540751516819, 0.2031257450580597, -0.10679253190755844, 0.07210846245288849, -0.05273384228348732, -0.07755473256111145, 0.47072499990463257, -0.28077828884124756, -0.475921094417572, -0.26572221517562866, 0.472295880317688, 0.24354581534862518, 0.025509988889098167, 0.22418628633022308, -0.22188682854175568, 0.4188199043273926, 0.24006791412830353, 0.615554928779602, 0.14189693331718445, 0.318265825510025, 0.26615220308303833, -0.1428465098142624, -0.47097858786582947, -0.8814845085144043, -1.1616772413253784, -0.6510844826698303, -0.1942806988954544, 0.2960706353187561, 0.18179810047149658, 0.14117977023124695, -0.18019643425941467, 0.04187047854065895, -0.05254621431231499, 0.07026565074920654, 0.15612560510635376, -0.5633099675178528, 0.5876827836036682, 0.21150580048561096, 0.6272625923156738, 0.07254261523485184, -0.11875545233488083, -0.580788791179657, -0.7736530303955078, -0.5081707835197449, -0.7109566330909729, -0.4605688750743866, -0.37359023094177246, -1.0047630071640015, -1.8185081481933594, -2.1247899532318115, -1.8675569295883179, -1.8763165473937988, -1.5238925218582153, -0.8140758275985718, -0.23965813219547272, -0.11741716414690018, -0.0689149796962738, -0.030849624425172806, -0.1796584129333496, 0.05897781252861023, 0.029667405411601067, 0.057697538286447525, 0.08482278138399124, -0.25095826387405396, 0.0686429962515831, -0.4717841148376465, 0.2591116726398468, 0.0475565530359745, -0.18077251315116882, -0.5905190110206604, -1.2892895936965942, -1.702231764793396, -1.9655330181121826, -2.2917885780334473, -2.5353219509124756, -3.2809104919433594, -3.275581121444702, -1.7911860942840576, -1.7280293703079224, -0.9517607092857361, -0.37173300981521606, -0.05050284415483475, -0.023215509951114655, -0.048606641590595245, -0.21900178492069244, 0.1279105544090271, 0.07108773291110992, -0.1063290610909462, 0.08553703129291534, -0.06997690349817276, -0.5161668062210083, -0.29851382970809937, 0.9600556492805481, -0.23693478107452393, 0.08540232479572296, -0.29136818647384644, -0.42382344603538513, -0.4092909097671509, -1.5795377492904663, -2.7226738929748535, -2.747868061065674, -2.318753480911255, -2.1586270332336426, -1.1062188148498535, -0.5639769434928894, -0.17830777168273926, -0.21979381144046783, 0.05461455136537552, 0.4215637147426605, 0.11725486814975739, -0.3044944107532501, -0.12280091643333435, -0.15732626616954803, -0.054963283240795135, 0.012248682789504528, -0.26143544912338257, 0.12272856384515762, -0.3631075918674469, -0.025837581604719162, 0.0733177587389946, 0.37938523292541504, 0.692349374294281, 0.3528463542461395, -0.1517808884382248, -0.395846426486969, -0.48431864380836487, -1.2722442150115967, -0.5868993401527405, -0.8528175950050354, -0.5519229173660278, -6.740735261701047e-05, 0.1897328644990921, 0.5018196105957031, 0.2989177107810974, 0.3848625421524048, 0.44994881749153137, 0.21544545888900757, 0.3931111693382263, -0.012466887012124062, -0.21146294474601746, -0.08775859326124191, 0.10874101519584656, 0.2582066059112549, 0.14285172522068024, 0.5254952907562256, 0.06021425873041153, -0.48268041014671326, -0.038731303066015244, 0.008692402392625809, 0.7055692672729492, 0.280517041683197, -0.11231409758329391, 0.03443827107548714, -0.17157748341560364, -0.36355146765708923, 0.4443301558494568, 0.586441695690155, 0.419060081243515, 0.4851413667201996, 0.5087027549743652, 0.2530488669872284, 0.35650137066841125, 0.35000190138816833, 0.06086084619164467, 0.08032071590423584, -0.04910517483949661, 0.00663774972781539, -0.12619537115097046, 0.014857896603643894, 0.14295996725559235, 0.05917247757315636, -0.10281535238027573, 0.1015675961971283, -0.4371378421783447, -0.033058151602745056, 0.3221553564071655, 0.3981412947177887, 1.0001753568649292, 0.590395987033844, 0.13361352682113647, 0.8647271990776062, 0.39465057849884033, 0.3650375008583069, 0.21598054468631744, 0.4358401894569397, 0.6583640575408936, 0.3971918225288391, 0.252933531999588, 0.11225705593824387, 0.030869510024785995, -0.008605255745351315, 0.2674504220485687, 0.29344967007637024, 0.03636880964040756, -0.022886259481310844, 0.07209823280572891, 0.08187203854322433, -0.05702212452888489, 0.2821260690689087, 0.06549059599637985, 0.02481517195701599, 0.2744866907596588, 0.43367165327072144, 0.5847427845001221, 0.976222038269043, 1.2379186153411865, 0.6901094317436218, 0.03072597086429596, 0.4619186520576477, 0.31535881757736206, 0.04357047379016876, 0.32946139574050903, 0.40200722217559814, 0.3245883584022522, 0.1621890664100647, 0.28345873951911926, 0.38739219307899475, -0.04861479997634888, -0.1070731058716774, 0.07474176585674286, 0.09885814785957336, 0.023681046441197395, 0.04294774308800697, -0.01952320523560047, 0.2644202709197998, 0.17605409026145935, -0.007126744370907545, -0.05481234937906265, -0.16112883388996124, 0.23252259194850922, -0.179677352309227, -0.36122384667396545, 0.2764114737510681, 0.6158912181854248, 0.6318358182907104, 0.3694249093532562, 0.5010907649993896, 0.058829523622989655, 0.3649703860282898, -0.03722773492336273, 0.3188796937465668, 0.0842677652835846, -0.24929217994213104, 0.011857219971716404, 0.03873731568455696, 0.03636123612523079, -0.17932014167308807, 0.05952766165137291, -0.1688094139099121, -0.30120283365249634, -0.16716733574867249, 0.1395065188407898, 0.2253054827451706, 0.30100828409194946, 0.09247493743896484, 0.27830180525779724, -0.3749271333217621, -0.08422369509935379, -0.3709467351436615, 0.4711454212665558, 0.25217708945274353, -0.4129667580127716, 0.5178340077400208, -0.4037025570869446, -0.4341745972633362, -0.12895898520946503, 0.04872355982661247, 0.38423874974250793, -0.05165387690067291, -0.08575849235057831, 0.2667403519153595, -0.0838622897863388, 0.034797076135873795, -0.15187908709049225, -0.2918171286582947, -0.21362122893333435, -0.15522097051143646, 0.010144718922674656, -0.037805844098329544, 0.0454317070543766, 0.02233247458934784, 0.07250995188951492, 0.4103963077068329, 0.09997481107711792, -0.3319966495037079, 0.16408540308475494, -0.23107150197029114, 0.09444206953048706, 0.8518872857093811, 0.21468782424926758, -0.3705448806285858, -0.08138961344957352, -0.34161117672920227, -0.32033857703208923, 0.16762763261795044, 0.3468385338783264, -0.1510876715183258, 0.11054643243551254, 0.1557202786207199, 0.07242527604103088, 0.04671436548233032, -0.21373973786830902, -0.13647107779979706, -0.1990382820367813, -0.25965648889541626, 0.008391045965254307, -0.20616397261619568, -0.3043743371963501, -0.3849889934062958, 0.2595705986022949, 0.1853768229484558, -0.028828587383031845, -0.11250411719083786, 0.018224427476525307, -0.05589227378368378, -0.004412797745317221, -0.023960072547197342, 0.5659486651420593, -0.3678634762763977, -0.3763701021671295, 0.8995664715766907, 0.47787079215049744, 0.17911025881767273, -0.14717762172222137, -0.028620466589927673, 0.10443590581417084, -0.09408228099346161, -0.04982763156294823, -0.07045990228652954, -0.02948843128979206, -0.24239175021648407, -0.06108254939317703, -0.09706471115350723, 0.015375740826129913, -0.08740837126970291, -0.3190872371196747, -0.32756873965263367, -0.02315097115933895, -0.09280894696712494, -0.16001997888088226, -0.15890319645404816, 0.3095236122608185, -0.06274603307247162, 0.5293906331062317, 0.6569041609764099, 0.3547022342681885, 0.3865025043487549, -0.3197883069515228, -0.21821334958076477, 0.5136310458183289, -0.38121235370635986, 0.2647654712200165, 0.1519869863986969, 0.2626015245914459, -0.06157396733760834, -0.07600006461143494, -0.010362200438976288, 0.23667854070663452, -0.013278258964419365, -0.18801841139793396, -0.399484246969223, -0.21040265262126923, 0.01768087036907673, 0.20081187784671783, 0.1195368841290474, -0.17123182117938995, -0.02821625955402851, -0.0781685933470726, 0.40311747789382935, 0.0654369369149208, -0.5584267377853394, -0.1647648811340332, 0.4197717607021332, 0.18670129776000977, 0.46707168221473694, 0.07601950317621231, 0.04887121170759201, 0.5011024475097656, -0.7397186756134033, 0.04000066593289375, 0.2960093319416046, 0.11756645888090134, 0.1156557947397232, -0.10408905893564224, 0.1264072209596634, -0.13127361238002777, 0.02209000289440155, -0.19336101412773132, -0.15591184794902802, -0.17636282742023468, -0.05847551301121712, -0.051553916186094284, -0.34995797276496887, -0.6892558336257935, -0.16951988637447357, -0.3221874237060547, -0.15491707623004913, -0.1518528014421463, -0.7451667189598083, -0.3411388695240021, 0.15515656769275665, 0.2954826056957245, -0.06412690877914429, 0.061946116387844086, -0.06296742707490921, -0.0635133907198906, 0.3584875464439392, -0.10275937616825104, -0.3263457715511322, 0.002953619696199894, 0.09782656282186508, -0.10589291155338287, -0.07749742269515991, -0.08331385254859924, 0.07252349704504013, -0.2255500704050064, -0.27636685967445374, -0.4000660181045532, -0.40048518776893616, -0.6751426458358765, -0.6917895078659058, -1.0411901473999023, -0.7149869799613953, -0.3478105664253235, -0.5438951849937439, -0.6139099597930908, -0.9333345293998718, -0.7526447772979736, -0.22372861206531525, 0.033183541148900986, 0.05304525047540665, 0.018334969878196716, -0.035650357604026794, -0.3662415146827698, 0.05592028796672821, 0.3719882369041443, -0.29074686765670776, -0.2922680675983429, -0.050091709941625595, -0.01476144790649414, 0.35421842336654663, 0.08018016070127487, 0.1981934905052185, 0.40479061007499695, -0.4072065055370331, -0.49666711688041687, -0.12680575251579285, -0.5645721554756165, -0.8853175044059753, 0.04878280311822891, -0.024435797706246376, -0.024292128160595894, -1.0903984308242798, -1.0083287954330444, -0.935016930103302, -0.3976835608482361, -0.1701955497264862, 0.21575166285037994, 0.00435347855091095, -0.052267804741859436, 0.01811152696609497, 0.00930555909872055, -0.30381786823272705, -0.6051787734031677, -0.5769628286361694, -0.32056760787963867, -0.28410372138023376, 0.2401770055294037, -0.07705613970756531, 0.20663385093212128, 0.3346116840839386, 0.16551907360553741, 0.37625864148139954, 0.6468362212181091, 0.409658819437027, 0.06898549199104309, -0.09997478127479553, 0.12089327722787857, -0.03080929070711136, -0.35443583130836487, -1.1226139068603516, -0.6328923106193542, -0.47641652822494507, -0.05067677050828934, 0.4310325086116791, -0.025535911321640015, 0.08466828614473343, 0.05046594887971878, -0.08247438818216324, -0.018672503530979156, -0.0176074281334877, 0.3052017092704773, 0.3887268900871277, 0.060683850198984146, 0.1315925270318985, 0.19382058084011078, 0.3955802321434021, 0.8286495208740234, 0.761898398399353, 0.5202802419662476, 0.3804781138896942, 0.5899581909179688, 1.066133975982666, 1.7828313112258911, 1.0822398662567139, 0.5120501518249512, -0.6962581872940063, -0.6646972298622131, -0.8736860156059265, -0.5053352117538452, 0.1434359848499298, -0.00015524029731750488, 0.016624532639980316, -0.052677642554044724, 0.07399701327085495], [-0.07638132572174072, 0.08362037688493729, 0.06403616815805435, -0.08447849750518799, 0.07116226106882095, 0.0809376910328865, 0.04395177215337753, 0.0016143545508384705, 0.04394254833459854, 0.028218865394592285, -0.03305928781628609, 0.06049754470586777, 0.07911109924316406, -0.04488672316074371, -0.05365721136331558, 0.09316360950469971, -0.08333732932806015, -0.06686366349458694, -0.04893754795193672, 0.06015869230031967, -0.06403440982103348, -0.03558839485049248, 0.07405642420053482, 0.01396448165178299, -0.06305065751075745, 0.014148823916912079, 0.07144015282392502, -0.05162705481052399, 0.06775359064340591, -0.021030426025390625, 0.03327329456806183, -0.004055015742778778, -0.04685533419251442, 0.010142830200493336, 0.29222431778907776, 0.26197782158851624, 0.34406259655952454, 0.2836858332157135, 0.20793156325817108, 0.4968555271625519, 0.6932318806648254, 0.021606555208563805, -0.7110641598701477, -0.6467941403388977, -0.8336344361305237, -0.673915684223175, -0.08105126768350601, 0.18036817014217377, 0.2293589562177658, 0.2670880854129791, 0.3427484333515167, 0.16064579784870148, 0.0029078125953674316, -0.08413242548704147, 0.02059275656938553, 0.07238759845495224, -0.047294944524765015, 0.05333114415407181, 0.021864505484700203, 0.2778644561767578, 0.5035651922225952, 0.035542767494916916, 0.12816262245178223, -0.388598769903183, 0.7809258699417114, 0.6695283651351929, 0.73106449842453, 0.38898611068725586, -0.3349345326423645, -0.9927465915679932, -1.2511217594146729, -1.0929155349731445, -0.6050731539726257, 0.6695475578308105, 1.1741670370101929, 1.1418848037719727, 0.5980725288391113, 0.36979374289512634, 0.4392353296279907, 0.6026479005813599, -0.006853880360722542, 0.07701423019170761, 0.08335421234369278, -0.05024852603673935, -0.006331533193588257, 0.008578017354011536, -0.34370216727256775, -0.07314176857471466, 0.2650392949581146, -0.39214468002319336, -0.18022394180297852, -0.015297465026378632, 0.8873660564422607, 0.3716145157814026, 0.5118200182914734, 0.01890290156006813, -0.5264008641242981, -1.009536862373352, -1.3862899541854858, -1.1022316217422485, -0.7646876573562622, 0.4039578139781952, 0.7654331922531128, 0.417949914932251, -0.29652634263038635, -0.4496537446975708, -0.58980792760849, 0.22437654435634613, 1.0688672065734863, 0.45336198806762695, 0.5922163128852844, 0.04506634920835495, 0.022808559238910675, 0.005475026089698076, -0.24456378817558289, -0.2512766122817993, -0.09617148339748383, 0.3394934833049774, -0.38354119658470154, -0.00832343939691782, -0.336238831281662, -0.12586623430252075, -0.3485127091407776, 0.18619902431964874, 0.30734068155288696, -0.16437910497188568, -0.17038288712501526, -0.04972488060593605, 0.3777586817741394, 0.10076508671045303, 0.17298178374767303, -0.07390762865543365, -0.42005735635757446, -0.3497444689273834, -0.4434130787849426, -0.36087360978126526, -0.34576481580734253, 0.19940975308418274, 0.5197374820709229, -0.1493566781282425, 0.07746333628892899, -0.06302052736282349, 0.08080653101205826, -0.14482295513153076, -0.13923197984695435, 0.2823691666126251, 0.031492091715335846, 0.08306913822889328, -0.1363687813282013, 0.2641511857509613, 0.48271527886390686, 0.16436675190925598, 0.09685689210891724, 0.024558359757065773, 0.02968636341392994, -0.03695698827505112, 0.5947142243385315, 0.5057730674743652, 0.48713430762290955, 0.2955348491668701, 0.09231001883745193, 0.05076943337917328, -0.06221413612365723, 0.03731675073504448, -0.44060131907463074, -0.27912676334381104, 0.6926708221435547, 0.4892219007015228, 0.03719618171453476, 0.1759158968925476, 0.18722237646579742, -0.3065454065799713, 0.1905188262462616, -0.12002158910036087, -0.3883877992630005, -0.28213608264923096, -0.023746628314256668, 0.06587681174278259, -0.13188757002353668, -0.1717124730348587, 0.1288244128227234, 0.3275783956050873, 0.21831576526165009, 0.24549926817417145, -0.10391494631767273, -0.33017683029174805, 0.11275391280651093, 0.4250694811344147, 0.2579885423183441, -0.06909196078777313, 0.009926709346473217, 0.6453314423561096, 0.6737831830978394, 0.5902125239372253, 0.7987051606178284, 0.01755429059267044, -0.17229315638542175, 0.2586182653903961, -0.11209706217050552, -0.7273247241973877, 0.17304502427577972, 0.1745653599500656, -0.13748960196971893, -0.10354850441217422, 0.019806290045380592, -0.10746811330318451, 0.13241584599018097, 0.34167659282684326, 0.19078566133975983, 0.23836471140384674, 0.17604319751262665, 0.044737569987773895, -0.196309894323349, -0.4449542462825775, 0.014911528676748276, 0.017266495153307915, 0.13880352675914764, 0.19509588181972504, 0.579104483127594, 0.6855483651161194, 0.8251990675926208, 0.5841765403747559, 0.5258662104606628, 0.37506037950515747, 0.30714187026023865, -0.13869421184062958, 0.18206462264060974, 0.010436204262077808, 0.11330342292785645, 0.08718322217464447, 0.18553423881530762, -0.02648509107530117, 0.0009184377850033343, -0.040507782250642776, 0.15061502158641815, 0.44407954812049866, 0.30788761377334595, 0.021247340366244316, -0.24229548871517181, -0.30342066287994385, 0.04388337954878807, -0.16959260404109955, 0.12035369873046875, 0.155570849776268, 0.09296854585409164, 0.3155428171157837, 0.700289249420166, 0.5160763263702393, 1.0761131048202515, 0.33720627427101135, 0.5986184477806091, -0.15871010720729828, -0.08947274088859558, -1.3262157440185547, 0.3128754794597626, -0.39240390062332153, -0.09831076115369797, 0.2809521555900574, 0.12473180890083313, -0.06525707989931107, -0.0027758488431572914, -0.014682460576295853, 0.007596481591463089, 0.15586991608142853, -0.08069133758544922, -0.289074182510376, -0.5227550268173218, -0.7244163751602173, -0.33761200308799744, -0.10688288509845734, 0.04382312297821045, 0.42687833309173584, 0.1319020688533783, 0.14756102859973907, 0.3090902864933014, 0.36455652117729187, 0.533402144908905, 0.9190108180046082, 0.5530940294265747, -0.30324822664260864, 0.056451912969350815, -1.2926729917526245, 0.005676993168890476, -0.3761397898197174, 0.47115764021873474, 0.170172780752182, 0.22223953902721405, 0.13823392987251282, 0.1734272688627243, -0.13205070793628693, -0.41545286774635315, -0.24987906217575073, -0.22931423783302307, -0.04430205002427101, -0.3627939820289612, -0.5712569952011108, -0.3578638434410095, 0.12640710175037384, 0.23799842596054077, 0.5231192111968994, 0.5319958925247192, 0.1585596203804016, 0.2928439676761627, 0.6218917965888977, 0.8557348251342773, 0.6241025924682617, 0.5795713663101196, -0.4917667806148529, -0.30428457260131836, -0.9824294447898865, -0.02086692862212658, 0.050239257514476776, 0.5511392951011658, -0.025779347866773605, 0.4288156032562256, -0.06951092928647995, -0.07088014483451843, -0.3423027992248535, -0.4214250445365906, -0.4293822646141052, -0.30292582511901855, 0.11659559607505798, 0.08852038532495499, -0.5245847105979919, -0.3572511374950409, -0.23190909624099731, 0.2635493278503418, 0.5789923071861267, -0.06303709745407104, 0.09291709959506989, -0.26706719398498535, -0.29359880089759827, 0.1478266566991806, 0.46691715717315674, 0.37065404653549194, -0.32171329855918884, -0.21848298609256744, 0.1661449670791626, 0.33916786313056946, 0.17928194999694824, 0.03233833611011505, -0.100125752389431, -0.34256741404533386, -0.1154489815235138, -0.22034934163093567, -0.26297828555107117, -0.2444821298122406, -0.042981404811143875, 0.19149154424667358, 0.5624861121177673, 0.03805913031101227, -0.5554630160331726, -0.48954713344573975, -0.3375733494758606, -0.10687380284070969, -0.0957866981625557, -0.3470514118671417, -0.5652071237564087, -1.2604676485061646, -1.1483616828918457, -0.19124120473861694, 0.8350242376327515, 0.8638679385185242, -0.26214906573295593, 0.10464432835578918, 0.640303373336792, 0.34750494360923767, 0.20325197279453278, -0.23269201815128326, -0.4732731580734253, -0.8851641416549683, -0.3599488139152527, -0.16273120045661926, -0.28283730149269104, -0.10528688877820969, 0.3283459544181824, 0.4897785782814026, 0.6471021175384521, 0.024136370047926903, -0.2921386659145355, -0.5781212449073792, -0.3998865485191345, -0.009878203272819519, -0.1735047996044159, -0.4408859610557556, -0.4840332865715027, -1.4255363941192627, -0.9319375157356262, -0.826604425907135, 0.48837390542030334, 0.5592653155326843, 0.3925161361694336, 0.44118672609329224, 0.21780581772327423, -0.4415562152862549, -0.6121975779533386, -0.3414440155029297, -0.3189878463745117, -0.5638059377670288, -0.27283546328544617, -0.38443487882614136, -0.3044484257698059, 0.21320761740207672, 0.727239727973938, 0.7761542201042175, 0.2526509463787079, -0.029770230874419212, -0.44233566522598267, -0.7590824365615845, -0.41514647006988525, -0.17319940030574799, -0.3820893168449402, -0.3969934582710266, -0.31924548745155334, -1.2596826553344727, -0.6039581894874573, -0.8291226625442505, 0.010248416103422642, 0.48843619227409363, 0.516909122467041, 0.18748332560062408, 0.08933532238006592, 0.31669875979423523, -0.5541050434112549, 0.02708781324326992, 0.02279849350452423, -0.0295206718146801, 0.04992508515715599, -0.35608768463134766, -0.11250955611467361, 0.02968471124768257, 0.3467678129673004, 0.6731603741645813, 0.2958281636238098, -0.1438642293214798, -0.39368265867233276, -0.49143752455711365, -0.12098434567451477, -0.06888120621442795, 0.09638462960720062, -0.32712075114250183, -0.1360023021697998, -0.5665496587753296, -0.4845581352710724, -0.1661643534898758, 0.35014328360557556, 0.7311389446258545, 0.4167502224445343, -0.4072875678539276, -0.4121054708957672, -0.22701722383499146, 0.416012167930603, -0.17139992117881775, 0.3986676037311554, 0.04311602935194969, 0.06212259829044342, 0.40317150950431824, 0.3817529082298279, 0.16603919863700867, 0.5044965744018555, 0.6004224419593811, -0.04344095289707184, -0.5821533799171448, -0.34008142352104187, -0.5244219899177551, 0.2960451543331146, 0.16463881731033325, 0.1562940776348114, -0.3943884074687958, -0.029954824596643448, -0.08070962131023407, 0.6470159292221069, -0.007265668362379074, 0.6028754115104675, 0.5337231755256653, 0.2810281813144684, 0.057726867496967316, -0.6236640214920044, 0.24894088506698608, 0.6774007081985474, 0.20255111157894135, 0.6368359923362732, 0.17543207108974457, 0.13376450538635254, 0.2657682001590729, 0.3455307185649872, 0.4525955319404602, 0.4766717851161957, 0.017709316685795784, -0.6915605664253235, -0.7118919491767883, -0.4962671399116516, -0.0657758116722107, 0.24913541972637177, 0.47568055987358093, 0.3441985249519348, -0.043789543211460114, 0.27893561124801636, -0.0731944590806961, -0.10678723454475403, -0.5968241095542908, -0.4575227200984955, -0.4111410975456238, 0.38794174790382385, -0.6674185395240784, -0.35697048902511597, 0.31506606936454773, 0.8123804926872253, 1.0208032131195068, 0.8069015145301819, 0.5155205726623535, 0.5959814786911011, 0.35112059116363525, 0.03121550753712654, 0.094919852912426, -0.2943156957626343, -0.6681875586509705, -0.8986703157424927, -0.8816792964935303, -0.5036881566047668, 0.05297236517071724, 0.4660172164440155, 0.2569766342639923, 0.2862457036972046, 0.1323259174823761, 0.25618410110473633, 0.2749357223510742, -0.11647763848304749, 0.2697227895259857, -0.07860516011714935, -0.7758973836898804, 0.4913727343082428, -0.17325788736343384, 0.31422826647758484, 0.6554835438728333, 0.5477392673492432, 0.8202751874923706, 0.7995783090591431, 0.646781325340271, 0.23551759123802185, 0.5180038213729858, 0.10331272333860397, -0.0034453505650162697, -0.7133603692054749, -1.0593842267990112, -0.7826632857322693, -0.44603803753852844, -0.10757926851511002, 0.14014959335327148, 0.3079020380973816, 0.3407907783985138, 0.3363007605075836, 0.04818957671523094, 0.3204006254673004, 0.20980826020240784, 0.6758917570114136, 0.7769975066184998, 0.08544551581144333, -0.0016134314937517047, -0.20404572784900665, 0.005033813416957855, 0.3930436670780182, 0.5522488951683044, 0.7222554683685303, 0.9197363257408142, 0.6332981586456299, 0.4304782450199127, -0.0822412371635437, 0.19886039197444916, 0.32708266377449036, -0.4311164915561676, -0.5498648881912231, -0.6920556426048279, -0.23920561373233795, -0.6067215800285339, 0.10107474774122238, -0.05825546756386757, -0.13510790467262268, 0.11404714733362198, 0.19451284408569336, 0.40255072712898254, 0.5757578015327454, 0.687512218952179, 1.0548696517944336, 0.6074644923210144, 0.4234265983104706, -0.05328432098031044, -0.09151467680931091, -0.16595369577407837, 0.21342726051807404, -0.23400364816188812, 0.9176145792007446, 0.8731167316436768, 0.319124698638916, 0.3463440239429474, 0.2317328006029129, 0.006520414724946022, 0.170042023062706, -0.18178731203079224, -0.1739894449710846, -0.19414059817790985, -0.0459342822432518, -0.23615741729736328, -0.33956268429756165, -0.44802385568618774, -0.32180872559547424, -0.09521361440420151, -0.04608358070254326, 0.4927886128425598, 0.3705308437347412, 0.7340193390846252, 0.9542858004570007, 0.33476540446281433, 0.7126655578613281, 0.7153629064559937, 0.10724133998155594, -0.22079770267009735, -0.2395363450050354, -0.3000798523426056, 0.0953492522239685, 0.5608241558074951, 0.05305883660912514, 0.19496628642082214, 0.19671596586704254, 0.2213977575302124, -0.07830445468425751, 0.22180436551570892, 0.5064048171043396, 0.5713304877281189, 0.2267846167087555, -0.30256396532058716, -0.046502429991960526, -0.261296808719635, -0.18640658259391785, -0.4159400165081024, 0.03946023806929588, 0.06630174070596695, 0.6664579510688782, 0.557411789894104, 0.5935025811195374, 0.24183130264282227, 0.25042200088500977, 0.4607624411582947, 0.15310989320278168, -0.049949921667575836, -0.025304872542619705, 0.01975933462381363, 0.984961748123169, 0.22673983871936798, 0.18777704238891602, -0.15208321809768677, 0.48090171813964844, 0.6476424932479858, 0.04346507042646408, 0.5872600674629211, 0.8216673135757446, 0.6131107211112976, 0.6179810166358948, 0.435828298330307, 0.31756994128227234, 0.24216337502002716, 0.04000385105609894, -0.1718617081642151, 0.013711160980165005, -0.3852344751358032, 0.21375417709350586, 0.0811857134103775, 0.7046592831611633, 0.04450930282473564, 0.37212705612182617, -0.20055387914180756, -0.07921913266181946, -0.046751074492931366, -0.06019780784845352, -0.33409807085990906, 0.022144494578242302, -0.22859905660152435, -0.33188119530677795, -0.006485499907284975, 0.36252954602241516, 0.4019983410835266, 0.1848071813583374, 0.18211378157138824, 0.5884419083595276, 0.945463240146637, 0.6986027956008911, 0.3761833608150482, 0.49850985407829285, 0.884531557559967, 0.4394264817237854, 0.46178966760635376, 0.2988494038581848, -0.3077591061592102, -0.48797494173049927, -0.3811638653278351, -0.2373376041650772, -0.05896855518221855, 0.6172652840614319, -0.4303130805492401, 0.00855853408575058, -0.0035571157932281494, -0.0061180368065834045, -0.15346454083919525, -0.6415597200393677, -0.8508647084236145, 0.04292069748044014, 0.26140329241752625, 0.10341579467058182, 0.06366533041000366, 0.4685235917568207, 0.7137089371681213, 0.8470689654350281, 0.9639530777931213, 0.6908175349235535, 0.18877772986888885, 0.5545839071273804, 0.605847179889679, 0.39991825819015503, 0.5806167721748352, 0.7499246597290039, 0.5966074466705322, 0.08051059395074844, 0.19464917480945587, 0.8350171446800232, 0.21409083902835846, -0.1551516205072403, 0.17820774018764496, 0.05783125013113022, 0.02711356431245804, 0.03711428493261337, -0.02934541553258896, -0.32457178831100464, -0.7497779726982117, -1.0449063777923584, -1.819723129272461, -0.2675135135650635, -0.30659323930740356, -0.3831818103790283, 0.07761437445878983, 0.1286967396736145, 0.6453139185905457, 0.5283281207084656, -0.20179997384548187, -0.13749924302101135, 0.061838652938604355, 0.2039162665605545, 0.3511337339878082, 0.6483898758888245, 0.3959793448448181, -0.20165273547172546, 0.4668319523334503, -0.7022253274917603, -0.46089616417884827, -0.11823950707912445, -0.030996371060609818, -0.06679357588291168, -0.051372211426496506, 0.03606531023979187, -0.02878197655081749, -0.03532896935939789, -0.13114313781261444, -0.17937397956848145, -0.3957461714744568, -0.525606632232666, -0.8111051321029663, -1.9142388105392456, -0.2015668749809265, -0.0016610046150162816, -0.08754238486289978, -0.18230323493480682, -1.4584015607833862, -1.1792601346969604, -1.6557672023773193, -1.6062287092208862, -1.141916036605835, -0.8374552130699158, 0.38042783737182617, 0.4240760803222656, 0.08741588890552521, -0.360667884349823, -0.034209173172712326, -0.039103735238313675, -0.05168025195598602, 0.06155704706907272], [-0.044749993830919266, 0.07829514890909195, 0.042539082467556, 0.012261942028999329, 0.03219595551490784, 0.0803058072924614, 0.06135968118906021, 0.06058009713888168, -0.013455100357532501, -0.06880030035972595, 0.07573962956666946, -0.003723837435245514, 0.05841668322682381, 0.48588213324546814, 0.4714057743549347, 0.07680165767669678, 0.08147511631250381, -0.07944044470787048, -0.07557351887226105, -0.045392587780952454, 0.027277342975139618, 0.0024971142411231995, 0.032319240272045135, -0.02912309765815735, -0.06134132295846939, -0.021236225962638855, -0.006180569529533386, -0.07435281574726105, 0.035721488296985626, -0.020792946219444275, -0.08495250344276428, -0.06937004625797272, -0.06581541895866394, 0.05466180294752121, 0.31210795044898987, 0.360790878534317, 0.15953651070594788, 0.15607903897762299, 0.7152532935142517, 0.7028165459632874, 0.1573382467031479, 0.05082612857222557, -0.5702937245368958, -0.08005258440971375, 0.6352654695510864, 0.7626776099205017, 0.4325144290924072, 0.15627360343933105, 0.33358892798423767, 0.3400975167751312, 0.5057594776153564, 0.39547258615493774, 0.0027580559253692627, 0.051709674298763275, -0.03339572250843048, 0.007575802505016327, -0.0037948712706565857, -0.03201344981789589, 0.08926919102668762, 0.06165115535259247, -0.05653788521885872, 0.12135907262563705, 0.8117882013320923, -0.12034763395786285, 0.6309897303581238, 0.6277539730072021, 0.15633486211299896, 0.2351815551519394, 0.6340826153755188, 1.1367342472076416, 0.8059555292129517, 0.4861186146736145, 0.23766043782234192, 0.2653636336326599, 0.536186933517456, -0.05954289436340332, -0.15822790563106537, 0.365474671125412, -0.10096380114555359, 0.21027906239032745, 0.6694160103797913, 0.3851514756679535, -0.02810472995042801, -0.02651616558432579, -0.021710090339183807, 0.060579679906368256, 0.10435330122709274, -0.30596840381622314, -0.39830282330513, 0.35647353529930115, 0.8598461747169495, -0.4127447009086609, 0.3900659680366516, 0.6081799864768982, 0.18034596741199493, -0.0468951091170311, -0.00047819665633141994, 0.28546983003616333, 0.2166292816400528, 0.048241470009088516, 0.10677942633628845, -0.2651422917842865, -0.38028770685195923, -0.4123464524745941, -0.3522251546382904, -0.028465168550610542, 0.35595932602882385, 0.2847015857696533, -0.48280736804008484, -0.32591331005096436, -0.29712632298469543, 0.0453239306807518, 0.056647785007953644, -0.03630945459008217, 0.1016630232334137, -0.380625456571579, 0.2735934853553772, 0.06520655006170273, 0.36535391211509705, -0.26542890071868896, -0.2507084012031555, 0.090972900390625, 0.08606887608766556, -0.08634800463914871, -0.17807744443416595, -0.16528917849063873, -0.20916976034641266, -0.18174976110458374, -0.18021106719970703, -0.30118030309677124, -0.19057230651378632, 0.0729701891541481, -0.13663096725940704, -0.2379905879497528, 0.00943779107183218, -0.2682567536830902, -0.5337705016136169, 0.2401764839887619, -0.26783108711242676, 0.1675737500190735, 0.05318411439657211, 0.08106575161218643, -0.1059701144695282, 0.09372642636299133, -0.13783113658428192, -0.7343490123748779, -0.6677173972129822, -0.26303988695144653, -0.22496256232261658, -0.14877717196941376, 0.4151252210140228, 0.36837559938430786, -0.2453356832265854, -0.22406615316867828, -0.19192169606685638, 0.010355345904827118, 0.06429743021726608, 0.11420038342475891, 0.01063359621912241, -0.1952497661113739, 0.19821284711360931, 0.2388647198677063, 0.2681404948234558, 0.004106962122023106, -0.21121692657470703, 0.21263056993484497, -0.0832182765007019, 0.20987436175346375, -0.056558892130851746, 0.12095824629068375, 0.07474559545516968, 0.38536396622657776, -0.13679316639900208, -0.8240326046943665, -0.14318042993545532, -0.2217283695936203, 0.057855743914842606, 0.3136872947216034, 0.44493594765663147, 0.2749805748462677, 0.07026028633117676, -0.20751839876174927, 0.18472905457019806, 0.3475286364555359, 0.07372984290122986, -0.09673207998275757, -0.2283601015806198, -0.09479055553674698, -0.2499045729637146, -0.019029049202799797, 0.21227551996707916, -0.11231769621372223, -0.419522762298584, -0.5816898345947266, -0.6938785314559937, 0.17808978259563446, -0.03482745960354805, -0.2486632615327835, -0.40722277760505676, 0.11469154059886932, -0.023544171825051308, 0.4701351821422577, 0.4021111726760864, 0.34565892815589905, 0.23201128840446472, 0.12254052609205246, 0.34436628222465515, 0.39827898144721985, 0.10936307162046432, 0.3795563578605652, 0.23801618814468384, 0.0669393390417099, -0.15574966371059418, -0.2765081226825714, -0.3047310411930084, -0.15082211792469025, -0.051383767277002335, 0.353899747133255, 0.29870447516441345, -0.3772437274456024, -0.142243430018425, -0.8069862723350525, -0.7474316954612732, 0.27897846698760986, 0.26033830642700195, 0.3068433105945587, -0.5034031271934509, 0.1946578472852707, 0.37805482745170593, 0.13273963332176208, -0.5078213214874268, -0.014673813246190548, -0.13827720284461975, -0.20629900693893433, 0.2419808804988861, 0.414387047290802, 0.16548795998096466, 0.08458395302295685, -0.027091041207313538, -0.20861104130744934, 0.053299568593502045, 0.2786248028278351, 0.034828733652830124, 0.017177872359752655, 0.22820806503295898, -0.1272752285003662, -0.10176438093185425, 0.01808519847691059, 0.15800929069519043, -0.5510842204093933, -0.5956512093544006, -0.6094277501106262, -0.09576714783906937, -0.7700288891792297, 0.08924723416566849, -0.37233418226242065, -0.06736912578344345, 0.08747357130050659, -0.5003027319908142, -0.2991310954093933, -0.16477404534816742, 0.17603619396686554, 0.29337361454963684, 0.4582569897174835, -0.04842541739344597, -0.18645349144935608, -0.5719892382621765, -0.572658896446228, -0.1540660411119461, 0.4161050319671631, 0.33602824807167053, -0.08938182890415192, -0.16587583720684052, -0.1947326362133026, 0.09502986073493958, 0.3853412866592407, -0.46177026629447937, -0.6340019702911377, -0.2360246777534485, 0.21181344985961914, -0.08126155287027359, -0.7335218787193298, -0.19031332433223724, -0.3101222515106201, -0.5535475015640259, -0.44879499077796936, 0.15718547999858856, 0.014011165127158165, 0.262863427400589, 0.633672833442688, 0.5398531556129456, 0.2652931213378906, -0.08682578057050705, -0.6444256901741028, -1.191763997077942, -0.7871038913726807, -0.1863236278295517, 0.4090297520160675, 0.23120498657226562, -0.1660829484462738, -0.3365762233734131, -0.020528210327029228, 0.0940965786576271, -0.026010090485215187, -0.11866254359483719, 0.20942245423793793, 0.37393084168434143, 0.3970155715942383, -0.34945932030677795, -0.09693871438503265, -0.6489832401275635, -0.2643064856529236, -0.018038028851151466, 0.6417880058288574, 0.4707928001880646, 0.08538216352462769, 0.24604886770248413, -0.041669830679893494, 0.06237206608057022, 0.0808558464050293, -0.5347432494163513, -1.4919958114624023, -1.346964716911316, -0.7720512747764587, -0.5434686541557312, -0.13028579950332642, -0.1429624855518341, 0.04955114796757698, -0.1805458813905716, 0.3278980553150177, 0.5005730986595154, 0.33492615818977356, -0.2513507008552551, -0.01208866573870182, -0.759543776512146, -0.032829903066158295, -0.2253764420747757, -0.24238725006580353, -0.7108504176139832, -0.13499057292938232, -0.11182957887649536, 0.09707049280405045, 0.02271007001399994, -0.17357763648033142, -0.45524322986602783, -0.8401469588279724, -1.2578569650650024, -1.8829275369644165, -2.3190245628356934, -1.5071868896484375, -0.7755272388458252, -0.6350584626197815, -0.5160225629806519, -0.040814172476530075, -0.08917710930109024, -0.19881050288677216, -0.19193466007709503, 0.3717459738254547, 0.23176278173923492, -0.1650455743074417, 0.367359459400177, -0.1831153780221939, -0.6747910976409912, -0.6843318343162537, -0.16662658751010895, 0.16391395032405853, 0.16822920739650726, -0.5358128547668457, -1.3547418117523193, -1.16078519821167, -1.4309242963790894, -1.7228986024856567, -1.7389858961105347, -1.8424813747406006, -1.6741257905960083, -1.931795597076416, -1.005958914756775, -0.09968456625938416, -0.34580373764038086, -0.6327890157699585, -0.42702826857566833, -0.12930627167224884, -0.297139048576355, -0.3966921865940094, -0.27119335532188416, -0.0012730451999232173, 0.5561647415161133, 0.39280930161476135, 0.477674663066864, -0.4272058308124542, -0.22119444608688354, 0.4679602384567261, -0.05649767816066742, -0.43571606278419495, -0.6114968657493591, -1.053911566734314, -1.9254034757614136, -1.8364187479019165, -2.0195205211639404, -1.807381510734558, -1.8447835445404053, -1.1770806312561035, -0.3287986218929291, -0.3171849846839905, -0.06260691583156586, -0.2716057300567627, -0.7206678986549377, -0.6832693219184875, -0.6513358950614929, -0.4625111520290375, -0.1314232051372528, -0.733510434627533, -0.3181164562702179, -0.30802401900291443, 0.22682960331439972, -0.3037054240703583, 0.3954957127571106, 0.1432923972606659, 0.3503985106945038, 0.5547785758972168, -0.0021937303245067596, -0.36606860160827637, -0.5121809840202332, -0.7956636548042297, -0.1462187021970749, -0.8756625056266785, -1.1774481534957886, -0.7692864537239075, -0.3624667525291443, 0.006932311691343784, 0.41610750555992126, -0.05907978117465973, -0.19269008934497833, -0.13898609578609467, -0.4076891243457794, -0.5719050168991089, -0.3240359425544739, -0.34971892833709717, -0.4925421476364136, -0.35060155391693115, -0.2111140936613083, -0.049200862646102905, -0.2839396297931671, 0.14991076290607452, 0.730911135673523, 0.19003750383853912, 1.032496690750122, 0.7409950494766235, 0.11779296398162842, -0.27472078800201416, -0.1571289449930191, -0.2838733494281769, -0.5016748309135437, -0.6784754395484924, -0.3834362030029297, -0.18789835274219513, 0.4027281105518341, 0.4536048471927643, 0.4406296908855438, 0.2986951172351837, 0.3072509467601776, 0.3888080418109894, -0.08776292949914932, -0.5576379299163818, -0.4466975927352905, -0.462370902299881, -0.4968569278717041, 0.045331478118896484, -0.2382165491580963, -0.22757935523986816, -0.2296842634677887, -0.29492050409317017, -0.2534838020801544, -0.5127649903297424, 0.6558620929718018, 0.7298312783241272, 0.0747029259800911, -0.33768540620803833, 0.35825851559638977, -0.13295310735702515, -0.15631599724292755, -0.04714316502213478, -0.03448319062590599, 0.038399431854486465, 0.221653550863266, 0.3777569532394409, 0.24930919706821442, 0.15813063085079193, 0.36585450172424316, 0.2839338779449463, -0.245613694190979, -0.768400251865387, -0.7894992828369141, -0.4571886360645294, -0.6670658588409424, -0.3492978811264038, -0.30271270871162415, -0.8181420564651489, -0.2616803050041199, -0.33995380997657776, -0.1969185620546341, 0.1746119260787964, 0.46579959988594055, 0.819721519947052, -0.05665741115808487, -0.016428623348474503, -0.20522566139698029, -0.4650874137878418, -0.15010742843151093, -0.2507057785987854, 0.20069752633571625, 0.15720875561237335, 0.26779571175575256, 0.2865740656852722, 0.3313625752925873, 0.3291587829589844, 0.6230476498603821, 0.22637984156608582, -0.5236709713935852, -0.8899255394935608, -0.7601138949394226, -0.826294481754303, -0.5628702640533447, -0.6474581956863403, -0.31570667028427124, -0.5899246335029602, -0.2343035489320755, -0.16808737814426422, -0.08582461625337601, 0.5966694951057434, 0.8979602456092834, 0.6704601049423218, -0.057210005819797516, -0.3533481955528259, -0.5532501935958862, -0.44533154368400574, 0.06363923847675323, -0.196611687541008, -0.0017671259120106697, 0.26395338773727417, 0.5082899928092957, 0.2055429071187973, 0.2863079607486725, 0.6571258306503296, 0.9313007593154907, 0.6962964534759521, -0.2690697908401489, -0.40543660521507263, -0.07283145934343338, -0.2390614002943039, -0.4527096152305603, -0.23907646536827087, -0.2677481174468994, -0.266862154006958, -0.10719864815473557, -0.4494730532169342, -0.6063192486763, -0.0650370717048645, 1.1532459259033203, 0.34382763504981995, -0.07532525062561035, -0.42984455823898315, -0.04288998618721962, 0.25536060333251953, 0.3084576427936554, 0.056283339858055115, 0.36862877011299133, 0.18411356210708618, 0.21882066130638123, 0.03633527457714081, 0.05444139614701271, 0.44713184237480164, 0.64994215965271, 0.44369596242904663, 0.135962575674057, 0.2821302115917206, 0.5180210471153259, 0.31778275966644287, 0.13028870522975922, 0.038490068167448044, 0.45844975113868713, 0.05525347962975502, -0.30538782477378845, 0.22093549370765686, 0.2426048219203949, -0.06265030056238174, 0.5731199383735657, -0.3878667950630188, -0.1531592160463333, 0.3377295434474945, -0.04533499479293823, -0.05788339674472809, 0.36775583028793335, 0.15356668829917908, -0.1525101363658905, 0.05698360875248909, 0.18510080873966217, 0.23355774581432343, 0.1403987854719162, 0.19947592914104462, 0.07203549146652222, 0.10221769660711288, 0.2680594027042389, 0.5006583333015442, 0.4348393976688385, 0.5667037963867188, 0.5552343726158142, 0.793266236782074, 0.5881614685058594, 0.05063452199101448, -0.14566649496555328, 0.5520086288452148, 0.5240414142608643, 0.7720630764961243, 0.6534691452980042, 0.26694950461387634, -0.15402601659297943, -0.12422569841146469, 0.5314339399337769, -0.21622131764888763, 0.08879338204860687, 0.3054315447807312, -0.11687085777521133, -0.001793107483536005, 0.08791220188140869, 0.013095901347696781, -0.23032042384147644, 0.08957252651453018, 0.022432515397667885, -0.04066115990281105, 0.1039963960647583, 0.07300092279911041, 0.2634083330631256, 0.6473004221916199, 0.5020940899848938, 0.2415688931941986, 0.13254207372665405, 0.29299217462539673, 0.4502331018447876, 0.41570430994033813, 0.8353402614593506, 0.7410356998443604, 0.01948268711566925, 0.26880645751953125, -0.08312336355447769, 0.08074077218770981, 0.42056548595428467, 0.11118847876787186, -0.13860802352428436, 0.10108908265829086, -0.06497980654239655, -0.14461015164852142, 0.28726398944854736, 0.00472970912232995, -0.0032298085279762745, 0.24526764452457428, 0.24337159097194672, 0.03812898322939873, -0.05860409513115883, 0.14467976987361908, 0.19615419209003448, 0.45891284942626953, 0.35173889994621277, 0.1748294085264206, 0.048127662390470505, 0.22300118207931519, 0.6394311189651489, 0.5207201242446899, 0.4839032292366028, 0.5392915606498718, 0.3923696279525757, -0.06610625237226486, -0.004261121153831482, -0.06766214966773987, -0.405304878950119, 0.16001799702644348, -0.06926166266202927, -0.5691201686859131, -0.4477147161960602, -0.2774449288845062, -0.21157623827457428, -0.5616888999938965, -0.26943615078926086, 0.22803610563278198, 0.21592269837856293, 0.14567707479000092, 0.32030391693115234, 0.34768110513687134, 0.3586774468421936, 0.7728152871131897, 0.46038806438446045, 0.8044224977493286, 0.12047512829303741, 0.1624687910079956, 0.38850927352905273, 0.34599369764328003, 0.5267197489738464, 0.8987908959388733, 0.10336069017648697, 0.017404265701770782, -0.05154544115066528, 0.036681726574897766, 0.06967958807945251, -0.5641267895698547, -0.09933482110500336, -0.9646358489990234, -0.36688339710235596, -0.5763236880302429, -0.6312453746795654, -0.9345166683197021, -0.9676787257194519, -0.7924230098724365, -0.632768988609314, -0.5328320860862732, -0.1548953503370285, 0.3523513078689575, 0.5544464588165283, 0.7632585763931274, 0.22628945112228394, -0.2124730795621872, -0.05429364740848541, 0.16175195574760437, -0.014619243331253529, -0.6480118036270142, -1.1614261865615845, 0.29301881790161133, 0.4332980811595917, 0.06373805552721024, -0.06662881374359131, -0.05123715475201607, -0.06717309355735779, 0.11786308139562607, 0.0829826295375824, 0.0156385600566864, -0.6069355010986328, -0.8803286552429199, -1.3732446432113647, -1.1650317907333374, -0.9628249406814575, -1.0425727367401123, -0.5362262725830078, -0.16249331831932068, -0.5812292098999023, -1.3934813737869263, -0.8623183965682983, -0.516310453414917, -0.40140122175216675, -0.9907395839691162, -0.8187515139579773, -0.653666079044342, -0.2586819529533386, -0.23007220029830933, -0.03296663984656334, -0.11509913206100464, -0.061546508222818375, 0.045551322400569916, 0.044322364032268524, -0.026856224983930588, -0.05941122770309448, 0.07073674350976944, 0.008747559040784836, 0.09995536506175995, 0.05621711164712906, -0.14780767261981964, -0.2628931701183319, -0.31621986627578735, -0.3172808587551117, -0.9008252024650574, -1.298386573791504, -1.467849612236023, -1.6437437534332275, -1.3163442611694336, -1.0030652284622192, -0.7701154947280884, -0.18466618657112122, -0.342058002948761, -0.0913228690624237, 0.06320807337760925, 0.009057247079908848, -0.000931828748434782, 0.0654885545372963, 0.08266309648752213, -0.06250512599945068, 0.03355943411588669], [0.016877509653568268, 0.046778611838817596, -0.02276868373155594, -0.06363876163959503, -0.037068143486976624, 0.015220396220684052, -0.062030158936977386, -0.009596548974514008, -0.06000532954931259, -0.06188017874956131, 0.06397730857133865, -0.0375102199614048, 0.011428621597588062, 0.24573679268360138, 0.36689481139183044, 0.19864054024219513, -0.07291112095117569, -0.000661998987197876, -0.08084390312433243, -0.0077185556292533875, 0.07635942846536636, -0.07661493867635727, -0.017995275557041168, -0.07699090242385864, -0.04031552001833916, 