{"sizes": [784, 30, 30, 10, 10], "weights": [[[-0.008258226195359483, -0.004144154229576631, -0.002790519401385671, 0.0021958788757256566, 0.015104797179225587, 0.004023226456919892, 0.0035782408572651997, -0.0020764322882555553, 0.002677800764747243, -0.003991957907769883, -0.004037727771820218, 0.0012751652564313844, -0.0031558769648084547, 0.00662236102853477, -0.0004784920161369909, -0.0015571972496219888, -0.01067788999019651, -0.004168620883033269, 0.005159597722257383, 0.011056753102145968, 0.011701880785747817, -0.0015740610238474684, 0.004501592096390097, -0.004304298166888378, -0.0083502306823367, 0.00577504896033639, 0.010038672915947998, -0.02056819782508549, 0.013154813293935497, -0.007796685961252579, 0.004761409560163769, 0.00432557220535214, 0.0031372524639477688, 0.004221232381493466, 0.0033217657171599395, 0.006577139759409787, 0.010699559318874514, 0.012176662229785284, -0.010486539334908071, -2.322583347050383e-05, -0.011747320981757585, -0.0007965802440084485, -0.01758635786219353, -0.030616181146824305, 0.02821559050453598, 0.010209480032054824, -0.008628569897549294, 0.006142237902021686, 0.005245153628900601, 0.007189755343230852, 0.0013810531876012834, 0.009268229436789892, -0.0002690859017337701, -0.005131586133968611, -0.0111431513426592, 0.002920528468256692, 0.005613532890079111, -0.0024130534702543347, 0.011536661872143812, -0.002076937038080534, -0.008380145242044956, 0.006989670425109946, 0.007305010002266441, 0.0019484693509531812, 0.013560690140212155, 0.005678122106541051, 0.019302250356345634, 0.03432568116425294, 0.07552076315535727, 0.07451064546355944, -0.08125378376989596, -0.31234408453187285, -0.17079409833644146, -0.09586428140892972, -0.08814150826435967, -0.04239200434577195, -0.005411207988010795, -0.002438634884076386, -0.007662574783757617, 0.009504525742926328, 0.00011581517624619132, 0.0005014390617179837, 0.007440246599395152, -0.00040032982884097247, 0.012323517399427568, -1.604003713642526e-05, -0.001112125305941613, -0.01374681429540208, 0.001313460134712492, -0.0039016844884473753, 0.00220685585449487, 0.011387144665818269, 0.032235747099857555, 0.04008918180806127, 0.12108918546821379, 0.2118527826600703, 0.1407346450817896, 0.0212705470239434, -0.01987582416520363, -0.29670253438283695, -0.27502862101499215, -0.13328538868857842, -0.1456665555213714, -0.2282171968986521, -0.06850509809789165, -0.023052184790273808, -0.002754741148301464, -0.02649274928520881, -0.012734483771095106, -0.008192461080757453, 0.03578616982326923, 0.0038739405946189155, -0.003842202102900086, -0.004337218030527544, 0.0045563494656292, 0.006584503703866162, 0.001067363102366239, -0.021785792300787706, 0.019039098113698697, 0.03095011965195487, 0.10202935083195172, 0.2585486887814208, 0.3656535661291229, 0.2764204535467066, 0.32336851534319344, -0.04057615174758562, -0.1994405791156116, -0.3952626279747786, -0.2798427845800747, 0.09944156830655856, 0.1178344745720304, -0.1890376176708679, -0.24920657053432194, -0.1732418181946419, -0.09375565656361734, -0.10793454739442736, 0.024180126994835797, 0.08378114384097288, 0.05577720886034309, 0.020822409603062725, 0.008705814432463386, 0.0018771904586533709, -0.0026931916212898427, -0.002317743782542582, -0.004590382710647013, -0.04614950063015005, -0.008390242960020874, 0.05800391847469774, 0.10839155633207613, 0.09099938845663465, 0.15710803883205782, 0.3462990816256872, 0.48173306682036393, 0.16260031382738627, -0.1909210450827051, -0.32965775949707565, 0.06585131888326785, -0.047235857986967625, -0.003953278281095236, 0.2823868056698415, 0.16937595704864675, -0.07590728940981661, -0.09152590406949354, -0.1857241671487112, -0.03224947212824444, 0.18132998952443627, 0.09752507567367547, 0.03715797961288097, -0.003511923807317255, -0.003751879350641389, 0.0017471864413908975, 0.005993096113603563, -0.005541907411804582, 0.07258882707714065, 0.20255601747774601, 0.2706491251125909, 0.08525988873569725, -0.06606388410674965, 0.0917033120167733, 0.04394371274003391, -0.045924574961113004, 0.04227366151000571, -0.11021766759302395, 0.03982201395195293, 0.11202672283140352, -0.07155374935659467, -0.1641559684378284, -0.029130826996782176, 0.050352770481344976, -0.055289495004044495, -0.0016990579066410555, -0.062147944541912754, -0.05292234636989314, 0.14193403110799166, 0.0666981270674567, 0.028534567952605103, 0.007443355177045077, 0.028191059047414195, 0.021785922429452244, 0.009243742004650148, 0.04027771585872294, 0.321591280797356, 0.42479045526397596, 0.4288367526627577, 0.1190134900115464, -0.1898367074150336, -0.05608844493456949, -0.028407336062421455, -0.22470390088831024, -0.26053071851449155, -0.4782188770261709, 0.07104891129469759, -0.07116513930810463, 0.1615211891442058, 0.14448509621141534, -0.007350593336254027, -0.00896228973865159, 0.1430658952864922, 0.2417767967539338, 0.008152592156491962, 0.2125782192619808, 0.1605014293415673, -0.006629228475588316, 0.0358103692754334, 0.00045087163706545273, 0.008974157326222719, 0.03443463613604293, -0.009227088541573225, 0.12974791417385872, 0.3032712237690305, 0.29550651096632263, 0.23350595041198507, 0.025919612560039048, -0.13022788930031814, 0.24784745491328886, 0.19216373621704388, 0.21891297834667503, 0.05669802646686435, -0.1966994401905264, -0.05556225175168094, 0.24998853336334353, 0.06624576626625067, -0.08492158601308976, 0.10603758694599454, 0.22271865911037553, 0.12814277545195923, -0.07122037037491728, 0.2233954239091936, 0.21066045375407544, -0.04271898408027044, 0.01748845617577295, -0.002740097299682537, 0.013052613133286095, 0.011225790928082714, 0.013484564353005856, -0.003337180348760334, 0.12108441926450306, 0.1400663065029819, 0.11620614153162055, 0.08260918844713849, 0.04525922237043159, 0.0058307542953025425, -0.054791765353202126, 0.2524090042410468, 0.11055936412436695, 0.2950423007352692, -0.19293344916604951, -0.29559002149776276, -0.06368413822755761, 0.060023123525359656, 0.015780398369912598, -0.09363769346509214, 0.1670898482468341, 0.03389386310836972, 0.03629985892776369, 0.4617105478675921, 0.02904255869524282, -0.02271600377298027, -0.03357452945452999, -0.07201627835535289, 0.0009017936752114158, -0.00675021064540239, 0.009126969969784305, -0.004765381478825232, 0.0661522157610215, 0.05430728609628043, 0.2241224243230181, 0.21154889942803504, -0.003934954912558271, -0.08035833391654656, 0.1575165618955803, 0.14817489525191355, 0.13196617391063167, 0.11472728020886751, -0.16179128501872028, -0.3392692281399558, -0.3150342815825835, 0.2774690843756731, -0.025742002844497267, -0.24986206473486422, 0.11242223111072228, 0.059780636126589286, -0.02323209509730096, 0.014483700691642355, -0.19190739764141448, -0.27684420848272073, -0.037395896225228244, -0.00617277976592601, 0.014142104909138167, -0.0005834135712471587, -0.01665612286166951, 0.009624907506574154, 0.0018861792189435965, 0.056283010533227346, 0.2664174117897694, 0.24935629894680766, 0.07939469486295189, 0.0036313239364744706, -0.14752050669519473, 0.19082796942951807, 0.5154994974802168, 0.19746876597715096, -0.029043433449743795, -0.0005296487610308154, -0.4188744029357826, -0.15172737214641882, -0.2124728046381807, -0.1515587199391807, -0.17595398386488584, -0.2367036324965296, -0.0771495480633273, -0.1940948281519026, -0.2095081924573557, -0.07825494057774514, -0.006681080132989442, -0.006506621410752717, -0.009839949403123686, 0.003141000389379959, -0.01892513741781256, 0.013435033500955162, 0.0317585069139232, 0.10940355529481736, 0.19530053128868044, 0.130895404101254, 0.2331701170515793, 0.27414671934140233, 0.009700875134605498, 0.21830401329855764, 0.6101363642780058, 0.04399284613765493, -0.28512887933319514, -0.2819910523221583, -0.28705280264375105, -0.03463135081576854, -0.13461540570551145, 0.1486571318695444, 0.09255243413133239, 0.034175606185370945, -0.047687687950104064, 0.01661889489070614, 0.03165381296101378, -0.03561798389459656, -0.06585491216726228, -0.008902768913353135, -0.007738641079570686, 0.012045012773828306, -0.015668478757076117, 0.05905440519066793, 0.017326345384479674, 0.21324983334181186, 0.13753742907402136, -0.047554349110306635, -0.1329137827634121, -0.10525742834149827, -0.2227103794325831, 0.15563157955236723, 0.30870933638331466, 0.04713966010532471, -0.1049129538787369, -0.17713337955534017, -0.10721220220421708, 0.04861293140318539, 0.44126024894603744, 0.1807162205334805, 0.16545721748424566, 0.13592181685433305, 0.18397147352333884, 0.10564000779058988, 0.09186044218430627, -0.006476377280733494, 0.018523962062271932, 0.018106613073885596, -0.0049101847121006525, -0.002910789915392849, -0.01183472552846125, 0.05413580384686295, 0.06156387292500596, 0.20813534633203312, 0.139774358427176, -0.003505971148038204, -0.02517191743292332, -0.1476056323030401, -0.24728858794504724, -0.04183172343113968, 0.019918829109293268, 0.05939882815827028, -0.1267932213969396, -0.167524899407831, -0.09786197387985757, 0.30184092273316065, 0.250077163371132, 0.05210793290582277, 0.08815402985903525, 0.012451672230187854, 0.07470174196183885, 0.03824892529721517, 0.023405063297814117, -0.0061638709015870985, 0.05065971239235979, -0.003817350524793081, 0.010073569354146205, -0.004807940590458493, 0.001197319570861833, 0.08166613117683535, 0.06282594539943173, 0.043206669071765715, 0.046442872877387596, 0.065822893924614, 0.1896724258348205, -0.16229430388673163, -0.06895202892029215, -0.06355181742769639, -0.22114313805540967, 0.09659082840476471, -0.04054085305215029, -0.2906415596021472, -0.07606868466600372, -0.033457118852933315, 0.03631220873151212, 0.2835801038560787, 0.11619121201668797, -0.04302270401035172, 0.061748072829524346, -0.04491526237249364, 0.10285943906061827, 0.10339528944523077, 0.048384874316369945, -0.0009781087438809578, -0.000428425668084016, 0.005766021760433061, 0.007342833365805898, 0.09342369042752902, -0.021581543204764374, -0.10845061760391114, 0.11851493968952045, 0.4195643019220011, 0.36230005741819404, 0.22265971280724825, 0.11482831545934584, -0.006017683541064032, 0.24316142789420378, 0.060703501182455266, -0.21153342969730277, -0.2516940588040908, -0.003207460300286396, 0.6015188833047453, 0.5128333762735533, 0.37552728868324825, 0.07047616765035299, 0.06997951887471748, 0.09330290430528088, 0.0636132613449859, 0.17443511787617014, 0.1267544749685896, 0.052473018087776706, -0.007296559987497603, -0.019692717873966103, -0.014299709474628008, 0.0012229320609131226, 0.015492955799896228, -0.06751589010834581, -0.116454265066528, 0.2802131317227171, 0.6114507487544042, 0.5951503479481528, 0.4666671037758179, 0.2788555927186739, 0.09249691056765064, 0.3204823401918939, 0.08553268296145285, -0.23441799526027834, -0.07960802685619611, 0.5042347018853979, 0.6371354893579046, 0.2753596508554653, 0.21004990960370054, 0.07705389094446849, 0.05930163898361, -0.07211316341544469, -0.13182509937825018, -0.01278649160098009, 0.060591547580096855, -0.03295370553020154, 0.003363406862752891, -0.006492331602789235, 0.008909555067941801, -0.004353198841552959, 0.06275190175562813, -0.09993689126900127, -0.06722694008421465, 0.2466736531361614, 0.46628512690299917, 0.45853133474626434, 0.5385829693656121, 0.29912466071408894, 0.03112706779959953, 0.0009963747236581139, -0.14282100890830482, -0.018062608876315847, 0.11704989995860635, 0.40553223616441425, 0.31534993804448364, 0.056357824156628884, 0.15598101113286997, 0.10037281371201201, 0.16821057315758306, 0.1910651719963662, 0.14937553531966807, 0.055814000905906956, -0.028209118191600848, -0.031089282004029196, -0.011586451486863906, 0.005166583171019606, 0.0028956231315612154, -0.01632256345980635, 0.007491677499518558, -0.045672959530474073, 0.010947859368853148, 0.008984098123766963, -0.09443033673649437, -0.018063255847614944, 0.14464175358636386, 0.015088897767992169, -0.06646133972328772, -0.1932603002068204, -0.13871843665602043, 0.089751631821465, 0.36793022510895207, 0.11622423596821274, 0.1374312711177654, 0.04705770605611768, 0.1437872444478073, 0.2243999432033243, 0.24400818646673794, 0.10042942076462155, 0.09185498338982698, -0.054547915158563894, -0.07123836063437118, 0.003101489905512729, -0.003651585782184066, -0.0012585969068381832, -0.008477543969357109, -0.011377001029714425, 0.04465943761786976, 0.06516231284364947, -0.08400404844156859, -0.2792087591713957, 0.027703914414741758, -0.0946776420324357, -0.18593549141887764, -0.2387096993515238, -0.17391909761489224, -0.06655395637687556, 0.004480955444084149, 0.29971210495734507, 0.34310570778368543, -0.0829200118623109, 0.07039774206420056, 0.22412335417787896, 0.12013179103604857, 0.13843665147123213, 0.012249093800202886, -0.06672876953712657, 0.02654437271527657, -0.04083835219546483, 0.01624732060063257, -0.004415142998813008, -0.012633475656755157, -0.005441499975810968, 8.529552500113416e-05, 0.03513866888740444, 0.04166054689536854, -0.07614556547204912, -0.0266450628572444, -0.19658365176277004, -0.30476995485751834, -0.241315374842556, -0.1589371729706788, -0.5482870933166735, -0.1386189096432039, -0.20671304195289397, 0.15423944991096458, 0.2528800966980687, 0.2349119688915788, 0.2550617995222799, 0.36952124689987215, 0.4389873421568181, 0.42635065678072814, 0.2054194886047454, 0.05697440824679418, 0.06258404216662544, 0.04348239867241892, 0.03878030752643236, 0.03082856860129147, 0.020968012036227515, -0.007958433075045757, -0.007585029800933922, 0.0122540579575364, 0.019572335581434057, -0.06595386208992411, -0.03669428528811774, 0.02196435157872837, -0.1737793401500782, -0.04632492579191995, -0.27628467972559734, -0.13106883070987055, -0.14816950460911366, 0.004032951997610463, -0.030691795454352157, -0.01145124464772085, 0.3388959824680371, 0.36438843011267513, 0.4603112730707402, 0.44210648145619297, 0.5276790627438892, 0.32175703024934943, 0.19680819091241492, 0.08806197115170196, 0.016917786510425397, -0.03913441343508432, 0.030734877123887085, 0.03392177783716728, -0.0002044929330666753, -0.0017421983416937962, 0.0036142756686401243, 0.00742107424996517, 0.03420694600473433, -0.022465418964940434, -0.021297358315511244, -0.029028620276630824, -0.03911777647080049, -0.0641044969045562, -0.02423952844392466, 0.2334603990848572, 0.26056067870491045, 0.19665330708029316, 0.06933608505814333, 0.16984929310728178, 0.5244437919373917, 0.48767138978009733, 0.5189901415461362, 0.4155909134081147, 0.3692260190237806, 0.25660657937512005, 0.1717588362565121, 0.11309071381654606, 0.021791061791868727, -0.06419853765889572, 0.013019403808500949, 0.03276475211872883, -0.016263434405083096, -0.006029224257421998, 0.0001684027734173533, -0.0022515802452001193, 0.022287581058259915, 0.012402373339168922, -0.0037866353669884605, -0.08007229954314515, -0.1109299462131068, -0.24121046718575959, -0.19211282597376075, -0.07817080915396463, 0.014357311610227678, 0.11416819688221795, 0.2380511291427744, 0.009596194778077242, 0.044252617110455444, 0.3442505371693499, 0.39974056306301553, 0.4892771363351361, 0.34959052202820406, 0.31418949564784904, 0.25832306462888177, 0.1116966069569741, -0.05085340030704588, -0.08783412896273939, -0.00697193619354352, 0.0003801691511031711, 0.008577340401272743, 0.0003252811046201475, -0.008939549280119563, -0.014826900298362724, -0.004439089196582695, -0.008205040788966375, -0.15863521715892856, -0.258045736744218, -0.1974669305219953, -0.16015673319724744, -0.25874655134397767, -0.12451753234286851, 0.0692514376233523, 0.04307806162731228, 0.08903498335205463, -0.0333594588766966, -0.005134436895457119, 0.2650875907591727, 0.19636086809706882, 0.2667735647526235, 0.2949473388918777, 0.2354255187241821, 0.09086117564750396, 0.03258030737631193, -0.038954820157826434, -0.05755639806338204, -0.018230409180412806, -6.958934252785908e-05, 0.0013235143363643708, -0.009185238495176457, -0.003664055340484111, 0.003384163279609622, 0.0022394992319110844, -0.011096104508627563, -0.0426626254853214, -0.10929456512284194, -0.14654356926468023, -0.17439997334415536, -0.04039455320411309, -0.1114236504272156, -0.03505887207497973, 0.06293758968289312, -0.11263885880522137, -0.11514209506030125, -0.07137031207724556, 0.033098060758862013, -0.029119721033565842, -0.03765775090760399, -0.033031108355903824, -0.014993638663198526, -9.923146905109998e-05, 0.00196992400390923, 0.00013749695224909975, -0.011814214952604101, 0.009932653956686757, 0.008909965200605535, 0.006907672626398676, -0.011128471769551963, -0.01164577134867425, 0.012626212589144484, -5.7452455355938657e-05, 0.00033844543487386076, -0.006428987728791956, 0.0002299944621682413, 0.002600758714671966, 0.0022869702590887476, -0.008530307829716897, -0.0009066147447011394, 0.0006790406741479242, -0.012147926316756817, -0.006707665168068995, -0.014918691089631534, -0.01446187922250042, -0.0031994083800444386, -0.002899592143848874, -0.014503566046947558, -0.022327396398933472, -0.0071813091616945235, 0.000877651863234019, -0.009862647849120266, 0.011287075732241232, 0.0006399684953319373, 0.005060429309504742, 0.009644939635295327, -0.0028624604336610435, -0.015314227228210343], [0.003585145204712606, 0.000948157333299405, -0.00923908741615485, 0.007830938540354054, 0.010282375372286474, -0.007600598523894808, -0.00025550688028805666, -0.024747122230984207, -0.001499894633513439, -0.00597179704484457, -0.004684145117798844, -0.0018186235890091317, -0.009584274610978494, 0.0008332341031593157, 0.010400802046737255, 0.008396431430576962, -0.011510166614831204, -0.017211589947913854, -0.007607915531633396, -0.006058136513420765, -0.0034114689129985712, -0.006152394975918204, -0.004128230559281566, 0.009924376857599268, -0.001012552460872901, 0.007441713762038002, 0.0015206204295869058, -0.006877961349381582, 0.00393188320184764, 0.005912345854320431, 0.0016877395563287382, -0.004458534018014919, -0.004499992839064215, 0.011366828084401802, 0.005138551846868287, -0.003511900929726871, 0.0028301251589568574, -0.008198988934355863, -0.012175101239485977, 0.0049915599928023495, -0.0011327129459377616, -0.007580142302850092, 0.004749526493577733, -0.024097991982194596, 0.005696128481815205, -0.0045313300393316795, -0.0016767199100731632, -0.00815619106711057, -0.004203487315443203, 0.012825972401804294, -0.018375585177445985, 0.0003024239694127514, -0.0035270159120048324, -0.001031587502038978, 0.010758684675900267, -0.005382064866927458, 0.0074401101973807626, 0.013192926046089829, -0.00018918021474988365, -0.007986666664007575, -0.006354238807510899, 0.010269251007121472, -0.01441453344484144, -0.010136079722995663, -0.02091080036283927, -0.027939450190559083, -0.042040822139244566, -0.08904997857689442, -0.1141316694196224, -0.10255677765078872, -0.09163250010474007, -0.09672372769445797, -0.07547979834323679, -0.0563820792866395, -0.04621681124067522, -0.013695164759959362, -0.002894315387293115, 0.011931526126521937, -0.0015471805550878834, -0.004861265452842717, -0.006774250637568805, 0.002587561791947541, -0.003403260938228809, 0.008153036520434911, 0.003819596769768822, -0.006944861750149208, -0.0003684039350635215, -0.004867225986996029, -0.006626464846849777, -0.007693433285763687, -0.02511095067074947, -0.045308698555768065, -0.11705067278146812, -0.08837463427867447, -0.04250018834023847, -0.16366901806214415, -0.2918978649150245, -0.3113705748370942, -0.17932832816232064, -0.11671045661280666, -0.1398407713342886, -0.19539490469763462, -0.2837901395500857, -0.1544728015427184, -0.03336787883204455, -0.033787636441023595, -0.049902398869822555, -0.0029798434996259897, 0.012032767636877426, -0.006828567005703942, -0.0054957652698992806, -0.01374298192749819, -0.003124327887489263, -0.002646706176971869, -0.007025524838684324, -0.009716338489401854, -0.018952066888204614, -0.024110144114008466, 0.0009041310543100735, -0.06515471652826595, -0.19617951374295411, -0.06423181015434612, 0.06377897408958619, -0.08645553399272908, -0.35367538522867786, -0.27088030760745857, -0.40999489172553877, -0.3142187720861258, -0.23840942037391258, -0.0008529200850146744, -0.028687109459246924, -0.2300898632094633, -0.21637552623293066, -0.1356547026012613, -0.021784555605655884, 0.03171037258361205, 0.00019831129308390727, -0.011799206641617108, -0.011597274446052535, 0.001328664226046996, 0.00114424998155141, 0.000795767200266466, 0.00757492067918233, -0.0046783800944563345, 0.0060811490298953415, -0.012686505216648448, 0.016349095039972446, -0.08615643068592797, 0.035856957782174334, 0.10947035417786373, -0.018520773323596026, -0.2148378930393114, -0.0726711653715788, -0.10005591689604075, -0.12468617816227204, -0.27318630255726656, -0.17565428067980277, -0.07965060452849443, 0.15148723740833078, -0.14253074611252428, -0.3430213247778953, -0.18657591843049215, -0.008583025040282077, -0.02437739256023003, -0.1145122458371691, -0.03877179798297852, -0.01724663203533705, -0.004164885495424361, 0.006643467930189765, -0.011679389747264825, 0.008308281193864947, 0.00464625437360149, 0.019301431859539628, 0.15104246944392385, 0.05815726142804086, -0.010529546719427282, 0.3509964818910389, 0.30350332976988553, 0.3256398109913253, -0.03023517896114226, 0.2916757542554588, -0.04567213592627476, -0.04775396355895706, -0.5596633673697569, -0.3428746889782212, -0.02759181434280076, 0.14602885691740372, -0.018823969354896563, -0.4481319760405209, 0.00719601169066578, -0.011457351149037391, -0.1520522298416572, -0.23642029083155502, -0.16343545804529122, -0.03208006316326697, -0.008645946598934237, -0.01064077201281709, 0.008424593729936446, 0.004388530862792064, 0.08531731627447911, 0.04947816507355546, -0.017335598859951958, 0.3441682388524254, 0.3852656476158568, 0.08470544638619562, 0.6001757377104028, 0.22824895363774378, 0.03468535523967982, 0.04571415154252282, -0.06697032404758052, -0.15131656993783021, -0.568108110737927, -0.27315251095637205, -0.06948580850183547, 0.27618544970855663, -0.08352124720959407, -0.22805675091984592, -0.3488435928527903, -0.03031190528418542, -0.15752117362821133, -0.10903481138315643, -0.09699340046534113, -0.013764200744020369, -0.00649711853394746, 0.009127671659984047, 0.007124861785093739, 0.018841927739989755, 0.016851670753803373, 0.025107354617888964, -0.018176500269589814, 0.09943369420284034, 0.4188993896734591, 0.6840458011278845, 0.6947341197132102, 0.4678720257836372, 0.08628830359029702, 0.5227462122816888, -0.0788099766162337, -0.24161283678690457, -0.03968149424186389, -0.5422105417919254, 0.2355969536091307, 0.09446119532044338, -0.05359213933323828, 0.08345215528730607, -0.07692265149549259, 0.1989198287505464, 0.1644068003440389, 0.04747683031124238, -0.02840109103622851, 0.0030186077438971977, -0.008288845068238982, 0.004694676993513326, 0.013133880841135297, 0.01473435190496119, -0.05228112982929308, 0.09213371229178645, 0.3158091250689129, 0.34613116683760353, 0.36662095507653014, 0.07513832096296758, 0.46254657285383005, 0.3199278480797353, 0.17816201410750562, 0.4159571001482114, 0.2873919373672656, -0.3259224716790475, -0.1548191964333939, -0.2218851642263635, 0.007992232128605541, -0.06799940953912745, 0.05741930283152772, -0.02492180778418756, 0.3928622164786077, 0.3504612891960025, 0.27445143239379277, -0.0023467247987925093, -0.10539476552019408, -0.1282197594606391, 0.00039136785947157735, -0.006820483946592204, 0.006093537893165874, 0.03040799018648776, 0.0035635208601277565, 0.09772324768715185, 0.1088996962446573, 0.31183243351112266, 0.010169683916175872, -0.07564494918586365, 0.4333194307206739, 0.5986114066378011, 0.759142392863414, 0.8399096659074223, 0.8071833161732641, -0.1878588023314739, -0.02353019413787054, 0.14954875094179992, 0.570164272838711, 0.13508402460646438, 0.04512665107048532, 0.1528222296563618, 0.2075434163954515, 0.046326928440877574, 0.06202493296423455, -0.31191859450699233, -0.20512924662994914, -0.07974167868509009, -0.0001499425911436735, -0.011650114254909243, 0.010433508670005292, -0.02135834275350563, 0.011811022266339798, -0.023189596349721064, -0.10996605258315777, -0.04286507454485407, -0.23405764769430537, -0.25197818899359126, 0.3931520103132336, 0.11519015433216813, 0.8131125823331595, 0.3322293646955849, -0.47243410796477614, -1.0742336852255494, -0.06339781368017662, 0.0891702945767607, 0.3927966648740672, 0.2974184023525854, 0.2086072628570998, 0.06248252831731829, 0.18989526541724802, -0.05238404856788226, -0.15744044330971538, -0.15510065248342175, -0.05634231682785872, -0.0002782662197989191, -0.003633024437646862, 0.008263523238563554, 0.04313810151197844, -0.010058295365421903, -0.016399337041656907, -0.15052536909318426, -0.1625586343396539, -0.024103902566190723, 0.28087290908411766, 0.31126585686071895, 0.00515827235396118, 0.1925368216221104, 0.3417384327744388, -0.020779523712363676, -0.9309708501432289, -1.363477025719466, -0.23163606987470386, 0.17822991270268826, 0.027017317983519785, 0.24624146484770357, -0.1383381032669068, -0.041415049860353825, -0.06961531366569636, -0.003546346328988464, -0.20348806003176925, 0.015409462453973117, -0.0017381031546493792, -0.004311542907172026, -0.004623118299934775, 0.0018782939264060294, 0.024321394514667517, 0.05509938449848831, 0.08076526111622088, -0.41437695049057294, -0.11775010829427435, 0.19511647162089205, -0.13173181394594077, 0.1960318222061356, 0.03438222230687231, -0.25212533573010404, 0.17136731575788558, -0.8206946329900673, -1.2145160964218114, -0.9034754718002524, -0.8864859996123509, -0.1869881243228041, 0.17539676704166637, 0.10745635705538416, -0.2740012126614769, 0.28149021905374033, -0.0063185523943901315, -0.18326024426196513, -0.2077832129450868, 0.09619718618520635, 0.002453838741986179, -0.016198243378761502, -0.0007575002379063481, -0.00755576484388704, -7.283055565801352e-06, 0.09257161917914693, 0.09092303395972845, -0.3602459558441606, 0.26916010180336053, 0.08297619724460199, 0.11876961298666662, 0.20466505958759784, 0.12756521869501863, 0.6698802802687196, 0.0978379446091826, -0.9540182855212008, -1.1428968665443342, -0.40186076492989115, -0.3769435406590128, -0.17539199274712142, -0.3210590411315165, -0.03536759942949577, -0.08138861802731961, -0.08418037324412785, -0.1060169767278592, -0.13921285024479588, 0.0023871097463075202, 0.16153874393181336, -0.02990622840437781, -0.014510912000508134, -0.01920958961601366, 0.00036688120399352964, -0.008434807010074472, 0.08742327762739743, 0.1029731035440726, -0.15271739177714272, 0.06635753574018284, 0.1524922733020126, 0.30042594579867643, -0.0684083772014164, -0.15427856880810323, 0.13400990497465926, -0.6993983420963283, -1.520924748158238, -0.9361698691047681, -0.3403718024638673, -0.252504659189543, -0.5528430239861516, -0.42057897318403326, -0.16208955025825264, -0.19287606178717365, -0.3250270459036928, -0.21428042711405343, -0.03629531757259839, 0.10887638559960862, 0.221403470847886, -0.01571882649674682, 0.027518604502711, 0.005586334185804937, -0.0006750404755487741, 0.0006331197501516896, 0.05496355250987042, -0.0015981298118182541, -0.08343743181429485, -0.22739408508713124, -0.12832999370809106, 0.12726672335328307, -0.09772119446887437, -0.5520556338404317, -0.33229742839110427, -1.3435185015248843, -1.0383878951793504, -0.4045568138294434, -0.2314998551806849, 0.060988790646514635, -0.10036983593930582, -0.3961019470729707, -0.39561776890599953, -0.0423954372043896, -0.15945431348166783, 0.134943827254619, 0.021575299878234932, 0.09115057746499178, 0.06872169485946862, -0.08478987887026561, 0.03560569561546164, 0.0033550719725560715, -0.005551112085390595, 0.0060988223052467015, -0.01498155094701181, -0.11095402360900242, -0.10060326929172415, -0.17771407876476675, -0.2754114569794939, -0.3635076616255185, -0.3512348474234849, -0.5908215956224198, -0.5373661479356576, -0.651973332690423, -0.40496132286183867, 0.027813327985599056, 0.00889744777007598, -0.054396631600610125, -0.27980539690931605, 0.10776760994507802, -0.05815384922699275, -0.02623446125055758, 0.07015598236224108, 0.17174221653221303, 0.16185609224856018, 0.2504965309398385, 0.18618226852052622, 0.16992231888109455, -0.00032661339207593635, 0.013747987138497874, -0.005058441604532124, -0.013662425325128544, 0.018789678304228914, -0.11231849504018901, -0.15330894334029482, -0.26173647916094667, -0.43827616740887254, -0.41596839016400367, -0.34489031824844196, -0.4540999740946427, -0.42596372438513885, 0.036299272675338584, -0.2176814991247771, -0.008395731092172848, 0.10311131451234279, -0.2655726067296771, -0.4122835595786027, -0.19859727589973644, 0.2854015475372242, -0.071725257871434, -0.061094770078650266, 0.3261085313982988, 0.22695445370024434, 0.16316052412316415, -0.02362989449806125, 0.0973473090389793, 0.008992421269189216, -0.006109204889705538, -0.008345808901070529, 0.014588499648211052, 0.013078375703892507, -0.07343569308258396, -0.06782592420527715, -0.01849998994124396, -0.3210993519691795, -0.358444241163579, -0.30787142932793476, -0.4496835026048481, 0.011916133864281902, -0.1766047441624321, -0.28776209075543635, -0.2605556061627325, 0.22718043514991004, -0.325414187877552, -0.1024828137932547, 0.03247810073179129, -0.12366084283787096, 0.13626208612217303, 0.11639180244096675, 0.067793926252934, 0.02203085240328499, -0.06760783699849483, -0.060999738100064003, -0.002943090662923125, -0.007439591238980756, -0.013227328528320977, -0.0007067545832222362, -0.0056754556833925746, 0.002518268881619257, -0.036465731079744934, -0.03169507536882545, -0.11413303208244799, -0.23000901755640987, -0.21035681099973927, -0.11424964313187477, -0.21157121846355947, -0.07643021144252952, 0.28790845986372227, 0.1097711023246579, 0.28944501174550846, 0.2226369970755169, 0.23045138799895074, -0.11253104343898945, -0.403090866128985, -0.3782604026496601, -0.29423426695848043, -0.1815758209411241, -0.06838028726117928, 0.030093479185784103, 0.04055638466362145, -0.06834110319225188, -0.11938987978430922, -0.0020934489598304377, -0.002255404724370404, 0.0073839110281530215, -0.009165155342379069, -0.005743670366435493, -0.07661042480502664, -0.09975781333931576, -0.15406454804868444, -0.11706994663859584, -0.26264847767061883, -0.11780422394550133, 0.028869909970153988, 0.28657288814231907, 0.35855951805294556, -0.05068362928821736, 0.07774334167415893, -0.12668591883413452, 0.18520773535755752, 0.17216453772505655, 0.05665743105237804, -0.036122211280712406, -0.15337250062675034, 0.010112048821826643, 0.005632416006082292, -0.012164895100267437, 0.15349279471099886, 0.0024025409484501447, -0.008943234944765083, -0.0029690812558557994, -0.009491650587385544, 0.001641598767265462, 0.008671462292375288, -0.009262807495304344, -0.07323036885468423, -0.09736711714169541, -0.02932127522935709, 0.11746170208537587, 0.06377505941073529, 0.2607024291643964, 0.3142840186331916, 0.2432713721600073, -0.29028784128995383, -0.2537314604466432, 0.11841935452757123, 0.13803399003920325, 0.3985342402574612, 0.2981311416629307, 0.437451884554346, 0.2976681214070186, -0.14685631632641824, -0.11075013212360418, 0.13977951788854887, 0.03300239169054961, 0.0455548015035153, 0.007370660041221981, -0.005526430996117678, -0.0068097721435899745, 0.006215594852521241, 0.0005931399216820695, -0.0014811827734719169, -0.0019114030823022773, -0.07474131537097453, -0.042219930867142506, 0.06391051683163744, 0.21667305702843576, 0.15554469332757584, 0.11534480847022895, 0.3265506633696956, 0.03346118475084594, 0.12193738272329721, 0.017079586572464858, 0.13519791969769215, 0.023119592288485126, 0.25735319666703593, 0.00868378931916457, 0.04376810206964684, 0.01942073715363407, -0.023267549061053584, -0.1884893527114653, 0.0992782610909303, -0.10606880192364929, -0.08045982267395368, -0.08329745379309267, 0.009051631817738217, 0.00553529058063981, -0.017734618805627732, -0.0059595528797041246, -0.006421274774815889, -0.02503846274579391, -0.02820586157665672, 0.04020012167408797, 0.15966411873808184, 0.17408563325937418, -0.011405320802089725, 0.17490596184945953, 0.02135734658630179, -0.21833464615962792, 0.053657974243850284, 0.18400088308294776, -0.10722456336219986, -0.25535164260570264, 0.01035938520593413, -0.015538011804866638, 0.20908719982872276, 0.07896340207842388, 0.07394054008919537, -0.035757556324334736, 0.12258621749080652, -0.03052648729493787, -0.11965226137873307, -0.034948341587670614, 0.006775250058476203, -0.00965085024503894, -0.006948721331361212, 0.005427385266083206, 0.005729161923932442, 0.009007098620253586, 0.00038658409023440603, 0.006367579041419049, -0.028675518420094262, -0.04127720850029262, -9.366357446586642e-05, 0.01942179640246588, 0.25096253871595775, 0.05898662475505676, 0.08994612402087399, 0.5532092812189812, -0.02427000062373227, 0.17262178790818625, 0.21771176033876793, 0.1450090846516702, 0.055957465152861575, 0.48221763929841643, 0.40599484308221667, -0.028637394518798886, -0.10785289111543389, -0.04161485159952048, -0.04195787598681182, 0.0021837910734012513, -0.020648106418503894, -0.007266945550442286, -0.013774555158402523, -0.004099939514669099, 0.006260684943029284, -0.00036293350631165337, -0.007208663377649474, -0.1360989792611887, -0.14356236367128858, -0.10870157667469539, -0.07072985367642956, 0.0987175033393562, 0.09155423836665194, 0.06097549721065527, 0.21997157123979233, 0.0941129470304897, -0.18625829632360724, -0.029616504262124404, 0.0018171436178865074, 0.0711630691186384, -0.054345160554843674, 0.33944650618739514, 0.3722519898837774, 0.1265523015331766, 0.05180684126112564, 0.013419602022468087, -0.005011013165892961, 0.006582465600712256, -0.011314130179778014, -0.01103426076027988, 0.010466905011843101, 0.015601046663449986, -0.00025775468471411403, -0.013775239035080922, 0.0011246112771466752, 0.011900469495969245, -0.0035167570540077494, 0.016003415175370007, 0.011034041547003808, 0.0005405024136692928, 0.00030062935591416783, 0.0036819610766712354, -0.039482578824840894, -0.06431199735285713, 0.027420786842145644, 0.027914935345285084, -0.15886959191991484, -0.15151149338691167, -0.010632611190140825, -0.03137436504522136, 0.03674222895514041, 0.005202341697755644, -0.02654424247134361, 0.02564926589851336, 0.008599479522903635, -0.0018008897777971318, 0.0018279370523184265, -0.006920537372614834, 0.013890480126543429], [-0.003740596288217581, -0.00982647534257326, 0.0040791436201062115, -0.02089676405923538, 0.01057057300942057, -0.00022169884467895283, 0.00735369829431141, -0.0024537774210984147, -0.012607679529474102, -0.011650036161436077, 0.019975309081456807, -0.0010361836288449457, 0.003815649497568621, -0.0007183961854163977, 0.004962830109955025, 0.013101363179105199, 0.0008834110167060032, 0.013775803856279249, -0.011574890880206244, 0.0033445411785786422, -0.0008354053664435198, 0.004442570508983615, -0.0010117074093575003, -0.0034587138789839134, -0.003061499211297089, 0.00015290997327991045, 0.01029741643576892, -0.00552919626943028, -0.0067922873391349165, 0.002448348096126792, -0.0011482345928946866, -0.010547722987656195, 0.009383822985973985, -0.004793198772883277, -0.008089104742393344, -0.006312954920791265, -0.00343708402908092, -0.0011224576993367397, -0.005470246938582456, 0.01008521107480287, -0.009283969526623314, 0.0020774779615375795, -0.006370282837838143, 0.0341945150685081, 0.0004900740812181825, 0.00017178932089895462, 0.003977343730157672, -0.005173075430626725, -0.004680370874328457, -0.0037347313568055177, -0.0010204342760407176, -0.00036202781234526084, -0.002681229930553503, 0.0009612012254885086, -0.0002996627496743432, 0.005209081465282868, -0.009517987400514355, 0.016384580600486386, -0.002573509517368691, -0.004177873304148008, -0.0034169573176877663, -0.008261054606161479, 0.0020348630644648866, 0.006147855855020332, -0.023893992664651333, -0.035831386274691755, -0.0113599553305346, -0.025997905093394363, -0.017634722908742774, 0.02216258259404303, 0.040113575876671546, 0.19807206229087104, 0.15399600536482025, 0.010394455970532653, -0.015431873886771547, -0.017069436889183106, -0.015271391109658602, -0.016755829503190805, -0.005853858326648827, -0.019653660801216388, -0.004152263436677111, 0.007324128029540665, -0.012323623361089378, 0.006809841458515192, -0.0073682686646551355, -0.0036901173641402363, -0.013761137635042272, -0.014384839556984115, 0.018387049145493082, -0.03731697316070514, -0.014063149017222677, 0.0010246394537813024, -0.014882943762004617, -0.06984882759169908, -0.10518799125771551, -0.19528848741657853, -0.015990991858670173, -0.04387281733134484, -0.301292504876282, -0.03553897694401336, 0.11627786395036409, 0.02902791219792848, -0.06765124364695348, -0.07745253769246616, -0.059898182288447566, -0.09355766955993841, -0.005884279067641361, 0.018036753536476154, 0.06001879603945644, 0.1180415090537131, 0.004243341876058101, 0.00381825170958342, 0.010813860139836942, -0.004494437791700721, -0.002857074569289326, 0.004848131146900634, 0.005701764380223845, -0.02826565548579218, -0.044485597166063866, -0.09908030406845728, -0.13889873981981385, -0.198343413441107, -0.2816220400967166, -0.17880343350973316, -0.145733543797401, -0.06917276000460064, -0.3005004739321632, -0.0917618101298048, -0.1357129506755491, -0.1465143587318982, -0.2153930176440258, -0.21715498788000126, 0.0030329459897920964, 0.09130239128018071, 0.010140393869489919, 0.1902746580918606, 0.23553389706951555, 0.04513113804106146, -0.05198547272933147, -0.02081429180338203, -0.006963980613727087, 0.007057687282989507, -0.007816433968074568, 0.0006524148451643044, -0.0012639598429168152, -0.006657031485845033, -0.09435058748570262, -0.20559570775660174, -0.29034177567965513, -0.3275837290340923, -0.41910345428531054, -0.24575488715290714, -0.18814620931588769, -0.030896717286264433, -0.2713662337754599, 0.03823472113705573, -0.06398890232511355, -0.2834325169092754, -0.34347471192125534, -0.12476279254232152, 0.23115836104118148, -0.20741914674787534, -0.0067351638539413115, 0.26806565627403, 0.223728009740862, -0.07384273511283698, -0.019817876702156925, -0.011658748898308733, 0.015608392705442425, -0.0062125157846797075, 0.007395348676656711, 0.007359424592932396, -0.01597777303514824, -0.03730672739927145, -0.16563969839340162, -0.43763803483873787, -0.6359552486164033, -0.4757232586878286, -0.13864713273095813, -0.1353741104160485, 0.05849854262952269, 0.057462412163469215, 0.07273858538621102, -0.2971796933911584, -0.26907934078369017, -0.15187106753699142, -0.09555012775057618, 0.2090374068200649, 0.3205124536132362, 0.07569417955018468, 0.07660347045859603, 0.3259622605675845, 0.2921928878433703, -0.03519646582336628, 0.08084954107697989, 0.02639795340896973, 0.0013613000882757651, 0.005990668277727233, -0.0044371251605396615, 0.024577324679510036, 0.005362312997499398, -0.07252875151428423, -0.188600629094414, -0.2852860057756975, -0.3628092137207913, -0.17573915308526908, 0.07738835019591875, -0.26033732968398954, 0.3237000312590588, -0.3318018392069727, -0.17347024957022777, -0.23343302915585198, -0.13822411062849713, -0.10043782423107966, -0.19363435534890647, -0.2077347488389996, 0.28688128879244207, 0.11540342659190692, 0.13779153133253447, 0.1804506012132258, 0.15994223202571262, 0.009337287879652115, 0.21110652602790467, 0.014800721825069287, 0.01766970413083659, 0.0007851784901963202, -0.01147596089347156, 0.016138590346673833, -0.029558391704766138, -0.12888980972394684, -0.13373794209298587, -0.12601716314923217, -0.15339943488882724, -0.03451840849047639, -0.30505899412868137, -0.2310931712499706, 0.11186028393132554, 0.0721110409565721, 0.08720273032911699, 0.10707590944692578, 0.04088399408796597, -0.06946330111723968, -0.0352171435253884, -0.03884129768843413, 0.1738709044749829, 0.3401410940302425, 0.2820063928216457, -0.021759200388312895, 0.40103792470992033, 0.3985737230056644, 0.12156954228542975, 0.007065899085715554, 0.013099612934874709, 0.005456128387979818, -0.013526981670542518, 0.004156237046628475, -0.02167219835837045, -0.10441620358012925, 0.04494494592473405, -0.019876205556946032, -0.23814837830712637, -0.23720403398077775, 0.05637266239874136, 0.03547555434145968, -0.13214388428467344, 0.2286026192927349, 0.3538747981069713, 0.17928802643739525, 0.008528636934286859, 0.18644498743952403, 0.22417861430340197, 0.07866844060576358, 0.08397504450364383, 0.3205507580237491, 0.22499764055752827, -0.10142708422564693, 0.5316071006269812, 0.3819382643226476, -0.003619599487178046, 0.015108783705119118, -0.004672191330451853, -0.007974971140826216, 0.007692458964597656, 0.008810183975703195, -0.02562824795380724, -0.06790021210507668, -0.06785294256973563, 0.048461285566936796, -0.2717626592438283, -0.15374036787010834, 0.07162161635045947, -0.2127114872563092, -0.20725348690564419, 0.16112466378558665, 0.12627814833088055, 0.29015976202429405, -0.2023010253713907, -0.24034486815732614, 0.029695731296708328, 0.17257206204289252, 0.06265347291791558, 0.15538423936516724, 0.21286662157140032, 0.26240894390536446, 0.6187437485324025, 0.5351045050067829, 0.09993617455574606, 0.0018081994524188284, 0.005463572588141372, 0.005394748608746188, 0.0039299058054821775, 0.01350120921397704, 0.006083990387807794, -0.044754750903620924, -0.199262472646628, -0.17217791431262244, -0.29508550285413987, -0.2941519006527814, -0.23097122557122676, -0.1824205023349036, -0.21846449450098188, -0.33330421174703645, -0.026291012685551538, -0.30058809090110844, -0.37251488480293254, -0.5026310186144013, -0.4257520167536692, -0.29162674038950737, -0.06657661381089211, 0.04084996977043472, -0.03733908218045446, 0.09020151684327238, 0.1520495959020493, 0.3749025870407247, 0.10893447242825194, -0.015040965564462104, -0.002741969763105717, -0.012426073480925354, -0.0020759392136138343, 0.0034429390480141403, -0.07950864774419303, -0.15002907357404924, -0.20580795305714786, -0.1569172842970892, -0.1140737047747915, 0.12366979089893392, 0.05842233353806054, -0.09538636131358062, 0.007309414762023425, -0.01918005952455089, -0.1788085139619069, -0.5450593503047196, -0.6766385962322653, -0.9850998466810174, -1.275593262395288, -1.0919186148621411, -0.5589625177991523, -0.5569604130382991, -0.38821523539069924, -0.4250362354481737, -0.3443618908581648, 0.01978545111433724, 0.031162061944289304, 0.011866129154161598, 0.0022539936368529126, 0.0014053621158741229, -0.002949099293748289, -0.010050880388286791, -0.10326326529775773, -0.123708465950134, -0.17654143718388396, -0.03560442570738533, 0.15109451697103912, 0.0729206687437975, 0.09204472798760512, -0.015651341188810466, 0.06983301316544756, -0.014561999389646283, 0.25279112393076586, -0.4073969393993174, -0.12215074566165156, -0.45366772611986345, -0.8647452395138742, -0.9292304321760166, -0.6635835590394362, -0.675004544517521, -0.6296572905383926, -0.5180607185236532, -0.39862575452754334, -0.09653876881513072, 0.0006444144725543652, -0.010738970365192946, -0.007174087268218332, 0.009226439289283994, 0.01857196314650105, 0.020343495932065393, -0.004163570476997662, -0.03583265299012564, -0.16635267042288268, -0.09870186086054815, -0.16569604104824423, 0.10967907254096536, -0.12818680278404931, -0.4085259072617041, -0.2188209757950544, -0.34630833484601764, -0.19994174763405578, 0.014064887438477076, -0.08811668437823962, -0.02410809736866552, -0.1690602250148931, -0.6874657573572341, -0.5225379134167556, -0.41833809871125177, -0.4591896892445221, -0.4581740443536002, -0.3629572213564379, -0.09033339208399864, 0.0001389314078606868, -0.013280718673408009, -0.009515646865326464, -0.0006933493494539817, 0.007982037131550474, -0.012013019961298674, 0.02223704081093299, 0.15400852272196916, 0.27693188119137646, 0.10486307827163592, -0.024552095863907882, 0.25240143126776676, -0.029509536286696805, -0.2998717952009653, 0.3062018391336353, -0.09378949142775485, -0.0066387064230067185, -0.013703340121551695, -0.1301234510922801, -0.24924221390783122, -0.014886910589214692, -0.4045116006472797, -0.4012961985710437, -0.32877378593806783, -0.45547794651377804, -0.33324366122603, -0.2789469614491639, -0.04734615484468225, 0.002805760703361703, -0.008871977895356507, 0.002047452263612814, 0.0045586329878611965, 0.009592162602621268, 0.0021698935630406475, -0.05001854961996316, 0.18104911151512132, 0.1386788498737425, -0.07934393006482404, 0.038712862470422674, -0.29601305967668906, -0.25694534214440234, -0.040311308999083376, 0.0665914547455874, 0.009112958043655757, -0.13112204203308736, -0.15152151443131365, -0.2883879482746374, -0.054603721366636784, -0.14097792468921133, -0.1991099795460103, -0.2254303767270809, -0.27034830533951076, -0.3280806032488146, -0.3120920170397023, -0.21641921574330075, -0.03757805722438631, -0.004277781086000141, -0.010095724839985309, -0.005994838567316163, -0.0020524876814958107, -0.01338295208021933, 0.02526497313203612, 0.02192682024082215, 0.09443874237029035, -0.011682177412046926, 0.03889150932076936, -0.008655368792138296, 0.020887701936674184, -0.1920767819778709, -0.28161104285957284, -0.175198472017425, -0.029640972841506096, 0.3092262089169462, 0.2172607236280686, -0.06307418815143769, 0.11241934934246442, -0.027865577023860225, -0.12375884392544592, -0.0673870371996208, -0.30004985051889266, -0.23049226591874863, -0.1566390945590149, -0.146895773755263, -0.05248925919451635, -0.015517236730772372, -0.01204506687639064, 0.007670668427714297, -0.009502260486796718, -0.012097928058790758, -0.03918820987922453, 0.06249812729819189, -0.16486196168251074, -0.008769339317296138, -0.06974739339165924, 0.013286915982262138, -0.18088142194738407, -0.09075257089114669, -0.05963623235504184, -0.12091746718689432, -0.04608971672360345, 0.2017858123734646, 0.03347695259128061, -0.08288401938781216, 0.10939966957627761, -0.10268905593844319, 0.221571811871024, 0.13421266431374032, -0.27427560345491053, -0.29222226427399484, -0.2798925079650968, -0.1463605232344288, 0.0014295688926127968, -0.00862942233301624, -0.01059091394274619, 0.008883336486277517, -0.004308281077523935, -0.001332012502238874, -0.07511505283888745, -0.052074640582615066, 0.10942640479035436, 0.19755060801805033, -0.013297840885742769, 0.08720419269837135, -0.08642681366030848, -0.08834139739059656, 0.06508392495666611, 0.02739782206386933, 0.3319975796058101, 0.32597317181198837, 0.2597557185499939, 0.3402904155938281, 0.05992069643488454, -0.24717854254311308, 0.27988360896277653, 0.09059920692955856, -0.31801040808372566, -0.17310137188932284, -0.03967273292028281, 0.010095412546984895, 0.04656258867890971, -0.010663137176213663, 0.007529373396329446, -0.006749941030573882, 0.004097900621179297, -0.0033422379326098197, -0.12165250966394454, -0.2540932433241435, 0.02765899060232514, 0.19891352458457873, 0.023193972749883014, 0.2155698049239912, -0.045834823234000885, -0.021037642404758517, 0.07791401414272438, 0.12684548688842145, 0.04143067654987319, -0.09297892959448874, -0.04263899495515211, 0.1652011539571189, 0.22955050100502392, 0.09207281780553431, 0.4926315589955109, 0.04267002186695891, -0.37690756878907994, -0.08347788078933027, -0.023854613048915157, 0.05836554236923463, 0.02015471200984139, 0.004083576182084229, 0.011972424730716476, 0.005834684193845471, 0.0035658407178994628, -0.00731878698833125, -0.16108649348112314, -0.19553655231385403, -0.04187464084501529, -0.1218399941704346, -0.04138114187855456, 0.18356922689119567, -0.06062949554783785, -0.0008640668632776201, 0.11726171541924121, -0.046936618022990685, 0.003919435857722622, 0.06462621925367833, 0.42814378513266577, -0.2125915099951841, 0.07175771089932144, 0.12521871658759964, 0.3021332439021619, 0.24483915856413813, -0.16713162976341708, -0.0926160454898194, -0.11042886584641931, -0.04419152264169187, -0.018129313420119624, 0.005234020628490708, -0.009870618051026446, -0.0054803721184124195, -0.006689399854241523, -0.0022043818666119507, -0.052865887012001594, -0.11777055476962828, -0.12754238253201586, -0.04286882655428696, -0.26310344032659944, -0.0525844512966117, 0.12824893243233434, 0.04698489962675039, 0.16194296548613504, 0.14411706684743888, -0.03387031410169676, 0.10260119048387346, 0.05710182684470441, 0.0023019639874204603, 0.31464742100767956, 0.13932898485696044, 0.10703104593692074, 0.16562708575179955, 0.06789509884312757, -0.051994190491578995, -0.04089555433708833, -0.008936391701542895, -0.004321195028560406, -0.0032726502754800582, 0.007296697820378257, 0.009520104607142463, 0.012249830358842908, -0.008552420532289386, 0.016091916942121986, 0.04612781993358528, -0.05986836905720554, -0.16816162125093814, -0.23836907728329232, -0.04952305059690482, -0.022620491258910674, -0.011564047696896871, 0.07677625335511944, -0.030648491698671627, -0.3172936147742845, 0.16984700962688395, 0.10632543971732396, 0.09071663880036118, -0.009101493955516201, 0.042146144777475934, 0.020252475905973386, 0.09653515489633863, 0.015220433861097988, -0.07088213961124355, -0.049469481928948046, -0.001156639226144303, -0.010777748024025396, -0.01149582079307829, -0.0005750830571637966, 0.009108381597661577, -0.007741922569871995, 0.005409172228633047, 0.008925429554283784, -0.028300307533613296, -0.10953538811465749, -0.10017231884432602, -0.011060155602352397, 0.04013358578999186, 0.14693584788334935, 0.036210822718378055, -0.05866257967353941, -0.06748721112166259, 0.06940548890086892, 0.05761126103796623, -0.14896068354089875, -0.11048927907259798, 0.20516443808719403, 0.16585019039045118, -0.008087562573089277, -0.0108780647471789, -0.06794060578287284, -0.017210107050833385, 0.004503776904974194, -0.0013528773737511322, -0.0322964462473572, -0.003648155745196704, -0.0028838515434090523, -0.005558310254504658, -0.02119498048750741, 0.011903966728472427, -0.003353678136883522, -0.04779097585369988, -0.05875915379619446, -0.12080024264794337, -0.12083790137183024, -0.12666768803527725, -0.016056558360641758, -0.029548777164228126, 0.08318465258356227, 0.2526864001292784, 0.2098825589341866, -0.15246693373719705, -0.19853771389988067, 0.06792933367559992, 0.25976150832976447, 0.1089621648132609, 0.12001692784917067, 0.03494226078683681, 0.026885743972733, 0.016711350299446245, 0.01668285814722565, -0.0075549356322148825, -0.01105968245857361, -0.0018454671702948444, 0.007533271415406442, 0.0015397148731904852, 0.005983698807314246, 0.008713923697577342, 0.012945615041926945, -0.015982635064284444, 0.000941616322344093, 0.015148160694280688, 0.002660904929639499, -0.07663301143207252, -0.10293842409392542, -0.01999103761490184, 0.07815697779026254, 0.2115699660457458, 0.10525747888261157, -0.08528005466355948, -0.03530399865100575, 0.10089563897874156, -0.03972542301311418, -0.04589633964555423, 0.0244666919433872, 0.028575191839795042, 0.032932110581922136, 0.00491932790448617, -0.00400234739346393, -0.003984200907460418, 0.008613509200657631, 0.0004758468504357829, 0.0004177169384659574, -0.005220462284104347, 0.002266404379682827, 0.009987150698099353, 0.0035033999422498783, 5.3649540466408445e-05, -0.014204381815726155, 0.0025602680508470064, 0.017545276721639552, -0.00851164917660803, -3.755586217766334e-05, -0.006916596431799157, -0.012449538944837794, 0.00210771027410845, -0.003372494024966136, 0.006477343107965091, -0.008054099837072157, 0.0060953026682643765, -0.008381735688665754, -0.03177154133170254, -0.007625538870386301, 0.002779122381175292, -0.0028630140902827545, 0.01623757005087091, 0.00100731073020007, -0.0023876996079662135, 0.006940410272760328, 0.016310671250255464, -0.017478896712510746], [0.001690271378331973, 0.007333195914436917, 0.00614043178502745, -0.0013100970744692618, -0.00747644327111277, -0.00969740157939118, 0.003735017415461207, 0.005681057900816829, 0.0035675601238220295, -0.0026418902856361675, -0.0061569559081650635, -0.004849983250122787, -0.005307460285717778, 0.007913774607637153, 0.0028429262172789925, 0.0027993045751831124, -0.012030669124697796, 0.002922815666714996, 0.0039540410545599635, -0.00656357512008869, 0.014556185020431153, 0.0016268011984955364, -0.01017928288618026, 0.006046790270443039, 0.010597486241457333, 0.0029672535753136266, -0.003493398382439602, -0.0013970113392940688, -0.005032699729432522, -0.004247976382958441, -0.004803828391471338, -0.0012833433770369274, 0.01153095028350135, 0.013510492880392357, 0.012060391456381148, 0.006190479870908495, -0.0048397142968613135, 0.004151882816228229, 0.005357510361062671, 0.013193622836703382, 0.018103742537874196, 0.004024076134473808, 0.040760363395445795, 0.07557783784698077, 0.07323827817768422, 0.04451017241201946, -0.0028382894451848112, 0.010379137291931639, 0.01134156248739774, -0.004161641751155242, 0.003949337327794882, 0.0007994407252739323, 0.0008807081246572292, -0.0022475295394000397, 0.0024528516943239085, 0.007711882651088561, 0.001794291082564572, -0.0062078294111276005, -0.003334295343096956, -0.0010348147610916346, 0.0009954113865569415, 0.00012016829904639151, -0.008295276498096287, 0.010587699556717957, 0.005442699469469573, 0.00941016520937537, 0.004733562492049483, -0.08368842864147748, -0.10686549000912222, -0.15854889476734563, -0.04313631357973327, 0.012388411869413524, 8.2668128647999e-05, 0.10521926963052118, 0.007905850576575973, 0.029450083905264116, -0.008482399982673102, 0.007038436945016051, 0.014050680348812364, 0.017743678693271724, 0.0005259600173378717, 0.0009237982195715637, -0.011907840236909708, 0.007936003233746639, -0.009082750907524655, -0.004009765350766055, 0.016449466710359413, 0.008500436828429409, -0.003562018406615583, 0.017440356915456683, 0.02412959192745733, 0.001814225709754032, 0.0692469792247679, 0.08380103205308277, 0.16039350537932873, -0.08581382351136961, -0.1464439814127831, -0.1532585598633664, -0.30180062688801945, -0.33281141523022156, -0.21094714096636538, -0.09028243316957238, -0.13222195853516067, -0.05292136515714191, -0.027424955943383133, 0.08670566040034805, 0.12118007577179639, 0.08739619671944354, 0.05108470691387238, 0.021422034455884663, 0.012821908212675799, 0.00951265072416086, -0.022673992294511402, 0.01486299082401697, -8.438758282451364e-05, 0.006241201420853106, 0.004087924299024539, -0.011516264460428626, 0.016915363727373674, 0.010733681421918002, 0.10953498544376505, 0.25005006986061457, 0.23501421328432956, 0.3019851323719634, 0.09501535837648706, 0.09519597132109714, 0.059801380752240625, -0.4338082082734333, -0.40679791836502754, -0.1313625949896313, 0.11983394002660945, -0.13266423869293664, -0.404035905792345, 0.09235213182462808, 0.16515542323485072, 0.28988786645321585, 0.21160171700223906, 0.08867787707808919, 0.00431203805869869, 0.015815678325006903, 0.002593753927240639, 0.0004722446363896332, 0.01124629361176924, 0.005433444251251916, 0.016217984683227455, 0.07729490356589577, 0.12180877150023012, 0.2486261282453223, 0.13205695124740202, 0.14464949042190467, 0.29394587461697697, 0.31218224205547845, 0.184334229284975, 0.23784222063026864, 0.07647619702008888, -0.16596619954811695, -0.482781731268813, 0.23360598533009178, -0.36790520909046914, 0.050160553354194753, -0.2381263655854554, -0.10463103212327211, 0.0310267045597631, 0.07725592127935377, 0.14320216236863037, 0.07376921308918416, 0.03946101247501297, 0.02087169737068235, -0.001080169021914114, -0.010511093249613702, 0.02783970413560784, 0.013330673336454347, 0.028271191710682802, -0.02779330724858547, -0.0802037010323004, 0.09108084565542271, 0.005398899836333619, 0.036182279817762654, -0.036310101463498515, 0.42014289880892136, 0.2279202267540589, 0.37161214829323463, 0.09193353986843843, 0.027475824375156714, -0.20108552031964305, -0.16028441903583518, -0.1977502170513648, 0.16869488909367708, -0.017521661004462185, -0.028743517126388847, 0.05331478909088973, 0.269554433577583, 0.1784169301630255, 0.056618470763269785, -0.011420888451211092, -0.0069312533811304354, 0.007721692299349644, -0.017611946393409152, 0.012155183908090828, -0.07431828305872117, -0.08711232670659144, -0.11755502892198495, -0.08392701237102258, 0.03890282639669007, 0.05372815691685528, 0.0031842404081092995, 0.12183935095562125, 0.3693633537779002, 0.1925824294756686, 0.10323036666593242, 0.22935874704796294, 0.06813734378388085, -0.2248904690920306, -0.043777832575040414, -0.15629201933073947, -0.3459504718636924, -0.36250185072118074, -0.384062332799036, -0.21981028178111464, 0.22161479403111262, 0.3758062164223093, 0.23105119452828274, -0.014075508887969872, -0.005818494056263039, -0.004114707083258239, 0.003440667837036209, -0.0034383275269794637, -0.06522711982432179, -0.20430750172523027, -0.2772297031757815, 0.04752416817502763, -0.19929136696243716, -0.007783668212346199, 0.12010581201031308, -0.10415903478346791, 0.10720687124845878, 0.11637701198315223, 0.5497986125076549, 0.10038693949602283, -0.3339344485881109, -0.010871843237057506, -0.15294731788071522, -0.22699175638027985, -0.26025752519533013, -0.022836742579233394, -0.030414050076400894, -0.2752780471958635, 0.21147802002999172, 0.5655814865211347, 0.21821557989554152, 0.0016774500908735461, 0.012838633772584079, 0.00920081695955592, 0.015043872421273665, 0.008764361865722487, 0.04694359761637115, -0.26115821874386147, -0.3953593033584379, -0.18489697542270156, -0.07247944041701869, 0.054451374804408044, -0.10899916502769377, -0.2343703198429486, 0.4361088688085337, -0.018669313633013693, 0.45827502636243433, 0.32889461133922865, -0.570427361829012, -0.8269431116890644, -0.30182322287788727, 0.06757346220327146, -0.018033053694539853, 0.04209298248844384, -0.0473588311938039, -0.06056239732297057, 0.20325310332831864, 0.5002268436375695, 0.1478978538730894, -0.01333283294854849, 0.005932362509706405, 0.002295170286191924, -0.003270019970820535, 0.010794627972312652, 0.046873924724217905, -0.13511845880391407, -0.18688457461097438, -0.35384356049252114, -0.18964816038994795, -0.33194127770583837, -0.3042242693282505, -0.36455433865481174, 0.3005464260417109, -0.12044928924136354, 0.36882302478385365, 0.231501139998163, -0.6511106351735699, -0.23230383713392047, -0.1840577368456356, 0.07091182268391656, -0.3271694088706924, -0.11213459054804766, 0.09343380257492515, 0.17446016535249634, 0.31581557145867417, 0.31107380527606837, 0.07726764673512324, -0.009564652486995283, 0.010075803893632244, -0.01472645238353882, 0.006030345319102171, 0.023730460344961464, 0.07926830569565946, 0.07243571240124402, -0.10264438247432228, -0.2590519947743782, -0.3459221277029136, 0.03130985684807531, -0.17507051735854226, -0.28442715663213725, -0.03573149578865727, 0.3767448090387793, 0.9673046872299462, 0.6000495330282954, -0.36787935998093974, -0.16314332429116202, -0.21908726164009604, -0.2477323393086792, -0.37983177956914643, -0.24951052299906987, 0.10071121759321684, 0.2790791916296968, 0.1976834494999868, 0.15911486139190645, -0.059032642014312894, -0.018287405990019094, 0.0020519182821733, 0.0002994938872158132, -0.0012732533813282212, 0.016511828011065793, 0.12873416555216544, 0.2530528056536852, 0.13779133746860425, -0.08817941907708626, -0.24193868581036773, -0.16212730653457003, 0.18729279408105826, 0.42783231672632044, 0.9330616575997759, 0.7008715689326024, 1.1745791501893026, 0.5258123926897778, -0.15687009632399151, -0.22049106203997984, -0.10163279495844038, -0.04756090224185082, 0.28634549315693447, -0.03815048696123746, -0.10901431524523947, 0.4791844651457008, 0.35578725888507257, -0.0852049843471232, -0.15978244095994665, -0.02224305655678511, -0.0027857820237039014, 0.012263119356338493, -0.00016533743125345855, -0.02506759773392218, 0.21681854435308506, 0.4053987848943467, 0.32641680885896335, 0.2983179618603676, 0.6088007386434419, 0.43141873428798083, 0.7187553799057224, 1.0346496589529537, 0.7842265795233314, 0.9413125354461828, 0.5058805918332239, -0.13835742266309942, 0.270531546258812, 0.212634521922349, 0.029081246876016046, 0.1937201974025923, 0.47987898809134366, 0.27230938275617056, 0.0344927747747653, 0.3549370048036414, 0.157462530924745, -0.11786509129250462, -0.10437827559486897, -0.029004447282481628, -0.03922346639422593, -0.0014975720456915631, 0.012103419078993864, -0.01867143154410876, 0.2495739163870007, 0.34400638889597407, 0.47194582225736054, 0.6170931486334624, 0.4662261035710719, 1.2505468462887919, 1.131973371613886, 0.6396271512270819, 0.1653736446359606, 0.1172722702600338, 0.32835322983392967, -0.3267082642679223, 0.14508321297821858, 0.04970789367720367, 0.005030460859619585, -0.04461072314840763, -0.024516411269329144, 0.06898854766178597, -0.07644045925937054, 0.09334815005003456, -0.16142112255788807, -0.2178397253801552, -0.04420051015992291, -0.0468686342937609, 0.008424828631403465, -0.011355937510903311, 0.01096036845486321, -0.025323359539530316, 0.0982208691092538, 0.3990241189029933, 0.5780813146869569, 0.8327219482139889, 0.7357206387957735, 0.6672782090889768, 0.3408251669350316, 0.032374541279077164, -0.25626268624328363, 0.03431154296149871, -0.047957772873595525, 0.09559039131323423, -0.2756198309215135, -0.14937092909884633, -0.07358955372637248, -0.16514203451898857, 0.10822210816882308, 0.0017392903594485238, -0.13600343797833425, 0.0655592163392888, 0.00824708218888514, -0.22061202762697596, -0.07118954543546288, -0.03659650500213937, -0.008499415995612635, -0.010618255337959724, -0.01362586123046189, -0.043715496431609754, -0.0198400537328884, 0.4503792695946727, 0.6233588455800038, 0.8114025230766584, 0.39501820432929263, 0.20113656005952846, 0.1699240846215625, -0.021249724228621123, -0.16602740735040747, -0.4068191708871563, 0.1794635897996824, 0.16419003990478317, -0.08259597566913121, -0.18880818610702096, -0.2756294851479353, -0.3534361026133424, -0.28464340001721966, -0.10236471487592169, -0.36503905758487426, 0.11881706268133653, 0.11795879951665714, -0.21668537038330118, -0.09824902591297964, -0.031029919528186154, -0.001309479208056554, 0.004806544607834695, -0.004537231662678309, -0.016340210869062354, -0.04812920538154807, 0.11724998909003691, 0.2939379223859005, 0.2651291722187343, 0.06178454162637641, -0.09512717521085602, 0.17990651749053066, -0.03676424006171776, -0.3132221134188693, 0.022469624203132314, 0.10213926690686465, 0.10189917586584944, -0.036990538787052434, -0.07271995740747059, -0.21263592834089726, 0.09171143830567655, -0.2524873728055464, 0.15187993685044854, 0.1278018250166376, 0.23936959731362892, 0.2638017868573246, -0.0877110992713631, -0.12789697579051318, -0.022466988903209115, -0.0037165630649051576, -0.003831733693648298, -0.0013798712781694737, -0.005938540601757968, -0.24346735814433948, -0.3567751356521951, -0.2993578125470216, 0.08830100443988988, -0.30492740618559067, -0.05671494713789723, 0.2926478104501068, 0.032810859938501906, 0.07950848090117658, -0.3664318412741281, -0.21312376249359283, 0.015606499087224989, -0.31198925020785495, -0.17027135197755622, -0.23943833174950957, -0.06160343671095269, -0.2749337556504177, 0.26803051941143435, 0.20365075589877998, 0.12261354470818653, 0.07490643012783092, -0.023771901138493794, -0.07045690041308271, -0.021600031970388973, -0.014988197149918024, -0.014700120678138934, 0.014995522322285465, 0.09468569503869817, -0.12674369627145804, -0.2835558369070793, -0.3418870302702409, -0.19093189354187917, -0.4086003602879561, -0.3649998245679748, -0.2534343957975339, -0.10714979945505519, -0.14745572972567167, -0.07261223005348423, -0.3694274153704073, 0.07189443138140468, -0.12111803538480943, -0.0879977548032787, -0.0361870252095532, 0.09750861258308549, -0.07259129131302913, 0.1735583268242782, 0.15184894244260794, -0.02236739810634528, -0.12729953452519235, -0.09249857549262487, -0.07022837973097319, -0.0258501284790942, -0.03490838993107196, 0.0020561371627175217, 0.010678534548671752, 0.0989976343976707, -0.06615162245877841, -0.14932751608345934, 0.0486133951844924, -0.1704831596654569, -0.4096373608734797, -0.43018945956169485, -0.09361495100241282, -0.0078004782171908855, -0.17319801525788825, -0.049794183505225915, -0.13560548959531402, -0.19484869019673925, -0.07837767069627537, 0.11930706843785423, -0.05828636069159037, 0.1764641072308781, 0.12864410140902072, -0.2138191155490413, -0.017651789862598924, 0.0002773294657967809, -0.15868250399734632, -0.14614016920428693, -0.07537947688235377, -0.008680580022362888, 0.010303934845057582, -0.005222105328226501, -0.008334613172394305, -0.026039561874315352, -0.16889056241819628, 0.04559865589841803, 0.28313184910498174, -0.0038175265349582235, -0.18211458566235073, -0.20827130766342838, -0.07964496854661787, -0.21709814532097219, 0.2123180240928044, -0.14771486258056743, -0.2886924664223002, -0.31604664164431445, 0.15793637611521397, 0.22482755656680187, -0.14188944318793634, -0.06007772182708071, -0.41389659426332726, -0.3377847313935719, -0.10062290565538597, -0.11235405300347277, -0.1993344424423397, -0.09194222955208195, -0.06710219375205786, 0.026702179203308793, -0.0062330422915297815, 0.00815251113575677, -0.008272784790478722, -0.008953672634519273, -0.0012258982615828181, -0.14078403341540416, -0.21402005562652426, -0.24969867573615032, -0.4140747840552413, -0.09137447571299312, -0.08584838306682098, -0.24184635586026448, -0.007060817523405073, -0.11432635257080034, -0.019726362521752833, 0.12086785377420933, 0.019636081078049098, -0.0684773777997924, -0.01704755696446776, 0.2725271059971742, 0.046664648380324664, -0.043148279486451016, -0.3483258616061193, -0.3531058358934572, -0.2537601110979027, -0.20665723610031933, -0.14183701811727467, -0.00339037790281943, -0.01116144310945116, -0.0027318380200830866, 0.009919557832787026, 0.030293534477369, 0.0502621226154337, 0.013763420859620118, -0.08721551708542906, -0.1909130875591408, 0.02233756237114583, 0.32343009015002716, -0.041867480141292664, -0.021610135839386212, -0.19527243016326762, -0.14552123911313963, 0.011075086473726736, 0.08613066272263242, -0.10169293690100677, 0.046436695209904545, 0.2877057618025674, -0.13292346061535876, 0.041084644184530034, 0.21893046278147293, -0.20683130603838612, -0.23116322056789818, -0.2814998531007874, -0.1406239683434676, -0.13936254410207022, -0.02132232577623221, -0.006723620659828284, 0.006876027593074375, 0.005802169919903885, -0.007883229928330546, -0.01201006337564446, -0.13992335728004984, -0.13843900067650397, -0.19551160370316187, 0.14718427002547574, -0.13841236555876751, -0.1836006210483347, 0.2485843353913551, 0.21477302097818743, 0.27992965169293405, 0.00770300668740802, -0.18887919156507046, -0.28794421431762895, 0.096112093199505, -0.19351181745216595, 0.11258554881096682, 0.25567895003520025, 0.2199724236112791, 0.0037968204962032415, 0.09810068024900356, -0.013619953799795024, -0.11827201740334524, -0.0679583201047301, 0.005150027242369458, -0.004948278343997653, -0.0010777431971911312, -0.00906578514776055, 0.0033689760128570593, -0.008368193205445922, -0.13199734529370166, -0.12668346255707796, -0.0635043114170403, 0.04627849086084119, -0.1580504792253723, -0.08181144145306735, 0.30062201464542293, 0.31639277446487696, -0.2528431757698127, 0.0066789891045682505, -0.16148102915173185, -0.2797906208077546, -0.06363777563123957, 0.0783663449750936, 0.25783923708835205, 0.2056333289047144, 0.20329752741249404, 0.2604386295205498, 0.1364261638758023, 0.052833035412865374, 0.01999616861013834, -0.0015669112920510863, 0.0011516743311075176, -0.00426738383933503, -0.0013035737595005613, 0.011303614195874452, -0.002743481397056553, 0.004620016041125089, 0.029315082570853086, 0.13740710510487975, 0.11354482422746777, -0.017714422972167645, -0.047799537728815504, 0.1578337696003155, 0.28196341775033057, 0.2058646284623698, 0.2644365920414041, 0.2871312325013198, 0.14922198194247588, 0.1467415133040856, 0.18780283717204105, 0.17329339601196295, 0.11829863123897383, 0.0653005408757206, 0.17308022019908387, 0.1461141008287119, 0.047018046710471634, 0.017401345384135226, -0.016811233981053848, -0.0020522134170752305, 0.011786949767597043, 0.009411094464896087, -0.0026293053003314496, -0.001997109030462722, 0.006025311372187631, 0.004542120084301361, -0.0013518517510561652, -0.008520873424217243, 0.006702756466408848, -0.0008784249780420195, -0.01105987643190036, -0.015204896900189465, -0.050169874225587725, 0.0048433514479597015, 0.025286916421363152, 0.005114306856220984, -0.009883995223150224, -0.012796165521526102, -0.03090310468528988, -0.00300219025129774, 0.036955210014328534, -0.0009720031353247086, 0.04835693276289219, 0.0364119291188141, 0.06245428968691094, -0.01597674417328601, 0.005151185539558834, 0.0032493155145519544, -0.009057181917055753, 0.010790106834804618], [-0.0035213654144135957, 0.011033145505833663, -0.005827253045042519, -0.010728786998723398, -0.014870465815099819, 0.004721243457745868, 0.00047835673161655617, -0.008300766332127063, 0.0012933448119245821, 0.011341245020899261, -0.010783510018975779, -0.010906158568106328, -0.007264396415924177, -0.010050427669063028, 0.0018701594361116235, 0.0027231716123844586, -0.0019772494762295336, -0.014272078912262339, 0.005125493235690054, 0.0013799004376191676, 0.004413493364935372, 0.0002094403440150272, -0.00042897373078968465, 0.00775013952195783, -0.012435064448074178, 0.002496467208900619, 0.0032397207212142586, 0.002863845606546483, 0.00986298018667352, 0.001201337205927256, 0.0034639191914121914, -0.005993942604931355, 0.005936965780696676, 0.007139101404505936, -0.0018801526566416757, 0.012378367088225435, 0.015505866167601657, 0.004372590686009963, -0.005378089795791972, -0.016569072196003568, 0.0005264094624408134, 0.012508995753588933, 0.0010441824136676698, -0.002290965632203651, 0.01819123366958162, -0.0011456591702203895, -0.006393125210625087, -0.012634497939217101, 0.0044626071864844515, 0.006275264539877228, -0.002979311738450236, 0.007348178192209022, 0.0020962232488880845, 0.019708334742769, 0.014097541127701133, 0.013493525186418163, 0.0007384388314952886, -0.004231853371480585, 0.019913563729463936, 0.006202900691056777, 0.017274478696938603, -0.0013907478823872526, -0.028015909920275466, -0.021432635879509228, -0.02913781876542576, -0.051330576885547236, -0.07247481115237239, -0.08887170870639316, -0.07960903684788438, -0.08125435844557052, -0.0685790556919013, -0.07824666720202152, -0.051968970739580914, -0.07693742157615395, -0.04449422379032204, -0.07805708190101461, -0.06870561401769432, -0.07300149688919204, -0.03598117310464497, -0.018212305168473115, 0.025716262041156606, 0.01784743223776261, 0.0016932985506653388, -0.009020580930666293, -0.0036120007833308995, 0.007728547606671462, -0.007503272243241541, -0.00301835127666776, -0.011675949803431675, -0.019295916419802005, -0.07866654456948846, -0.08013872414701227, -0.1193376719648779, -0.10260403077188258, 0.0253942825365721, 0.07450999757775506, 0.002858497141773394, -0.007987643441452301, -0.050961003404698724, -0.012114600048162831, 0.015954892006283677, 0.1779019516418684, 0.15374042027298265, -0.013025435319321904, -0.17971788739844863, -0.27634946914185654, -0.2669850593061403, -0.18832908230446282, -0.0915575250071322, 0.013944239684453508, -0.010274349041583008, -0.009052369064294767, -0.006618232439890358, 0.008384867981834089, -0.0008754873765773284, 0.005005365574386638, -0.02221218533550718, -0.0071327082827289355, -0.0746843825469587, -0.1565110851831179, -0.1615052059515971, -0.16432230038462178, -0.05540040730818164, 0.12633655817868478, -0.27083856332449197, -0.3588210945914847, -0.35511204144194114, 0.051144471466995, 0.12325868365981618, 0.1107015131131887, 0.06723809984918461, -0.054510417691249126, -0.03999026753109141, -0.07577842424245104, -0.18919292181952005, -0.1433416538745479, -0.010787004706875845, 0.06269737161136643, 0.045083909245992, -0.008944005399931407, 0.007062869840772729, -0.009675549495645053, 0.0046626283357733625, 0.03455221082707614, -0.010664181168154074, 0.03079201901552463, -0.13175298987482598, -0.18728323736350558, -0.1484658385109979, -0.17810166151135237, -0.20819866837201767, -0.006092701667855287, -0.41229577071450146, 0.36057324690681924, 0.332096826240164, 0.7450966579573406, 0.5765756800661411, 0.18989285581646506, -0.040944491009685655, -0.26749651780781186, -0.5254296740399431, -0.28302832948431067, -0.13063905086942856, -0.1594517732566655, -0.09798434859353229, 0.02573204505489382, -0.032431492450446756, -0.014700112695200652, -0.003862530842681089, -0.0037414750410771137, 0.012497402666869212, -0.006189512187880749, 0.015233078911757264, 0.12451191632965324, -0.13494839032711398, -0.22822108706865307, -0.1307538267858765, -0.4018189674580001, 0.12787231883625882, 0.03481192811076919, -0.1791695204612624, 0.4585541333091637, 0.5283481849824967, 1.2659237703054536, 1.1409801260352854, 0.5718374654921281, -0.15426314586085482, -0.3417367052202952, -0.17849438303238035, -0.23304149327381915, -0.04960133160639688, -0.21445101128227056, -0.1435648057489528, 0.01756267502794911, -0.059589602339537584, -0.03233354348628854, -0.006744431295920966, 0.017683854934455547, 0.011991143780510942, 0.04828178091611078, 0.008591732865100423, 0.0006568711879997225, -0.1259638041463333, -0.1588811325085341, -0.2604061238344866, -0.2249935613575926, -0.2432711557271289, -0.43261246278326987, -0.5608431914928989, -0.048138325677312195, 0.6304086518771949, 1.2208597741768659, 0.761680430747428, 0.07358867010074079, -0.09742271741324277, -0.4692739011284554, -0.03368793396400263, -0.08286901301233636, -0.18983485856265764, -0.013525902297612972, -0.012314225462689862, 0.07974881661971626, -0.046928669909877097, -0.013886537742692938, -0.006537743746862627, 0.0035203974307963853, 0.0024499077168289936, 0.06883390779796346, 0.0643126534764241, 0.053708432249055846, -0.021512980495756156, -0.0016018100723309097, 0.2253604906069071, -0.09407790160418027, -0.023476841874629138, -0.2168499111186001, -0.33019794989525847, -0.08762817983445337, 1.0465755892598132, 1.3560487290560868, 0.28324719281506844, -0.16515131047575887, -0.008700074939465502, 0.011321116465894104, -0.009490234230982802, -0.0003442119543724906, -0.02046769625757645, 0.03455339781892015, 0.23911858740852787, 0.14028633532715562, 0.061197619293825944, 0.008298881413017963, 0.008095313467833147, 0.011156812818130841, -0.001542853130675478, 0.09009285409152354, 0.0779102298665651, 0.14082912616357574, 0.08280276415047097, 0.5572878881223507, 0.14532927205310986, 0.07075029745819032, 0.3978268532257876, -0.23250642390270324, -0.522644378383732, 0.1547059289749696, 1.2781045444169339, 0.9729025367610891, -0.0581416576022624, 0.08006091729878277, 0.10602768354617893, 0.08819292159615948, -0.04439609726921602, -0.011234205608740468, 0.15281663401787998, 0.30199768092653606, 0.17431210895986976, 0.17065144553160233, 0.11414602728062245, 0.004096162217795433, -0.017065748441503343, -0.00025241373209599667, 0.060255915521742774, 0.12418686009768484, 0.17057726722540723, -0.10379482975806606, 0.35223702028516884, 0.18299653686774028, -0.07050100751012983, -0.01525330363467956, 0.3076020239838144, -0.1878178204628263, -0.10131830767097261, 0.8262478989898769, 1.3985286958023506, 0.6157831924975758, -0.03619725858022313, 0.04249451290769147, -0.03741888156105279, 0.05500299262580485, -0.1017714593748981, 0.04731253388777963, 0.26700345699629824, 0.34908982844508873, 0.05563132599293709, 0.15062231046432153, 0.09930810256264269, -0.0173048326012904, 0.009710760665123136, -0.010122746935007688, 0.08279480871121718, 0.07974675274513304, 0.22274326650291337, -0.05743373956147606, 0.5369979804859462, 0.41423670472069846, 0.267230670338175, 0.19297950306985923, 0.3453819346752585, 0.16648020017909296, -0.10346152917574955, 0.6391046204540041, 0.44372852697254644, 0.3254976957178607, -0.18005156163650304, 0.15755103309398213, -0.2932986116689966, -0.12912064108442053, -0.05946561086884798, 0.24880896062040386, 0.11317659826209563, 0.2257496755147157, 0.14622324202042594, 0.02108918638914397, 0.0608896107232909, -0.0012826961161697852, -0.0027497619899152807, 0.007220366995269779, 0.030558460047904062, 0.025103923923251618, 0.2720107548275298, 0.0642715506970792, 0.1433877260329069, 0.25028135614534774, -0.14518837993041267, 0.29465570051513273, -0.25343380846341573, -0.4611984989725986, -0.3896314965672575, -0.14116218698973193, -0.08586559753182821, -0.034592471343148135, -0.17110815877601035, 0.13897920322975962, -0.003817505691679132, 0.2505413970882054, -0.10704481288612926, 0.17819675026825854, 0.1604744946570651, 0.04020210416890189, 0.020441078014509124, 0.036913977935878466, 0.08745868526009463, 0.025959890430170326, -0.001600130067687423, 0.011063956088299918, 0.020686065769400283, 0.04775389364194086, 0.1725797437385542, -0.16726776579197145, -0.10211432387066814, 0.0011259604020354443, -0.8052965926306188, -0.1080784812030591, -0.3979502220420987, -0.029651905963139914, 0.008328799361778013, -0.1804793608508102, 0.14613640483118098, -0.1176484915039236, -0.10886736078411166, -0.06556807384580383, 0.23557764878881587, 0.2820568891044031, 0.12131142866340389, 0.03857608398812255, 0.03040819570856665, -0.2692801301746269, -0.08897743374315831, 0.06304351325061366, 0.052746420373207224, -0.01693098148761597, 0.019519149143544235, 0.013328706419263927, 0.017308339358251355, 0.04702855915959882, -0.09164098938412173, -0.5705899069535989, -0.20243429478643735, -0.01195159324231067, -0.05014696089531066, -0.22303510243140467, -0.0956742791830391, -0.19446788329430392, -0.00991506874237574, 0.14268977935139085, -0.14590801214390375, -0.18768319287311278, -0.13392264819711808, -0.23811079406520327, -0.06405374580199946, -0.1930225444323284, -0.17141990606451116, -0.02085489440343591, -0.2548750169251403, -0.3366739785580094, -0.12748942635432228, -0.021573413290916752, 0.012049817453029906, -0.005309517599481777, -0.005607036883231566, 0.005095337811508373, 0.01839168949816963, -0.07845785848459814, -0.018873512728880333, 0.03972983539826481, -0.30001319381146824, -0.3612380933653695, -0.03279706722545798, -0.060578684059666724, -0.23742830952269556, -0.057400805299749294, 0.12035888671134448, 0.06891030313938064, -0.2790113609254348, -0.02861158726582061, -0.1751349990515255, -0.254625451526069, -0.3185575305921195, -0.2935233211631423, -0.034005543995781824, -0.03057466165963188, -0.24935693889615607, -0.21776511430281545, 0.024729730563275865, -0.09478667832258043, 0.026856870201074537, 0.010812596386692077, -0.005486332457397281, 0.019987324588078486, 0.010438889644677962, -0.10241531597166341, 0.074658665010184, 0.29471272835089285, -0.056368061514544855, -0.27584703250415354, -0.26803521751691123, -0.3305975297176277, 0.0063185024126022815, -0.3147351050340487, -0.06990443114623207, 0.14999523760272143, -0.23242095062359022, -0.24896669365979954, 0.06740585294453054, 0.35925341701161567, -0.06244266546815391, -0.21806567864572043, -0.17991685254994988, -0.5134968451717541, -0.11965632222270625, -0.21666805588841606, -0.06577999324024804, -0.11704553802277398, -0.000359880249347082, -0.003903611755398921, -0.006885907224632218, -0.005549853775464556, -0.012025704599934921, -0.04371337715715436, 0.04605427954778938, 0.21230139602931372, -0.1041330424486768, -0.04089035646291216, 0.027304063761721436, -0.1820599133581459, -0.0871471484150294, -0.21846716583831807, 0.10286965214093254, 0.19606299225992047, 0.10827553205181463, 0.16829294943684323, 0.04181836849235974, 0.09922536530322655, -0.011244438715690794, 0.18343521351872058, -0.20278574247560346, -0.5525807796829544, -0.3608856447210361, -0.13176085205744506, -0.04292245185446773, -0.06835868735396765, 0.003253822036416854, 0.02923939744722267, 0.011993246978552828, 0.00026767303166484713, 0.015916910488489706, -0.1025877487567715, -0.1329538071865518, 0.09842462606347553, 0.16087774549409686, -0.3208322742883955, -0.43070899185849887, -0.16119943456378702, 0.116838034372604, 0.2902998101811905, -0.0165063464109892, -0.05893329054203477, -0.511551934753798, 0.2699202143140061, 0.028653965400864834, -0.20957226642044308, -0.005526584260520298, 0.11664941691082809, -0.023222352035226063, -0.07553865312999326, -0.13557822982815795, -0.0855779822109077, -0.10543654084925012, -0.0609871760581659, 0.01565661916013971, 0.015606301093393593, 0.016466193053185342, 0.0009425478695286767, 0.054533642185181336, -0.060697895775850795, -0.018478902352342157, 0.11100077773770636, 0.17543674801242012, -0.25842384580609074, -0.3140853178199712, -0.2815670732730082, 0.10597043595550731, -0.001206332175927029, 0.17576239550724884, -0.04621900536184541, -0.008939891559119666, -0.015038338402589519, 0.2221316361269218, 0.057765469846941614, 0.2151958276789965, 0.20734655934879462, -0.05468353561481493, 0.19477365034157573, 0.11460670195794193, 0.0984053970917042, 0.03375976761334608, 0.028724036801168213, 0.015407938169569589, 0.0057908456141379915, 0.004584394354775754, -0.008913041190838156, 0.011068112708542476, -0.034459707310733785, -0.02422019581361531, 0.16050745522132842, 0.2631001423114795, -0.15596071084615648, -0.14325508341088522, 0.02481554843739431, 0.04742649511556543, 0.2795159473224341, -0.023661190697047838, 0.0001537332309186939, 0.1687824882980926, -0.01935043070565828, -0.10188241111541362, 0.06959831775176788, 0.15763277883820184, 0.2868827720679491, 0.09076652949361648, 0.13853227985491448, 0.25933134681713477, 0.25879024178230936, 0.1394317395269134, 0.12697214022782, 0.0028949145203927542, -0.0017272471867147865, -0.01191163734592087, 0.0007101355319472472, 0.0138717576216693, -0.01497811396756046, -0.0185905827089167, 0.14337450244883332, 0.13420342624383627, -0.0987025145533166, -0.34335879415237336, -0.050982224414042335, 0.12134329286118828, 0.07079928530189927, 0.006394801187383231, -0.19692421629813148, -0.11607293158129187, -0.04999756381601502, -0.025445355433515657, -0.04575742309046069, 0.10927943277284445, 0.1243368018938323, -0.05060033374016053, 0.18412585341961446, 0.2166877842650154, 0.065961991923792, 0.19123369576904506, 0.08513472679187864, 0.002482682865297619, 0.006742051189795845, 0.005481459335151779, -0.00024215163736122577, 0.009576252460501278, -0.012709797095177961, -0.025814012346624282, -0.00766336636798966, 0.05869722753100916, 0.063491881523236, 0.09255446234086705, -0.11631656611159942, -0.2122161017772809, 0.16989209398410307, 0.18930724950274522, 0.0259725378532881, 0.11874692661583533, -0.025573561044456468, 0.12293724836100003, 0.29318284910987885, 0.19410382599072384, -0.19347293915929803, -0.06372499141154613, 0.14130650630590108, 0.19422417128283126, 0.16562788244856153, 0.10116583771887255, 0.006054126030344707, -0.006736635809132918, 0.004971298093501421, 0.018095961958213454, 0.004479771789121591, -0.002394340166393733, 0.015333601956281475, -0.01816144550535079, -0.02084735618282346, 0.07423086519964103, 0.10343140017311628, 0.23477665019416605, 0.20401345712748534, 0.022703424009662226, 0.31940201342506286, 0.255227830779459, 0.473268627037762, 0.2438667542524454, 0.26125194982520406, 0.1235437953581594, 0.24654488355295692, -0.060912926818590556, 0.09523416950382527, 0.28997415469616505, 0.180355847844595, 0.20191150708733213, 0.17774551292476787, 0.15203698284687858, -0.0014698596057109005, -0.009674043805277815, 0.0075756632820443105, -0.003933471312233444, 0.003161177085334284, 0.01718655341168808, 0.0026453793732938635, 0.034173575509009506, -0.0009191198519727717, 0.038201984783578224, 0.018126718707108993, 0.03329785947923093, 0.028132457848981548, 0.05587395080321919, -0.15593152345265948, -0.14918917737402315, -0.19327887574486605, 0.029078956425347153, 0.11282697308953732, -0.11762826691874351, 0.06105316740472619, 0.05289044908768612, 0.22552950319435283, 0.4200310621707015, 0.18060124949849807, 0.10386252776925356, 0.09816045621596614, 0.07081910397939663, 0.001815073198101844, -0.015192916518760704, -0.0074472124375064425, 0.0011212890075901678, -0.005732110921454585, -0.002824252083085074, 0.01028422508996635, 0.021793732930080523, 0.023260154364312582, 0.07330743950624191, 0.19915219672965645, 0.09081905874983032, 0.08158690015174026, -0.010188597011088433, -0.03492041959899223, -0.02744553295955642, 0.05071962863225818, 0.1730943692139531, -0.12601456271780057, -0.14847748966533086, 0.18531821381402147, 0.12422758336345235, 0.47038527691998827, 0.341440885813083, 0.06343718860481055, 0.0375956979302966, -0.05953820592087379, -0.00769614086147764, -0.00041492990676571896, 0.012549746651623244, 0.004754613514657446, 0.006688498776004621, 0.0080702537254146, 0.005331751733050407, -0.01603080678602785, 0.011440538685982226, 0.04737816249242459, 0.036601595645829, 0.04109502296793292, -0.010593220981569382, 0.02024539482168901, 0.17210990286966307, 0.24347729075499192, 0.21624888797841016, 0.2616377796618048, 0.40857026180144973, 0.29495598446616555, 0.33618123697134744, 0.06351841415137097, 0.19049586287308912, 0.17514140881725962, 0.09970512608278895, 0.006540201643264546, 0.001466462753199056, -0.004197676595200893, 0.00060118530865278, 0.005367466387867161, -0.013395368034910328, -0.004071723051524647, -0.005051658280894822, 0.003937765725156581, 0.0030060876455446387, -0.010785504734125102, 0.007455296374699144, 0.0032205802968278165, 0.01746527119839493, 0.0598962126804968, 0.055195627311809034, 0.01518068560248885, 0.004877079817131139, 0.03115961599914214, 0.02354592704138287, 0.01489142362130262, 0.02644474316568422, 0.019869100007713192, 0.014576975245978193, -0.008917631860781238, 0.005220980137821727, 0.0037841452782446726, 0.005312904379988119, 0.019406061038113487, 0.00024017205831341787, 0.00297562508982754, -0.013243940884525233, 0.007816207650954574, 0.00149548265177698, -0.006415782844326934], [-0.0009856151147623852, 0.0002651773533586573, -0.010629986889938688, -0.0001955182894855565, -0.002285674625395734, -0.006694396659949919, 0.013610710187190931, 0.0010137296695224352, -0.006707541239263021, 0.006733557077067214, 0.0049835975774345925, -0.00871967773918307, 0.008931256345720827, -0.0019009786868077285, 0.003100608005941668, -0.0011113585100980023, 0.0033594592035434724, 0.008188339711542546, 0.011646504641793884, 0.012295210627845103, 0.006552306196219642, -0.01179989641544875, 0.005312340176140245, -0.008134293542112874, -0.005022016596014129, -0.0036326950544312837, -0.007738522036634904, 0.002728009671890081, 0.0024656714219919336, 0.006619942352489651, 0.0014856243774930369, 0.008168238910959674, 0.008884366364426086, 0.0034690708784602254, -0.006237661353190279, 0.002337513323026122, 0.0028726889202268387, -0.009183724759299367, -0.005099521546666483, 0.0037387592709920065, -0.004622871242562283, 0.022339036714791437, -0.035036310954429585, -0.09089986376180026, -0.11425232680810335, -0.015805371684538244, -0.01674307994062941, -0.0012086986565278154, 0.00266445705414116, 0.017849368545250127, 0.013749857128089397, 0.00691127656749224, -0.010436286872216852, 0.0010452935179146156, 0.014922928117596697, -0.007732640242101661, -0.0038786404807578407, 0.012324172739552011, -0.0035341851403087807, 0.0020314467834626135, 0.016917456877874968, 0.007567450560389476, 0.022312779438409806, 0.03206702788028958, 0.03523855372255815, 0.06286443374082101, 0.10795385054282196, 0.09374561204166527, 0.07508520221553618, -0.04338090467757674, -0.12608218723436285, -0.2227847048147962, -0.2407460189462571, -0.04209849047253827, 0.02654725804394409, 0.12353866986429711, 0.12496971478722312, 0.07433057580821978, 0.04518950128840268, 0.03149303619845749, 0.00916648009840014, -0.003856303978225276, -0.0023037999670033737, 0.009169218550354194, 0.00012063335867569385, 0.005212956709676966, -0.0005004636898858726, 0.002135336648173308, 0.00898862126941878, 0.010494007497902635, 0.05393279879637509, 0.06381874447964442, 0.11986863738801834, 0.23165117143726077, 0.19834644773792653, 0.21167135333921544, 0.021143835643915723, -0.46739816442359405, -0.6555215558105143, -0.6028380229559769, -0.5971269237887074, -0.12700447970298623, 0.1354698481299003, 0.2605807871575808, 0.19355943591166744, 0.06527526609036191, 0.10701557822408296, 0.05065770647873092, 0.05023933327967311, -0.023700776394818907, 0.001134618778708058, -0.0040452344092803995, -0.01410285342311492, 0.012615886611757056, -0.012108087285281633, -0.01902445670687205, 0.00012594526224864806, 0.06787667248517318, 0.12278565697615688, 0.17063326864660017, 0.293199400385478, 0.30732694662027776, 0.2254965452092787, 0.04262675154065647, -0.16102188083122682, -0.6946171610466451, -0.9059694535936367, -0.8783682990453251, -0.3583546586876337, -0.07644933801741234, 0.029854034774266725, 0.2758771016106953, 0.20176327167877187, 0.008085209721137548, 0.1718128240709408, 0.11981306072993306, -0.09940470419956855, -0.15544015755372842, -0.09660740564646793, 0.02483712916135517, -0.006620498417880892, 0.01560254364433216, -0.0024048326544519865, 0.004309257010124358, 0.04693207625431561, 0.1920901479390313, 0.30185019161494014, 0.35754898615416575, 0.47406436279517095, 0.46879049583002247, 0.3769483100461461, -0.011269504199350727, -0.48976178263740827, -1.1667398283993318, -1.010793386664562, -0.8842051316848863, -0.05574549717333157, 0.31622023990324033, 0.33377533361645234, 0.14343811962532765, 0.3226160072209672, 0.1729073297071931, -0.038658024733124734, 0.1605582418625794, 0.2675307075822557, 0.05173031649521295, 0.04657901076065802, 0.0233018309230847, -0.008777087459171001, 0.002405025057612795, -0.00885007496420777, -0.006982365685657872, -0.055393172923809214, 0.020693889266234902, 0.20025377033737016, 0.3836731578850901, 0.45762232514484413, 0.17782332004194779, 0.2591672923941807, -0.20647332431558782, -0.6504768403699165, -1.4034854442958986, -0.9102122314742151, 0.09841064658328094, 0.08517394394503076, 0.15751320699833418, -0.06790462884682183, -0.1543497170702242, 0.29967533698952253, 0.07008690062451126, -0.0800806166335379, -0.006865387720843025, 0.21587159972236755, 0.13422419140812136, 0.025197257901910502, 0.04035089006536779, -0.0077010245151883094, -0.008841872892979323, -0.0018081719571594213, -0.13399272736256057, -0.06149528653756647, 0.28195242371752516, 0.23634762650022678, 0.23266778683930864, 0.2891620336237688, 0.06983189755467681, 0.17992851241198737, -0.16719708275967327, -0.8544352661747675, -1.5342183335456436, -0.2735212473118094, 0.325823975423784, 0.4847064118174939, 0.4325939976202116, -0.00519390897596909, 0.08480708969388678, 0.23467263377919637, -0.10609406292101642, -0.14510511152729258, -0.3741015958226525, -0.21061159709604296, 0.03953746252936628, 0.024926262209174432, 0.020000957035551582, -0.009792951701371655, -0.024073502083857057, -0.018262727307910315, -0.05143192101487783, 0.09068255674384822, 0.3849845944248787, 0.19713058069589054, 0.03805734062148554, -0.09003187966052546, 0.09670216768110643, 0.05439702659708597, -0.3506272611101621, -1.4824984514802793, -0.913483437328235, 0.1221682091058914, 0.16614273001818133, 0.37351627558545303, 0.5037037648226436, -0.07576892603367352, -0.046656188201172594, -0.2771942692691663, -0.2253766741824031, -0.2621690270382271, -0.4624122294621937, -0.3765479243636335, -0.1225962771418033, -0.08446991601976377, -0.002963476487563998, 0.0023282345194509213, -0.04017302329995234, -0.022923707861977685, -0.024646513612822454, 0.11825762997870896, 0.1375177033555154, -0.29167217408151563, -0.13025749538245057, -0.06092484923159131, 0.060285122664875374, 0.0804084828820871, -0.19473029895364777, -1.0857894117764484, -0.8158903614100295, -0.27393415255962517, 0.5999861684902931, 0.48426613801276724, 0.05365562284408555, 0.033587918832872266, 0.06548633737046226, 0.15861592340190192, -0.06669252543137111, -0.4018772882946839, -0.3962485402817456, -0.25019677142612673, -0.2143755614229995, -0.09708289452239321, -0.009138334996690315, -0.007700275870766043, -0.038573530391222036, -0.03657868769971928, -0.07958850947635042, 0.019564054670475287, -0.08136793412407116, -0.5684027173452979, -0.024049801626646897, 0.09457884623455395, 0.12331405020872412, -0.05635412933826304, -0.23765760528612287, -0.41363314535872936, -0.6962917922860133, -0.06915200995279676, 0.3035105505659985, 0.08431816433979283, 0.3571481275887679, -0.15144756532978373, -0.21530747234712075, -0.23655825621663687, -0.4048187461107928, -0.44363527965888744, -0.25599679342313303, -0.07551270115262225, -0.08015259375441988, -0.05830048140850645, -0.0027672738360370913, -0.004140375784870083, -0.027253023799947197, -0.023519302396850336, -0.07705924381125218, -0.175526292892501, -0.06145542157367545, -0.12350518947926763, -0.21759876624978408, 0.0035294499880773158, 0.15503615465586956, 0.013919665499639584, -0.4570271188957424, -0.5867695562697558, -0.20704344889010792, -0.15494789626530167, 0.08992792376348507, 0.23575286356507802, 0.07610846780931685, -0.3793298506316779, -0.5700378204934552, -0.28083204152988045, -0.2188597439149059, -0.2131776631881836, -0.11775952235053531, -0.06086050521926977, -0.017905789278618318, -0.018914973113469704, -0.006022194254038625, 0.013390177568824753, -0.009841991469209136, -0.02060284181306811, -0.019127445203909958, -0.09147065986725507, 0.0894167586869646, 0.14295879408995496, 0.07313151039712466, -0.2268603595132496, 0.14100404225315666, 0.3731544539268641, -0.19285486749867942, -0.2241309601444514, 0.21593008279207807, -0.1682467659503173, -0.15952704097156128, -0.12585546573246784, -0.1375800565898102, -0.04897172410734174, -0.10437790369273423, 0.12395930609909138, 0.3298887281632694, 0.11266402292504536, 0.14851891821050814, 0.030716405946217128, -0.1196064995048113, -0.06104317382062592, 0.00842125327964674, 0.012627131751173777, -0.008105683522140656, -0.021944205129570724, -0.028453855505349443, -0.014006067752398155, 0.02551208389714073, 0.17095300825769136, -0.031911093779016075, -0.12471746908645344, -0.017611592512259647, 0.1024690230142211, -0.052553756253187416, 0.03095273333495322, 0.19207338740862542, -0.1737563483373243, -0.2771803186952925, 0.14046107832770882, 0.2999444826826331, 0.10848656201014782, 0.1379882549767572, 0.14546374269033407, 0.04095754996434667, 0.22777406634275976, 0.2554133918663046, -0.11490250606194588, -0.09986047931102945, -0.04248945074713487, -0.007872931741471276, -0.011585526586492348, -0.021688894977605636, -0.02713611981214651, -0.01630216442318427, 0.17595382053148223, 0.270338900291722, -0.1296019738208553, 0.16706215504138325, 0.11798141981204503, 0.16206453454293576, 0.17713926557964965, 0.07162595522200489, 0.12758510492507186, -0.0648124540407781, 0.09448004399458193, -0.06514067894374018, 0.13068132309852318, 0.32146692437418317, -0.2734824664679881, -0.01416126351563512, -0.20698645200283888, -0.2397931532198525, 0.06447878527867479, -0.1357888504794866, -0.043011807342205256, -0.03635470467476606, -0.06768512691685391, 0.004468173959845445, 0.00433741013990964, 0.00019377284986303277, 0.03705692921307156, 0.00757871748182044, 0.2128555818325516, -0.09282923454844813, 0.07950611683446167, 0.3433332297599235, 0.024397321122094667, 0.19928743703308904, 0.17407442747584423, -0.18902026379209028, 0.2599938798375159, 0.18899874196774413, -0.017187684691724645, -0.14057912183139948, 0.05093236166765339, -0.038487064509892734, -0.19061709445865926, -0.025016077653876295, -0.3445326387579878, -0.06468575252111489, 0.21856422467994474, -0.14496684453139116, -0.1835529206376171, -0.09098627125002529, -0.09714946936205852, -0.017347202735997002, 0.0008509104490606351, -0.009062937234377306, 0.02789969573339188, -0.08154846373773277, -0.1303302525302523, -0.1257287507507952, 0.03333149884105853, 0.19648365648832328, -0.04621286882310688, 0.0319896183327662, -0.10922052189440859, -0.33002545920439963, 0.22200707602728742, 0.040557140145571, 0.026889718711018598, 0.1709535860929716, -0.023988677328695168, -0.19362926141097295, 0.19238981245453965, 0.5015178745705035, 0.24417308968325163, 0.35879006433941596, -0.08922495141089751, 0.03141235765146024, -0.024097781886484166, 0.008870203632788959, -0.02705994415152995, 0.0030659908966679333, -0.006487645384338895, 0.006834426901809921, 0.08011424181550213, 0.0070478455383558986, -0.01401007448344327, -0.11078845697397197, -0.20484310105278875, 0.021376673823429733, -0.0915769779004748, 0.08582685534170753, 0.07861630310880001, -0.18157675415340982, -0.1491672304820347, -0.1817935063062124, -0.15888153294860452, 0.060631482505000556, -0.08132970467243512, 0.0399178567478939, 0.19884944744963645, -0.23282220913458787, 0.026338723142974692, 0.05437618707610406, -0.2831283104021509, -0.18075593961699862, -0.1422494484514557, -0.041467396828831174, -0.039502422183084106, -0.027681045510200834, 0.014698493175706357, -0.007684590155975678, 0.047455425392361715, 0.17863336617810324, 0.0635018743737272, -0.05123585372550603, -0.13062306343831126, -0.12961172674831045, -0.11968153815391304, 0.1651912994606419, 0.07608955871240303, -0.09509259756683486, 0.16444179316435215, 0.10871021647899523, 0.00801002841567039, 0.004738072486618782, 0.03384891180493282, -0.12370014776768776, 0.13413623043838485, -0.23034682702101822, 0.20908247100666402, -0.014739760256161727, -0.1629902098811349, -0.09623112404486155, -0.0857931972886007, -0.06180066487358567, -0.05069158108069432, -0.009421398922629566, -0.010820819445905983, 0.005057622970990824, 0.03315170511338623, 0.07602123333731338, -0.07847526254835295, -0.21639609652406294, -0.1802816192844493, -0.12652616113528475, -0.3665742853042087, -0.09323105957866716, -0.16930270842992068, 0.09736597862077624, -0.27295869620481866, -0.15718482404331022, 0.05437096064010718, 0.15241712253333278, 0.15979356359414043, -0.050122755843671506, -0.0021298117469872486, -0.12931642834598078, -0.0064223528994298475, -0.020731887786616072, -0.1823477857936226, -0.024727684257166295, 0.016145312182139614, 0.021322698457415353, -0.017249707425442583, 0.0169235817370761, -0.005351763041583045, -0.012970288954305902, 0.013008919500451178, 0.02625607576312322, -0.17373898250503017, -0.4590786618934749, -0.32199709295330975, -0.033975278439537814, -0.10111124033998134, -0.09653664585706742, 0.3608678711669215, 0.04725970127839901, 0.01910064249175211, -0.23194045037537173, -0.1303325891541025, 0.04605471445077073, 0.21341664864185653, -0.06310697284906529, 0.2853920464595243, -0.013555613805129419, -0.30728581038027963, -0.03356944390514096, -0.13492126264097656, -0.04981237441070943, -0.010735157490902978, 0.009455496621894783, -0.007792906719517242, -0.004831527129593735, -0.009965404845279125, -0.0030068667437544365, -0.032953698608021324, 0.0134366238351841, -0.07872601807995502, -0.2523431972563112, -0.24598332810276383, -0.03299343761996353, 0.20791185218243832, 0.121486253078477, 0.2629879435706577, 0.16075385815859936, -0.2527543565456384, 0.015424200295363157, 0.11071266597923238, -0.015332381099539718, 0.1459684683243422, -0.004548517692151217, 0.12890133980138443, 0.050251243645003316, -0.176583172289966, 0.01641050489605964, 0.06701848116708416, 0.05410172245282845, 0.014948048522521344, 0.004989312700876045, -0.0205807421181022, 0.007503409932423357, -0.008674716000550716, -0.006058923965272516, 0.0008681272738124814, 0.00503300109883114, 0.02055810743308265, 0.053098209684321794, 0.010359443498236476, -0.09392826055352964, 0.039910194956352084, -0.059344161932175954, -0.08509575277266097, 0.08467034409756811, -0.16799276314685563, 0.22953198784894652, -0.08278406603393629, 0.13706295924077277, 0.005425173868968953, -0.1538652420564826, -0.16494789799425097, -0.05714201435503035, 0.07876647896395042, 0.19669727889207714, 0.09230487184500569, -0.09090318947562702, -0.0146013803983551, 0.01693665998126961, -0.009989055552253592, 0.0004256672772474056, 0.0015746349241332472, -0.005704133155959576, 0.005879095504354267, -0.006998378626942522, 0.01284516765005272, 0.06129734940455518, 0.10408155401615166, -0.01721333413316936, 0.12282482658285655, -0.05106430291966486, -0.2025631555329262, -0.09368273370181596, -0.04755620268989441, 0.0461068524795914, -0.09638030043128962, 0.10255027459040121, -0.4042020043068128, -0.37945859134662635, 0.19493094752262055, 0.11951604228733949, 0.22744408183487808, 0.3128017514032854, 0.06316389289387153, -0.06608017704923005, -0.10309927165345874, -0.003987278778180069, 0.00021338481175267653, -0.00341607323841611, 0.002816507128325306, -0.004776811496225583, 0.004539429707057642, -0.01097213510305386, 