{"cost": "CrossEntropyCost", "weights": [[[0.0012539973261629811, -0.006917524480698512, -0.003289834306882375, 0.004928598870343141, 0.0007824012314064437, 0.005361995018141736, -0.011769862812271529, -0.004033481050496009, 0.00669658604484717, 0.0011197017221294845, 0.0064052246519875275, -0.00897874876402053, -0.005050312279399294, 0.010833365029535712, -0.007779774722259805, -0.00470916952743073, 0.002629034832117317, -0.007532769018029068, 0.004184074074908595, 0.003940099775851435, -0.009991452316624592, -0.013394673630313013, -0.005256319754207514, -0.009952395757920333, -0.004862171952866169, -0.010966148987330383, -0.007455900009977277, 0.0013874173094392873, -0.0030371403677112558, 0.013687167934830415, -0.010967558480604524, 0.0012122379560796843, 0.006757341371862522, -0.004703019226600578, 0.010869832994146286, 0.005064435098732324, -0.0034625498514534716, 0.0007082381193855567, -0.02115700007946102, 0.01918626359763331, 0.002433620893782448, -0.008538348982427856, -0.0058840163052862535, 0.0037603804680708935, 0.006870896081636903, -0.0008470027325415605, -0.006690757900130987, -0.0030938481937797585, -0.0156214710591402, -0.0111509396090364, 0.0012835391867531368, -0.011277897304198991, 0.002077340159247174, -0.0044380028222585225, 0.00348075150563042, 0.003070648545116033, 0.005191572893082529, -0.01011167722610451, -0.007693504399187057, 0.021544948482888692, 0.00594324706142405, -0.0027789586101611796, -0.007257599701837761, -0.01722650494693733, -0.007769549714026154, -0.017036454721549084, 0.02081256906226118, -0.001958256194384006, -0.023906888431052944, 0.0031077907282688055, -0.002181545266110404, -0.041383870238242276, -0.04047479341499614, -0.0424559653192992, -0.02970566593365433, -0.030587122793711227, -0.005868114253077862, -0.009161569938938036, -0.0017097969112817013, 0.0202393824877317, 0.011774143838124447, -0.0023732809373684643, 0.010550319457428401, -0.012802795052011555, 0.001663699050554302, 0.007689514207670248, -0.008080302359520435, 0.019636724394972677, -0.0055775500536312216, -0.014970286609725098, -0.021178224712216878, -0.04070491013527426, 0.01543532486726273, 0.04898565086372366, 0.05813332217210007, 0.0468633604237191, 0.09196425301479261, 0.07617797968142896, 0.08475027492472839, 0.060188911189564924, 0.03393782022091825, -0.013363210580369171, -0.12577573738864295, -0.0662576377741609, -0.0667299112274744, -0.10421996897865453, -0.05507203179910197, 0.008943819594601271, 0.005785807029054919, 0.01477107088384526, 0.006130972606426124, 0.0026297290268183747, -0.003345298632916823, 0.0019738719663066236, 0.010418400261704003, -0.008855257634168374, -0.013575547193735354, -0.0005787289792470768, -0.035231130731296974, -0.0055000687646298745, 0.05332476678612463, 0.12787102908326164, 0.09084272282979226, 0.09758505764668562, 0.055253215152219044, 0.11045497951311399, -0.08106102804645379, 0.08762167949414645, -0.12190174736236957, 0.0177442590807609, -0.017013446418486306, -0.09512338995438094, -0.08465616711135315, -0.09558646308259089, -0.034994610661423536, -0.04139375297505276, -0.06020246353992115, -0.03575735095311762, -0.0026416351819305473, 0.021255335162038366, 0.00566943862483621, 0.007676764979678439, 0.001750854352392276, 0.0008452238216523488, -0.019136201981833717, -0.005575582530850151, 0.03587893299335069, 0.05366617612386791, 0.10243732598274187, 0.01435953605619999, 0.19226096365144946, 0.06921402394678615, -0.031529074052046704, 0.09981569923835336, 0.048113918638426505, -0.0002226125142213732, 0.095837574182863, 0.1154700553375694, 0.16445515693198653, 0.09376085967053897, 0.06746075046022544, 0.06408084271906629, 0.004509843548833124, 0.017832039121954815, -0.04963602251257464, -0.0179116836079071, -0.01875070147022506, -0.004397619859289212, -0.006650573445681466, -0.002775667307281778, -0.0004947853362195977, -0.009539765370156045, -0.02445548402995529, 0.029484702592498368, 0.05340141361653879, 0.08311384306134978, 0.16582278154538752, 0.054247364146804714, 0.09620094510240391, 0.0334118217076148, 0.03356167123839452, 0.036406540890828315, 0.1275760362150513, -0.1357660990392616, -0.02836229836011894, 0.009333024710187132, -0.025317676587186283, -0.047558341898577446, -0.029163124212374183, 0.12741155779618862, 0.017011962541311747, 0.019514696334040852, -0.014157920676777761, -0.03295378833715128, -0.023556499915862304, -0.0068670869745029945, -0.00933770838503664, -0.0012312412719469453, -0.030706287309602648, -0.012068669305893443, -0.03533395405183442, 0.03212354117262603, 0.10259820490118579, 0.13856866676157722, 0.12085806565829987, 0.0681001931513431, 0.11077489459238261, 0.10160251660304213, 0.08836194418313124, 0.13480685885724236, 0.11629457866556527, -0.06723628546567624, 0.09153207860598359, 0.08669538239536842, -0.05481841339243497, -0.05643071105986068, -0.028496858443472176, -0.0572884657391684, -0.0851926968050305, -0.034874791625067694, 0.029491104080529577, -0.02025110046444047, -0.0046891318778994415, -0.005187394980350721, -0.0013027853170448662, -0.01154301217541612, -0.016995552374422112, -0.04065416355801396, -0.03560054039223157, -0.0034953876785173144, -0.021422485799489226, 0.022900588708627427, 0.1470451488957906, -0.06089422688295649, 0.10688883442301696, 0.057286176721601315, 0.23108876891827684, 0.0035544868139885635, 0.17388662246128175, 0.1765867982436539, 0.06399241694103154, 0.0037464594983385325, -0.029642407862470424, 0.035660550243027764, 0.11204012047420865, 0.03344907771738138, 0.05132023582550737, 0.10659723940387951, 0.0038437110323699744, -0.018620308466424308, -0.05178833868957123, -0.009292347577272198, 0.000764192011974743, 0.0015960078664456884, 0.0028335999707177085, -0.01464948028149009, 0.005102573721855194, 0.045851752263053026, -0.06611255709373733, -0.04581431764595881, 0.0009542827638251083, 0.016707696402573507, -0.026767948428622405, 0.04396812867882901, 0.08200325955517009, 0.15391396325463227, 0.26615541747828325, 0.0826585027599447, 0.2222567541003437, 0.09842342465004587, 0.19819338433753048, 0.14404276850244319, 0.07284859200782759, 0.04746950509575043, 0.09682964844541332, 0.10546832312655928, 0.02097215483126525, -0.04682111097316744, -0.050585551645661475, -0.003610082578241828, 0.012737251547341557, -0.004117551879726131, 0.015400623382063315, 0.012134733360117616, -0.028735340685427425, 0.07788372561343455, -0.052589746344038533, -0.1337568827294532, 0.02153951227559013, -0.14663407829453992, -0.08491607330367303, 0.11689882064471259, 0.06795005008162762, 0.445115665177702, 0.1311917059648763, 0.01176502946480282, 0.032464520961918195, 0.12972795356575534, -0.004303574963556387, -0.006714004864416816, 0.026115540829845393, 0.22930864247741378, 0.06628699940029052, 0.006401412222055506, 0.08900651070728974, -0.021195702429613467, -0.021229130467130645, 0.002759853911720248, -0.001702672306267598, -0.013513154846221082, 0.011047753066677022, -0.04593362368514137, 0.02118173107514762, 0.05154927341216391, -0.02036109734802058, -0.09698134376821761, -0.14468168471514814, 0.02816605825448624, -0.04380014735012083, 0.13555123068576325, 0.054969622636671156, -0.06296542921828246, -0.48196028957236947, -0.28738979543688553, -0.05037230154905932, 0.04754605328058947, 0.15367590717481888, 0.1302745510402938, -0.03807490495180862, 0.06403292260813527, 0.08291728260756381, 0.016875451297442626, 0.08540448483520081, -0.011941460661660642, -0.012894112946530444, 0.009314273745460106, -0.012484078026125594, 0.003262781123972919, 0.015008788627624078, -0.022075097273544772, 0.056766451590182315, 0.0186295121179351, 0.04443044964890805, -0.007970554635906247, 0.13048039924862606, 0.11870584736671617, 0.14660487936964087, 0.1395360296061269, 0.11091322786225062, -0.17236292974166087, -0.6445302474963033, -0.30529081818095055, -0.13474780600256758, -0.0006025450785617464, -0.06252022634237005, -0.08641712360411251, -0.08105639168046404, -0.1305241722533446, 0.022027738080326768, -0.020743870087087644, 0.05600286758896065, 0.003314637531435012, -0.02335740162038122, -0.007829327420964543, -0.015042369667226375, 0.011176573908601245, 0.002630211176274467, -0.014404340378904085, 0.007616340513118995, 0.007754200488730215, -0.017329523095770134, 0.09434993245812466, 0.04972984234505144, 0.09188262150722734, 0.02266440617094708, -0.060103025241118685, -0.1491281960732724, -0.3107949922026065, -0.2099202300064009, -0.361081684769258, -0.2541529443508178, -0.15379816739772623, -0.1368965044490232, -0.17204505692131683, -0.13663771881765416, -0.06643633451429792, -0.00833228307233971, 0.05289109957487127, -0.011151261222426751, 0.0068901541683609, 0.008757362492036931, 0.016509075268007083, -0.007598910973757498, 0.0030718531726479192, 0.017487019566219425, -0.0035104193950626188, 0.023102152288806296, 0.132473382310063, -0.04110997011593784, 0.12090660842873924, -0.026225606507692796, -0.07181550877707689, 0.08565676756902525, -0.1565853066755132, -0.20376189151628624, -0.2782666470702424, -0.16580696595791408, -0.07118110383923146, -0.22660026457046295, -0.34027637694900725, -0.10604056624920316, -0.11312664341693, -0.06409526337762937, -0.0790347128054445, 0.012755063725108404, 0.1628480740476478, 0.07785657206002815, -0.007392488457532976, 0.006942305320274476, -0.009344938897645849, 0.004905303732757091, 0.0027727538249609066, 0.02362553873451289, 0.002815057926011832, 0.08559341029103688, 0.06471015396696381, -0.09870316880543054, 0.155446887470152, -0.14548949580474427, -0.15845241157917594, -0.09398627415350434, -0.23744001951675225, -0.2499826899199969, -0.3796753207456843, -0.3702305290985253, -0.09718016183218811, -0.17461066799768296, -0.18834205167324292, -0.170861636191564, -0.16902091024670432, -0.08035949149166992, 0.008324085736639678, -0.07280997234731043, 0.15265145871306365, 0.07288102545268357, -0.012287881448959575, 0.019971081977381327, 0.004274971680250717, 0.005920357097289814, -0.007778673599040189, 0.010705237276930622, -0.01679059177411714, 0.04616343617466671, 0.0027551597937124197, -0.05935976239500214, -0.046902462218792886, -0.07659966624514826, -0.10340875632722862, -0.03055955696389901, -0.2869066464522768, -0.19063532080806866, -0.23674637068863746, -0.2448865067939816, -0.12335024347796243, -0.257290741251195, -0.12577481281011796, -0.2229303617280778, -0.1057996518456404, 0.030568506728507635, 0.010832328047965342, -0.027184342749760494, 0.028835357521946343, 0.09218340688001504, -0.014427433794439098, -0.0022239082908606283, -0.0008888205571801764, 0.01139889620359711, -0.0026995042043456183, 0.005911079981639821, -0.0461198076787946, -0.026405488585248275, 0.003635127436381283, -0.05598675384682896, -0.1785209106267346, -0.13375274055451977, -0.18052108348148097, -0.07875063392051475, -0.12745638571794976, -0.040566922639008525, -0.3640852274146985, -0.2021865208096537, -0.18920291128058192, -0.11724058692867528, -0.03543421907949134, -0.08499564176367423, -0.017442915758811045, 0.03705242005367832, -0.03503307309695178, 0.004496234139727315, -0.008818575996912954, 0.04387781248905675, 0.007217848530480092, 0.016786539761453025, -0.009485078732172211, -0.008856886046454933, 0.0028442090158978506, -0.0087124742018057, -0.06827559645759092, -0.043068865707442595, 0.0608428255826556, -0.09020296899009654, -0.1439819068277863, -0.14137568937526254, -0.11457181004364075, -0.09656843898446213, -0.07733248835862734, -0.07035411386765934, -0.19316719431040905, -0.16954491925724688, -0.13405706036223805, -0.1037289001888213, -0.028955855087060018, 0.07745854035666512, 0.029674468428934574, 0.061430292849050494, -0.010530684834435197, 0.12621943259486818, 0.06958756011021912, 0.007106409833290697, 0.024447557527982045, -0.0021577152358104455, 0.0009974615979609362, 0.0015518699033422578, -0.004957964526851724, 0.0007436126175532249, -0.07520564242448032, -0.03457424436378236, 0.06836308754058831, 0.066962783720101, 0.03518597243591196, -0.1044786979630664, -0.13844844486472485, -0.023932890958163797, -0.08735770333221782, -0.11236153221061061, 0.01704829101136407, -0.05355392116407696, -0.08408900700579378, -0.15104007929464106, 0.005441943271542682, 0.030651224387369107, 0.018045700009053242, 0.02129131764628625, 0.0562113979862505, 0.08830471307345757, -0.019416782831854294, -0.01976698321577795, 0.011914487334273128, 0.004146653302365874, 0.00014411373945387914, -0.0054997625470669725, -0.01538055969275683, -0.0074042656444324425, -0.045445461908673816, 0.013456631427434867, 0.03211507921362699, 0.15733613238123278, 0.10173544013679396, 0.06616589732712853, -0.047621490964975303, 0.07525513768534674, 0.0660294538801404, 0.156720775628596, 0.15400085563245935, 0.06800376695508409, 0.14776304268892915, 0.04324166876208507, -0.04036271159146312, 0.035052341918870335, 0.05609677235174793, -0.058134149600519366, -0.0377436433882662, -0.03310488202831449, -0.01368793794889385, -0.002433055547887407, -0.006643691531902165, -0.007478320325694824, -0.004328171224128916, -0.01226380293849999, 0.004218582097458503, -0.0032431510129796795, -0.016499389878768627, 0.04065752948485181, -0.02514583336804387, -0.04870092205356439, -0.06672735434548849, 0.17041496028947173, 0.14924738781245947, 0.1662177453452984, 0.2760673867749159, 0.27630943208011655, 0.18179511747131227, 0.1481830240787882, 0.2156950938930511, 0.024994288304392747, 0.05984157349788446, -0.010453628556761334, -0.03372681443061426, -0.1471717419280911, -0.0570853563849365, 0.007330966780927316, 0.06766769065502022, 0.032209375906431935, 0.01956245764719444, 0.0016498784535037554, 0.004726563875033193, -0.014898996330772737, 0.006306543275255773, 0.005558887282108921, 0.0018790502591780353, -0.040285999290554306, 0.03608119457662339, -0.014336936247973425, -0.023912874056301235, 0.23805825429301303, 0.25404461450415855, 0.1188299326158152, 0.08712584053042319, 0.14039764318711673, 0.17207206229454275, 0.15535857010539292, 0.13964925398182176, 0.13577433417769585, 0.19732245801413065, 0.08907307406540706, -0.05661842975284696, -0.04439047003215524, 0.063964082233192, 0.026676024934479858, 0.06469728562944482, 0.02291428446517345, 0.003735534909054073, 0.019545193369561835, 0.008204773269019604, 0.0034570224560011957, 0.013235693588758469, -0.015601049382919285, -0.0033895443257486437, 0.03520443848641631, 0.032259360919323396, 0.13232147459871338, 0.06764858680012385, 0.02866978886026572, 0.13873513677957441, 0.1173065156946985, 0.15583709838121257, 0.07190012293633814, 0.011196070050767705, 0.07242863127407412, 0.013901946274943584, 0.017719706445027954, 0.18162263544220383, 0.1528296498545438, -0.03194889933959852, 0.0024028250159701444, 0.10316259391641898, -0.022351324232985643, -0.05821203273114633, 0.03547366535784818, -0.008180347708769636, 0.00667124222850218, -0.006808571122686936, 0.00760862708185398, -0.002621442517022776, -0.01256886740601841, 0.01089092368159633, -0.011069481508743708, 0.025971217776355842, 0.07370362690285663, 0.026293666697466443, 0.022941922698886827, 0.024377481530130966, -0.07463002346764723, -0.08568126013959125, 0.018405738134700766, 0.03737774898875485, 0.02917072998784853, 0.030458205447901506, 0.03575940080392251, 0.20582999013012584, 0.16950347470843613, -0.05315949195471641, 0.0118811888331255, 0.123384848898763, 0.02727990809456559, -0.06056655207833035, -0.0151053952103643, -0.010870988766774333, -0.0038105818730323877, 0.008343853654381023, 0.01951886534533567, 0.014085216302946998, 0.00388150716177941, 0.0042864815191551815, 0.019622181900146057, 0.02415074773177641, 0.004092192269501841, -2.065234850028229e-05, 0.04745379046495316, -0.020395241802598132, -0.032619186973717795, 0.0023613203553599295, 0.10584010509556138, 0.11209609686339873, 0.1030851095358368, 0.09343227047584084, 0.019792979863089036, 0.032433553348607876, 0.02000246742906216, 0.011432059113065818, -0.027377784120466833, 0.002914788672932754, 0.01746145346033603, -0.029948365550572245, -0.00184878533849884, -0.009030828310147091, 0.0015369935993385323, 0.0007137662185569147, -0.002163510424736934, -0.003698804360323036, -0.00168904788600329, 0.0022913966583617547, -0.0011927449089662483, 0.0011403533184018223, -0.01838786780545451, -0.040889839452672536, -0.0015914746103318218, -0.020304767774471266, -0.014816226568669625, -0.03317023037483204, 0.034649486098661045, -0.07780322035470404, -0.08764847382250052, 0.025904578648326296, 0.08959246954038064, -0.019169280595792773, 0.044504641268608494, 0.1185048263105838, 0.027504895736738037, 0.017630674493132353, 0.03281983248838437, 0.013345651682154262, 0.0068193741526828815, -0.0028514393421412987, 0.007505606985729664, 0.009970448555616919, -0.002682252029041157, -0.00026084415867050716, 0.001372819104301286, 0.0029081065137691563, 0.007027140626197381, -0.0038855480791237717, 0.00876945912380024, 0.006781848990818375, 0.014899757029472995, -0.0043467047531894195, 0.0043840716262102414, -0.00031101005032673303, -0.02799171550806758, -0.0054545392418588285, -0.017674085606454313, -0.05988188012896595, -0.007918382829000958, -0.012593689674626837, -0.012327999760538671, -0.002068958282110242, 0.003860675973173093, -0.006849473868899673, 0.010952875263787744, 0.02352924598549266, -0.0036634222976488964, -0.004116963979804138, -0.01004499198750204, 0.01233998870594875], [0.00013433279800649823, 0.011708544673037523, -4.727552662998454e-05, 0.002261927849045175, -0.0027971777492053138, 0.004382586373224503, 0.008910290595551037, 0.00496679190581209, -0.01102916932216532, 0.0070283102221614414, -0.00499196141899508, 0.0020003522746272623, -0.005266898279114035, 0.009917299854260523, 0.012132593889231382, -0.009966380853995338, -0.008577886303527906, 0.01003904290450703, 0.009603250380428112, 0.0028061681915933757, -0.009224888944320789, 0.0051922595255305655, 0.014302832079185387, 0.0007103422477279076, -0.007387311545852154, -0.019317860770465017, 0.004947277992858562, 0.007362919462848397, 0.007906858637813851, 0.002739617220375546, -0.000736599949871287, 0.00038714102192362315, -0.003660976755176052, 0.0038689788937768155, 0.0001418749675579013, -0.004983868382792164, 0.007852319083218692, -0.005466953783890873, -0.001319269021074663, -0.020851533365122892, -0.019463632783417336, -0.006370743919799013, 0.002024245821538771, -0.0014630231652658682, 0.011034079910456062, 0.0009063554401752102, 0.004625457403248011, -0.0024280965587622555, -0.01239157096590753, 0.0021243038370618817, -0.005404254640097193, -0.011757734883348065, 0.00746438248680611, 0.004877643792423593, -0.009664771338159146, 0.010283909811434868, 0.008724395919505705, 0.008751378244875666, -0.007296767375636065, -0.006135429681626597, 0.0024089314306484943, 0.008589068707097226, 0.0010391137281609323, 0.0006119844312713115, -0.0032413214341538415, 0.00026689967819604833, -0.019689447363526593, 0.007330437171099967, 0.02140777725973472, -0.00041387021519273813, -0.0363100590298508, -0.03689688993665266, -0.011225686645795263, 0.013882405220122414, 0.029156318991069876, -0.019091077208501013, -0.016845924227410214, -0.013018412201770772, -0.01227687430474879, -0.011488516686425873, 0.0029687408318509827, 0.006850893302691457, 0.014158971938998871, -0.0050726677350157855, -0.010490281348753357, 0.012920571427093047, 0.00680171045362829, -0.005255420387361686, -0.0009792864161118227, -0.008500546788460895, -0.01878388394563367, -0.033913688664878795, -0.03310371292046034, -0.022584794521016957, -0.04052039124170455, -0.09159542778548445, -0.0005605314472602405, -0.04337942445455068, -0.13928401837739274, -0.040881909823484754, 0.02481766472808166, 0.048573458883595294, 0.0688354308064037, -0.019025855025170083, -0.044811935214537316, -0.024758331526075757, -0.041876316106426045, -0.036581669604664184, -0.023174785850224935, 0.005396067537448893, -0.00970173694325413, 0.010809241906074091, 0.011391920840813629, -0.008815406230400299, 0.001677174217567733, 0.002987443494403121, -0.017268150268347222, -0.012110183198875265, -0.017333926565242474, -0.08123707627037145, -0.0821061065644247, -0.046580166091160204, -0.05899770801025247, 0.0744520356903067, 0.20417033513813995, 0.07285930769830418, 0.16873238515205413, 0.10804084221308681, 0.12382233606210287, 0.07520456753240184, -0.010223008688693542, 0.03536180963554665, -0.026468097069312215, -0.06553090963348486, -0.10411312347614297, -0.09435135565623419, -0.036346660770336, 0.036275121604142056, 0.0053167398740506895, -0.0033564164767819066, -0.003489569795600151, -0.0014796009413538351, 0.01161665455819403, -0.004533766376318676, -0.012505751786187328, -0.035492246869584056, -0.022806144462295282, -0.01952552810393889, -0.12408266484736612, -0.005954521030523131, 0.10876003529828077, 0.09903929495526358, 0.12232837026882554, 0.09524950426629683, 0.18728517205336245, 0.05632815633563924, 0.09762939465473572, 0.26596787156732576, 0.03707021356534246, 0.12393955800969131, 0.09036791759545, 0.19350210834658654, 0.053670496728899675, -0.0667618875924283, -0.041202250770587395, 0.048186593437007, 0.030838424240404876, 0.0170937411714036, 0.0002784321001625784, 0.005123213456491588, -0.004199234965305857, -0.027146032904690864, -0.05506400598092754, -0.10195217657191828, -0.050202574463305824, -0.04434595805638896, -0.1378070657359713, -0.0062766838993741, 0.011792378668549595, 0.011793691199450314, 0.05032288887082524, -0.058718290112643595, -0.014860512036765864, 0.034940179316833526, -0.14206260121704362, -0.08418516474606273, -0.03299639039781421, 0.10875562477709115, -0.032018167168887106, 0.027336678273511023, -0.006876301443557544, 0.10138870091620653, 0.10207426242178479, 0.10501674776658819, -0.010564868386076409, -0.007686966562777697, 0.003679681956856184, 0.0007085344310494364, -0.04930638619913396, -0.08875695343268035, -0.10841064898182345, 0.05266456538119318, -0.050161584376417136, -0.04315516132657068, 0.09291718677484408, -0.16808947861568438, -0.005588912262319156, 0.035409125828000855, -0.06198355497465433, -0.05855626073941305, -0.040281636276019675, 0.13228660175533916, -0.008726102183936, -0.13923816166001843, 0.05015774508722067, -0.05530932535294211, -0.08461375966996079, 0.07551310838131033, 0.02078928430307746, -0.0059160988241199666, 0.09402022779174796, 0.07346363135447444, -0.040897060108793126, -8.679224915899838e-05, 0.0009265025023817229, 0.0031139351957513457, -0.03593050404614312, -0.08573849689754161, -0.0679146622635056, -0.07510974718186553, -0.011015621507345315, 0.08175664660095187, 0.0011538277133169045, -0.041729549550928266, -0.02224042932875527, -0.07434684748837352, 0.1021673344932432, 0.08310472284091493, -0.12995392140945156, -0.19589977409048295, 0.12936297771238262, -0.10614000037010096, -0.06897276331102496, 0.1099161854330262, 0.08678926448713738, 0.02875729706395444, 0.059376512169089415, 0.12765303676173703, -0.014552505319695092, -0.0007049895717805461, 0.025450433725935105, 0.011599329956843608, -0.005638159857791366, -0.015836961712659185, -0.024731633317115236, -0.06629216650403451, -0.04519732213371378, -0.07081444186553049, -0.05101952724475334, 0.04032848249657668, -0.011170834291114264, 0.17095596486190728, -0.02246150114721456, -0.027002834867486232, -0.1300810139593337, -0.008094381344610489, -0.07353046882886038, -0.05490901331598002, -0.06736577607670181, -0.0541023485932024, -0.07193812544487632, 0.014031341022412144, -0.09338332619588362, 0.04018355384764657, -0.027233803402103567, 0.21015020925351705, 0.15334265027970376, 0.16128569407625445, 0.043965303252137045, -0.025347081846158317, 0.002534506287774991, 0.004810725359855039, -0.03718931840856632, -0.10289212403447257, -0.058893111065442504, -0.05299463987644081, -0.012966113921529245, 0.0367678912364742, 0.0685725658044435, -0.06835735203839376, 0.03069798354174993, -0.04729445047189954, -0.03232989557757061, 0.02159935672602779, 0.1439713783767843, -0.1995540201316122, 0.10945014504621087, 0.0505250467041641, 0.07204871858249132, -0.08911047962007113, 0.06234465176924746, 0.06893300708029208, 0.024902282994198582, 0.2944638262100962, 0.20252936155992776, -0.03962777877778367, 0.06276884364703998, 0.004791729938529659, -0.0016643375767719363, 0.002665867576390792, -0.022105707483921967, -0.0989620163208453, -0.011854876406617969, 0.11013559947042377, -0.014171303141835245, 0.026921945291551893, -0.04984577915900835, 0.009946740481873597, -0.03214189419482046, -0.02606554760595213, 0.015604067858953602, 0.1803281169274155, 0.10922881210518161, -0.09215832134002692, -0.18341560722004877, -0.1836008831842134, -0.05463161044061878, 0.06289150125714701, -0.01796454054502394, -0.03211421384852269, 0.04595806167934581, 0.16255554810561787, 0.2807406151160914, 0.12366896925540213, 0.12217320900276024, 0.01281869878596172, -0.01142942566179733, 0.00916876936329545, -0.004163721705971081, -0.034159920513617194, -0.018810220686117797, 0.22198609201556924, 0.14331028852239563, 0.05712087602136963, -0.02029207787952942, 0.05899578650409257, -0.07773696558532074, -0.09486222661764626, 0.048201137238054075, 0.09208325297307556, -0.04706298797674809, -0.14891763299705935, -0.08206449028293823, -0.0540206472572036, -0.08667522251624661, 0.08642586289901992, -0.08544201892221899, 0.07566002013815673, -0.118384803335096, 0.17020909394968373, 0.2260746699757184, 0.12812931620367737, 0.08122262395692832, 0.017887353421273677, -0.00038452196902469233, 0.013125636177078374, -0.0019660969428200946, -0.005736920947606223, -0.16109125645814884, -0.0006283425751709543, -0.1337478639930073, -0.16386406111802945, 0.009394490642529082, 0.04704857544728286, -0.2326310549265718, -0.04574483340251262, -0.14593542788253036, 0.16172145829482493, 0.012423747383463883, -0.05633051280827875, -0.130383012186442, -0.20777925290680088, -0.029722322703148025, -0.08246377778949153, -0.026381639686834723, -0.09239054423677645, 0.10277250071553838, 0.08663148030633279, 0.1074464387654441, 0.060009433302981176, 0.019255794879122705, 0.003744385578250073, 0.001541856770975691, 0.01145247464762737, -0.002724604131417789, -0.014690326767473668, -0.22329906162083937, -0.23331059868206358, -0.2325310445335209, -0.19500717964585923, -0.21136014357518537, -0.21295815140914834, -0.14508534583234417, 0.03388605444808822, 0.021872074826604262, 0.09947450655708624, 0.09495560220287778, -0.06838293331444141, -0.14383004122093745, -0.1353404204732636, -0.2536844062869505, -0.08811260273649893, -0.13768426853727778, -0.07790459932857237, -0.10564458483883017, -0.10922838747611761, -0.009900265357862575, -0.003472462168050767, 0.00012991284864607923, -0.008672946525810637, -0.0061948312682323994, -0.016398609626923008, 0.009715901453313209, -0.03305599511360202, -0.13619375177032633, -0.163819088079068, -0.15834413753658497, -0.1391829367974433, -0.14328438878045435, -0.00626709853127092, -0.14121684663320422, 0.13859836314282642, 0.07383140564905297, 0.1996709041409903, 0.20393769876070716, -0.1544129400720406, 0.012429718468545514, -0.20006268973430197, -0.09749174603603272, -0.11212415408074237, -0.19222279588208985, -0.27810991288900394, -0.2044749956245192, -0.07652631400397185, 0.01181525748716575, 0.009250807598067456, 0.024837825013218014, 0.0040850161703019396, 0.002923016146026305, -0.006417785368888032, -0.012127848453806085, -0.03210826235159095, -0.08087965010469687, -0.09935356867901868, -0.11601695570229743, -0.046355709807816545, -0.13126511160104185, 0.13958824019718802, 0.042040807547029053, 0.10582224708244779, 0.09844084764273732, 0.1379867715787634, 0.07866873945644653, 0.0066790802246090835, -0.07721278245400143, -0.22195918076966367, -0.10154446630883222, -0.15298202988511242, -0.25388833831974233, -0.19064723272690276, -0.17401575730138796, 0.061269372469302225, 0.06190219290227851, 0.04492403549427828, 0.01456785725647386, 0.0041527306373852595, -0.00472392489828505, -0.0017469838475081658, 0.005568570429741664, -0.013911189745925012, -0.05021754934052384, -0.025640625459946574, -0.07467675316868809, 0.02310302901663127, 0.0017457398343182489, 0.08402590341155734, 0.04122007709381281, 0.04751486570786102, 0.11680869477756428, 0.06976557873260979, 0.040956441697615885, -0.1426093492524646, -0.008215909746257851, -0.18897616762171923, -0.13530187977860963, -0.030070780961435735, 0.0006009988600808861, -0.12667395663248793, 0.005388308067338789, 0.08289798172245141, 0.07737370550553171, -0.009853290474534596, 0.007591325136111346, 0.0158698028125827, -0.0068120466043441385, -0.011537550740724153, -0.018615992028118276, -0.012654248235298234, -0.024991169439542403, 0.04910485853790901, -0.009395088353489216, 0.06915124617617735, -0.15552684631024652, 0.15270651466776064, 0.14912422754734306, 0.10806115434298659, 0.1598684776293801, 0.13345786757402678, -0.07529716177931127, -0.08416349677369919, -0.24949541665864408, -0.25639057786640573, -0.03069017293511956, -0.10693302923163377, 0.049708528069442356, -0.11657949847692865, 0.16646239565089643, 0.1996119142957326, 0.1254223640776172, 0.0067330440394025096, 0.000569543265047216, 0.01625457402337466, 0.006588696907694587, 0.0032902582896172598, -0.005907842311801082, 0.014254285173819619, -0.004284680544831833, 0.08076569123643965, 0.13693568711773862, 0.0760156258846679, 0.023086791031000746, 0.07910606101414139, 0.15781385492691832, -0.008190553602764428, 0.09202406896531806, 0.10102386171950122, -0.1479893944960835, -0.030300403719293354, -0.22796865456801174, 0.15983810791300243, 0.23424831684600025, -0.008958912590304196, 0.10997927560283105, 0.01714549281446202, 0.1780627428894229, 0.24964136230143003, 0.15893634723615072, 0.05820788101718469, 0.02242382454998312, 0.009178587688670118, -0.0012735255188239477, 0.01422535415506393, 0.022380741796893342, 0.05348610776459117, 0.04209150017159502, 0.1918332169636655, 0.23746324525105408, 0.3307855568079133, 0.38956402075680757, 0.10918439479910878, 0.11470279832743333, 0.1824352742599553, 0.16075329556150778, 0.009067129123553421, -0.014503255868754845, 0.13752248049757568, 0.007601524429493264, 0.07846057106387551, 0.055008321167733035, 0.05273379338867923, 0.3349931277907609, 0.33321969186273886, 0.18905462504739898, 0.22936280060528166, 0.08982781091236276, 0.028708618029894137, -0.0028884724300727153, -0.0014082079685045132, 0.005143785096137126, -0.005846816879380533, 0.012205400864233835, 0.06596363858908505, 0.06657618846617996, 0.1698404173563864, 0.23965304686640923, 0.15410862111933668, 0.14163207530532365, 0.15975843497026698, 0.1471581040299911, 0.24518882525199434, 0.06405188269143716, 0.28156940967607624, 0.26097927841410035, 0.30844821562945096, 0.13035395557303656, 0.41585975180712353, 0.11875034197406163, -0.016929773962601886, 0.13569518939197225, 0.09798718175014884, 0.22084123298689315, 0.18535846954428725, 0.03572195680785285, 0.008444753580372857, 0.0012475221349004914, 0.0024258830719553646, 0.0018666897382549764, 0.008372379128853257, 0.012937856001235976, 0.022055746633685563, 0.018373462236963654, 0.09573757235173641, 0.17093756081174463, 0.16112732477028074, 0.0753156156205277, 0.1539720319530332, 0.12826459349759242, 0.1886000019905366, 0.19111071717523878, 0.20044045545682246, 0.20795940820576095, 0.10808320563356756, 0.13706025073905403, 0.19813848868276646, 0.18081312855450346, 0.19440973357311475, 0.2183195453482215, 0.2174952813734024, 0.18336488175296997, 0.09613435313974439, 0.0352616143552584, 0.009074478156890923, 0.0099412594381225, -0.003641804113558087, 0.006290821523413098, -0.00409075382908838, 0.013283848984638564, -0.0014924956094628469, -0.048279095985692105, -0.10865666114925995, -0.06013143094613221, -0.03335017292531008, 0.03588688194273325, 0.0879505607519966, 0.0013899542599099422, 0.13398114501216907, 0.1462060700640939, 0.2429750847869364, 0.1254919906772037, 0.2699834042466606, 0.30237746664160414, 0.28972100752934987, 0.3011679530864192, 0.23010972682026123, 0.23696848524909356, 0.2420236702762283, 0.23368983060845896, 0.1481058876537756, -0.0017098104936827032, 0.03582143512582728, -0.014850252414293748, 0.005882623176564208, -0.007067082812736918, 0.007567088059190226, 0.00927795964227363, -0.00036121224821697656, -0.09903165658130669, -0.25750572784198933, -0.21805586317619255, -0.17207481842090072, -0.058677252401758306, 0.02049361448249051, -0.026986596734981685, 0.15193410212564837, 0.2027280679042741, 0.14286061984010345, 0.2518752147059236, 0.1301133006993353, 0.19176319250145923, -0.019719100011092276, 0.20077486778128373, 0.19640685822285234, -0.08032265659100186, -0.032380577857262706, 0.02285698015376618, -0.011446772613211068, 0.05778988383582897, 0.06235871873239225, 0.0038755769068905934, -0.004561621068091926, 0.009549295492009524, -4.246668179568582e-05, 0.007534645674042571, -0.02232728364644457, -0.08714382087262097, -0.18821439374713125, -0.05938708922741145, -0.09056238160108444, -0.046718941082726846, -0.08349069103397969, 0.027967594330485044, -0.15690079267529028, -0.051353601758666496, -0.007484257891137527, -0.08727936264800103, -0.029799992717002885, 0.0582172885530154, 0.1345134789714811, 0.044847340309445455, 0.06382931712690822, -0.05403198484440717, -0.035573600416682685, -0.05300020532010398, -0.0408926397479084, 0.00023791035658812093, 0.020892973293850082, 0.010600551375513115, -0.001247768691630792, -0.013667115055556522, -0.0023693375359748877, -0.012511676043227117, 0.00010585070857058125, -0.004699758517861639, -0.047899234619435495, -0.047120515807073195, -0.06655297730603184, -0.07252289771359344, -0.10202244658450398, -0.05214336222149137, 0.009630621889058817, -0.03423095279873176, -0.13117010509146973, -0.15086927969315514, -0.05604499042061745, 0.005177943706831822, 0.0381764658650861, -0.01644597786567235, -0.04598758089193561, -0.08314818837281716, -0.06137710222537872, -0.0448950334899641, -0.011009158449447314, -0.014482116126015547, -0.006389128588072089, 0.0003021998757318752, -0.01587945481227028, -0.011834497220474392, 0.013064879156570631, 0.017534572775372043, -0.012411979049796506, 0.007659647419255624, -0.00013020102877585638, 0.010959757444879916, -0.005935749010203332, -0.0036831680765102453, -0.009031178681620148, -0.0012272316201826867, 0.0009914823208785005, -0.002962454760146925, -0.011672673379673513, -0.010161237336662443, -0.01675549510856181, -0.0045652172060827575, 0.00328185075375157, -0.00839580459608541, -0.007483464433347969, -0.008418551054764262, 0.002725656347623105, -0.015350576084741658, 0.0035858605594344993, 0.010445282817910543, -0.0019406096562276198, -0.00258866664673784, 0.009234654815578969], [-0.014290596338331204, 0.009033100931354815, -0.0009159249920242704, 0.009216627918050184, 0.009570100385538372, 0.002702162930267703, 0.013645857812485635, 0.002600287979445049, 0.014750869245353414, 0.010184655180505875, -0.0019458640084420188, -0.005584694424555264, 0.005557570184726661, 0.003998669687370712, -0.004690735416118665, 0.0010104809284044191, -0.0035953780313577877, 0.0016705472158407625, 0.007292052609263098, 0.019891642333027475, 0.016806158591911816, -0.012694929573349478, -0.006863573645137824, 0.013064307361453179, 0.0015986236626074114, 0.010895363440016804, 4.08274954667148e-05, 0.01575547344013688, 0.0022175451116762516, -0.002124043787665309, -0.006091951217976868, -0.009909706706382868, -0.003929122001055419, 0.023113772587549455, -0.004182403084725815, 0.0007605151722477212, -0.007010618449181072, 0.0194793128596763, -0.0059929638277031825, -0.0008003823960434648, -0.0030692354344532134, -0.006791850813027103, -0.010731862905446634, -0.0003165186453211962, -0.008120688890641204, 0.00503001132497576, 0.00021286790884969862, 0.0004564240793813898, -0.0051310706256631295, -0.0021920049999045125, 0.000743452305173952, 0.017546320717132365, 0.0013727060892823957, -0.008078304392520224, 0.008263749602963463, 0.0047330273352677995, -0.004140885103577759, -0.0038724555141229373, -0.004956073933183708, 0.006005794172484938, 0.015684983220344277, 1.6662304410607538e-05, 0.0016192704005021934, 0.0007658642301322162, -0.01190929009027418, -0.03391092735466751, -0.035549718637607135, -0.045174995221049015, -0.07809050770319095, -0.08116361062433365, -0.03552662204334364, -0.00783776120572041, 0.019193467253396053, -0.007156627270638998, -0.011445116299957278, 0.010493275619146751, -0.004807094943422347, -0.005636621088918438, 0.0014342545588787259, -0.007605642225081219, 0.028604622523877708, 0.027615278825755547, 0.007339293788569823, -0.00882290515145234, 0.003132292891534437, 0.0008959462730676402, 0.011237770248809903, -0.006074536720668145, -0.015924179825077534, -0.0183778358777476, -0.007225766443187036, 0.0067819712609972806, 0.007688900333397928, -0.05794664705624889, -0.05310295917759568, -0.08419886131981545, -0.09914281474624782, -0.11503367965738251, -0.08579724239031833, -0.04164464588970681, -0.057904909155279814, -0.04756587113941022, -0.008886033693752637, -0.005197141872639069, 0.017063395776675934, 0.0021943696197195125, 0.004836481107155504, 0.00831605828203292, 0.005140065032296394, 0.023045754271465026, -0.01695081323363749, -0.016392772930901037, 0.008449694481493013, 0.0025543285875527354, -0.010398956721876821, -0.001330974307472421, -0.01225640477137089, -0.00616944505335556, 0.019136371350258495, -0.01003199638399906, -0.048388044769919564, -0.12419349932111902, -0.09612538000316564, -0.02548142359959268, -0.10436177029661725, -0.20090225870153156, -0.14349108027139137, -0.07922174162418194, -0.05312559209380673, -0.04531254393488488, -0.005423348567176594, -0.04218039849094891, -0.021223232688139942, -0.025675988913859867, -0.009956717685718043, 0.011053321259486687, 0.03490968359996671, 0.014584647809571602, -0.00035140299332892325, -0.0013137721036789551, 0.0021987191268357793, 0.00140421288779239, 0.007253740137086471, 0.01201492696669424, 0.008236375867717015, 0.036006785852166226, 0.005390778740245391, 0.013772689363435054, -0.07953240652783214, -0.10997332547768995, -0.08001938459005821, -0.05620536710107882, -0.17392260491295367, -0.2376005979529943, -0.24429713208613418, -0.07804978366289045, -0.040828947175425664, -0.11797304306733998, -0.02603080975738409, -0.034005459454011344, 0.01698177230846132, -0.043717891489558194, -0.029288871944333855, -0.011199811887172518, 0.008915731510977161, -0.010875377546067629, 0.00481002581203342, 0.015753160875318552, -0.00416230591583757, 0.00546223932240941, -0.01259887204504066, 0.02640817651939128, 0.05938717446472189, 0.028329677742753172, 0.07706504546181683, 0.089025462102474, 0.08377860332600841, 0.13470384214801776, 0.058074511704984934, 0.047957330272323635, -0.04927707818591827, 0.05069178996412279, -0.029449422820599497, 0.10637941528147095, -0.020744201469383067, 0.0022459898352646924, -0.09278366678965141, -0.09416740235711951, -0.015026898965746513, 0.025732035178945987, -0.0114428913396744, 0.008528072686673164, 0.01417120569189775, -0.0033818081642603714, 0.003410429965602662, 0.007700811542186943, -0.0054887781235885965, 0.008158093883848706, -0.009383522127185101, 0.03197140679286036, 0.0426048353475981, 0.010479501291262046, 0.11287069903639815, 0.05930149993005113, 0.1611491105552732, 0.10218890275391615, 0.01698336781402543, 0.028364828061324274, 0.0011818685024144189, 0.15287878785279496, -0.012094283703182548, -0.11842297455290915, -0.22258440888299785, -0.07427544989608288, -0.06222719297244852, -0.15599731619016072, -0.05261538919009624, -0.04079288025253645, -0.105493152584041, -0.11057784101001053, 0.03142186640961921, -0.03681831729304771, 0.008105797720299058, 0.010702374701798946, 0.00019663908922413925, 0.005429664516445131, -0.0004432067594002258, -0.016525993742235408, -0.010835624987610419, 0.010157485152251419, -0.08402232255268693, -0.10638807020442519, -0.07945675886598058, -0.02033077843971285, -0.021673130031183124, -0.04897573917716276, 0.039471262801359805, 0.03206518023534029, -0.03814670985854836, -0.16060212699969442, -0.06321817880221493, -0.044401524783114446, -0.0647202590081975, 0.014500341488899497, -0.029442231210568885, -0.05198011572484883, -0.04128572703304414, -0.10065673371569218, -0.027447885757065655, -0.023423946515985485, 0.008185946490077428, 0.008054620054187916, 0.00882779413382691, 0.006215678749421534, -0.005512367415947052, -0.010492399728301278, 0.11925469375291844, 0.0412457057761024, -0.011947615784929201, 0.10913158861027973, 0.07650043256184051, 0.11286656150214368, 0.012332050234434311, 0.045102325219914335, 0.1475985357579012, 0.22539246956392342, 0.10107310549342859, 0.019975660110324228, 0.09713816543563031, -0.03750381266354645, -0.0563393224708388, -0.013441430748962306, 0.003250539515782899, -0.009965831970251046, 0.005325569043193825, -0.026023313262621348, 0.020590399830403158, -0.030937544274896263, 0.023630570977963623, 0.024307166871984396, 0.013260807050962801, 0.004198361339800527, -0.024793080919211112, 0.08894734898817279, 0.1038041645334039, 0.09502482365187041, 0.12781717672104076, 0.24287382242348915, 0.24878169232423017, 0.14948668247552999, 0.24064435490835942, 0.19361888588208964, 0.06718610974755267, 0.18686526920890562, 0.1671664613208901, 0.14979152528423034, 0.1394085400432008, 0.06196454419523782, 0.028842510147098935, -0.028954109299165923, 0.13192935293472172, -0.0053314073204766095, -0.10521241709899329, 0.0818356956095714, 0.025086764057607732, 0.0413206176422761, 0.035837060334463565, -0.0012997842674413436, 0.006893561731466925, 0.00335956003563473, 0.003954425007814247, 0.08231231020607872, 0.1807285493870506, 0.20485082900689647, 0.18981630150896758, 0.011251108450006047, 0.015138529420216547, 0.03994727700055097, 0.01528517844801701, 0.022096376049472163, -0.11703989559025625, 0.014848440509056081, -0.06700423009411906, -0.01761013190201283, 0.011881957293331672, 0.019859641827359158, 0.0808289887617912, 0.019047839256911576, -0.03986187414362657, -0.01698065326066589, 0.029079215900867202, 0.06496663671486382, 0.1036524540517787, 0.0984768043410565, 0.0049996655777772596, -0.002213005945010809, -0.0004773271468457189, -0.01091591634434771, -0.0012321988057701165, 0.005867159957389998, 0.15151436204429297, 0.08119904500333572, 0.009754660042406871, -0.15656157369339058, -0.17217597580317764, -0.13677789467137275, -0.05615135986495772, -0.03561264567145814, -0.03692988182555379, 0.031455832590311456, -0.004554426748869957, -0.020475864399074707, -0.0679516291464301, 0.023396510827782463, 0.06162314239738548, 0.03167234810494552, -0.021523606307382488, 0.05398932014830065, 0.12065812894523549, -0.03549386116427436, 0.002559279248487243, 0.08600207000746635, 0.03102179608790566, -0.007298008515621893, 0.002747047976063934, -0.015918069308311574, -0.014440994419922703, -0.009842668703521932, -0.008743677772987925, -0.09370730247617116, -0.06581594030326486, -0.10711183168567553, -0.16588574940908257, -0.12954491653561906, -0.18598451671849078, 0.005313744234998605, -0.020174849853590915, 0.023967671121932193, 0.009393504818591365, -0.09803467740970236, -0.07475552481758777, -0.07706385993145765, 0.039627384445049596, -0.03391448759776726, -0.048226395296292676, -0.03197037487529907, -0.03913489335415178, 0.06867108180347661, 0.12034064388024958, 0.045349173498330154, 0.018616517379648582, -0.00559917789130652, 0.011744675528578476, -0.004471229747540082, 0.0054117428447383546, 0.026693247602984076, -0.03941678625739099, -0.1821096836386888, -0.08647494954447302, -0.05948407010555081, -0.10440688953634127, 0.05256672956477343, 0.0410687832067113, -0.04606765909845641, -0.0005795560622485371, -0.010651450815218268, -0.002686620298844753, 0.08390200977312076, 0.047333396602268415, -0.06747626473644026, -0.1627912408333618, -0.0100280584590769, 0.002791703448270788, -0.04041424943371194, 0.06558216067876635, 0.15168798108321377, 0.15923956294577238, 0.040577311025844685, 0.039732523439449795, -0.0058927894586614975, -0.01229069521884008, -0.0023731516148237227, -0.01089011613543078, 0.005298357731662021, -0.10104846278873332, -0.09215912083795325, -0.07131522899662408, 0.009919202053514384, -0.0017468802187701883, 0.08894417255462372, 0.0027169745935080153, 0.10832064731376348, 0.0953586693225027, -0.07507767517593679, -0.011332432031518874, 0.05332376112509447, -0.04450019413896415, -0.07609622844630055, 0.019140430846841635, -0.0023686284359716652, 0.06115051235140596, 0.11599895781315205, -0.013089203058040509, 0.13471738516725346, 0.13025716325081454, -0.01997378438751325, 0.02292587664758101, 0.008296165571179846, 0.0077724228482718635, -0.001595663739607403, 0.028889396603109692, -0.018518846177065833, -0.10886858224431374, -0.12489099548549401, -0.03951756359245701, -0.024993490415016015, -0.15106862466946502, -0.020623033334018815, -0.06648752388174074, 0.08142256142782574, 0.10896386861073006, 0.044112291965794886, 0.05070107873592227, 0.0009258075663244002, -0.21518071082548215, -0.06176806907563989, 0.039925650736198526, 0.014205187127949465, -0.03749428512061045, 0.06750955908751961, 0.053248284004700094, 0.11173516304018838, 0.02573802695891005, 0.011363061258601754, 0.048418284689329495, 0.0012329909390517754, -0.0006349542395006672, -0.001438190137347432, -0.009995694788901735, 0.00023436486878068363, -0.08094586193311418, -0.10949293635204388, 0.04798852075227665, 0.05633829661258846, -0.06313836147761573, -0.0786412807502761, 0.0005514322268128191, 0.0599359120475772, 0.12794746915164237, 0.2114387685442663, 0.13572577916684214, -0.09226982046422552, -0.24126136113070226, -0.13785929904671027, -0.09909762203038344, 0.015998456999198354, 0.10618718506842534, 0.12405112670596984, 0.11090293624168303, 0.05622034438227386, -0.04739852029085914, 0.005104366389991452, 0.009247819326799633, -0.001571079140467474, 0.02292725855227838, -0.0028245318758183865, 0.0007071973510977846, 0.023874838078262184, 0.013290588107339192, -0.08172269511873403, -0.05246456201627534, -0.057994183781575344, -0.029835717540194488, -0.046312849155191, -0.12498505927305122, -0.05027976929574894, 0.06036455911634364, -0.06265190377623954, -0.17729120021751507, -0.20122198176674408, -0.19216318729070858, -0.04811865211527352, -0.00371873622215517, 0.12763833513209363, 0.1139713761625982, 0.08303225027424567, 0.17443539215875273, 0.12189056094523432, -0.04453051844510629, 0.02646883289459216, -0.0008155031957223105, -0.00427558815080078, -0.006190526094289163, -0.0028020241133148395, 0.003346550929913821, 0.017311657705691597, 0.034905710701215245, -0.024138340209685503, -0.14040247023698635, -0.07810537559428025, -0.09796596715790383, -0.16677549835977512, -0.290293690917337, -0.28982392479308466, -0.2220302893987424, -0.3259610494068465, -0.27479259406197265, -0.12431096621194632, -0.0069613272623024434, 0.03708999039118335, 0.11104974072639634, 0.11151808909945989, 0.054810884188047373, 0.11510275663664332, 0.172285833559853, 0.05793082359891358, 0.006313758085349161, 0.04245126256779508, -0.0026921555474099714, -0.00029752044368833765, -0.01600246608460968, 0.017949806842908936, 0.009943712188476665, 0.031565219775258634, 0.1064375980084417, 0.052451634552789526, 0.04091121440472291, -0.08514264128882658, -0.11104620426439583, -0.1227846697867999, -0.2707365657675013, -0.23755820149709483, -0.33163507727864056, -0.39287684149579816, -0.116761973003956, 0.07771768387223377, 0.12978295996085498, 0.22815228748571698, 0.15025701671606714, 0.1301969174309178, 0.09031409625176338, 0.07524291985985185, 0.07844142428177008, 0.04636252715441676, -0.01584550791606484, -0.009821859310965042, -0.012221592248865426, 0.003617618684195128, 0.005877730917077579, 0.004699491432309302, 0.004523465694766847, 0.036063422105682315, 0.03179382707459803, 0.006701127566653742, 0.00046870519121207545, -0.07665077004618569, -0.15112371268004435, -0.2686241206144723, -0.16306609654659554, 0.002554249262889148, -0.09985008118398707, -0.05125521577776445, -0.020822639102907214, 0.07391117614498748, 0.0340981190726214, -0.16848944517134312, 0.03349067114242665, 0.0336149174258088, 0.06200599336595737, -0.026362095804860063, -0.060285689587584776, -0.022985371960789886, -0.0200197252711493, 0.011039955613160924, 0.002736105610675464, 0.006507872508479096, 0.009349540277313695, 0.010979892507736625, -0.0004782528429979067, 0.020565222562607597, 0.023341096398275807, 0.018386542343803273, -0.021051310704755865, -0.07737138075534282, -0.06271228828569042, -0.11407099403164975, -0.031578285892554764, 0.007990941659794061, 0.10205725288212392, 0.09399958837752559, 0.022784536149661118, 0.031380164750512154, -0.09808709078426053, -0.07251246347190869, 0.07491400359802966, -0.04645816702631421, 0.0810562659509745, 0.011485907537174714, -0.018838078073631765, -0.009169129688236433, 0.0005195710764878511, -0.0058835062489633536, 3.6679268545217346e-05, 0.0032924636258807086, -0.00785897067122844, -0.0028533304555977126, -0.011181988223561664, 0.0035379602469028733, -0.0040543667573146374, 0.0102404161525262, 0.056901100114230926, 0.07832784723179848, 0.006573301543658249, 0.015936557557780708, 0.004271429720998215, 0.1490819834576176, 0.03940542624149323, 0.18628053418137944, 0.07179795965877248, -0.025087175210365995, -0.09477005887164149, -0.08571403084873015, -0.12165422289814132, -0.11229281752796756, -0.014482324295870996, -0.14182445179169603, -0.04847312230195133, -0.019752076020441083, 0.04316880649298133, 0.0009185785311285162, -0.0015793739594127554, -0.0029926606392599456, -0.008467673550114664, 0.0015015081782163017, 0.02298739958177796, 0.003939215150398499, 0.008702084268027158, 0.006197895287512864, 0.09300778782002915, 0.12095791998998111, 0.1017790636101589, 0.16865129226383305, 0.31882837843583317, 0.20042663343200146, 0.1052735348049446, 0.16787247909865655, 0.06616641834339268, 0.03535500997423392, -0.01230523454519349, 0.06262345350571431, -0.08400926481847242, -0.022884297898434082, -0.018334532755145638, -0.05271659420884089, -0.024866241022793164, 0.009854643132708858, 0.018336607853060568, 0.004773483149973071, 0.011707570768469866, 0.0033204108815134523, -0.004692748318680012, -0.0066919023441879555, -0.002333962170165761, -0.006059369541264532, 0.01698524424729882, 0.04173138915076406, 0.11461443258652744, 0.14434058453065374, 0.1878190921196208, 0.17388256713200725, 0.19278785571251045, 0.0875499304074742, 0.06471023280434539, 0.03442735995728203, -0.07987144904615257, 0.003178438838835517, -0.012246042652779485, 0.05831450768496724, 0.0054530144424461266, 0.13721018893993295, 0.031434480464632854, -0.004772742677700662, 0.0021912642717386416, 0.007596205318364226, 0.02106893716278942, 0.0053401695770636465, 0.0027601506535000373, -0.003205343355152296, 0.005610082167713509, 0.007603912106503725, 0.0007030794510002702, -0.0035493669657509523, 0.0009753270125071002, -0.010992781343021738, -0.004051763934900859, 0.006054588127151134, 0.020423258000303427, -0.05254268013410444, -0.02497224105465129, -0.033518347911547446, -0.023881563655946732, -0.06486985360210394, -0.06412202089842099, -0.02699190497722219, 0.007988235784961509, 0.041251452158677857, 0.04039521016964039, 0.0383521015971941, 0.03693352460677438, 0.030188595442005667, 0.007942987855171254, 0.001863699680337777, -0.011635707857362837, -0.004099905322162938, 0.005921245343670221, -0.010894355480805248, 0.010994016866984544, -0.0008144430215241363, 0.0004918546572892835, 0.0011934390461472032, 0.012031034897423536, -0.0012272443163121813, -0.0005494809548369976, 0.029322424024267258, 0.018296729841840133, 0.006889618620041154, 0.009502586144604846, -0.008051399509203723, -0.009492738441381567, -0.00888375005529172, -0.031730454220586145, -0.038829837762348766, -0.02214979349156454, -0.004523693273047511, -0.01470658721117018, -0.009565208652327564, 0.0007943190674999909, 0.0036651813959997503, 0.003981981776156594, -0.004424291826152012, 0.008263307910100099, 0.00048454042285919644, 0.001489114486267124, 0.003235908987328911], [-0.0080093540922834, -0.00017405270886526432, 0.005889972244633441, 0.006088435112512863, 0.0039040677193633794, -0.00829098362059711, 0.006282176052378808, -0.005091507630604574, -0.004334228443574954, 0.006255975381678725, 0.014714411583839022, 0.006400379224994878, 0.00030670081008862826, -0.007033625348328427, 0.013866326639578912, -0.006619100375212689, 0.008907520066706427, -0.00926328858045663, -0.00470391569525649, -0.004521637323712809, 0.0019460138710591507, -0.0060138653075038845, 0.010055790607444834, 0.009093088596565957, -0.021514234766771927, -0.003134524513722588, -0.0060053818757455244, -0.005327151855190717, 0.0007172283110079318, 0.005681187009675528, 0.00878412571264357, -0.007945854058598897, -0.004984801607942189, -0.013675080220964907, -0.003698553203001015, -0.02105164332409334, -0.0014986321923034312, 0.002780526701812917, 0.006803226820212741, -0.002695406271743614, -0.007012311133595151, 0.01239843929088735, 0.00019219656844117767, 0.02809418257412145, 0.004936525341741426, -0.021625033307335225, 0.0010185133820914498, 0.01668553466957236, -0.0003338799604203997, 0.015411265922535488, -0.008478614818997901, 0.014897207568209172, 0.0011076966072469387, -0.011639502407169013, -0.00843400838832648, 0.008104121441900812, -0.013246477700619522, 0.008992525168456366, 0.0027554917765517635, 0.013704835950531373, -0.0043330305131983465, 0.008175852947610173, -0.006730931560649579, 0.0144749589884679, -0.01008871877003068, -0.02025161747629523, -0.017506268441200422, -0.0006049951388347047, 0.011732259924925655, 0.005432360062346036, 0.042857095470457095, 0.1032423127179903, 0.08827426086810075, 0.0719722534604696, 0.05435477261678818, 0.056190112895776675, 0.008399690815387469, -0.005206987048711741, 0.0023710033651878886, 0.00278494473463674, -0.00035023405542213167, -0.004455474197559464, 0.0003786992277111489, 0.005467942182725413, 0.002955369674309373, -0.002275901847269803, 0.0034908827187779866, 0.0012628098571963928, 0.017557628619345365, -0.0025619729695007696, -0.0067589134159454205, -0.010299551638204136, -0.048218410948223475, -0.03515374291279472, -0.058752746391470954, -0.11592999858315489, -0.09698788315396767, 0.028328302755108527, 0.012910621155609099, 0.11133723547635402, 0.044755181951025846, 0.06046117261058289, 0.0942866113120094, 0.0827570717229368, 0.09756632135378339, 0.0429216427628091, -0.023896686627957468, -0.03884757346153106, 0.02632232000418379, 0.021195523958215303, 0.014239922177529363, 0.010289082382356356, 0.014496758277019201, 0.0013493451933724516, 0.005773007559713427, 0.00930434978994727, -0.011362669619909649, -0.036977229324681476, -0.02758658757822946, -0.07041498267149177, -0.11743507128971939, -0.06797502436767386, 0.025294427110955975, 0.036618455338777355, 0.02500381125722298, -0.015912630975209674, 0.02062696742409809, 0.1899702581774419, 0.022630593185549767, -0.07800549427973148, 0.07920767306621401, -0.017930501187858112, -0.014053393480142633, 0.11120519703678444, 0.05576546902746398, 0.05713861537264244, 0.1366718195806827, 0.07656657486350164, 0.01847230640132043, -0.008430646011683002, 0.007756249550462264, 0.0024912348687976087, 0.002766322238669445, -0.0025845155899080954, -0.027610426653299946, 0.01121813329474921, 0.03357046905690288, -0.07363954225849868, -0.03569854505814566, 0.04879252415269386, 0.12969156918622185, 0.06912853589620004, 0.004805091186555559, 0.05156330567081643, -0.013314601518014127, 0.008682919893571511, 0.15000911303993192, 0.1748022310136748, 0.0711475091457131, -0.030326270953388565, 0.06816762650455584, -0.05193867855247413, 0.15549321439389838, 0.1566195421676191, 0.12264500618222897, 0.08003969436645642, 0.014708310070596524, 0.0007100362969360232, -0.0016334773163407586, -0.009460479535052708, 0.005830278609569261, -0.0048269859066503076, 0.009609490115687288, 0.10033087456674528, 0.011298347389525858, 0.026736494246775124, 0.01855364559177656, 0.05058489202394374, 0.07501070779543616, 0.032526027954857095, 0.06225476318820468, -0.008745512422770442, 0.03435804375931624, 0.05836090613969314, 0.048449596640012554, 0.017317943835017367, -0.0003592859101518985, 0.08027086185804037, 0.030822285981006555, 0.07941712212720681, 0.0980714848439558, 0.13494301078643609, 0.1556467694442472, 0.10003236336149866, 0.036075461057635524, 0.005877004788606033, -0.00438830513548754, -0.006664062270396001, -0.012578675814831384, 0.0013330845463329812, -0.0010366820525681399, 0.09770548218951544, -0.020646856863630735, -0.06418122478501229, 0.030599210428093687, -0.06121497062739091, 0.0540870495327281, -0.0627571167446421, 0.04502053212920358, -0.1529764226966096, 0.08019145807097158, 0.11895776577624359, 0.19851472416689275, 0.09051196170118263, 0.17595044079044597, 0.07333236997215878, 0.1649291575709294, 0.11215542803087444, -0.016827755959433206, -0.03693937782835757, 0.013374954028380957, 0.07330748710716498, 0.024906549926070155, -0.0061921881076164465, -0.0007840297044699797, 0.00386970564486125, -0.016115274126982382, -0.007615282766915767, -0.059936404542352544, -0.047205342402821905, -0.0470383834195087, -0.06942463313514384, -0.0953361635332201, 0.09089427058566059, 0.017277734510237383, -0.018617733399902622, 0.1692397787737846, 0.045669577220833854, -0.10263759522935877, -0.041469751119868385, 0.159633608830023, -0.014217475745273912, -0.01546939535785725, -0.11751634718504529, -0.12510263799682958, -0.13295540890063948, -0.21858145770487256, -0.0976599426805955, -0.02071179724101526, 0.01790523682811117, 0.007433624127341989, 0.0012555745902083182, 0.0082718904176076, -0.0033826145234407573, -0.01973183576501455, -0.013783248404816177, -0.016483078875470538, -0.0629505206529745, -0.030652172606310004, 0.11169032850475509, -0.014366271554450034, -0.029929761063640533, 0.06538085891839585, 0.013534278248160515, -0.044103101659012316, -0.019267371102792252, -0.18042320884926033, -0.3100513591970813, -0.4178574457440249, -0.46035929266560754, -0.5360621249847591, -0.5369652674541173, -0.39904790559711883, -0.39405019011495196, -0.25239589717262395, -0.25419103385240266, -0.09976333993995819, -0.0196311785111188, 0.016856175562256215, 0.010538212516600575, -0.003620918794289792, 0.005514111038122827, -0.002391953718151041, 0.022432940394537502, -0.007792424539476286, -0.03534307939225271, -0.058457778242518986, 0.0572232899723407, 0.01118933707981373, -0.09845877168963052, -0.17965381673949551, -0.0889155015558617, -0.008833988120807141, -0.14984455049571205, -0.38947507690423927, -0.2882514811642143, -0.501997921475365, -0.4186708928631293, -0.5404280307392136, -0.6412445560568167, -0.510779162942914, -0.49540935595079066, -0.4471188391774301, -0.37946181144689695, -0.16879467985679406, -0.030822723349749056, 0.012314130640129943, 0.008714896429966866, -0.013903191025349888, 0.001506326136030752, -0.010005234990234653, 0.014994319041425425, -0.0517080249666782, -0.0766629266944122, -0.13625978448776505, -0.1448681034976161, -0.030440198751701255, -0.08070236407242759, -0.08441027266917576, -0.01543906784252156, 0.022951635690195277, 0.07778767894123942, -0.12432085021990052, -0.06757207462362594, 0.05975364865431004, -0.04443627409756539, -0.07398198157567405, -0.14756759309934067, -0.33655660905542145, -0.3836402512851036, -0.4403994506139605, -0.35815431602068565, -0.22310030180544446, -0.05564369025739362, 0.005401015311507297, 0.007626308105820293, 0.0008798246799106975, 0.004680466979906521, -0.0034707034862164333, -0.0035644806092643678, -0.01338484841178442, -0.03292318027518674, -0.05600201406573729, -0.06337263565052449, 0.09017949855194393, 0.004806440865329463, 0.06714290064377477, 0.11173144329139505, 0.14275610379366413, 0.04397638219396836, -0.07985214514048078, -0.02405077956223675, 0.03933578508506271, -0.15776624685242066, -0.12826209428744048, -0.04210220533548312, -0.059546349147870346, -0.12264701733878233, -0.20201464358287446, -0.23176040887950383, -0.15309223977935937, -0.05743763640881473, -0.0015623655303359713, 0.01206915076595441, 0.005324993029035269, -0.005865642435453915, -0.002211958969885952, 0.007473190642774916, 0.05442560467088393, 0.03359935396443319, 0.019992734448721922, -0.01139413370497003, -0.07865196854373888, -0.04251096071274784, 0.03953786189469299, 0.1069930035685296, 0.04559128855684158, -0.0194771043442972, -0.08647281248127162, -0.06528491534621116, -0.0687147457950213, -0.09006940545179354, -0.11362971545458785, -0.03616043240458969, -0.05920652014575087, -0.06384219650187803, -0.10664494488089347, -0.08413027047979285, -0.07727892797385363, -0.06419614355354954, -0.005981804337165056, -0.0003065308726495105, -0.005436153595362141, -0.005351495781805102, 0.0005723749801417349, 0.0016230899883891386, 0.05653034626791977, -0.01986471701933465, 0.12585419279453855, 0.011116103815469382, 0.12977190868545316, -0.07844760458339098, -0.016577047245623564, -0.05195530173695021, -0.010464828900131564, -0.18916492485127684, -0.1111281218463236, -0.028310432545114856, -0.17647529566101927, -0.2401507728395085, 0.04199020560261674, 0.07259270500310527, 0.061509391281666374, -0.15490226085074435, 0.02321624807263263, 0.0571195483810943, 0.030212360715930597, -0.048612626803043735, -0.022332407130832028, -0.0070680653283091205, 0.021123834348413202, 0.007575214578190014, -0.010565161683727913, -0.03595301095715688, -0.05589261364640607, -0.0020913640841685598, 0.07873381524625078, 0.027612465433966053, 0.07549985440232948, 0.09593173672618804, 0.013405427575951374, -0.07561849479439876, 0.0005773648433231363, -0.09570511092540925, -0.1447129260406592, 0.0038812422069300348, -0.1273276074584545, -0.007139794175530869, -0.0003939021071091373, -0.031335409302826786, 0.10737929568295419, 0.00811368642438384, -0.0422381374980847, 0.10647249827963956, 0.09460950242298087, -0.014813740077269348, -0.015928430672431437, -0.0006104337798292687, -0.006268289543950586, 0.007967413926086714, -0.012799754312043481, -0.040152239053493174, -0.08678681275879893, -0.11961852632520444, -0.16297763166822551, -0.19318705998982053, -0.07642021323045928, 0.02416190399204688, 0.043353202613380624, 0.00976446913186322, -0.026428530738301793, 0.018812795313636062, -0.03775748614479843, 0.02592707298459718, -0.014508621748360824, -0.05027771726222537, -0.07274013811236969, 0.016873750592804677, 0.06821728304520516, 0.116205006018573, 0.055520278780882955, 0.11431153244853379, 0.11835454464121, -0.015986986456139204, -0.01556580165377473, -0.0046285467281238024, 0.003634897183655646, -0.0029071726451173367, -0.0061494183549019804, 0.01676744451859944, -0.08118059552024431, -0.14663703272314133, -0.13131146894474233, -0.16336574129419826, -0.16841497194027522, -0.2892731895761414, -0.11102318829595989, -0.16809851882063617, -0.25519324558668227, -0.1648679053529213, 0.04320586153059349, -0.06344462148595471, -0.23017492166403297, -0.07810013245596506, 0.03013037722213902, 0.15993554377686472, 0.14366193838778277, 0.14115908692200327, 0.055826313592062325, 0.09030227938097506, 0.08204121806005459, -0.024328768340682635, -0.002580064582540701, 0.008816520132204414, -0.005908337206445876, -0.01572382168668841, -0.021254777401270016, 0.021567554159196336, 0.06716603605295138, -0.06951790992323874, -0.07602588279758339, -0.02663477545645987, -0.2322068079344628, -0.22265848786805123, -0.23637640196720153, -0.4195166971645964, -0.41456818339948703, -0.2645548787677409, -0.024564787174791713, -0.096190561444291, -0.010341279961828091, 0.06695810679352339, 0.003096563809703477, 0.0781317781605528, 0.11120161093992899, 0.1585132582895872, -0.036714250311328064, -0.054015151623169846, 0.004321301815595117, -0.02981349399133212, 0.0021725579261306143, 0.0006222532144751024, 0.005048959441990274, -0.013364544614915026, -0.006756067705000286, 0.010489606154799795, 0.08475438493686563, 0.0773980057725248, -0.03058275250577548, -0.09245516272533243, -0.16154396878113453, -0.17653811177848536, -0.16274735119468497, 0.012947200356351461, -0.04043438932095104, -0.18994729097429128, 0.05427034357138251, 0.04925477855524125, 0.08175860456333899, 0.02734160076846381, 0.0018751510983669034, -0.017521236530820074, 0.069156521983289, 0.1074520612195608, 0.09027932011036283, -0.03562899406525831, 0.0628454371410421, -0.032374938221008905, -0.0246762065874878, -0.007801719296789868, -0.0036494589035397412, 0.000335574612467861, -0.006752701497604915, -0.02041049316163604, 0.07903334745364168, 0.07852147033757968, -0.0189039361828184, -0.10195453376084652, 0.09966123889424314, 0.023670252097759668, 0.005515725811286544, 0.17277489715806507, -0.005752315560293754, 0.05545878558541237, 0.014834949181768042, 0.14945329893775858, 0.17618446889432524, 0.17221197439672403, 0.005897199142551105, 0.13939688288850483, 0.053482245214978456, 0.07506710894269812, 0.21365964906951343, 0.12054325859565981, 0.03560401397766733, -0.009128278725413247, -0.008744997145064886, 0.0024786189622041004, 0.006695108390529496, 0.002590931088158605, -0.013753389066579032, -0.040414131062200896, 0.1653892142714988, 0.09122123886691143, 0.027021118298435835, 0.18561864360831953, 0.1612757951384368, 0.1494570792048282, 0.14311196375640475, 0.15536276884266817, 0.11898434564767607, -0.04002771356126157, 0.11546546888663801, 0.1223024390472996, 0.048864514877162694, 0.08645523930069451, 0.12606980604601445, 0.06603904030573719, 0.13048523881234983, 0.11008314844466502, 0.06960232417160622, 0.13385266343885094, 0.0019726838284403383, -0.02953604321021163, -0.002868173335600155, -0.011759516126828625, -0.002591920068606155, 0.009468357127389233, -0.009891177957608101, 0.008224682587272566, 0.11177099249099687, 0.012822279123440153, -0.037113178383735276, -0.0958284914768546, -0.0049339515328507616, -0.0020528186040983747, 0.1019338166660248, 0.1332340621943459, 0.17221480442317338, -0.12185150115675421, 0.07603682521049142, -0.004194809154407886, -0.03456203175394277, -0.000889338420540288, -0.03373863235695706, 0.1454260066876846, 0.1823601705228759, 0.10050763353770963, 0.11430646838260121, 0.09364755322498118, -0.09253526435030134, -0.037078534520495886, -0.008685627062130628, 0.004113222915794446, 0.008172680060449336, 0.006973374722785643, 0.0010717901393240122, 0.03978766715279148, 0.12148818427903896, 0.14093568109958565, 0.05857664659422179, -0.07029192679414249, 0.07271278041086239, 0.10043037693766374, 0.11039741895273986, 0.12369160714727744, -0.07108816391815796, 0.040412111005856705, -0.04605064697018804, 0.09626160486782534, 0.039920531681933394, 0.1216626583068361, -0.07154742862631312, -0.07196951559268015, 0.04917218943921195, 0.0034662431577036088, 0.07429561634718784, 0.009233166049691901, 0.0009497678881056604, 0.002112812175469779, -0.014868316655411122, 0.01599768148651383, 0.0072005444964187305, 0.003788344447897736, 0.01446002078650116, 0.005646725660488286, -0.0017930361790632148, 0.03965018555415854, 0.05113495840263303, 0.10991175596298987, 0.0783434901439919, 0.20195885784305412, 0.1433916182884849, 0.024519620850716767, 0.099663736148527, 0.04636692436975308, 0.019676415644117644, 0.05542532851483282, -0.05286006177145034, -0.011884314998730371, 0.05850463704220494, -0.00023174733692430869, 0.049225184164346784, -0.01784667228839021, 0.03952826409734502, 0.007389197460012047, -0.0023976638090952847, -0.011198835042261865, 0.004872357654313808, -0.0009864049950457565, 0.00414536258540631, 0.008696715908131189, 0.0034939266537066657, -0.0011864775532421479, -0.016063642005140898, -0.021172954117593654, -0.009585244384823131, -0.049892861408193045, -0.054367113496365055, 0.003511375253291125, 0.022837292793146276, 0.041585311798896636, 0.06894991771634758, 0.031963178815578155, -0.0019488618572688465, 0.06377103768431036, -0.07992464569420288, -0.001307715469667896, 0.039734739124749154, 0.15995155896577923, 0.060722762016066766, 0.0060136438640553255, 0.0483121702004551, 0.035429690450155066, 0.029580332822351132, 0.006641750567204938, 0.006191444912823155, -0.003567978097192645, -0.018264810594041538, -0.006475157908174304, 0.014528572399794937, -0.007828702625761396, -0.0068337110320675, 0.010121461453876103, -0.005419446903550076, -0.02397366362150431, -0.036634959675918025, -0.05183721336253585, -0.009375167223941954, -0.007162002701410781, -0.02975195103194694, -0.03674218120231587, -0.007184903693170417, -0.012672069877559202, -0.03204658303101843, -0.06668380505847273, -0.02646610831247693, 0.0026617671014084717, 0.017799285941970677, 0.029217020840890003, 0.007872579512764627, -0.004968699281731538, -0.002852581207058134, 0.010459502894925051, -4.313464588851639e-05, -0.002418432177863873, 0.005037224644976745, 0.003996618810653017, 0.004365414923980441, 0.01454603529404428, 0.00234182581183974, -0.003867342954442935, -0.005655811198909927, -0.011835882067671897, -0.003647862063611721, -0.007632982285601932, -0.00625073621978041, -0.012373066326450246, -0.004949260647823426, 0.006947562964038182, 0.0013271439373227897, -0.010913762336471849, 0.004096374289281368, -0.013747228027896803, -0.0038633738092166757, -0.0020990679421757637, 0.005634567524255846, -0.013436475545279061, 0.014198397745107503, 0.009439441823415506, 0.02133363291728214, 0.0005004030339782336, 0.0016717597992671055, -0.002831227638251243], [0.002183011617164806, 0.008312331680691464, -0.01928167963307449, -0.010115785086808425, -0.017643649200219727, 0.007133472193250174, -0.004461879796552796, 0.002184713435245371, -0.021417596918088463, 0.008400562804027558, -0.01163601420045443, 0.0018156543824406027, -0.00951739905117527, -0.0028463263558640866, -0.000727581557708211, 0.00873620922619433, 0.0003656006532848999, -0.004752555156221216, 0.003352819564764088, -0.007002110794523625, 0.010085950667753073, 0.005211078008517045, -7.514700563693401e-05, -0.0003454211424034169, 0.0012884444901265452, 0.014543255148188071, 0.010010698803276895, 0.005897332627699153, 0.001671379900322473, 0.011632622254856284, 0.005886258232109566, 0.004157571249062629, -0.00546048802130571, 0.0038751699346340727, -0.01358273251581437, -0.011000453165897412, 0.0036169504288004702, -0.006484639789651133, -0.003315878667219877, -0.016351346454901865, -0.014824261483727416, -0.015402202834113388, -0.026297994206344655, -0.012081644860376545, -0.007351381274082444, -0.013461553250475345, -0.01925939562925255, -0.00858977092667725, 0.001099724008000291, -0.002001121588146248, -0.0021228682385058, -0.015237017284982739, -0.006779367173510445, 0.00032819264664020334, -0.0037267634298522685, -0.004911466868608631, 0.010248598069880134, -0.0072081869918357655, -0.0016200368778483414, 0.008210523768455555, -0.005737043027822626, -0.010064928252121243, -0.0036337209970130893, -0.017584801704750755, -0.022394000682647464, -0.0027599918253217747, -0.04319481827316301, -0.04088506143371992, -0.03112374563391262, -0.03446763528574014, -0.020154891155441286, 0.0013563254903189179, -0.0013040183718273416, 0.003153581768006643, -0.024198030216583382, -0.030828447831689507, -0.02126430038239054, -0.011733110557419166, -0.027025385904519115, -0.015516633175900763, 0.013142910976715414, -0.003951658599101492, -0.0010977563605314871, 0.001334555166942782, -0.012028726272400045, -0.004097226078923802, -0.004098143038080326, -0.004652565398214508, 0.0006759315632980324, -0.005544540891868967, -0.021971178265401896, -0.011014393228824712, -0.02821645495891309, -0.05491688621894137, -0.03719677982625679, -0.0315240536850579, -0.0594949312972904, -0.0588943120642201, 0.005723605296602894, -0.039094284628841604, 0.06188150550982145, 0.013154772443911278, -0.053607322319069124, -0.05927210604300104, -0.03874879089228748, 0.029606261671836047, 0.0038523773225741763, -0.028029768127721958, -0.0033258863848025545, 0.005501195605842124, 0.0004814212473246111, -0.008514101185223248, 0.004363306706134998, -0.0007197905311268181, 0.015745082785610053, 0.00039626215376164554, -0.009724033806991945, -0.01011239257758859, -0.0019665435578920857, -0.024078912933524113, -0.016338011105153538, -0.038112996280689745, -0.054038594218915804, -0.050467441293790924, 0.04539583514265437, 0.09787828808659901, 0.06959455919826549, -0.03796330800601578, 0.07579165604037469, 0.04208884914728353, 0.017823475217094594, -0.008603702248739879, -0.04999639200534823, 0.02723062369285317, 0.013581424098534358, -0.027335985862589455, 0.00043321750689914176, -0.01676890863080605, -0.012685523957597315, -0.0019209222028641873, 0.0061377105727284395, -0.005319498805314127, 0.000782948127186003, 0.005376608407344431, 0.0016265445600062948, -0.004890737054712817, 0.010513137227971831, -0.02111671672842764, -0.028281812867802396, -0.011287229063317243, -0.026605510945790393, -0.04872467314721644, 0.03700051710734466, -0.2694887147360179, 0.06792021390985747, 0.0448325025633456, 0.04986490464355178, 0.03208299781198532, -0.03138933862076514, -0.08694673997119463, -0.08770739654718687, 0.00709368484497239, 0.03946120011622527, 0.07126429306423541, 0.04917178147068765, 0.008338689138561053, 0.0005870052243592093, 0.014670276215132621, 0.022225034377344636, 0.008014001656147195, -0.008986418917517633, -0.01864488582154276, -0.0041861057448280845, 0.022063655515461054, 0.06350890611604494, 0.054007274095190044, 0.14660075650141371, 0.19848055906050988, -0.09488079374663168, -0.18052154893042827, -0.05157859336235046, -0.2271502767693737, -0.19305662322316638, -0.07780555555649461, -0.04594466781352454, -0.1957516230245782, -0.24093262788936112, -0.15733502743366629, -0.09460729664342092, -0.12095160671946444, 0.018055489107239427, 0.20529093935942286, 0.10730957816779281, 0.02820303446365816, 0.022969383590439856, 0.004886327637775772, -0.0014684848618575312, 0.008272175788820285, -0.002827318818581008, -0.004068414634461092, 0.029038435201214508, 0.05892422911960665, 0.01442613340801573, 0.029932489321304948, 0.11684676505905882, 0.13878301505744278, 0.0031713965560949825, 0.10219469992798354, -0.020251684640327484, -0.04973381021437648, -0.16622233236862355, -0.20488331491137637, -0.23408383160675894, -0.21723889387812695, -0.2838067372652188, -0.16159184922690106, -0.1585425606735111, -0.14171051190351788, 0.032271293613631555, 0.05011665198550892, 0.19234003577190928, 0.18334475881665274, 0.06196140318657857, -0.003305486620393751, -0.002455536588697274, 0.010699385557820044, -0.00705383682423912, 0.004889743822606036, 0.0005873601660501522, 0.01410173419838717, -0.07111691758127171, -0.026416222251320724, -0.12530011444838574, 0.04678655401011779, 0.02332726647768925, 0.06694686486357967, -0.09532289402834634, -0.032167535917268425, -0.16896115470678716, -0.05984892257145371, -0.2774777069089556, -0.03602984429038592, -0.26163146174021695, -0.12245948537432068, -0.09690256410974134, -0.1586555597500054, -0.09390622680398411, 0.03440618002087123, 0.14254142686462215, 0.14882247362698559, 0.014455216963432153, 0.0019202029461326642, 0.004988984318461196, 0.0019435674385333108, -0.0013904270198305728, -0.02388906062249036, -0.03909105999308389, -0.10075369353721875, -0.20521416424866298, -0.2487824992124691, -0.15852648920432577, -0.15694842367066003, -0.21618057602963853, -0.06705559835009395, -0.0796521543719544, -0.15617132326571487, -0.10895561095659966, -0.4167932862807302, -0.0631456268512198, -0.11177180659070128, -0.1973470078237235, 0.012829366327499304, -0.0005049049507053154, 0.07605819904726172, -0.10328249960767939, -0.013128554492231487, -0.044935238415651925, -0.023523020817172894, -0.02103795974772856, -0.010126142144023676, -0.006582023832280841, -0.015913535930233962, -0.004833483417873992, -0.036308573922561836, -0.06262833479379491, -0.10961060788650476, -0.2558941660709667, -0.14400109374509518, -0.10050672013699766, -0.1257079524867184, -0.2126530373590957, 0.0071651217815868464, 0.034873654883070766, -0.20177396919042004, -0.29927165820535917, -0.10525485575396608, -0.07820596633636989, 0.03242472273701864, 0.10005767698811473, 0.11970522743309393, 0.1570460243676778, 0.04949145460059911, 0.12551442833550075, -0.17363339403943634, -0.0543336047557548, -0.03865731615500962, -0.0048484361966181005, -0.004077324203366696, -0.0023743384969597847, 0.0072067500415490164, -0.010081635102612717, 0.002749685904397913, -0.08016318639443427, -0.03954003268540422, -0.14401035185710553, -0.06821276592689544, 0.03124648162128826, 0.030324220950732717, 0.1096846018817127, -0.12155787946781568, -0.00014786991257509737, -0.22722675427980277, -0.2276076348717679, -0.0960935469520642, 0.10898001466968799, -0.046852037435739416, -0.13364093943533498, 0.025901858799158683, -0.09002824658931277, -0.12210271755137124, 0.006991003947147066, -0.172336835786074, -0.21715231793791415, -0.04631664201209693, -0.025080236819732295, 0.006950385591901905, 0.01806668927518647, 0.01247070623632191, -0.0004026815774005192, 0.03811433235963147, -0.1213246736340884, -0.11482845024886229, -0.013108635717817571, -0.03638725611013082, 0.08126454358238956, -0.0712314844141305, 0.15559389216132533, 0.11734798744380313, 0.32115181933035786, 0.20425295454527068, -0.14101185662833138, -0.04146230107251771, 0.06117898108932136, -0.20523849608960565, -0.2715236290830799, -0.07928565030125136, 0.0014063499592743367, 0.013645969929509704, 0.14908215212465786, -0.17769956096784031, -0.013500415097819764, 0.03454829073927707, -0.00577106029218034, 0.002295417041070465, 0.0037864747349417023, 0.016693823429303433, 0.005853363413558577, 0.02055962733565294, -0.06818520192815158, -0.029708910991309404, 0.13817206886990102, -0.06404146315640043, 0.03621060700442549, 0.020285180163552147, 0.09973949940238908, 0.3214873012496653, 0.3880807829279813, 0.06950468977937223, -0.10791236614320494, 0.05475162240403252, -0.004619686001004736, -0.010981845005621653, 0.06332003251725568, 0.01760446242658817, 0.038644329354741595, 0.1039131089841039, 0.12771121876657301, 0.08986310036730974, 0.1373559306771986, 0.11802558579815618, 0.05855913977652533, 0.009724226089490608, -0.003941607131199651, 0.020631657929183884, 0.021570305692967404, 0.0018997780190239742, 0.005808198801049566, 0.2156292889413807, 0.11059571611582905, 0.1974997122267331, 0.16828269597415044, 0.24129531382525723, 0.10805465954084724, 0.37215768270025085, 0.44908111680583335, 0.024711210503420455, -0.045874131362913816, -0.019587147599358715, 0.005059431720740803, 0.22942195618283656, 0.0986973351327953, -0.030367195613164748, 0.053441450749841884, 0.13017672051325513, 0.17834038890704515, 0.07156923326041767, 0.12281706296559138, 0.07041233565323811, 0.010299724319848278, -0.004561021301858377, 0.0035864235952784854, -0.004894390575666175, 0.028766644252948732, 0.07266488432747867, -0.015645672747259417, 0.07837782529839735, 0.1575014637907585, 0.14557370338539335, 0.20904647097230822, 0.30248907178210604, 0.10100765890175378, 0.10597968397109589, 0.21066230063538, 0.007842541572791809, 0.14724439091434274, -0.03130681183263597, 0.161901970013143, 0.14324635619649995, 0.0933493230006739, 0.11834097501043454, 0.0486896617322917, 0.08867523987452272, 0.1986876507984556, 0.06050437489382668, 0.018061499328507126, 0.05494712569207566, 0.04180884019865213, 0.0027355336242455724, 0.009720241631605966, 0.0017298834574313291, -0.006149490378532911, 0.04964075315531572, -0.041642057003095284, -0.05955415349073764, 0.09600833255157967, 0.20645872778710905, 0.1505378483192935, 0.03537975106843122, 0.08626896574607354, 0.19819828776747245, 0.18549939692891657, 0.04545155167437315, 0.18163057657547396, 0.2734138430159474, 0.11076939019178401, 0.23202668844442112, 0.24927964095860297, 0.24982205731898327, 0.21418962390297186, 0.19145580926178235, 0.021406015037951857, 0.058116447919152485, 0.07508737777749351, 0.05818077810109052, 0.01722942665822048, 0.0019256699031999194, -0.00230819058676479, -0.010311334397408167, -0.003219262540011885, 0.03286220897992611, 0.167580688661924, 0.05504753798232329, 0.1698976331622857, 0.03253621210594975, 0.044464112123530915, 0.08641835647270275, -0.05379368607297582, 0.15971001611300295, 0.050058407484813106, 0.20891897642385374, 0.12214016461527434, 0.02768291959170086, 0.019234298678066388, 0.10319706039601279, 0.23491167506975333, 0.03069562937645428, 0.1495300713037684, 0.08902694872205338, -0.017927331153597757, 0.02265789424168797, 0.02141741631636679, 0.02870980907656602, 0.011819705595956015, -0.004257472734917675, 0.0057269484957100875, 0.0013791310475974423, 0.0001526116582767484, 0.07861502606199948, 0.25478567006327535, 0.17632791938486617, 0.12192171290764492, 0.06658521473082013, 0.03989637712414371, -0.08706514000545762, -0.16885401379157705, -0.08636476097499006, 0.15475084431974973, 0.004089029330906625, 0.028180037532413108, -0.059529214526798296, 0.09579724743949092, -0.07562468295566624, 0.11473656076448252, 0.09058630586870789, 0.0791435395868411, 0.08858124881314378, -0.05742603013527514, -0.02707187880720574, 0.03583003791643106, -0.023966903225664315, -7.822281251381026e-05, 0.003946672630693041, -0.004458482927729896, -0.00418841592118655, 0.002936887179572567, 0.08344420136492386, 0.1836584112371881, 0.14191238688602717, 0.06319263588817232, 0.03681738585153282, -0.07648070832075826, -0.12450726011076067, -0.11500328080447371, 0.1084797431729817, 0.013018922100396587, -0.058609184860169423, -0.01275593500462007, 0.13613414252739045, -0.12620727712019209, -0.043248613710650814, 0.05143509841468537, -0.22922986207336307, -0.17065117668752375, -0.12995479710128216, -0.2015546658727664, -0.11636769734904615, 0.025450016495153556, 0.0147406942075484, 0.010557127933632459, 0.0032929252771015075, 0.007366423136185404, 0.008780420516123282, -0.003956114590314492, 0.02390762128457095, -0.006243561576412737, -0.03150188012210107, -0.1245035974673057, -0.06503916424145688, -0.030727846738038005, -0.005653864981949027, -0.012080467777698346, -0.08044665633648439, -0.02630393690304611, -0.19155621141187987, -0.06303771406272533, -0.022415938790000565, -0.030159662732804148, -0.011779073417239426, -0.08580525138097125, -0.31426265560573047, -0.15092982596892895, -0.07195715421012093, -0.24848070350761564, -0.1900910098793638, -0.061495180438225695, -0.044747779997845565, -0.0034894317188294884, 0.0054325962733520585, -0.002212348437856284, -0.0014200751965227308, -0.007695097617642499, -0.02010415614315743, -0.025518168144654463, -0.12774021095015997, -0.2368621892986104, -0.23267791741063398, 0.04146996123308045, 0.10206111952160135, -0.03279763696904644, -0.0765255435293296, -0.09319654166848883, -0.07026835726932665, -0.1895264956611479, -0.1596910086772503, -0.11085930529617614, -0.036757874984193854, -0.14205397183954985, -0.030898295282752918, -0.11749709467718146, -0.08321461542090114, -0.06399336538143882, -0.03889996799588151, -0.07031804009095541, -0.0152130707218519, -0.012463801526684025, -0.002098043951061941, -0.008948844885144212, 0.011069560009633887, 0.0100492288995997, -0.010378627205858469, -0.01849473604170703, -0.16167432352988625, -0.19525138713683254, -0.1295318191025838, -0.12647313640872024, 0.003234796876201871, 0.07094162571453974, 0.046560451226793795, -0.06946103624771707, -0.08159633986858576, -0.22885064634736862, -0.0729578114232913, -0.08561864268265887, -0.14730008702013916, -0.006501744802217907, 0.005115441516864679, 0.004126372396925163, 0.09764327066409091, -0.013810176445219532, -0.04741971654227083, -0.020181556249320203, 0.025661803148269505, 0.008899618487768803, -0.007247605860445873, 0.007115911881720184, -0.011482649778833912, 0.002861906109491422, -0.005185588913282456, -0.015321921094330358, -0.13251702706767116, -0.08704171275369448, -0.13341108493065648, -0.13729393371911122, -0.0033760044258069224, 0.05386822285974946, 0.027829008154964634, 0.010074445061316164, -0.0503718590355878, 0.008419242333799955, -0.09995718992738897, 0.036255159994760595, -0.09333941358290126, -0.028292718049131256, -0.07939784479028551, -0.063779895964543, 0.05607634256409658, -0.11235669954978209, -0.13306815461240573, -0.05533179484738419, 0.008087799039757265, 0.008146114479544072, -0.010421229595464232, -0.008796347735531835, -0.0020064722836220447, -0.002720289419042694, 0.005182134008364476, -0.036137784446500204, -0.03365258778003456, 0.003873633806224728, -0.09489657878349796, -0.20103253923181078, -0.08399272278534228, -0.12814593095017096, 0.024824165128782473, 0.00015505108878796913, 0.03512348560871625, 0.10891883860621072, -0.00694427557036862, 0.06018833386030699, -0.06092159073283402, -0.12781247787326278, -0.06450465796840582, -0.19244070323134213, -0.07551652808561705, -0.059468615082178385, -0.08338227898580343, -0.015833745644937166, 0.015533501682670401, -0.006051882864910216, 0.003950759630662141, -0.010756091140550346, -0.0013312837415070538, 0.002705470172148795, -0.0010157797576341224, -0.01351412641615243, -0.07012924362115218, -0.0515144921753667, -0.08647649537651354, -0.23705141110986683, -0.26304060992599543, -0.245494095640355, -0.17824128831507402, -0.15742631028220644, -0.16532621290503682, -0.19885602396280488, -0.10631513898070741, -0.19521924909647198, -0.31412412388820654, -0.21578384972578543, -0.2458494306145668, -0.2537927190092969, -0.12799636433371672, -0.057232151240905325, -0.022817253434197226, -0.008582385200670287, -0.0074021446424531205, 0.008771549002406556, 0.0046014422593510474, 0.0006964768676634521, 0.010743579775423793, -0.0074094036214014634, -0.005595937556209398, -0.027624673598505824, -0.0508630092886427, -0.07253119722934963, -0.10282181322600849, -0.19403959039824684, -0.1948003441818235, -0.27790114121924475, -0.1633505475210704, -0.19544038103201775, -0.2341669471198274, -0.31868741806856415, -0.2955519382294289, -0.33251533781464543, -0.25321699567482636, -0.19304534549034694, -0.12791060322402037, -0.09056834310735484, -0.07256402927154679, -0.037021631834543274, -0.001535252816115285, 0.0046120121623633575, 0.008786488874669113, -0.0009784747969543532, 0.005389757465227736, 0.0025121035358811224, -0.013940351846929528, -0.021071313579402843, -0.007602573787861002, -0.0020790622682296997, 0.011982994427193954, -0.026523740458641313, -0.09109201673682872, -0.07786469319489586, -0.01902392657780734, -0.07292848636344679, -0.06448913371111983, -0.053768307583371415, -0.010951999730943312, -0.06691539465073945, -0.0141990174023985, -0.009631849586053369, -0.014317682556593023, -0.017994370661085727, -0.023590860123542664, -0.012895319194821307, -8.246909866455108e-05, -0.0015251306976986193, -0.008441959410326529, -0.0035311929784201525, -0.0007290974792848804, 0.026571135892910453, 0.006867627064604608], [-0.00046285239778922645, 0.001180854901510295, 0.016580427409249303, -0.01081463042204648, -0.006790953237903846, -0.005396381818650218, -0.007316860453708822, 0.01013380509637704, 0.00930160003947207, -0.007844731418044738, 0.009342821777301167, 0.0037691436838279704, -0.01599174000488461, -0.002612331301782619, -0.010862196084586394, 0.006716474532111364, 0.005510554544593895, 0.00920316484315967, 0.01034325427239956, 0.008750391805826522, 0.0037233536365718647, 0.004453950699166768, 0.006044497866223675, 0.003374217659355826, 0.00948558825605771, 0.0038034977760039797, -0.005826536398287281, -0.008706373321610297, 0.0007158004282002078, -0.0065775071283176055, -0.003884757343248352, 0.0029757896034799387, -0.009723527980618128, -0.0003237617298987895, 0.012708921526848356, -0.0011625172008362479, -0.009445419376601214, -0.006999160426982213, -0.007986112012025903, 0.010900874978073478, -0.0035383215417750815, 0.001090218315954354, 0.004039629617135529, -0.007404408014736966, -0.007177792141646214, 0.005906790453017722, 0.011512613040139006, 0.005299614548564099, -0.016678983982068324, -0.0010245065264711897, -0.018024199084415212, -0.0022758746031924363, -0.0038294751295773555, 0.006908161412995815, 0.0038827952672357553, -0.0049655394537583076, 0.005780837309604489, 0.011364596581974314, -0.003405606464859986, 0.013019450934348626, -0.01723897118283518, -0.0035708059254818065, -0.006105528441784497, 0.00464264020057089, -0.005438880543921685, 0.0015518206192918123, 0.00937467431820474, -0.00825473816598756, -0.00593091556879829, -0.03598766480618855, -0.031020774414114067, -0.06986884385981001, -0.04908629270988182, -0.07212830165382605, -0.08752093012597244, -0.07491667678888317, -0.02775254627762897, 0.008782200298224239, -0.004435817220188484, -0.03115488296299461, 0.008768096959651963, 0.013309269006200844, -0.010352522115714266, 0.005265171308777973, 0.004959831266356593, -0.004316930148884863, 0.0033355006662656103, 0.002702422638882095, -0.011147685508642242, -0.0006685272327201405, -0.016992509883641097, -0.016932907560701035, 0.0108324947405266, 0.011395579750012064, -0.021733909841288892, -0.0741481106270327, -0.10051283548657633, -0.01387211491918753, -0.013050503001795027, 0.011943146835653654, -0.0053751176931733195, -0.10577621993087231, -0.09356261755847047, -0.006173372915420941, -0.042962763363720353, -0.03402867974126513, -0.007427829886931947, 0.008873668278905063, -0.0005873577075029824, -0.01000266978060717, -0.005426189145936725, 0.007957519615527417, 0.007453216261148296, -0.017346888255524853, -0.002426510179947069, -0.0037803290501890185, -0.01137330812472404, -0.04611691281481197, -0.06104775176120402, -0.0959934346154672, -0.09288263377216148, -0.03269884868469092, -0.15101118238645625, -0.06363646026708146, -0.0696744408859259, 0.014132481918923079, 0.009037607822925807, 0.14821694352292863, 0.028116637740109075, 0.06647440788125716, -0.10927192735591704, -0.03684637379168337, 0.004945736925964153, -0.05401720910770333, 0.05701251952200205, -0.0261663114069206, -0.1285846549102158, -0.09308088484999053, -0.013091027556396117, 0.0032986449315180544, -0.006897700659631588, -0.00040038623643374424, -0.011415312448204361, -0.013961042817464476, -0.03130858557326305, -0.0970082366812211, -0.07176510191211918, -0.07687893796812427, -0.07680704563657388, -0.14446033742864062, -0.009639773577843057, 0.027446896393320555, 0.011793075051452022, 0.15776578555596385, 0.16633674195421524, -0.05074511239141508, -0.007698011114276325, 0.06305973538978425, 0.07845300533545863, 0.15524321651805945, 0.040701489100922854, 0.06261367649057624, 0.06174740681901691, 0.01299520050121767, -0.04334396911245973, -0.040619586318412206, 0.0018859765738412889, -0.004074805329804399, 0.01994974361517575, 0.0036980092606008113, 0.005842004089802828, -0.020711483896779532, -0.01661830726144343, -0.03990579083439033, -0.10282718911018728, -0.0693606443503634, -0.11107552260882964, -0.1970783817569572, -0.0585536188464203, -0.04842308679513763, 0.060837044460483394, 0.04117546209954056, 0.014978507233638192, 0.19417233884858345, 0.12469090120082428, 0.08613916701844575, -0.03812913012149722, 0.024441769010082482, 0.017085589054266905, 0.14162625599321862, 0.04556917484531855, -0.06907171641663366, -0.08625546642826257, -0.03908296355326341, -0.009713856123803264, -0.013987219741774344, 0.008509890847414242, -0.0030374520216958794, -0.00582426523756971, -0.022126641886379396, 0.012603782486812895, -0.057723323358748184, -0.07582678256935914, -0.09020225887925265, -0.11724462470146936, -0.08671014693665062, -0.2602720687987748, 0.10939181097298152, -0.03716672712706144, 0.16181259274178184, 0.13406330482876858, 0.06693074289543706, -0.04823920725853493, 0.057252750773956695, 0.08402585017339873, -0.005085379689636068, -0.12387981962585196, 0.10370263897587403, 0.01255211297094376, -0.08058904917363649, -0.08536082068104853, 0.017732112003828862, -0.04075512794506638, 0.012414983547463903, 0.00015726965074981322, 0.018060574495916394, 0.0035315486743488895, -0.002785277874505074, -0.03942896533509803, -0.10309480710646572, -0.14110459140826012, -0.05091558447083294, -0.07204175448727028, -0.18466786251287223, -0.09559192232260957, 0.0688560515248953, 0.02469791330048221, 0.005672875198411837, 0.09546054272658991, -0.06029184122230517, 0.10837585319578472, 0.1765860385776352, -0.08641789912604897, -0.12302122324614154, 0.005603370887197951, -0.06136513418076484, -0.1252962875458467, -0.03037678445546995, -0.10731552808085419, -0.0921575649637885, -0.013675731551407982, -0.007500937514024415, 0.00796335211129638, 0.0013195697875173077, -0.011636961781119882, -0.017182652511713494, -0.031743467464103295, -0.13330029890610529, -0.04075354038904119, -0.05556543101246364, -0.19987585288196663, -0.040332791277540046, 0.05526642474165829, -0.12217625345382367, -0.008682394959209647, 0.15996845140312937, -0.011560004277191994, -0.01685854476497988, 0.04626618057353119, -0.09314979925171761, 0.03445646998962325, 0.13239767409810613, 0.11332280796778285, -0.07101643566717653, -0.17663666881217804, 0.02735288032326063, -0.03982500755286738, -0.10133835287751744, -0.025472935800060815, -0.0013885591079821384, -0.0013720723219674369, -0.0015323835185315202, 0.013721837515108236, -0.03690800803007579, -0.04456157785079832, -0.038909560015592176, -0.07178939920106214, -0.09323615166661138, -0.13622324419614731, -0.044011285737262366, -0.04699465783301011, -0.024896208097519718, 0.057152412071489425, 0.09807827567993875, 0.08751585821565182, -0.1662313275162705, -0.13012784125480711, -0.003865080338215469, -0.03587303010791193, -0.08055096251771988, -0.15183198028096528, -0.025430481250415398, -0.01842063724214464, -0.017341761060284403, -0.03681738904080779, -0.08665586300787158, -0.026088814437802907, 0.002184543672456245, -0.0011791839370674621, 0.007405442007187784, 0.002458038456317658, -0.004892801515925224, -0.0262635166170872, -0.10816776822362402, -0.01562170712075111, -0.0008879705892535772, -0.14732974217524136, -0.15434339859476742, 0.07820484769883737, -0.02340272068140714, 0.01790504462763795, 0.015329498636743088, -0.051299854496697654, -0.2732024592609473, -0.2119925705984482, -0.19261986821196206, -0.05535898389850471, 0.1789199051728883, -0.17656816243571746, -0.032589485021270286, 0.05619700337069274, -0.036510518054626136, -0.07594171261524468, -0.08410839244599995, -0.06210334051218999, 0.004822415470614003, -0.02006541996493415, -0.014451781188111459, 0.01163951330616943, 0.004786328482066019, -0.10727334089913061, -0.13984656112298036, -0.011368001241776974, -0.043325759668172356, -0.2452577445395386, -0.07120213330427462, 0.011617138494042077, 0.051736473452536826, 0.08745975091237199, 0.05010499889202985, -0.03444690102547796, -0.3081293337331787, -0.29620979277352416, 0.0643743511054809, -0.13029378346181805, -0.007598241219687695, -0.043682986901409156, -0.03426670619520823, -0.030483749736082758, 0.015898118577700137, 0.07436544954889407, -0.012719441410750957, -0.028446862518043445, -0.00428887126394712, 0.0016202815920158228, 0.0042996596646592625, -0.01115908215053922, -0.04553568985402988, -0.0866401600597416, -0.04654309962654345, 0.11740898691549284, 0.09065645253214923, 0.05511299356653292, -0.043726907622258275, 0.07024109612117947, 0.038394979552460476, 0.15719242481448048, 0.10952661973175587, -0.11283687337019441, -0.27346695671625326, -0.2199844719147046, -0.1308122425131528, -0.12365321407574806, -0.06121171783212152, -0.05346180858765201, -0.0654999294285233, 0.022754883775211336, 0.09594953056333823, 0.08900920418312844, 0.04265683630357531, -0.009095397477924825, -0.0005534295449659823, -0.005822024198991516, -0.008107428782582637, -0.011962483989833348, -0.03348502326042869, -0.03729206444738864, 0.14793779850869646, 0.05173466593745317, 0.018242421325144947, -0.11544527828500602, 0.003255274335864703, 0.015154154574861632, 0.03151414857258038, 0.1395145898373266, -0.007339111003569022, -0.3089302961864817, -0.3096095155445649, -0.08456123851198756, -0.11903076584814477, -0.10489342301456824, -0.059508237477044056, -0.055973879859714644, -0.06834303130429545, 0.00022332370785345368, 0.09196140409654575, 0.1759949281672179, 0.034284325300541374, 0.017602811326384096, -0.0030126015474293603, -0.0007120732928406712, -0.010900653251064872, -0.0025089764002569283, -0.012418328364995816, 0.013413189554204173, 0.1262827564182124, -0.07154777815021246, 0.060151310919509926, -0.020140587623737504, 0.02029886012833296, 0.015592638316914159, -0.09458051182125579, 0.04734677793725438, -0.17815451114561906, -0.3730026715183576, -0.1029088387263582, 0.07040093327634492, 0.015744888481799904, 0.00019152232227347577, 0.061782182022542154, 0.06345057474682508, 0.016347725677163034, -0.06747085878425625, 0.06767478140017913, 0.19879551689499905, 0.0151457703680238, 0.02254408110306013, 0.006267900511409955, 0.01234961618368664, -0.0071869505815324594, -0.018826243666501038, 0.012471346048561543, -0.06056519754782124, 0.06779884286870864, 0.09707983589353888, 0.05478868953971675, 0.1055404052887523, 0.19994650002001357, 0.1755746260107232, 0.20947482105888313, 0.01043062025640496, -0.27424989248642545, -0.22868050895201955, 0.0824222003642814, 0.011449053806058802, 0.1496901070345903, 0.13446841874799542, 0.19246596353389298, 0.25024061730353264, 0.2686721790530662, 0.18286113364497109, 0.009544367496940433, 0.09976612669219476, 0.049492175253597365, 0.029184491914051237, 0.014375631235982317, 0.009113526250747654, -0.011332000421745678, -0.013492478848003437, -0.02307184357783889, 0.09724104934707709, 0.18786743365611924, 0.2170871452335694, 0.1583904401633731, 0.12785455907543944, 0.23853103850218915, 0.27544988419339406, 0.09856455955225354, -0.038284273719978806, -0.3250181955972202, -0.1187179975762465, 0.06685967021284447, 0.11401017328095371, 0.1171460643598905, 0.12877416214911008, 0.216345500655768, 0.16174346327897438, 0.14160211379727763, 0.25745509312702425, 0.12263090949869061, 0.06095707062674693, 0.04654055257273699, 0.01714836428532578, 0.0029538876839885556, -0.003918964375286193, -0.012276280158949781, -0.014257432165116418, 0.016025972999535655, 0.2409698992691745, 0.1743533388728749, 0.2018365559420316, 0.2579892280435807, 0.21800367107072158, 0.2959312812621222, 0.13545729366040504, -0.09478923745308411, -0.236410425475428, -0.2136442672825612, -0.049543725879366965, 0.1477094585455366, 0.2511262582265264, 0.022943062585436415, 0.18805134341975854, 0.1430918016853678, 0.05842783092068421, 0.047668569471164095, 0.1948525192904671, 0.1364740478854379, 0.05031119385096463, 0.0685627558445604, -0.016244344841501487, 0.00592002995706481, -0.0037388465233794865, -0.0003077173182163695, 0.001513026033178732, 0.06017533148036357, 0.2416984820751197, 0.2056165694527018, 0.09596023912840493, 0.12694798745379285, 0.17087568323447339, 0.20269925498264113, 0.25925792152613336, 0.08543915649660082, 0.04678963007450216, -0.15208499911890955, 0.04169503398044007, 0.06927453173301788, 0.1057108157011517, 0.05003999442425481, 0.06695120309855779, -0.013943549552265407, 0.04875532308856884, 0.12202999691643847, 0.08423849024317959, 0.046201850707596415, 0.011806614005985976, 0.01995159294368428, 0.013972518866994356, -0.004124257039014463, -0.014041988169337204, 0.004180546777122064, -0.010958366394786302, 0.04738085536284331, 0.1913071077844159, 0.14599046917445788, 0.09264327889653824, 0.1702938315164074, 0.15727684232697078, 0.1189280819889863, 0.2647860421203537, 0.040700373065280696, 0.03994450693518356, -0.11893039141175796, -0.20614827482983142, -0.10078208422688345, -0.07288462293047487, -0.0788088686393145, -0.05803672807214961, -0.10065462145466444, 0.03478347822904692, 0.09540934275058499, 0.01379032389490982, 0.016951981173292288, 0.010916164284308057, -0.0387361864302153, -0.0038830066326463247, 0.0023864912514830004, -0.01285984227153027, -0.0025977078452570643, 0.01196771964231862, 0.07182950698924707, 0.07871782518689369, 0.0336190238160331, 0.06420790708783049, 0.1023031001673699, 0.02264895979372576, -0.0733997230165077, 0.014982573689088043, 0.07616249470184246, 0.036333713882718284, 0.08234688912737387, -0.147430081068181, -0.11298890448598645, -0.010913983653590306, -0.19406818603291826, -0.1561670461058352, -0.09948411828008885, -0.08890456761389215, 0.012087580038442052, 0.12592821895685147, 0.028814110733550034, 0.009182511511887446, -0.003850305584709796, -0.0004237365905843515, 0.010104450656941601, -0.0021848475972727982, 0.00950113027338027, 0.011686022583355524, 0.01768630434496242, -0.00839933016626764, 0.06420934211731887, 0.08895640619351727, 0.17968446988931194, 0.05927023331958163, -0.03369535863263627, -0.016478387604620094, 0.0630225692760024, 0.11851316682096562, 0.06886358162720209, 