{"cost": "CrossEntropyCost", "weights": [[[-0.01154105802999246, 0.00836592925034424, 0.0019240338761005852, -0.0016347996211419943, 0.004227929044559921, 0.0024391392785811945, -0.004861954496362739, -0.0017421442247688055, -0.004597422570106301, 0.005243537402896007, 0.0027774240329733785, 0.0032778522727555832, -0.003368292513879223, 0.0015055117137634437, 0.0020959929615221315, -0.006568296985615844, 0.003634289516807019, -0.008081971003629571, -0.0022349183781482027, 0.002225128925671582, -0.0005213178486517091, 0.0003643982135796675, 0.006106071034482165, 0.0035518480987790273, 0.0020278322561046295, -0.012294506979975644, -0.005830993390423895, 0.012830079374328564, -0.0007994607426780871, 0.007947512933426718, 0.002357757547581154, -0.015596339327372196, -0.005033291409459605, 0.003079466045752645, -0.007343040923637204, 0.010413512331159737, -0.010902722412450236, -0.00948917901702181, -0.014313529136461294, -0.026226477163017504, -0.016537288909130626, -0.01615531209300381, -0.022224337841623552, -0.038922628138564785, -0.05704688306626159, -0.040577012440008886, 0.0034312430771669296, 0.008275908875884381, -0.014915304075108361, -0.01785070236450072, -0.006647313229801507, -0.0036245926074681308, -0.00042923501120084947, 0.007938321169929633, -0.003843265402829723, -0.005430546449811586, -0.010893559154942327, 0.0023836685829685136, 0.0014353578037032022, -0.005271630745073733, 0.01947961820422796, 0.004491019641097933, 0.0032733568754171965, -0.016542296567549016, -0.013068064738225516, 0.004117742892624844, -0.032477487497556565, 0.019253909552246935, 0.13588777666279284, 0.12773912229733456, 0.060979137940188326, -0.007211087790573814, -0.08870690788850012, -0.1618896560858764, 0.014073792744896849, 0.008560385134579383, -0.025313033717629208, -0.11095815760315422, -0.03757565153842011, -0.005601028920066705, -0.00823745674104725, -0.003508451069320327, 0.004408919023447393, 0.010598559686967506, 0.0012960668456876425, 0.005858502937343518, -0.002339777731476914, 0.013524790450716482, 0.005240642965250316, -0.010307437387629436, 0.002590261016653598, 0.01047399018365458, 0.08797022740844973, 0.10131299505760237, 0.013781778107894991, 0.0840474148755886, 0.41507674493799973, 0.459646016620589, 0.2846562625720867, 0.16026217917682506, 0.19685596656757628, 0.15235620126782543, -0.3008413186850974, -0.2812273074622808, -0.18382082909881037, -0.39857407299162345, -0.38909664341218875, -0.24005311677381352, -0.11076506098013443, 0.0009879158183987403, -0.019562326402990812, 0.0026026816054322706, -0.013946837052625043, -0.002956690214044003, 0.004329713652892952, -0.01732433674674654, -2.591634018550937e-05, 0.004714801348711156, 0.007944985045124479, 0.03258471605082356, 0.15076981290749028, 0.31347326881728566, 0.25220558320806324, 0.06736559298614725, 0.09676540475800072, 0.030305359310008974, 0.021573327946071186, 0.10654004987770091, 0.4793030560977405, 0.134645852525071, 0.09868338908375121, 0.05933703519096442, 0.4291765833589296, 0.030230725348736703, -0.010630249875739128, -0.3778796873425355, -0.24018060768507704, -0.07213912158423803, -0.00813779429463908, -0.012863844016536428, -0.009057685231749284, 0.0029135341824413226, 0.001686057337665292, 0.006298585399334488, -0.01522126506034863, -0.007266742369598268, 0.049333961751328786, 0.172780727953661, 0.13622517889684965, 0.22053326342481966, 0.31457982055615874, 0.10904510713310232, 0.16581069186668032, -0.1375159544130629, -0.10896503857202579, 0.026787056535714487, 0.2945719328690755, 0.10595250430935141, -0.06303324142981113, 0.006625484202255145, 0.06579002530007158, 0.15796255535402165, 0.20784090846647982, -0.0970822114425483, -0.18462838979938417, -0.14924637213398648, -0.07622558627241123, -0.017554559792714263, -0.008655253395468165, -0.010782577715446178, 0.009241511615873376, -0.007820921325077782, -0.029350277087866194, 0.05919116519881841, 0.06090595850433704, 0.26252762352569126, 0.09675033076924931, 0.11029551326691417, 0.2643196190662648, 0.19580481159796986, -0.06555929639613692, 0.17307041505668663, 0.31933359157916963, 0.12881306913763055, -0.03272269011486885, 0.19708005400454243, 0.17109298860774302, -0.028272861268893577, 0.13928782242491705, -0.25101887816637136, 0.02681774312902036, -0.0909970417346545, -0.1935085924277638, -0.10683754718006926, -0.02039723068000429, -0.02101630036534037, 0.0022906206505274264, 0.040244289024011864, 0.006793572705751317, 0.015311592504006754, -0.016587610830938244, 0.021425886776619066, 0.10530167178182928, 0.2685210412665166, -0.15624143556313294, 0.0664061783680007, 0.1424808260388862, 0.4505531479049788, 0.22766465967470903, 0.2349974599199129, 0.39248930529351306, 0.20995753656261548, 0.19634529567637665, 0.35309588387936974, -0.05455936505544101, 0.322840410215778, -0.07445716783165655, -0.23064202062745612, -0.07335233278260082, 0.09026539109275256, -0.28731397899394395, -0.10396836938757052, -0.03877074355377172, -0.01545288165922089, 0.0027456465384458712, 0.004063069375925811, 0.001583471217699202, 0.014413430077729166, -0.08000956743326733, -0.15067461586597586, -0.13005446322396025, 0.18417554402790642, 0.04097482071823561, 0.02792033306320783, 0.27458135368531345, 0.4676675262014009, -0.008182487669391196, -0.09093457063650699, 0.26738051609596714, 0.46417663626460753, 0.17688141023180387, 0.3284122453185057, 0.22191641270474644, 0.06865379306850095, 0.05634590576400721, -0.14917116166588743, 0.011027559061724892, -0.0875176980992667, -0.5826222424849135, -0.11150873636297182, 0.005653479977584173, -0.0015500168308203613, 0.0052295348218461424, -0.006422351308960709, 0.0026687043468403833, -0.0808853860154173, -0.16777188848999833, -0.1995891313257621, -0.3984082293737616, -0.2253794075021979, -0.17433576033129827, 0.23724596379175533, 0.004505066598448208, -0.2581365859681602, -0.2273691182021301, -0.997056142338382, -0.7736554072400343, -0.1834362361291006, 0.3117038848915677, 0.1593917016022462, 0.19114180313973367, 0.10582396937428226, -0.2253339851225811, -0.07886640410973568, 0.32061883008120773, -0.0671503894020551, -0.5003110848071611, -0.03125122897796939, -0.00014624840418826784, 0.007703906800935797, -0.0072468621263230785, -0.00040039641447143685, 0.00816918870307361, -0.14951788553891418, -0.2964539509532197, -0.45218226122101435, -0.7119060393262764, -0.8661930972001318, -1.0516926082271971, -1.0419387281333696, -1.2996400378473496, -1.5387173752309862, -1.4452426702787662, -1.0392510774941155, -0.8794829758012592, -0.21758301470692099, 0.28708669139062687, 0.07655469797494933, -0.04711612448199226, -0.018966720480098086, 0.0052092679665421285, 0.02695378914231587, -0.0250953453030259, -0.0692652862214709, -0.18852437550366416, 0.04355093071488411, 0.006431428619827948, 0.0048683054560325414, 0.005360388771567416, -0.004683203801132923, -0.06434226712168223, -0.16295247969708548, -0.47652116798031313, -0.9002001392740775, -1.0710734449927262, -1.2804218321252596, -1.2577639237972411, -1.5012463673067236, -1.2015956788239162, -1.0283143135608577, -0.4093723217359318, -0.12314658873185266, 0.05387389361469294, 0.22726253386585357, 0.25511642582693944, 0.26182664290444146, 0.0886907226097632, 0.09842767360713303, 0.009573072220714622, -0.2100480651423851, -0.26643692384085277, 0.030233651408694412, 0.10792816856500702, 0.12982415946057754, 0.019278126012200747, 0.0028922272870435008, 0.008593170073429563, 0.005521232050101257, -0.036815893888944747, -0.16585454972787525, -0.4603743309079299, -0.8637947005831289, -0.9851961632948474, -0.8804589349537965, -0.42071734777502245, -0.49301247711702667, -0.07895164796493324, 0.15908000247226803, 0.3264709835559969, 0.041823377528877936, 0.11340192880420998, 0.028185186995836175, 0.0394497419680087, -0.36999775328879203, 0.21999946657863306, 0.1077646701104237, -0.01662083372582504, -0.3043042269380012, -0.28039266430746745, -0.0708127827761499, 0.10127834141329786, 0.1399452641023126, 0.06388129147710118, 0.012172065423735216, -0.009547527477394081, -0.007924964960604956, -0.002322246054409024, 0.0009670591714115252, -0.3113257090232417, -0.2933355208435264, -0.25356475213228385, -0.06277065819589409, 0.22601685379709557, 0.09531564619737687, 0.4709477417139709, 0.4691020448825005, 0.26432772124930753, -0.005028231294496354, 0.19289103978790373, -0.08591928963718488, 0.29288298470743274, -0.23321825369821955, -0.05096558174782431, -0.02364542039374528, -0.15239553259578323, 0.001741241926186158, -0.017460417781787134, 0.0439788800333847, 0.22838624900054974, 0.18433345351542724, 0.04337084558877766, -0.0064259514405088135, -0.004528998371141952, 0.0058724656409476885, 0.00032441285321196185, 0.10503109087126046, 0.10654886415769478, 0.21727065785605082, 0.5928388420490546, 0.787186752897432, 0.390746965499177, 0.3954006461893891, -0.0060427909572385394, 0.14991285138295843, 0.24295080758110496, -0.03823512513728405, 0.4744621554291207, 0.11200154528949482, 0.04497090133518089, -0.2245142298850849, 0.4359220847116116, -0.010725976576494153, 0.13625516127342227, 0.4372977406414247, -0.02148209813992281, 0.152965012468156, 0.20774813852287213, 0.1456865877531682, 0.057813483234911485, -0.008831908702798142, -0.0035802375389009365, 0.015080849844288577, 0.029030163427688417, 0.03407751761819532, 0.3076295335588742, 0.35504847299743897, 0.569929974334484, 0.2971900246002709, -0.010854685163820228, -0.2920421837073253, -0.07918234894488618, 0.22403927895106052, -0.028813717218263323, 0.10709446052666316, 0.03665996926754424, 0.01956880589395736, -0.18202309562264166, -0.2611877469090301, -0.18073670625765903, -0.32467557377075684, -0.01781377323521745, 0.33928439672092336, -0.16471202590887515, 0.11413610339663202, 0.10039102815308559, 0.1375114174217721, 0.05054692290753425, -0.010920411190479968, 0.006657860856563955, 0.02139811209929763, 0.03619294910573268, 0.0351240491171706, 0.4091609094546355, 0.20995109834823247, 0.15914590539728635, 0.22380916009140986, 0.09979347561780703, 0.09231975334795615, 0.002730325625041152, 0.0019240488281639444, 0.08630425479085654, -0.017380857871441755, 0.24647786693855975, 0.07798626020326602, -0.1335987219015658, 0.23379667586793507, -0.1798275296620432, 0.23883223573390444, 0.07824612336628564, 0.1204398586929166, -0.15198581668887057, 0.09288325169630061, 0.27520144799997437, 0.13098959097536703, 0.033471405376600157, -0.002436827427263842, -0.0025829894577692764, 0.007080906257566878, 0.0018921846721811706, -0.04216348128792816, 0.19862416274268677, 0.22804364909551347, -0.0376805827221767, -0.23905624541336448, -0.08582090965485992, -0.3133440392191366, -0.2900361382739707, 0.001539750350648102, -0.06948746230649713, -0.14520142134536215, 0.3897477504353227, -0.0009021551061189779, -0.11637566914029308, -0.07854667686013225, 0.12614649094367014, 0.3913844939557261, -0.11613449525348939, -0.05564353791271893, -0.11489962795604182, 0.08153120997044772, 0.13168945440150243, 0.08545962765899963, 0.04627246290823092, 0.012221556400994567, 0.0006228862841081059, 0.0038300939199936335, -0.007312999634410843, 0.029383987030720718, 0.01272528508453824, 0.10387825849660758, -0.17144059047111074, -0.02226484216084259, -0.07661794345622328, -0.0037401533908391045, 0.17110592129757216, -0.15231909915094696, 0.027422275379768168, 0.3036631803473735, 0.1046198562828328, -0.04542526205158196, 0.012155452103307787, 0.16567860641184237, -0.08656710069923629, 0.17672842029445301, -0.14910599872635438, 0.0979729129671447, -0.09998558265639869, -0.00027369704797392056, 0.03892343787965952, 0.13909460583361702, 0.06627024567038732, 0.05314886655009015, 0.005050434283014015, -0.00610095397367789, -0.06348973653757264, 0.14960247543675612, 0.12221983116843918, -0.106258091759657, -0.018004476774675093, 0.14697416559526336, -0.2112710017695028, 0.07203335085092925, -0.1084452215928704, -0.14393541919658073, -0.09622903235061592, 0.10240296709272394, -0.27851547749615996, -0.1276794168608054, 0.14912347109983407, 0.13091644867379068, -0.05500738142619518, -0.1750832592707496, 0.16454719115094874, 0.3553768410193984, 0.09897159148220512, 0.23231734190663392, 0.21278274612931036, 0.12116400455941745, 0.026532917951152472, 0.0026947911067990615, 0.000155165321937559, 0.003085098737437399, -0.027709297030958254, 0.2725245962708632, 0.41290120736341823, 0.10444422557220867, -0.22659731950198242, -0.2755924677870522, -0.17360658824839484, -0.07748539128580983, 0.11146156367301399, 0.3307961960298987, 0.20356436540368972, -0.06432762891411141, 0.10114212417063816, -0.03518463263489741, -0.1493073507551337, -0.09645720436643201, 0.19330470688897639, 0.10661614538541568, 0.08388205969573491, -0.04676889230901264, 0.053082885417880504, 0.19890371560581777, 0.22974559941277656, 0.04797060228761693, 0.016026837900150488, 0.006508291673711132, -0.00996285559792611, 0.010254306041290542, 0.034213812214260994, 0.08707115384389867, 0.18709142898829662, 0.09661417383825388, 0.003345596503550679, -0.0023486987514318566, 0.00422593270771455, -0.2469960780788833, 0.18305424553925376, 0.009296259430768986, -0.09537228555394091, 0.05407195765906195, 0.06073370280227464, -0.24363860638440749, -0.12831456285571796, 0.10354598590840856, 0.23175786291033273, 0.10896452064074083, -0.10636390638636697, -0.15553954630986963, 0.05403216847893837, 0.310451476509247, 0.2238315844983745, 0.03538892882522759, -0.006519864893696897, 0.005073603275769609, -0.01102942306297053, 0.005027515399808423, 0.0018398038812230504, 0.018368340083077316, 0.07309809712028174, 0.1002194667405874, -0.015724320135927814, -0.13128058797533323, -0.10036367869253424, -0.363547340691404, 0.08297910317239782, -0.1589719812740846, -0.36760950406836845, 0.06711063804571289, -0.024730221948484177, -0.0530833910025369, 0.1840572491385508, 0.061464746964560675, -0.1860806364859597, -0.025806745578405087, -0.1317916614596797, -0.26016325087361136, -0.01161815215732314, 0.15001205246170696, 0.05633756440002279, -0.006704989844905192, 0.0033801289579487633, -0.008071231092506603, -0.004121511895866534, 0.0064918764249983435, 0.010660022006894533, 0.03280576457719528, 0.05380289099732733, 0.06910181973461446, -0.14819573562291233, 0.25120212113065254, -0.00472271897667455, 0.07798777593119396, -0.1218307003180012, 0.0015459877849644946, -0.04431825339648504, 0.18730778814346324, 0.08520192390607106, -0.09021438787475611, -0.17911270817032846, -0.11314103971117805, 0.035220070229619045, 0.07378595558008416, -0.1908035885731023, -0.061529457502520916, 0.06092033073683429, -0.0023351368659349594, 0.014800744595969965, -0.0036541546807475145, 0.01742613762381438, 0.006041156233782187, -0.005132620136691093, -0.0005334248411197981, 0.007791547029466625, 0.03245605929488222, 0.15466048889546902, 0.02013825722962028, -0.013199424011064723, -0.07832878914668441, 0.21377949198048213, 0.30953363002723944, -0.13862527113559175, -0.3499121955854982, -0.016071531062297435, 0.19717383078354697, 0.1462653168469505, -0.09370745228509005, -0.13052694558133177, -0.006905495484786597, -0.105630694818245, -0.26868867585515627, -0.059145106821947235, -0.03953417752322591, 0.014294309668346493, -0.01305669547061019, 0.012814929184110087, 0.019091845943636634, 0.010680570087233684, -0.0028450713385785756, -0.0034523170666051375, 0.010045143005854601, -0.01751384263102492, -0.0028508352072469686, 0.08849965509465767, 0.0712761746203494, -0.005212682531021354, -0.09286291890342395, 0.1798334764988153, 0.369167275549137, 0.1757906756325192, 0.2814514663142859, 0.3599285288663337, 0.27935270667566464, -0.09141295190702436, -0.20150509511797982, -0.1842166419925552, -0.2506736726462938, -0.3064284043996151, -0.19731000608244123, -0.13688904771623583, -0.17689708799448112, -0.06267257425933753, -0.02392065711098533, 0.006108976672968969, 0.005941901121567533, -0.007079649288359393, -0.0015785946487151868, -0.006363029224784849, -0.0024729722430820262, -0.002710025668488921, 0.0060384315770498605, 0.0029757893901347357, -0.03611717282518839, -0.05449773667614377, 0.004831970799582446, 0.15011796310009717, 0.18059662833142076, 0.11710260867952077, 0.027904561395138597, 0.015437593507309591, 0.10132998276439703, 0.040256771897360065, 0.04142031386026841, 0.0232084506982598, -0.0025621591565679835, -0.013006937607426074, -0.008762662554493364, -0.007522287976371987, -0.0314486967747889, 0.007358789781247161, -0.0026861699739509463, 0.0035337036809546534, -0.015739345597776472, 0.0010511061928396663, 0.006130902510232138, 0.0007671871349859296, -0.0032268996557292874, 0.0011043298721928256, 0.0108619081995283, -0.0024880882601063022, 0.014480744749838492, -0.0008113656862365413, -0.011862905341044666, 0.009724036495717665, -0.006871584962339485, -0.004236092771555772, 0.0017754497826834843, -0.0021300094203423334, 0.005356820074351722, -0.006028040392927076, -0.0058052212354134675, -0.000493438734215608, 0.004990929271513782, 0.005908079485158111, 0.0009144495417159576, 0.008477669918818478, -0.01167242557455202, 0.0024089444936771765, 0.016954611404625747, 0.0033891826200851114, 0.008062879948360557, -0.0007108814072317029, -0.000657508526969427], [-0.005056997528838771, 0.017114769053904095, -0.0068536174654753495, -0.0004883355816652818, 0.00033427438625335397, -0.0060026589163096845, -0.01217612884443321, 0.001197359845594139, 0.0028280462945312287, 0.005963292567904844, 0.003355323011511488, -0.007061640336296666, 0.007095211071512099, 0.00376725882890241, 0.003381411452899063, 0.006304398971327503, -0.017701960868334057, -0.014919699817503634, -0.009424831333241165, 0.022255212833409754, 0.005382277004958398, 0.0011057952676404516, 0.014970925055211456, 0.0019895418096812084, 0.01640975981730914, -0.013344548420597135, -0.00265391392113899, 0.0010113719841028377, 0.009538628307980098, 0.002968349626868568, 0.0017991846181211106, -0.00047740325119352865, -0.005703906469886672, 0.002257814973812231, 0.008994309625332502, 0.0034303295042058405, -0.004819159620002814, -0.003795691765024045, -0.002552614762650766, -0.00021476330049156374, -0.007764184285023078, -0.011083295711094596, 0.004574878848137386, -0.00017819753964594035, -0.008766752069785251, -0.01925041852546014, -0.006622022366157402, -0.007952010808161674, 0.0015650916095120689, -0.0017707361603315065, 8.378372827299078e-05, 0.010101783725005961, -0.00035219095121187966, -0.0016213119455313096, -0.008212545034153102, 0.0032455188712204944, 0.0032558467453948745, -0.010817165209783982, -0.0028125000585565926, 0.006708169935470933, -0.0035114539061950226, 0.0030323922714972635, -0.006123910344304427, 0.000705817981846363, 0.029053941721367826, 0.06091585451201596, 0.06802848338446835, 0.07285289892031713, 0.02009066895134625, 0.04466781672670044, 0.1025511423688984, 0.059915587311129295, 0.04749846298112696, 0.0470076829506439, 0.019893944443128853, 0.028515710779951974, 0.034854887535317715, 0.002832032526732918, -0.0032183502272218755, 0.003922707809332699, 0.006161338949125431, -0.005252075116257187, 0.00393465762098744, 0.007291989489256701, 0.0028982023241602367, 0.0022790127192321495, -0.0015486325105424532, -0.0024678948756800684, 0.0019390481616590404, 0.05582071972302384, 0.1333594849428042, 0.1453922468149476, 0.1484750844730424, 0.09114554586916696, 0.08988104939411541, 0.16597505778712013, 0.06806060949751093, 0.05436752082292932, -0.011918753341617848, 0.028435481890391846, 0.0966278860209589, 0.07189773164970052, 0.1603763975061899, 0.16808905905282284, 0.10191092712520304, 0.04558051724023028, -0.011135054575492671, 0.001619812630480289, 0.04777921985139091, 0.008114452760504504, -0.0029217445402067855, 0.0027360356428367226, -0.006006346815880793, -0.0025365415722935812, 0.010691711258022464, 0.002472679615847306, -0.00746871976241599, 0.14803125191167973, 0.14627851446859919, 0.06401454012470027, -0.007132592673982759, 0.00673151945452571, 0.009313777427851078, 0.08507111394149247, 0.3050169568128033, 0.17165174878489106, 0.12426603224544874, 0.18760474048176484, 0.19379788715543667, -0.010775121752353924, -0.10868936533997868, -0.13663815912284585, -0.021342492730253994, 0.07897262295047044, -0.11630101354709384, -0.06195022965981902, 0.01777768574001563, 0.03738660781635362, 0.03869804775455331, 0.0023296125007576506, 0.009100765332850369, 0.005491045550461672, -0.005833493731213757, 0.0026231892940440536, 0.05173797712871304, 0.16600277555679868, 0.030140133175756288, 0.06388094702444738, 0.016079778540951765, -0.03966735850986227, -0.0817545495236936, -0.02720516047432366, 0.22783729735500427, -0.0870723339715004, 0.16816139219964535, 0.49299531066376057, 0.13321956175923777, -0.09057076992501534, -0.2902347512102248, -0.038353197827016926, 0.16846967720873532, 0.2998127202145791, 0.04124197119837483, 0.013899028787122111, 0.10700501406009837, 0.08879947899703029, 0.01955770184507896, 0.013838774766406345, 0.004824026318624385, 0.004435613516729455, -0.0084057859654579, -0.004541986226142771, 0.07660567717319146, 0.07334490747201877, -0.18668502190320552, -0.09087893720211822, -0.013593386012484051, 0.0350802383360612, -0.23495279271177436, -0.12662320638916444, -0.0006577642937925972, -0.15521756840179093, 0.12684197222048524, 0.10509648198368333, -0.10680924945033053, -0.1275538753320261, -0.29098574145678424, -0.15893533155206496, -0.20685393461987356, -0.30003270569019397, -0.12571365967363712, 0.20728521885252366, 0.2556753953445241, 0.1923627326723951, 0.0711211651789266, 0.014595697362507863, 0.018084301968668337, -0.0003499908015018465, -0.07287622442716181, -0.07000594656821027, 0.03811273457571539, 0.07390715194420529, -0.007081270640669699, 0.07733273768258486, 0.14820877003660085, 0.05511828219258163, -0.16783348695260447, -0.038408659132707926, -0.14971976822458571, -0.13162679344940614, 0.26242264827080236, 0.11825583709636163, -0.23163766625847465, -0.2728687631658609, -0.28412176463775735, -0.3795808369112499, -0.1578329062772917, -0.190296218146254, -0.17338509971882665, -0.17568749947169052, 0.3301190485103955, 0.21197428169245616, 0.09158748627019928, 0.013953380034179844, -0.0033242706689720937, -0.003379956786200479, -0.041306271730854875, -0.09469853758771338, 0.08539024611584595, 0.12071397168759745, 0.1580610042737588, 0.2652190263394806, -0.006325129620499696, -0.06630167581598886, 0.08435746880747151, 0.1802878743735022, 0.22537950981101337, 0.27984420489896705, -0.17381229015987346, -0.38599988580172545, -0.41268702830009335, -0.17367193480275614, -0.2502586132725696, -0.21277222389228054, -0.057892619824403156, -0.26766386980865947, -0.2947185509267284, 0.03152279398544118, 0.29829199727154015, 0.2478918404403615, 0.1707566583691575, 0.020089628002141435, -0.007608132805846238, -0.028032015871858666, -0.007361915651292892, -0.01483431938335098, 0.06587750411153634, 0.15188206562696124, -0.019502324802379015, 0.08047330991218872, -0.08719440698252659, -0.091491591811172, 0.012916563741794033, 0.07180740965994713, 0.17313593827027038, 0.04742604586680028, -0.23781209382652338, -0.48865639380740483, -0.42905258706906474, -0.3873129697524956, -0.3278179425404331, -0.39275821979985925, -0.25113288903670467, -0.06017214075827101, -0.07574114528493273, 0.17473713401008636, 0.17602052588458958, 0.13437434185054226, 0.0656075280733579, -0.0035805880883639585, -0.017279361799785564, -0.01248598543165155, -0.009586178520254106, -0.0014450330157358094, -0.0914967845553488, -0.02636144275664325, -0.13608172628979306, 0.07903711237642458, -0.1367279176538437, -0.13041009315729796, 0.15078204060487116, -0.0906879735494697, 0.12093655176622622, -0.016196847262960702, -0.11118016232336274, -0.09448342182713161, -0.5819364158768978, -0.35732807294180896, -0.4401570070420243, -0.207693901086956, -0.17537961436517613, -0.23609670213856376, -0.19185207954160668, 0.12543230665342497, 0.1289189617309441, 0.006065967980994676, 0.022978443365814234, -0.015475211700140774, 0.0018402360074473488, -0.007483846276649387, -0.02972370811559775, -0.05819408615334407, -0.14124868113239766, 0.02215609796278666, -0.14172402467073786, 0.10002805858108509, -0.18859529512582468, 0.07472645541049391, -0.031037038105222688, 0.23885094555504852, 0.24957515751513729, -0.045678573824139694, 0.04714641094456809, 0.3481877018673825, 0.024456253969238527, 0.06575804789215052, -0.025204029535648466, -0.07643129198197605, -0.23225325033725272, -0.30382155205744754, -0.09120951418457099, -0.18495227173275072, 0.04776279063740889, 0.06974337746496767, 0.029141866028928414, -0.012635190282451393, -0.004211017221742523, 0.008791288797724615, -0.006864745111964182, -0.12787682984757437, -0.23841577489712049, -0.1088823651510185, -0.2889310023313072, 0.03731826372553126, 0.3142066774621557, -0.11746505120360144, -0.04988833713020346, 0.12044885902645296, 0.2673300965055507, 0.20127068517432511, 0.17941892460647738, -0.01936533179902683, 0.05925985715042473, 0.383500213878457, 0.07055264492266282, 0.14954561999738303, -0.26905240699835853, -0.05381793827188568, -0.31250098217773886, -0.1511454114733943, -0.08262522247369473, 0.04715424364437211, 0.06034267457569667, -0.009419850237520289, 0.0025375946828551468, 0.0031417075311456237, 0.009677771520158805, -0.0460504074615528, -0.45888018951634746, -0.17762628353705698, -0.4511011655358665, -0.394316708973054, -0.04625944675759161, -0.17476111100342687, 0.057387529246367044, 0.30150118902104883, 0.3237756960262658, 0.4596368756167365, 0.06540384654466512, -0.009914758644683174, 0.4706272746326709, 0.5740228584228205, 0.27911127446213685, -0.009468978107534654, -0.01820343902821927, -0.21784835416888113, -0.38302822053946095, -0.27590552088407105, -0.03387570305731407, 0.000622068140265706, 0.0627902292939468, 0.012966900443227306, -0.003695997377030295, -0.002445416441170335, 0.006803714792835769, 0.03060819314697992, -0.17082060583834902, -0.2526824894592672, -0.36148739732073687, -0.3305567383186884, -0.16491864929601538, -0.1621785000689835, -0.11637582512594608, 0.1857099960250877, 0.4244981373219304, 0.10828546790044527, 0.05427998479842941, 0.2920232527113723, 0.5754476502931031, 0.3316929849727764, 0.15778686753323884, -0.16661322084170888, -0.3884078444784236, -0.3083003223992204, -0.21300616235292183, -0.3513776168744503, -0.05377543241749755, 0.028904716912359484, 0.04350820621641881, 0.009512454449097364, 0.011906123278549764, -0.0012603496140853954, -0.0020921209025230227, 0.06184893847094391, 0.015301773031357638, -0.10605078494839128, -0.04948379639105023, -0.27787488866175386, -0.30297787823102895, -0.13835927724274838, -0.20492472698489242, 0.3870228012627323, 0.38820421090408774, 0.1867486727110852, -0.18124303213119855, -0.26141553855306027, 0.13530587245853085, 0.34304163926301395, 0.2940413027216917, -0.2181683307583041, -0.15302943273317257, -0.16754166625964942, -0.12351960076583078, -0.29242661738916537, -0.09186919795486173, 0.16749629927256535, 0.08400276854532518, 0.00019685018845138602, 0.01438333709069932, 0.0001737621490542407, 0.0035837411401344376, 0.07997315750143995, 0.0924761788148103, -0.018617482280237522, 0.14737436304817197, 0.2109836472453055, -0.21297849113775313, -0.11877844038709182, -0.1208268748862619, 0.39406051482524906, 0.69542869313552, -0.046158599591239496, -0.13896505511599702, 0.0780708530208859, 0.277458580255698, 0.4718422743419116, 0.3277049716541676, 0.03729151854245926, -0.11952954030467787, 0.08861941430888304, 0.01120056658076938, 0.09684940801233201, 0.22332291347460395, 0.20939968769784112, 0.09992061323664832, 0.009886289199888139, -0.0015305425945291975, -0.007113247880807184, 0.014470869793623055, 0.12228023520220514, 0.21950412456111923, 0.21387859299976947, 0.12570135992645018, -0.09662546306715628, -0.13803112281814778, -0.10510884754625424, -0.3121248103264959, 0.25807102699154555, 0.41813322536414566, -0.12865789410152412, -0.07016401380724997, 0.00419584611675685, 0.3426718592290891, 0.19093123340983242, 0.10458212936988032, 0.036777678901450554, 0.04615691060829452, -0.05250117414865683, -0.22056996293730982, 0.019307588880242126, 0.09754460583050753, 0.02153525454659187, 0.0009752024863229594, 0.012904869900688327, -0.002753398499641398, 0.0028585277440888843, 0.003220639012300129, 0.21257474072199464, 0.16258079132337108, 0.4003882759773225, 0.2616032351178806, 0.07500739743118723, 0.12816524540939234, -0.12828644502184045, -0.23975122564462206, 0.17613745382826754, 0.3370491801738573, -0.08551748650829284, -0.14006021597947968, 0.009094432840791042, 0.29445939299238544, 0.31578700159384965, 0.24403147017654392, 0.4604451619561019, -0.026236408274576198, -0.2379484721077792, -0.3224305117533889, 0.0033852279849977147, 0.19942114562378904, 0.0034113241975581225, 0.06084560295716116, 0.05500910853147908, -0.0037608410909927958, -0.0006006067478602524, 0.0027598068293968564, 0.18412117997432778, 0.16460605797438738, 0.2920691923027504, 0.19982779587528687, 0.13735346645992327, -0.18053638373500647, -0.1287150111084383, -0.1683587877994177, -0.09396764212622365, -0.38463107633228066, 0.1364894353272671, -0.012215365109719293, 0.3592149704074004, 0.4782186386527284, 0.3444485564553593, 0.32721210621298236, 0.4360531191223275, -0.0008180508398549463, -0.10603441702913734, -0.04711587946339049, 0.08938805129955739, -0.17925472151009597, -0.06575920106308838, 0.0027753963845912667, -0.005962899216069692, 0.01044904570005873, -0.015294670275853376, -0.0010955585064488073, 0.23436378459899887, 0.32809495733884203, 0.14819133400003603, 0.17043863141166582, 0.07357263145462146, -0.1454941634723114, -0.27387198914449074, -0.2093763476658973, -0.22008257888654276, -0.5609388202355762, -0.11077225905443505, 0.37419257293760305, 0.5094354665577147, 0.0946500702656224, 0.2592286949325832, 0.2281042961456384, 0.12121083265495859, 0.28381679195966747, 0.07139350778052829, 0.1112045505674819, -0.059816129146119584, -0.35660840153149864, -0.13209804627623134, 0.0030486317391839866, 0.021320062304935116, -0.008670095306656222, 0.0013458599267479497, 0.047690558691484274, 0.1901748977112393, 0.2570607045745993, 0.017623539901714332, 0.07461661138840887, 0.04147943059742255, 0.13281448489891365, -0.15945386515318252, -0.2633110160398431, -0.2564827178129622, -0.386388806166189, 0.10836312226012511, 0.32678276790124744, 0.3594598165037096, 0.41368975093601446, 0.5572701689548275, 0.4411782554719591, 0.23811948706540456, 0.16071764776031766, 0.02682199467448669, 0.1169482291992436, -0.10554753503722662, -0.2193060200196053, -0.02765416300990171, -0.02866651175135765, -0.0008550014605789015, -0.01189640148199842, 0.0031353146002262816, 0.028454401988477082, 0.10167276510618639, 0.25991287928865403, 0.12675384614024743, -0.06099991673256993, -0.22818992304958782, -0.44916287278603395, -0.1942444505419977, -0.17664194357350704, -0.053777248448623534, -0.34259639005643566, -0.21202709165366385, -0.0624911618464306, 0.23057328946377664, 0.38629541823087354, 0.2155087636583095, 0.2522226390605927, 0.08553318100981533, 0.26699933684913946, -0.0968596675784539, -0.10414995445890586, -0.18498098200682422, -0.10249112357599029, 0.014806208665880572, -0.006525573601159089, -0.005599617078778153, 0.019657945974011173, -0.006721337336101297, 0.06343034968802469, 0.11926881481968354, 0.27498997782505824, 0.08423426579247059, -0.21076796886463706, -0.12564849691484628, -0.1430218482754855, -0.03981638503730857, -0.30979419415061793, -0.2277063765285598, -0.1427847018727837, -0.16848312794948264, 0.005981995774730183, 0.18525840243450237, 0.40161762210717744, 0.28827861255190945, 0.4973170617331186, 0.3923072690505039, 0.2644118853052915, 0.14913652089971238, -0.028388015154187204, -0.10842442813115166, -0.09523273380689927, 0.026662644573139483, -0.0022279048472339416, -0.0010842260535784771, 0.0013886136250296068, 0.0009414202874813222, 0.02356109127201831, 0.0732761659494016, -0.0002900299950720887, -0.2624596538150234, -0.015039371747731758, 0.12176935494978318, 0.04855899363747734, 0.20278520827034338, -0.3369291246955948, 0.14941817975730343, -0.13333516651749455, -0.31307134649428253, 0.03410377160245862, 0.04933188619533179, 0.6647956820696985, 0.5614123501493943, 0.4343056173212902, 0.3362234967935433, 0.18677580396494028, 0.06440150460420017, 0.1298945491625627, 0.02669641346106384, -0.033951073765112, 0.011966551871079976, 0.003952341254842811, 0.0065003453804449406, -0.0029473166950004016, -0.005903816630910012, 0.009474544018091396, -0.004598245113459707, -0.09898308048537184, -0.10089486991252905, 0.0988693898485639, -0.01221747705303343, -0.1764639832280626, -0.11485838912459377, 0.017216003668519077, -0.23748686925386173, -0.11013188708726376, -0.0907799756655764, -0.21112746158382908, 0.1246337576422372, 0.30835653279476083, 0.3691961955517252, 0.22425992456022759, 0.06605962667674613, -0.030737048285298177, -0.11790585303851038, -0.041100189330707367, -0.020649988425150295, 0.008261986425366819, 0.010255838876613655, -0.004446922454507165, -0.014839042334131986, -0.014205242464083837, -0.0004571744986217025, -0.006284655134277185, 0.0033271485769604094, -0.007653646188877204, -0.06954822022378798, -0.07758156237208207, -0.09939353376475703, -0.10714192080211399, -0.2775400481330111, -0.18405948839478573, -0.0781685961043675, -0.25660235504252865, -0.1989495972984127, -0.15928689366987844, -0.04800876642922925, 0.03371989960703791, 0.049986052282502316, -0.0156838812987745, -0.008694175082894457, -0.01625392949468893, -0.07810697863638398, -0.013142070623446515, 0.00340443969556891, -0.014086921314514228, -0.006004700345491528, 0.00018215176523108778, 0.007681440917220519, -0.004720191341404334, -0.0178867161759796, -0.004162598693218696, 0.0031825067456737527, 0.0042894970476737996, -0.003348328658576172, -0.0036318387893106907, -0.004134562681708539, -0.003329786022466039, -0.015999125454345495, -0.027977414058869186, -0.02762685109266838, -0.06856340007830165, -0.021536909854792844, 0.0041473900411710075, -0.009826423114278603, 0.006916780507308023, -0.016513166705608498, -0.052236131809603056, -0.017360941227289085, 0.0008133125971644958, -0.006797701272108135, -0.05153013649808522, 0.009209313295284407, 0.008656067544558315, 0.002231251340642335, -0.008954352802305736, 0.0006146546033575231], [0.010842976109046137, -0.0037524260849833447, -0.00040167173455642527, 0.0019625205255843796, -0.006993261626708201, 0.0008425719281972848, -0.00029509727845094505, -0.011272545120979706, 0.006720753275888416, 0.005231741556388039, 0.015010606161556634, -0.0014129780577654286, 0.0010121914140917769, 0.008539418687033831, 0.0004134165245787343, -0.011223872104746556, -0.0012779899137362982, -0.0010515888598031907, -1.0558198890937078e-05, 0.007797364344185578, 0.0030866513827175262, 0.009505636252684696, 0.009173875394046358, -0.0013299975725840725, -0.006008524350435935, 0.00456229356275649, -0.005215375333416333, 0.002005495955605402, -0.01620000798252076, -0.006553615772271969, -0.006639964042344286, -0.004329478216890109, -0.0015261585395610709, -0.008337891127589673, -1.6455199080305708e-05, 0.008478624422190375, -0.010379100058136975, -0.009514446174575543, 0.03009683835922691, 0.02534837240674615, 0.004476596078707035, 0.01698292577265521, 0.025985982843610332, 0.03636264903130839, 0.012391355320565381, 0.013104109541582388, 0.01866683600656622, 0.010839856910281104, 0.008873535938776584, 0.0014129685438150367, 0.006319844330247289, 0.025483378222178884, 0.002948836614405611, -0.0021349848438949556, 0.0001880064074347531, -0.005251422114264149, 0.0008032308510808737, 0.00017234632569348749, -0.0003452259648837967, -0.007392076586425276, -0.007340575211338802, 0.007354541336353693, 0.006584423534404939, 0.017735418524077215, 0.03706976824385251, 0.09813005967879973, 0.11417361051434925, 0.1422833101770484, 0.10367808621083881, 0.0908814528078117, 0.1298387733668141, 0.14926962624976872, 0.20402018973040492, 0.1375889824253174, 0.033801745124649785, 0.006765711346057862, 0.012048999528633513, 0.05667153039865341, 0.038327835695346896, 0.019562547645210166, 0.004889069672553226, 0.008867485036835649, 0.0049440162358389324, 0.004491598571872113, -0.013821721004450706, -0.018008374021772626, 0.008959418504787466, -0.011256640533668438, 0.0028579606829945573, -0.003785577402939436, 0.036444295421833243, -0.07503916692781012, -0.12865304901772515, 0.0023768168490800887, 0.05759406454587026, 0.09302206053136673, 0.10515397975197524, 0.1545589530166451, 0.061068759512910346, 0.10900756548338272, 0.37472646630633305, -0.05219596962021619, -0.05250239803424033, 0.07716912436670076, 0.11374752821342493, 0.1093717598671046, 0.05710357200679952, 0.010382000160840128, 0.002542181640281821, -0.09547818486248336, -0.03128502510542214, -0.008609045519392206, 0.01457832356008542, -0.013767686987923659, -0.0024695394853040285, 0.005189703265830299, -0.006392289833551651, -0.08902140719445949, -0.12232881520828583, -0.18104429921905665, -0.06839017145873426, 0.022970693544215787, 0.1669059838006216, -0.16576811541873046, 0.06011278475849022, -0.14169168573065205, -0.06425860529970749, -0.17790409925571174, 0.18122632263439675, 0.01685642235762502, -0.00954908387501563, 0.27312591159919963, 0.26242516068831606, 0.11944499068804254, -0.024676687861928403, -0.2121352094613562, -0.25265852195282457, -0.12075915583696947, -0.012057724642008234, 0.007094988449257686, -0.0031156088295924136, 0.01049385612302071, 0.009043256757081833, -0.0175682175601109, -0.04689380334846887, -0.18741021174727024, -0.08876048407114726, -0.08945249023253635, 0.05252768800627474, -0.01875219109461878, -0.16007094347943002, -0.06346059494503217, 0.0067686698217355665, -0.0706580732048835, 0.08084152272067537, 0.12516754384712786, -0.37346696811647895, -0.3012459283107268, -0.22936633559805533, -0.04642132234192664, -0.06903310783164528, -0.15629632862040604, -0.2235506204508823, -0.17626968729002943, -0.1829259826045072, -0.04179010341298148, -0.01264144836853005, -0.02113217713428572, -0.005935281359001143, 0.002244532202700726, -0.0017164245027850007, -0.054583607782212135, -0.08094051168999758, -0.1830972883702107, -0.09756325741122641, 0.0010803929343076012, -0.12377730147913818, -0.2580431290658007, -0.2842003385366908, -0.022825418422136666, 0.1982475416494364, 0.08331688447885938, 0.09299456847165022, 0.032578739438527175, -0.3055740283924442, -0.19320996876135058, -0.19122935174286554, -0.0870918933502447, -0.15234296123812271, -0.36088431020617673, -0.08567736330047843, 0.00923239924573816, -0.07983583027614212, -0.073225216127873, -0.15704587824390603, -0.09332998757059832, 0.001083207310386646, 0.01883077834106788, -0.023619712033686575, -0.09493501866956253, -0.12563178723930457, -0.17761396186705428, -0.1183558281420908, -0.13873461448479685, -0.10053958919955253, 0.04004612276545674, 0.13548793790232103, 0.037757570096893046, -0.15885268219019757, -0.018088155805677218, -0.06145984651873192, 0.02288342841825899, -0.3255583882643839, -0.24723821781621652, 0.03203126725188062, -0.1888098990420215, -0.008608931530498753, 0.2690365394894898, 0.3544655071259432, 0.07952827643004154, -0.05458139612383903, -0.11019447288228236, -0.07738073200873505, -0.02079297720412944, -0.0009326095050643207, 0.00399673492647446, -0.016855619135136272, -0.06141054868939854, -0.1406315999292876, -0.14344598654565763, 0.1538768795792726, 0.10260864538475105, 0.2717298118741116, 0.18507245494718644, -0.04534656543909098, 0.09702768916730538, 0.5829194040162939, 0.4999826253605452, 0.08709131166804891, -0.000771381732260435, -0.5007083315746204, -0.32557596173547665, -0.2619603077371237, -0.30607917647788024, 0.17943353832508913, 0.016847188199759444, -0.001498199555187598, 0.029659779044888264, -0.054488511004623125, -0.1676516520120279, -0.05018184693655627, -0.01359067684152626, 0.006940501009756115, -0.004923559120085837, -0.013145951001366143, -0.05369298281959501, -0.08247772784073346, -0.028160236142591288, -0.058842245612914346, -0.13382760880363437, 0.04359835419339261, 0.14995737477654364, -0.3233152163635173, 0.08359382134889848, 0.23850229347591909, 0.2922426668313821, 0.10170125465402605, -0.30896221874567353, -0.2857270338406326, -0.2307725478278914, 0.07084794228925914, -0.2315766148516124, -0.03646532153392267, 0.0031584155794486786, -0.09826965867532989, 0.026528843362543388, -0.11673082608726609, -0.15151930363237412, 0.012822462927810523, -0.0186358324048467, 0.0021596169376688506, 0.010862912642176998, 0.0014445983759413278, -0.11506792627023474, -0.10996647537572012, -0.0626844184678634, -0.1516162279874019, -0.04543959027122494, -0.2197348771631105, 0.3111954917907651, 0.06239081314471988, 0.08962772544009981, -0.2233041277187858, 0.010187384038659377, 0.28804615462994104, -0.1810683154407211, -0.21741227528529097, -0.2823111552091835, -0.03723990652096522, -0.2008345441628494, 0.1926257941300074, 0.31311730764847284, -0.10167030954659521, 0.016562365090141928, 0.05406315457826366, -0.09343714192720141, -0.016542983109851448, -0.02293213089342392, -0.0029330537528725127, -0.0040460765347544595, -0.007527200701578344, -0.09498925570374579, -0.13801291891710687, -0.19270750892689448, -0.04663266879912849, 0.17549845939722564, -0.0973664034764092, 0.39694685065190377, 0.0839996255880736, -0.33409690933382574, -0.10136409415838915, 0.4037365989601572, 0.6049763410643123, -0.12192480794613597, -0.13594417034557646, -0.3673370748068199, -0.08285884225784054, 0.016512780816234602, 0.13401004469732652, 0.49483129773865037, 0.08280996058928608, -0.08440114781977237, 0.20877351149070333, 0.009162546747122042, 0.0018409900219613366, -0.0071160304450037, 0.0019204752754320685, -0.00593896589502732, 0.006750304431348611, -0.00718894118046028, -0.08854253491716502, -0.08852208943090593, 0.18368000866245357, 0.005253110919057649, 0.09842043704412122, 0.19771883668826654, -0.4263762374496212, -0.29084555907692267, -0.17219274952980212, 0.21256595827593663, 0.8114362962916827, 0.23275785204954857, -0.04814381194926768, 0.20072235146752138, -0.18239808386578574, -0.3534918291878616, 0.07872862402845508, 0.36561901767614485, 0.16529689229479677, 0.1628380973588842, 0.30402328992086514, 0.0662198150974651, -0.009681598847997092, -0.0007454574180694807, 0.0009008770075070191, -0.0074205295685738, -0.0035226232297513867, -0.02012159360752922, -0.116941809958675, -0.11257579734422081, 0.10954359638402367, -0.08691844926616801, -0.12177736957048486, -0.047488679488960704, -0.3213044047410537, -0.30531603801561535, -0.03740556355411746, 0.29607821441574805, 0.5198706914615758, 0.29248016547509575, -0.00722010414943219, -0.16505441038234042, -0.34494986617773876, 0.04919294209334422, 0.24884258527989944, 0.070822807460599, 0.13939621095282836, 0.22806755632614123, 0.27101977187697013, 0.00790336824460669, 0.006847451740602023, 0.009504801786881959, -0.0023280944788221757, -0.002058608535041473, 0.007805042455068805, -0.021057786404453507, -0.15188727510129085, -0.021080566428186415, -0.020694188025802526, -0.04921338711205577, -0.315925435918123, -0.36668905833527743, -0.09393645737122215, 0.008037312445687807, -0.22734376528210337, 0.4272300183359028, 0.5318366606606695, -0.20048592297982365, -0.21020631799042855, -0.34963357632727704, -0.298371647683533, -0.1402987540123028, -0.046881709605865546, -0.07490495257764515, 0.028431707665206658, 0.154513397143657, 0.02962707677408457, 0.03407097923605452, 0.02047205534735249, -0.0028412523991028886, -0.016944242659155447, -0.005503891858590369, 0.0015235213781480414, -0.015990519480180154, -0.13701941129727538, -0.21087650622372456, -0.17269882670285364, -0.29764231701160415, -0.46535441984720927, 0.12129222099429054, 0.19319281294413967, 0.41195174677775837, 0.1690351871288054, 0.42967922029292227, 0.6645987546865217, -0.012531499398334593, -0.3572247246054109, -0.19412067242688255, -0.14733711162386462, -0.014914696051504917, -0.40796775343105635, -0.3589814672226711, -0.006466205762477234, 0.14361362382956125, -0.17626107428938806, 0.14108994587626464, -0.008837277325789266, -0.0025408957400642656, 0.0001479186954914572, 0.00034019045502680116, -0.011748485538006977, -0.023105331487596883, -0.13931181109112048, -0.2981921099131256, -0.23977510034158128, -0.20808269801230414, -0.4236436055720328, 0.45378866093579034, 0.47283486057056373, 0.37961631396238854, 0.3296687551578542, 0.6164807970423438, 0.24831862072730082, -0.21458780369608668, -0.4481173974911151, 0.13996878526677523, -0.04055790895559901, -0.19919832334193774, -0.43099802609942783, -0.3536719099429166, -0.03371225058420078, 0.16037510494768367, -0.05167653556041249, 0.22710043524788517, 0.06399952961699674, 0.011737269849347313, 0.0004734928507296187, -0.013915454560517385, -0.028523856718909314, -0.033833986328655336, -0.06454069616944244, -0.3028092169346477, -0.3229967680531649, -0.3525106526531246, -0.4391304029345319, 0.07674734703135527, 0.3956367983721667, 0.6346072018041335, 0.26802050165078894, 0.3121391463997853, -0.03406934280903154, -0.7693649995067317, -0.3727069582528144, -0.33441667177065454, -0.35194550333674235, -0.08386693505260791, -0.15717807984766002, -0.0602826495314251, -0.02877274892386209, -0.0816922234712733, -0.1157739922028018, 0.03840140796562078, -0.011780197393688352, 0.006733139542544611, 0.008464149698432207, 0.003732715305615512, -0.020814282750126548, -0.036106864730458196, -0.14442808218980857, -0.123179376895453, 0.09785981183444457, 0.03997459410035854, -0.15944007615731343, 0.6425931574371244, 0.5882453320748809, 0.45888705833152094, 0.7010907213472394, 0.32749675131599365, -0.5081697755844584, -0.6962100848452142, -0.2910347989661918, -0.13164155756923476, -0.2688124045253262, -0.17804120013283403, -0.09992195059103472, 0.13684502879684843, -0.02990562569137209, -0.04460661244959636, -0.11092322914699276, 0.03202150897103196, 0.0037886836429021965, 0.013031044051914352, 0.006268489701177126, -0.012583658022448067, -0.014843161871221219, -0.030606148618114212, -0.07390488185014914, -0.08924208084789334, 0.14703388771328746, 0.11734879060644732, -0.1317129733070463, 0.547347773125723, 0.3187659096419405, 0.44259350480810467, 0.507837646055889, 0.2915883269234672, -0.7394808647145686, -0.4279840914417234, -0.3183478174070054, -0.1900410417483672, -0.18152692349345528, -0.3111684062366748, -0.09117531696393029, -0.10971760990702692, 0.014791402063464403, -0.08782278150206464, -0.17557552393224962, -0.010298863766892232, 0.012829147118682797, 0.0025516153614790695, -0.0011391893419398665, -0.0065467916860571145, 0.009768193323277833, 0.057896859405443, -0.06302766456346992, -0.0947922924241736, 0.1790179774739359, -0.07191047166002638, -0.024390979132034182, -0.03299985392015246, -0.08763391042193532, 0.12462355812489327, 0.478465734543974, 0.13733704290500556, -0.09511387255727656, -0.3256633016435936, -0.8077460223472386, -0.31381010319825453, -0.2676264618368753, -0.20478669565011953, -0.1702927918231779, -0.276992912694216, -0.19028108544386552, -0.15437631042274802, -0.16307994678840892, -0.03211461102707179, 0.013198642675764823, -0.003810614116452401, -0.004944595558037676, -0.0028373231659123616, 0.019573975244486567, 0.001630142573913187, -0.08579122999017143, 0.13237885816186795, 0.21212597625388163, 0.10779387657661979, 0.1519897276204832, 0.1641515218535958, 0.10295136169530392, 0.11350193389792551, 0.061958711173618695, 0.4029874590941781, 0.23394339223826807, -0.23806850149359382, -0.7131740257348471, -0.35917522653589534, -0.3038910547753151, -0.13897529099434258, -0.3236399653224677, -0.22376929650088168, -0.1485663541221574, 0.017057951596899365, -0.1061256173305525, 0.006586382014512712, 0.006921702255343528, 0.006074759866466469, -0.009470927315287488, -0.005198607575902459, 0.011548819316832546, -0.029678951308717352, -0.14937534186323195, 0.03626792820729503, -0.03099326913922475, -0.029968394086477876, -0.21933442591942667, -0.057606294466480516, 0.1546109774163129, -0.038667900154805965, 0.0024961147217595924, 0.44877800097678416, 0.18346349878150967, 0.12188941581670984, -0.203944558204349, -0.49506268485246174, -0.35600103467408184, -0.1699675959768678, -0.035243670133514565, -0.11351156056272324, -0.14453830513402285, 0.0029932608389412326, -0.1436582398008853, -0.022857993301256648, 0.01831511952757468, -0.009372114361319864, -0.0032458286385530937, 0.0097861787255705, -0.0066609076858152915, -0.07982907103655638, -0.14552009468451801, -0.2716619113888052, -0.08264985354286807, -0.22883473521611997, -0.08892249192633189, 0.002488509579579309, 0.13529315448932414, -0.06571301593390029, 0.2620686038189352, 0.10372932312165338, 0.06663827250873118, -0.04570255108412723, 0.1529182496674513, -0.13561092572417974, -0.1732042868032607, -0.025908894786310904, 0.04240545732926327, -0.05034609457814767, -0.07249227671037936, -0.019360163844593225, -0.09789870913269787, 0.003956455746574112, 0.0037174908833617166, 0.005339286744382988, 0.010965818790056099, 0.00013799681578847137, 0.01056249399303498, -0.058685979682583836, -0.14825997639557645, -0.3082260134316623, -0.3818070674375691, -0.54357756757364, -0.17915842652542727, 0.01748566624894385, -0.13613458179023366, 0.015432364639492414, 0.24854536863218954, 0.3453826058651066, 0.2695740756627375, 0.02182154510455691, 0.3177230244221279, -0.31192452158050327, -0.3598309654886004, -0.10597218333905521, -0.03357846781881724, -0.14611967633227085, -0.1672367362753936, -0.12309405771013258, -0.014918678568721016, 0.08733545545952795, 0.040272187345428645, -0.00307378443246612, -0.0013411473123841116, -0.0002286603800068182, 0.009017573064977868, -0.015536476149988368, -0.10824487524748039, -0.2232804183603762, -0.11925702177086496, -0.3241680953896092, -0.2954125689102128, -0.05469210112996124, -0.0347075063372565, -0.12037133838589391, 0.18641634288185627, 0.18186998585811498, 0.19683481445332937, -0.02577080562208826, -0.07763910791545703, -0.1711781223049139, -0.4315529669953192, -0.30061979963702823, -0.10368516448240957, -0.04664763405341956, -0.04064160894888238, -0.025152297176037456, -0.0016642687484067526, 0.04588495416150924, 0.0406827253822869, 0.004317179874372955, -0.0020881031483351246, -0.010571588287899884, 0.013328452848129047, 0.006057716915977398, -0.016546117121027396, -0.08539139821320144, -0.12900158245702836, -0.17122165587892746, -0.17992714366936777, -0.25593360387097175, -0.23836349347003968, -0.12248016770333303, -0.1462821427892024, -0.08507564418209211, -0.17955507063575435, -0.2828310355895658, -0.16344734107911105, -0.15256959188107533, -0.21274338809924884, -0.1568108002468958, -0.10791362696163026, -0.02297543511900881, -0.01540857116625464, 0.008261321997476423, -0.0026479025890024, -0.013048906880927212, 0.0008059454939980906, 0.004183257520997143, -0.0077202494570775305, -0.005093510638876342, -0.011659538760833267, 0.00538945331132693, -0.010924974680001696, 0.004692662603432738, 0.015470612788025076, 0.010708807752838738, -0.011312488016957573, -0.002597600315939792, -0.015187002885611227, -0.011394716566896206, -0.05032173918975013, -0.009517156549772062, -0.020363002417070054, -0.002937317674883936, 0.0020609233493125954, -0.02064054103751552, -0.02654619295335929, -0.020340776189791198, -0.004452715733031856, 0.001896124379768887, 0.002913517333845024, -0.012270662867212566, -0.008064645330691156, 0.003722520280256462, -0.004281950701341786, -0.0070753491688562535], [0.0067947454744219996, 0.006407652600427293, 0.004341373521383113, -0.004489913978327004, 0.005000691499615063, 0.0027864229136613746, 0.019959785526860053, -0.0067962631362948655, -0.009294817077878907, 0.005989951675571008, 0.0022173001569794092, 0.010146841974176191, 0.008429455712688686, 0.004664722829116983, 0.013956859973290861, 0.006425731953613561, 0.00514600174242883, -0.012251745940156792, 0.0014706370537504447, -0.008565650830069995, 0.0007938371239451976, 0.010466329331736362, 0.005333363053587928, -0.012966648435031435, -0.0010400897418528972, -0.011330567884612341, -0.014530562455541256, 0.013491807228782555, -0.0016124497792437272, -0.004116341343033954, 0.005543910864549619, 0.005768638088432845, 0.014038263357030633, -0.00026171271296026135, -0.004196727806850561, 8.825631236078241e-05, 0.020022140594471292, -0.004902846482048245, 0.006422536648608534, 0.004775364685652513, 0.02106714031371164, 0.007892601356711453, 0.02683992003646586, 0.03617790322883161, 0.03023040689498452, 0.023697086992100602, 0.028603819693867803, 0.002123460077284564, 0.01182605962105247, 0.0018913235537941747, 0.002705981448299273, 0.0024896351957802917, 0.002550285893344561, 0.0035663132646750356, -0.009299976396717, -0.0013480294176260333, 0.009132573933748158, 0.004425945864358869, -0.003505876166300184, -0.012202427370538869, 0.005099862081064298, -0.0018571267363771955, 0.001917422727666596, 0.012681397386787882, 0.04101185508039909, 0.012711647002069323, 0.047313951913532014, 0.03960140757618982, 0.0026283755916856008, 0.06967730118370476, 0.07131411153504515, 0.14928669930596183, 0.11014298255753921, 0.082586678741687, 0.10174260403433895, 0.11401799927430221, 0.02256016757309103, -0.014530744294733135, -0.002655269046297042, 0.01223350335700092, 0.02013295399320718, 0.009312730361240744, -0.006951038369070344, -0.0027885433701073663, -0.0016642069079482098, 0.005022467461479228, 0.0026593549649653906, -0.007042928511984364, -0.00497839186803104, 0.021797364106427207, 0.044657770690605995, 0.12030193019271321, 0.1822247127135399, 0.15192582929337436, 0.1729948162579335, 0.13475926778331365, 0.29602634976119224, 0.3157766871051511, 0.22900180859593144, 0.17436540658266952, 0.08124817545471723, 0.06886577647257972, 0.13394948656058264, 0.13745375260893009, 0.06268206807495545, -0.12194008777258046, -0.07274473816841517, 0.04245449102168543, 0.0471822565551807, 0.012844188650377538, -0.0014143161409917843, 0.0002639675251171111, 0.0015604676333092027, 0.011830242369168178, -0.0001826829592511523, 0.0074702762590318425, 0.01207802853923753, 0.04527006432180391, 0.05464739925679021, 0.02230960786812584, 0.06087749024390013, 0.06269034048505695, 0.05578349971352683, 0.07720941478033298, 0.03845464362575809, -0.02299987852396663, -0.14047044507431827, 0.05000731010337515, 0.11114998474298453, -0.028194841029191477, 0.27648923398058667, 0.1313709313940401, -0.18044048648437985, -0.07055476789987818, -0.031061115057994762, 0.15673099935433066, 0.10915811287718753, -0.03958876258421242, -0.015189886096757206, 0.0003159861277547275, 0.004339292613800063, -0.011348254412948991, -0.005304680703196895, -0.0012394237412855248, 0.08034879114721225, 0.18985776875376192, 0.09869120716052822, -0.046927775827300656, -0.16089646782561165, -0.05833843451686321, 0.03234369303338653, -0.28642641994825135, -0.1552982310771106, -0.04544396403157917, -0.06832064308793064, -0.18805467106378063, 0.24102303237333958, 0.12488678893222421, -0.10718249920279728, 0.06622144393342842, 0.11444055430950649, 0.18794275536559849, 0.30492449675170674, 0.2783298578517851, 0.14220259018702539, -0.0773393798209866, 0.009852865202493248, -0.001048799062188539, -0.002131309256747694, 0.007897218313316884, 0.006420570773526728, -0.001262689515856901, 0.18350858441248855, 0.22666773396612258, -0.02069814942735776, -0.08172732826888618, -0.04315138941483859, 0.08773191951628219, -0.1314439200909257, -0.11257597005887637, -0.16597936775543076, -0.06274186728761734, 0.16129830484515373, -0.16542027612105273, -0.370726005180663, -0.16567223516783633, -0.17146342126583966, -0.04531505092891721, 0.19822504475587338, -0.06932351617613006, 0.04530091328626486, 0.14349204216938544, 0.2707762878578493, 0.0039997143566054254, 0.03623743691701459, 0.0051504905884029095, -0.003394502095948094, 0.00982567090447623, -0.034927385500217276, -0.04047023259036878, 0.09226736940638207, 0.04534911888217282, -0.12601077712690903, 0.028746542580601518, -0.021003867605520494, -0.11740770990513313, 0.03901807615459085, 0.22838712205168046, 0.2560551637113497, -0.293266218862194, 0.04174806575204387, -0.5481965508500386, -0.23470016246453143, 0.03323478911525205, 0.08858086493343732, -0.3042165967243579, 0.07287270384950359, 0.16945625449585447, 0.07171601539560023, -0.050598035880262675, 0.2319465811243126, 0.19420048714585353, -0.03571541103801042, 0.008670486317045112, -0.011190224020737872, 0.001838587352502398, -0.06273818824408439, -0.053380062077800196, -0.00893996073252655, -0.21695119034762234, -0.3391907267336418, -0.08720889615396718, 0.0199167733300528, -0.23544506489654504, -0.11973730842911562, -0.3060401629506569, 0.02924452114342013, -0.047027828025087426, -0.0818426597500038, -0.0983115704348779, -0.34347140275633103, -0.28079092127305033, -0.24839543980442494, -0.16730274214221355, 0.06934672254832525, 0.17626426665812864, 0.3402534325246055, 0.46966156389450314, 0.2834993006023027, 0.1976884965268328, -0.02049467356474381, 0.007123410034716782, 0.009417613275448964, 0.0022602301442806996, -0.059619567490677004, -0.11266367738788291, 0.008732662673505419, -0.2826704010922705, -0.2284236334262662, -0.10308492771375899, 0.26096133520321324, -0.32851270648518394, -0.25255474915100035, 0.061640508062740795, -0.14394548223764844, -0.03774192165126132, 0.12006952750987436, -0.3579977815994169, -0.4795317837918294, -0.31642479015720326, -0.25860428084678494, -0.18546607901588763, -0.05513934223527163, 0.017710933228967923, 0.5948076433062314, 0.3335895221100694, 0.4266225639652008, 0.24427048288193842, -0.010070642131862654, 0.008044070846249068, 0.017928905450030265, -0.01245782776556912, -0.08948585265140555, -0.1535891912486971, -0.11192766784039267, -0.374542728548396, -0.47352224212704996, -0.37244880513978096, -0.09191503614400044, -0.0520721033812472, 0.23477274494001177, 0.023021951629974256, -0.18112982058326962, 0.3372113248034348, -0.02994046567898718, -0.32521196188065943, -0.4509642667901765, -0.4052917543940321, -0.17380462627486087, -0.3211832455982217, -0.14077204609289057, 0.04379677657558688, 0.5625964658544537, 0.6330107522123462, 0.6788413284594922, 0.3209157363204567, 0.06717723239903488, -0.0003160624607247954, 0.0005252071245929666, -0.005536118751741171, -0.013039764048264636, -0.045545295681496845, -0.025813951400609766, -0.22502998386434206, -0.3143991433738193, -0.24755088597826852, -0.0774920433391797, -0.32679703370400837, -0.1004336563098093, 0.1713213107619744, 0.2061720478297208, 0.28923024833542993, -0.09793478442610194, -0.07635900358942513, -0.07220059471819903, -0.12963416574308528, -0.059010663062260764, -0.24174267130154428, -0.6083169520425867, -0.3686189016586493, 0.14410262539378466, 0.5866624955896271, 0.7201707374454314, 0.3178521853790441, 0.05159081358972767, 0.010583882922298171, -0.0075827784896886664, 0.006507939831623299, -0.005516888155679568, -0.01904331794006626, -0.14799189314350336, -0.13999843003610477, 0.025396593060510255, -0.05638369099247777, 0.20376591153403031, 0.29304260758858053, 0.39281596218877246, 0.10370875980212522, 0.13745067875353695, 0.3889335773089669, -0.13958475035807008, -0.3812370610441558, -0.13820520011981444, -0.5630429708094448, -0.4022954416618056, -0.4713742166953832, -0.47427481926478104, -0.6808576529159069, -0.36139261726878635, 0.23342941948286844, 0.33971347768143256, 0.11401696371134355, 0.02888926261167678, -0.003844818907102313, 0.008549304058923877, 0.015144066488854217, -0.016022730668904674, -0.012096336011938371, -0.18344321012477857, 0.16099231864766242, 0.21368390694646017, 0.08207273531195176, 0.1633542406896549, 0.06477804983045393, 0.2547797817362859, 0.08686179822846575, 0.36818329182784076, 0.056586551901997496, -0.15160061755178042, -0.5566278184260604, -0.40419187129353396, -0.7364844482148453, -0.5739426660406347, -0.2877512727388083, -0.4297946902773576, -0.5155578144118714, -0.3555890501501672, 0.08906234722383266, 0.27641645283004507, -0.06056167727715481, -0.018878645482986834, -0.034794608337548556, 0.008396882718281, -0.0045790447644064765, 0.003814701788332777, -0.017931329848978758, -0.09861986713895914, 0.08710260342134034, 0.321635892453478, -0.025907980760896922, 0.08998406792653806, 0.29248817701267943, 0.24802722851869582, -0.28740441133427397, -0.12625290176739415, -0.3796564893353187, -0.16140313550260788, -0.10253487462128881, -0.16292749615782404, -0.16150373573045781, -0.4379978375091453, -0.32109126650272507, 0.13942665995851367, 0.24275142262526617, 0.16212327652857644, 0.2897409583073522, 0.19584302723593902, -0.10532771210326601, -0.025340634751565422, -0.0009690253120531043, 0.008834076537524582, 0.03634044566334313, 0.028084242716316828, -0.10650360170792003, -0.11220015889084016, 0.19011622347714943, 0.5516022424019247, 0.1375741194655443, -0.17241581325365543, 0.37900474032697623, -0.06423370918488451, -0.13380674049789093, 0.0004487156104481876, -0.5691890762151516, -0.12432020835010907, -0.05498295537740125, -0.19025933023131597, -0.18994059800359012, -0.10163758547780453, -0.12352985390055535, 0.034653853986994596, 0.39699845782022736, 0.04096979545040814, 0.19959709022592953, 0.02904758767608715, -0.11312967775862116, -0.028363068382219973, -0.004908696739211213, 0.008623492065770873, 0.008633627461492223, 0.05856703438266899, -0.07040844550710836, -0.16316499861330716, 0.2962646061346314, 0.41677178803817855, -0.19541230242904756, -0.0041238207313299136, -0.09928828636245145, -0.5501281193799946, -0.4854627575058454, -0.2251255136819474, -0.22307017362905457, -0.15658373952722845, -0.38465235268815007, -0.7187416154475339, -0.5277406578472611, -0.004116532006342912, 0.3243077959962595, 0.2014033461363725, 0.20585859339585535, 0.09057447602524904, -0.06249266814151779, 0.05533048126571096, -0.08119790196021166, -0.05784180775345097, -0.0051991550853297975, -0.00269703140659928, -0.0016086911365040238, 0.037321481891096714, 0.037277938503631265, -0.2244908917577646, 0.17977652717849518, 0.369593911124373, 0.2179376130370775, -0.11003861548990553, -0.13774474160843003, -0.23547591892555703, -0.2892909896468726, -0.2909974028032192, -0.2620413833780226, -0.24392824440338948, -0.3617965493706742, -0.4855883407249101, -0.3388246604825265, 0.10208428080364128, 0.2527163878699183, 0.01402263432549256, -0.03701611822156621, -0.06352216604852458, -0.027057698137721357, -0.00907507999306739, -0.036886675479493966, -0.02814603423746062, -0.004367635091828323, -0.0011343008707756935, 0.0005759523012473945, 0.004435051277260287, 0.08700834377395852, -0.0928592363017456, 0.19902373771457557, 0.18356402078289494, -0.005174251771828209, 0.05307173382008973, -0.08582088155607885, -0.0723271512645581, -0.425358752573846, -0.2940901831162628, -0.18672953072476348, -0.14615845475204972, 0.05726183482782854, -0.19148766107229087, -0.06391673217497683, 0.1909381886838113, -0.19547312847384615, -0.1444438735332962, 0.016731522662747553, 0.08167558542637351, 0.0016489413792870635, -0.04655002806523136, -0.02105822851470226, -0.042994032642885885, -0.016295343375816587, 0.010028045843229078, 0.008223681318301921, 0.00022437776342292015, 0.02733717817278537, 0.03416648752696845, 0.30188851459541116, 0.16104268999654656, 0.0470758063718581, 0.007925818830175176, 0.0023934185412389074, -0.12861300321613206, -0.06406681065016656, -0.22003508673237882, -0.1909278010839689, -0.21161571239549978, 0.19535173677032705, -0.04312191107880696, 0.1960702845947041, 0.41123085807998455, -0.05991939732200008, 0.017018668097231175, 0.08320778301462907, 0.19409987388711464, 0.11966259697559443, 0.08805071994146293, 0.04557340997758847, -0.004061787372164968, -0.0013466424505370817, -0.010885413443861517, -0.006439180695984381, -0.013195948910052302, 0.03593247474235569, -0.042646354762922375, 0.11486409883201339, 0.3061845825297538, 0.17159569058100793, 0.19634404044928577, 0.4621616043107672, 0.38424709554050024, 0.2948438079175147, 0.2172626307529167, 0.27796342186990963, 0.3186605037964667, 0.2393068985205598, 0.21999710991837265, 0.44156473236889, 0.37927119903950013, 0.1218789446747029, 0.0590718792277741, 0.2987902431908058, 0.3116716814083458, 0.22369547944093482, 0.08006633894681996, 0.015901109509354524, 0.004551625665420803, -0.004500465394611765, 0.005593204362982808, 0.0030340829374883907, -0.03577208616742486, 0.05585101136363161, 0.0974890604340834, 0.010923186783404594, 0.1602926347539847, 0.26777355294709393, 0.2309737011585559, -0.23686106774538485, -0.02817403712728273, 0.043134209229328487, 0.17841196418339905, 0.19136483855738184, 0.39582018519764434, 0.5658569124783503, 0.12500894111804373, 0.5587350387517164, 0.2643425139694862, -0.04572457407263841, 0.11866479375839951, 0.19814778902150024, 0.24831870255657248, 0.176194927022249, -0.0012795103403623915, 0.0009873656927411368, -0.026211487992425838, -0.0022316139198948685, -0.0037985554356806516, 0.010169907587880174, -0.03147846722839115, 0.0103573792951146, 0.10124128785357633, 0.22520737474148247, 0.13160367160219288, 0.05633250215750923, 0.13701580499995938, 0.33563775768329934, -0.03593947974281248, 0.022652162535527886, 0.35183938168094714, 0.2557484163836993, 0.12455482215581559, 0.434670881975334, 0.01073925418248815, 0.0027925059887923395, 0.08486642515267279, -0.03158133044018437, -0.0640016034831043, 0.09188709913115986, 0.14196051049509983, 0.04552757862446914, -0.03853713805877638, -0.025894893066595655, -0.0013186288325817293, 0.007144986618920612, -0.009566132597374587, 0.01076213126242982, 0.010059782606559398, 0.03952115014425528, 0.09556226022816357, 0.18115488869129137, -0.03929528754565031, -0.2357955005027904, -0.3006000498210739, -0.06131116743361337, -0.16067816512747696, 0.14612043347808293, -0.007171287386585578, -0.4030768166767199, -0.36217494422812935, -0.09444114035677356, 0.23441822432347836, -0.11486890533750028, -0.23397106854670927, -0.06829569358907564, 0.08059033760575224, -0.0503334996488299, -0.061207307533596884, -0.05055291508347519, -0.004913482030626617, -0.015319016425257485, 0.006656005931769116, 0.008437813900941393, 0.005021738590208564, 0.002319583322732689, 0.011253665402235389, 0.020111887341669275, -0.0016351606305129085, -0.12493821400483685, -0.2636417658005268, -0.13671153454219684, -0.14555287379632048, -0.00429276738243381, 0.020915119395809197, 0.2396977627239198, 0.32427168878435036, 0.3080891247246916, 0.23762520121316774, 0.05272730625461683, 0.04198037492410255, 0.11972911764929413, 0.030351445650481697, -0.021675298167613606, -0.002897512122390629, -0.08992543227773124, -0.08686367979020151, 0.023398907937719732, 0.03313123899200635, -0.010734846072679863, -0.006458967638032974, -0.003982948437862909, -0.007494381677434183, 0.015029343663255488, -0.0020803360105631536, 0.004957691922494647, -0.09816076740492974, -0.08666203533177454, -0.17154656547473005, -0.1408554629058504, -0.1626422948630695, 0.08906784682887664, 0.0714890657936751, 0.034174602379120594, 0.16562489345732279, 0.5477861815473775, 0.1291501356059167, 0.18521135929790225, 0.10956342094038725, 0.2364815420653743, 0.06197642700725098, 0.10047172976551726, 0.01783905608618861, 0.07919922427599864, 0.051005175362516766, 0.04998733455229575, 0.046974014442070576, -0.005775325482475225, -0.006246868151425589, -0.002903173507324604, -0.0021071472073274575, 0.003361381629011076, -0.007462744377553058, 0.012910592154748502, 0.009800032500204399, -0.01212850653570503, -0.011858775643923888, -0.013850778928280526, -0.10671946843031428, -0.1656371160595233, -0.032300009021267534, 0.22316463469091882, 0.30713286977647286, 0.2098697703622587, 0.046857319380098565, 0.23689145519271987, 0.12482052089208608, -0.07178404495708508, -0.1243809957054124, 0.014181204138058229, 0.08401668223712724, 0.11763413509495432, 0.04895222528173284, -0.007583100570337064, -0.0030642760650377568, 0.0012310274872127827, -0.010168378533622107, -0.0021662725110391827, 0.009504997951582618, 0.0011918782736290575, -0.0073805903384506506, -0.001222522213108042, 0.0023420211224923684, 0.0008618864900029014, -0.008923473807906174, -0.014538900954879747, -0.0041787152544799176, -0.0075129291402891785, 0.013372059602714152, -0.01969471734496297, -0.011887787971796066, -0.006073819361039391, -0.012418540410262156, -0.021418770701933973, -0.01602861865586852, 0.0006327876915996821, -0.06409274227188376, -0.03508780718027022, -0.01642356317506578, 0.02199449200181319, -0.004926071872217427, -0.004144688898045871, -0.003645594336475446, 0.017526307271045732, 0.007321552898104461, -0.010752441606038264], [0.011952657684323579, -0.009566179184493541, 0.007366425269942441, 0.00968295548797099, -0.002403604504792078, -0.0002337527841252682, 0.012795825068681762, -0.01754445591810199, 0.005300022089949946, 0.010242888291078996, -0.004806904088043404, 0.01700820749087282, -0.002121632480170262, -0.00020770111753436936, 0.002182382216453913, 0.010443054093059465, -0.008900920816433332, -0.00167006711861037, 0.0011223840539402751, 0.015618874307633224, -0.014757135512656084, 0.012043227201620562, -0.007468329020569392, -0.0034316362146539583, 0.0006094245084374453, 0.0043330230508851035, -0.007051866962762232, -0.005361753789354175, 0.0006673250240422955, 0.014376405955112723, -0.012101090168960816, -0.00731749753883544, 0.008377326570017983, 0.0031698940012806474, -0.0012259637217883989, -0.0056613265535550164, -0.016003234262068747, -0.006897375378997829, -0.007067473410010342, 0.0040990229941818765, 0.013410658852986633, -0.010327863741998736, -0.0034739910888503963, 0.0012776613900091413, 0.001882499425008288, -0.004596627966567536, -0.015917714624071204, 0.004383565490842129, 0.007749501820781068, -0.001464009591072956, 0.0063511993430860935, 0.0004893550336947922, -1.711715565438289e-05, 0.01724437557360532, 0.006768530984362885, 0.012978406011774168, 0.0027121937648801166, 0.0025161630129800568, 0.010478496086312829, -0.005285022520265937, -0.00984339841369651, 0.0025592014940112547, 0.00366367771451759, 0.0035228143795992283, -0.04657525780890899, -0.06813160134932823, 0.019281397249377098, 0.052446101962833155, 0.010941102818446187, -0.04782859259734761, 0.027825411054073063, 0.10048156694474275, 0.05021541961925729, -0.0007153029172292667, 0.07602654249471488, 0.01163911689465296, 0.010309327063070504, 0.012632044135183488, -0.0009162363987291766, 0.004428068765265107, 0.003017635252241294, 0.0014162382539021781, -0.004790106775944994, 0.012797690258713409, 0.006347779933341153, -0.01592502701304758, 0.00015253806740122641, 0.004985933795070702, 5.22214602046471e-05, -0.008102603784956825, -0.0045436358663863904, -0.029643203359104323, -0.06733810424866331, -0.11286214257472708, -0.08046308595097387, -0.016520784298640574, 0.1704743284263524, 0.06194673041905917, 0.10488966459730897, 0.11871937309295538, 0.0910611275019541, -0.08799725938446024, -0.12409906994182157, -0.057479238714733955, 0.053207772185134374, -0.00449717650513386, -0.06139641749502742, -0.03973095135314456, 0.029236288920601955, 0.007325984485072723, 0.0004859041376558047, 0.007088377122043934, -0.0023912774334300165, 0.005974801220649438, 0.011956638941453528, 0.019292712020719274, 0.029249735003689027, 0.030688310721589864, 0.017453801356549305, -0.029846125848005844, -0.033733975581220356, -0.11811737217757115, 0.030703886501364682, 0.09628347953027404, -0.13280920861638046, -0.349417678594969, -0.20860454889873853, 0.31004294694721546, -0.27158292725708477, -0.4403027090441465, -0.09066014552653541, -0.04613785941881399, -0.15764602862167704, 0.16612216664445617, 0.2459480861607219, 0.054180788743654056, 0.08791310311955342, 0.04821068684792328, 0.008758234722118853, 0.0012460491790426147, -0.006956079800488918, 0.02139712531082589, 0.008079699348259771, 0.0790666145211766, 0.16660436446658214, 0.13236935146034332, 0.06890648041737786, -0.06067191459320946, -0.07624651986418882, 0.13996686048739673, 0.05361885665756181, -0.0485076359189476, -0.06876140914416744, 0.3652148321494481, -0.2472664505266512, -0.1902472036859513, -0.06309015904285224, -0.002780745541774628, -0.15197642306928705, -0.021457134312775277, -0.24560748607170288, -0.1918685849056055, 0.1918739251812388, 0.27811600580427637, 0.1977610349671278, 0.12518744925813852, 0.019256685087267092, 0.00042841372686311906, 0.0031714029689767446, -0.0005733756374923725, 0.004459086899244819, 0.09288666716342105, 0.2305999361525981, 0.24291842337421618, 0.10866480625858131, 0.02588436302364525, 0.3696713601734359, 0.2647317890254056, -0.08043200185062437, -0.17268263268299183, -0.12155945379857473, 0.08947983186081326, 0.1996199320162736, 0.43022057551886594, 0.4572360411235384, 0.4528265264359954, 0.31929079921959513, 0.030833787143106108, -0.02274767658134373, 0.19815772432379913, -0.009115469822074609, 0.2326529044288681, 0.39018167346290883, 0.18591123155306527, 0.037640714897892925, 0.007231622537380227, 0.005501124387027806, 0.009131268881750927, -0.004560573371121171, 0.09603585361517687, 0.13862885255627433, 0.33748024500646406, 0.113559756382172, 0.09053228883829041, -0.09392834337180077, -0.11686306250170943, 0.09152799846574015, 0.1375852029571032, 0.09213651828582019, 0.03526387409484372, 0.24462454177289772, 0.07743230765646948, 0.07185514298806318, 0.11730341196270326, 0.05203706023285805, 0.20022744293825798, 0.17958594685851362, 0.2546877988518756, -0.18525733016846535, 0.13066810803688406, 0.3744511876164454, 0.21219809022060937, 0.12148095842647297, 0.002485970213743995, 0.00021064806577295714, 0.0053609531712652874, -0.0150722992746088, 0.03804435454427378, 0.0010117928611419514, 0.1747879725571973, -0.22122012640990868, -0.32278097723687993, -0.11539941294421756, 0.31316330333551967, 0.07689868999997464, -0.3091735472461577, 0.03873843672216221, 0.17226423813940042, -0.01063112795108874, 0.1777399177121499, 0.18711046187556976, 0.1510667094961477, 0.17979316275255233, 0.016002754697868774, -0.2276073252958357, 0.147503397080904, -0.09079424373646576, 0.0010218891611341937, 0.2655691626188899, 0.2278039330475679, 0.07225263030452372, 0.006199128145719021, 0.009077478775419263, 0.007798405030356131, -0.045550097664263885, 0.02232403921205482, 0.10077491715008745, -0.0528135578773776, 0.18852858737257353, 0.10591853008010808, 0.1012295307055332, 0.11740331886916856, -0.01241113553248154, -0.31934828819599764, 0.31573075564841785, 0.07159753193521119, 0.1440059866010358, -0.2371804837512177, -0.31181563066918183, -0.2936684506665182, -0.1547523121112332, -0.17190668479244187, -0.12252213379487013, -0.11325571036622505, -0.09988551164258941, -0.2611372111700242, 0.07807287169117019, 0.12900093333578982, 0.03911023272830575, 0.019220890606552028, 0.008578588985699229, -0.0019881269400282404, -0.03360331313856808, 0.07312199854491655, -0.16294885814893537, 0.15026508424676682, 0.21495944612054804, -0.05558809318094217, 0.16681284734067908, -0.35442983897900265, -0.06550754157716991, 0.05228458208011999, 0.03362655141618167, -0.03139295604002504, -0.15945351670184743, -0.09419795797616609, -0.35963912676799525, -0.1531203591677439, -0.1298748249672431, -0.27844571121208556, 0.0059065430797123975, 0.011275715320796128, -0.2677803134718879, -0.3378652575043542, -0.21956912134749504, -0.0649783818706053, 0.021885367282488487, 0.0046064981731809675, -0.0009629682748967782, -0.01415769496134481, -0.0060048327915858775, 0.03142087829865416, -0.20723286311964756, 0.17123686477001726, 0.1815606479021269, -0.01342940665558924, -0.5050482568996135, -0.2633373340756123, 0.0024429441232915877, -0.1909680655051924, -0.18400560908659216, 0.03644059674385776, -0.09462106882509452, -0.19371710167346246, 0.15259297857801132, 0.10898120386972213, -0.3601862602742199, -0.3047650293030799, 0.004181765278451822, -0.09256331930825275, -0.191505597963534, -0.43381596847181075, -0.3275172538894448, -0.14134247323376134, 0.002777658334009897, 0.0035331991227742846, 0.006806831347607824, 0.020313022703056013, -0.023661950469377645, -0.00022270057307593075, -0.09139124979477459, -0.003479833677735692, -0.10838027841568162, -0.3581603879717865, -0.26770132018970394, -0.010931247738322943, -0.04829924007198092, -0.11520818824292689, -0.23251951439068974, 0.019372023008412162, 0.03506941104157886, -0.055805755248082456, -0.15392904521154077, -0.08887998358394943, 0.1280560883286632, -0.5307930844766859, 0.01967925118988687, 0.24842296645946751, 0.13019298108752714, -0.09703753517894205, -0.3367977075255473, -0.06171955539106354, 0.009268847948317485, -0.008417504893285969, 0.003457141264047477, -0.003096694413112481, 0.002681690690452034, -0.04773059271327745, -0.05776788631094092, 0.04393372766325645, -0.18129702803928505, -0.2831947523748886, -0.3862145298276048, -0.17751882461803928, 0.23746766056061183, 0.42327632527346487, 0.08781524083119638, 0.1722670552567159, 0.3293536428287905, -0.1558739700815337, 0.04351848744985964, -0.02939139410480366, 0.05937818028461118, -0.22914922057717466, 0.044331844044825354, 0.06646590377615016, -0.20080835051719526, -0.00930079999306036, 0.046512326647909386, -0.07130703565787357, -0.012852567450139619, -0.013520115617147213, 0.0009350677172436805, 0.03125449764819935, 0.0306001753729835, -0.015942419753639716, -0.09024634510049989, -0.20564032122562273, -0.08855971477781023, -0.011551371958419257, -0.15710334252304345, 0.23437461637564655, 0.16641720162602106, 0.26017072211529796, 0.3235599206387197, 0.05256348562532119, 0.0840948873280869, 0.1300850817764254, -0.09444202421296022, -0.34879127872930404, -0.07706283582749067, 0.09858214672663015, 0.21677052604215097, -0.004075729441247826, 0.09208980437527466, 0.3497645660019906, 0.09631769343060252, -0.08875449755457658, -0.058131466357165595, -0.004701532523518458, 0.008224676564682062, 0.06435590705412837, 0.0461187023917339, -0.05485418992917529, -0.1206358625758192, -0.33529737149769434, -0.3993120708618987, -0.40420394503300583, -0.30562628954700005, 0.037135935807019425, 0.38530305519012126, 0.017813120898956217, -0.04099865044808123, 0.2345246285366022, 0.016291375757278077, -0.06902970477675666, -0.08087397299285713, -0.2199586142757762, -0.1264086581746033, -0.15820691783051996, 0.3578052979627736, 0.120527527270825, 0.010003495577443323, 0.21740696470104254, 0.016228065694002577, -0.13558728620326432, -0.021116530531436393, -0.010283396672255356, 0.02031501001715262, 0.02862165464095568, 0.09107483583907369, -0.06329182589049073, -0.14709132674960398, -0.44706453142677083, -0.7422029465684445, -0.921670125355405, -0.7434644968112945, -0.30855887769486606, 0.16922319765714497, 0.2903668267415886, 0.231214687746376, 0.4164721725310542, 0.21090085323633245, 0.22655664547035412, -0.1301344441690542, -0.17060544511644865, 0.1543975695248319, -0.034663547171453986, 0.1745810734254727, -0.023559047021370686, 0.09333220378749468, 0.2953788776873796, 0.19382488255866565, -0.13318762465375114, -0.06940151681921662, 0.009505822135272167, 0.011624121634187065, 0.018830893058103346, 0.09613660242616318, 0.07044327740987968, -0.2328241637288029, -0.44789791384650535, -0.8226593024889568, -0.6864516141896188, -1.385746534579788, -1.7490604809896675, -1.1012876381106997, -0.4970006078216882, -0.5262599203622556, -0.2654266105928913, -0.15930128344907762, -0.08849999017321074, -0.44470712523683054, -0.020791589468915666, 0.34767675571864515, 0.23164504675195, 0.3124807031043029, 0.12423839595894817, 0.027046755797614383, 0.3190251975052537, 0.07319661904442362, -0.0015619422592602142, 0.012165096142609822, -0.0008237892342508879, -0.0015402675177114535, -0.00048191899221233423, 0.06540350727985017, 0.17685897121650357, 0.010584739787173872, -0.5064855535493104, -0.5725457572259642, -0.35634382458786684, -0.9319339253061715, -1.5231299388084707, -1.5846063426541013, -1.684460560177564, -1.6803229874089751, -1.114034655814059, -0.7785944298430084, -0.2607453270465473, 0.40698917689487313, 0.059822956598265115, 0.06814405861465979, 0.2317644515773011, 0.21103821172638937, 0.5832275706177017, 0.28897446806673455, 0.024358059564449787, -0.08010828948076863, -0.009389264974362321, -0.002011316737410873, -0.005557546302862006, 0.011589597799842914, 0.002404759233324827, 0.029794788159936896, 0.1013088128617972, 0.08737987883096213, 0.014327278958185296, -0.17981704409872531, -0.07005738233132196, -0.09651650660442411, -0.35241938885698143, -0.7019282226224818, -0.5409160193346415, -0.1315203206853988, -0.23020907126950851, -0.13407496812008043, -0.021505653947652532, 0.21755172673527826, 0.017961300596753826, 0.16947937418635695, -0.030554321576342934, 0.05734275099538268, 0.3160817109341228, 0.02626246868984662, -0.06597408476950155, 0.0036433750713124173, -0.039496299398378155, -0.010403240594255932, -0.007779942013201666, -0.00023875869803618972, -0.003346461547110318, 0.006307907185731336, 0.04931013477734997, 0.029641799191012674, 0.18908149179229966, 0.18504034674824912, 0.01499874431496562, 0.3140902972000484, 0.44412230885805454, 0.22086144126649337, 0.2978360334351795, 0.369925917941313, 0.1535233358391115, 0.010354082168707153, 0.012823481717445852, -0.15859473666791224, 0.19815368689965754, 0.06033877998158766, 0.07962228398190986, 0.001368176840101937, -0.15702285491169668, 0.15652351402020862, -0.14682941118677528, -0.13739765011798244, -0.07097800023836479, -0.012548117499072572, 0.008380949400783013, -0.013862137890424793, -0.0013569319628722936, -0.03799470033534278, 0.14571240065786709, 0.3021139013088077, 0.17210511581246435, 0.13882121062609673, 0.2932622926880806, 0.24261077925662378, 0.06893368420629337, 0.4856351196894073, 0.4601368590595522, 0.46241374570078125, 0.09054700885173032, 0.3016205451998495, 0.18091048161882703, 0.20280251669090488, -0.22953142846140415, -0.13376501843165206, -0.010471947723987544, 0.19637029092050437, -0.39067108557225055, -0.20000935541099607, -0.034879298034803954, -0.1312702637754115, -0.07091333053943524, 0.005270837659375326, 0.007093012075172168, 0.00346117392333236, -0.007641590662463249, -0.0043199665388268405, 0.048284802015264076, 0.2950529183700808, 0.38009776496560793, -0.00920641640962842, -0.0796665227610363, 0.2806371320214978, 0.17492088960404303, 0.5181294576896623, 0.5556793621835915, 0.21584631745867014, 0.1349918120262634, 0.041232846351125625, 0.08693374439051633, -0.13563991705146963, -0.040474966528637774, -0.056652647375975536, 0.24909553608747625, -0.019310340744716242, -0.40973319753670995, -0.046842998386933433, 0.030633029074570304, -0.044325844014891515, -0.054611437604071, -0.0087575821453229, 0.0024232506334816483, -0.0029289091341253653, -0.004003382248400966, 0.016851107660602948, 0.04679171176674757, 0.19565026367790797, 0.27041791764270223, 0.11172448156187385, -0.03280899618216695, 0.18853492237375286, 0.13930545002682618, 0.41513305437686954, 0.38386035091113546, -0.12679323305646817, 0.08184573517548822, 0.1390256801800955, -0.0013463431828234698, 0.08555509796730862, 0.07660378988149434, 0.005452916707382592, 0.12030462511484544, -0.011401896073535582, -0.2607454338033979, -0.0966978620502289, 0.05376360186772372, 0.008400787154380515, -0.036983991917155914, 0.019445813247881832, -0.003898475261732765, 0.004809048204114349, 0.0018557734244062326, 0.022653048446750135, 0.016851131333278802, 0.09288289220705373, 0.13728635622755883, 0.10448659481089909, 0.210230881311885, 0.35509360474037455, 0.29636986919418284, 0.3602541201249664, 0.15150327928425056, -0.08092357003380243, -0.009074154775767652, -0.00785040415102386, -0.010676231240966038, -0.20612290203220293, 0.30704208212032796, -0.19797279563261908, -0.5074239622407458, -0.16110443755516016, -0.17355695695160772, 4.875748739577003e-05, 0.05167215344132816, -0.03572897318209288, -0.006395901520935079, -0.004376098534386513, -0.00046544599744004873, 0.002283834084754262, 0.015284400227447086, -0.015838182267489453, -0.004969167860721775, 0.03593000427706589, 0.07425792683653995, 0.05732161606165155, 0.18511875813574807, 0.2902080024481161, 0.13334473857182202, 0.009236566172238623, -0.05142195550008785, 0.013281433513183626, 0.13322799355590506, -0.12372336991301315, -0.023691859539637865, 0.13749292578433017, 0.06984659312302827, -0.10848943583790907, -0.0177190782362989, -0.04142314031521039, -0.007330550709358408, 0.08025408990476045, 0.025495881117382824, -0.003011096718781931, -0.0027941714662408873, -0.006426302600945062, -0.005144074806763442, -0.012542372082858095, -0.002722468321475884, 0.0023510171956995815, 0.024426133314177395, -0.002288866856784789, 0.023544738342639725, 0.05464185702660305, 0.037990918433771045, 0.06840462814377615, 0.07061417418425388, 0.052928468885477836, 0.021467002264454114, 0.10608852298766484, 0.17356905042461046, 0.21009067976171875, 0.23883095395655632, 0.17772833029722718, 0.13460729920497091, 0.06190678075891503, 0.05656015163850844, 0.044589890158471, 0.03384266764701508, 0.025942365057671033, -0.0027100897018447153, -0.000349423197872906, 0.004268096671150749, -0.009282992403983656, -0.00263437003617155, 0.0026395067164562973, -0.009283114043087138, -0.003048005190174508, 0.003305181400903133, -0.0040947939247223415, -0.009180519892189157, 0.006901011618023572, -0.0027765252093093634, -0.00191007270653235, 0.0004535025692883354, 0.017503260314632684, -0.005022557413239526, -0.0011504308714852533, 0.015171438051660824, 0.034513346844059906, -0.0011864658126972706, 0.0049877064033627535, -0.003142864913220408, -0.027003516595526567, -0.016287778366513364, 0.00037397694738200025, 0.0054911949630615, 0.012541592359230904, -0.0001763351119269755, 0.009515169381013388, -0.006666588064072007, -0.00754834743316822, 0.0044668434848143005], [0.006141453454291142, -0.0022031749288545523, 0.0037280504504364313, -0.010273317482958321, 0.00309629653886626, -0.013808275151315915, -0.010477304921923895, 0.0016599116175850738, 0.003930181596030079, 0.00418345080453732, 0.0039035960765621516, -0.009349056907235542, -0.02427929109349784, -0.0016158506654162506, -0.016790791099114195, 0.001756217698710657, -0.013554681734995373, -0.0013153301474887586, -0.007478591879185191, -0.012672541514092202, -0.022316631893436998, 0.015449277324195414, -0.0013699879454477373, -0.002006948105709755, 0.008311778928809795, -0.0037276298341804483, -0.0018590374110349654, -0.006214999068683433, -0.0023643037275697756, -0.005621035669387334, -0.011644565005783866, 0.003187138303678239, -0.005311585287750629, -0.005787155600249241, -0.0019479407306397087, -0.0008944852698526332, 0.005131766476919362, -0.001972815155898006, -0.016772344504779158, -0.051086921279473035, -0.03275305747366606, -0.02080589277008196, -0.0712138321289427, -0.13866058662007757, -0.0830465842382431, -0.08522703516158771, -0.027651931198183, -0.003774252345516483, -0.03690721588253094, -0.04810058875122113, -0.048899215051300085, -0.0052179209209329775, -0.0025337229534981346, 0.008939041452914732, -0.0010822147546453572, 0.004203729821410195, -0.014676878610954897, -0.005006546631445482, 0.01158445556473458, -0.001458898691124724, -0.004264946426137381, 0.013439632525266886, -0.0034781341155439606, -0.017522244108090827, 0.005050911372728261, 0.09363949920990179, 0.08959769619216416, 0.07500111949809056, 0.06821430060771218, -0.039731276426986074, -0.10810907180997242, -0.19223280863118714, -0.13437762629243047, -0.1562477508560157, 0.00016451963690394092, -0.11216329841015865, -0.08149025386994699, -0.12392513714895968, -0.11136307385550105, -0.008923377759033837, 0.1267090011626557, 0.09579723293324968, -0.010943376806730085, 0.004394794196720722, -0.005293197250679545, 0.004603989334481982, 0.024254282143752918, 0.007246499663710289, 0.0023831235825727127, -0.0073163594732698674, -0.00599011662897787, 0.04455983737144754, 0.10560861335090281, 0.1300482173919595, -0.016346471904661368, 0.17161097252799315, 0.12709249667242561, -0.044847121133746615, -0.13881809333888626, -0.24987586834388228, 0.057962403696337844, 0.02767894675406417, -0.027628202717193854, -0.12601038089387484, -0.19265164735678958, -0.2823781281635099, -0.18495546893101494, -0.056854395691313696, 0.09472770088786849, 0.07516717251438337, 0.0044241461450251094, 0.0006707681633606762, 0.01605083892531888, -0.002087495249405836, 0.002430350515039593, 0.004656222762757282, -0.003286789374537792, 0.03340583438872469, 0.028930474373343642, 0.11054573142401053, 0.1412380649855501, -0.04902073748369401, -0.16776831314552146, -0.13472704448689954, -0.07194070871784322, 0.014911667105851789, 0.06285219736772524, -0.044218063648332286, -0.31595883175928835, -0.3903438688195444, -0.20521464104840073, 0.025494922072942097, -0.04040539338514737, -0.046493959115727936, -0.07868492086320637, -0.12600368161666686, -0.11802323679205763, 0.03547043675105445, -0.032865068923827796, -0.006089515508582337, 0.012243511081058353, 0.005652360123078932, -0.0014877672909014966, -0.0025193432527085675, -0.007153241959925253, 0.053351976791373136, -0.03804043584689959, 0.06645043257225651, 0.18107988659896415, -0.16332234674106966, 0.05488490905749619, 0.019716423100019382, 0.2140981426707337, -0.01960044289298856, -0.07570897056708197, -0.03128611114292167, -0.072639288045262, -0.13519825737033841, -0.15386855478764108, 0.11661293699523902, -0.33678696783601997, -0.08345399873439946, -0.08184697864222645, -0.11390052100059346, -0.16816135780083866, -0.06081870386554971, -0.07192351570011285, -0.02661284699653009, 0.0008420831530281043, 0.002334909492562341, -0.0052168443649739755, 0.012137859588721885, 0.043117705150275305, -0.12167451036700244, -0.1680620878191705, -0.1102503306443864, 0.11141945484049785, 0.35058093903283577, 0.19059084678070137, -0.27423094720982105, -0.02629248215753639, -0.32095480538544574, 0.18575530037441154, 0.10888646290143136, 0.3419001197823511, -0.25956060698628797, -0.3105903871387058, -0.11124685156996782, -0.23969238424643702, -0.08456548933338436, 0.05924218908194968, -0.04297156933791681, -0.19818265591874273, -0.11902003294305535, -0.024192130065094096, 0.003315209345992097, 0.007767045364657789, 0.009578165007026233, -0.0031502247645331396, 0.04826220660176137, 0.12668475347753752, -0.1983142545892, -0.21209509097370555, 0.16238307492244664, -0.22203539233357505, 0.361731477636527, 0.2784440940263308, -0.13209936905361488, -0.3253300822067534, 0.0342045573704017, -0.04325244850610635, -0.1614726047613728, -0.16492566815238585, -0.00879756263670681, -0.27854668415430966, 0.23125580476381827, 0.13306851003381184, -0.06618697562109674, 0.2520047823025245, -0.11189463242178282, -0.28669826001121523, -0.16595127852376937, 0.006896601467777705, -0.005314570717644785, 0.0054783966532578774, 0.0055390091566732, -0.029714007247776366, 0.018494239453174126, 0.22324907626300997, 0.044860151320279144, -0.02204792337472143, 0.22536276468968428, 0.04051652810345103, 0.07214201728749133, 0.3625753371319472, -0.026539997952890974, 0.19169432292425295, 0.06689898112198296, 0.530032371350104, 0.1335327014262323, -0.03831940115819102, -0.1281471131236102, -0.2093196129372072, 0.043640183269663506, 0.24963155745578638, 0.04314595087727479, 0.20367557177457457, -0.15719995926343183, -0.5591134301648618, -0.2758786280758131, -0.07788909670361369, 0.008084221880412515, 0.011049264284519142, 0.0062000963515934015, -0.011965395435424945, -0.00039028425630648376, 0.15013074268066195, 0.44824797242409103, 0.040699902473577916, -0.013824253506795935, -0.11362346018027716, 0.1532981592621297, 0.40240554299943165, 0.4318439225869378, 0.48433656124159297, 0.07356057119088803, 0.22550164307329806, 0.12387720502230999, 0.21981370030949637, 0.016053262974989217, 0.01598501641717447, -0.18715561156119873, 0.002918301422694421, -0.1980147012285478, 0.0079937537576361, -0.06894513643024464, -0.28030195653958667, -0.13567453812805674, 0.06768785764169472, 0.1551466035353902, -0.0024433040087125, 0.005103134282655603, -0.03048196819889639, -0.07653340800488528, 0.1308576785210205, 0.4647145172494542, 0.2527316132935921, 0.3339624773368488, 0.5174164972080203, 0.2974808213801629, 0.612575217167405, 0.23065118092532777, 0.1222144740339037, -0.091009777700694, -0.3787485193101395, -0.08562849187259491, 0.032239178420464906, -0.03165409520065131, 0.2614274558293455, 0.002141190554354263, -0.19160229536149537, -0.08384202729641549, -0.1360168419400646, -0.12489882527739647, -0.04894865118659702, 0.04232105707083825, -0.016229881854418603, 0.0015108798441080247, -0.0013573750827868439, -0.00531355570462742, -0.06082366573279177, -0.15302462103884343, -0.11306834746134269, 0.18810407525363634, 0.0918504864483997, 0.14776227772845305, 0.40985271763742964, 0.14704247704436207, -0.032909055066446063, 0.1804648787091597, -0.5220703691196903, -0.6989949212400096, -0.6582928334662669, -0.4170715650002711, -0.27688202109656856, -0.2617680823803873, -0.06260643457367046, -0.07379851538636563, -0.11758264859305284, 0.1298369823193104, -0.005559531933929429, -0.3093646235629702, -0.2824446162959937, -0.00026345985441463536, -0.08578573861287742, -0.020685151045766143, -0.013526277316819161, 0.01725404618133242, -0.034767865090123674, -0.1707895549837656, -0.3740143063338439, -0.2894693466082267, -0.4534181212969759, -0.262026030341812, 0.08802660889208108, -0.44679188603314335, -0.8221886580355613, -1.2920722306431065, -1.247226439095552, -0.9776446682655845, -0.5175759390263363, -0.22150373352009753, -0.06036409790101575, -0.15257779646102756, -0.020411824256774663, -0.11850395295801831, -0.08216572631572623, 0.17520247625693805, -0.20921010640756757, -0.5621278861016955, -0.04227826610045423, 0.2386222471928255, 0.13018671744115026, 0.02453383582251595, 0.008661487105090194, 0.003156548332811593, -0.012547834319320113, -0.26120640861949757, -0.6049989642546627, -0.7799248662856207, -1.0161803536494152, -1.493039362897099, -1.513829579527393, -1.5668848434218368, -1.4319107351987543, -0.8814291642443698, -0.3324365321235395, -0.07650785559460764, -0.11669228051344221, -0.055394836847052854, -0.12780502616039505, 0.01360463205850734, -0.3268824561116981, -0.4004776793871913, -0.12413976809072622, 0.010683032959456244, -0.23143469935892466, -0.043162678670456055, 0.41218522070571606, 0.37177420445695536, 0.15367096534216929, 0.0853365153607297, 0.0015136781828195556, -0.00021355900434142188, -0.008352141617565761, -0.3222846363594898, -0.6752845896084592, -0.9796693850631181, -1.509873667409162, -1.4476049658114358, -1.6335682262401767, -0.8694218634565081, -0.15947347835177197, -0.13726175384355113, 0.18326464239147283, -0.19298282077421966, -0.1588890347544672, -0.19232265483484903, -0.302044722934432, 0.21755934963284976, 0.057181004953018574, 0.25467905062222307, -0.10082560558001505, 0.08512008709097378, 0.051035991889698776, 0.25967331428355694, 0.4248980601036286, 0.22857578912008955, 0.21169338263881043, 0.007873145247720176, -0.0038014949576558603, -0.013584042513663614, -0.006744679246481379, -0.23386106660377806, -0.6419881960521909, -0.7485987248453497, -0.6937237454111562, -0.29289082671346284, 0.19793991257982485, 0.2874319670160984, 0.1474337523968131, 0.21642526404775367, 0.06831777337945098, 0.40360988782363383, 0.18576096365776607, 0.2514900675535864, -0.04398408133065614, 0.11351780694954322, -0.11241196284382543, -0.12595180255427857, 0.07880680732663309, 0.3654458726642098, 0.05074137215061372, 0.2087693833988437, 0.3545318077104037, 0.18121182354122906, 0.22337338855800737, 0.0021289605986110284, 0.007458456882279248, -0.005140075749108466, -0.015466315370314595, -0.12484789358005079, -0.37786409907656593, -0.4590233674701339, -0.1287445164023329, 0.19390547358842355, 0.11743444173668438, 0.2641715701738355, 0.24822800734301226, 0.15549844695215326, 0.027851876302250726, 0.12425119389130977, 0.032734596350306865, -0.16784633163713977, -0.008067446881516066, 0.09650942455186622, 0.23051454583523737, 0.5138484627256772, -0.16744366044696918, 0.19221229351210176, 0.2136679064448722, 0.31646259038584207, 0.47237002786225, 0.40435706235060337, 0.37284474878932944, 0.0026073172157128613, 0.0017171622897897945, 0.013275107513202166, -0.0077991776483494115, -0.05362983575505801, 0.14034883444692825, 0.06619639656338512, -0.07075326450849506, 0.20396833684645793, 0.21489609198576046, 0.026885960379191762, 0.04587375711394241, -0.011928415318692416, 0.04027033752884945, -0.01290231465358081, 0.2423498703225893, 0.14497139362806988, 0.18486693400769813, -0.12634307131319553, -0.15353156374891938, 0.010092040783815655, -0.1896000067897071, -0.17023599775646592, -0.16893369942078013, -0.07714126634812606, 0.05072298651667187, 0.2103701295643769, 0.14837425011436312, 0.009456288504200362, 0.007172712307343415, 0.002918495608845692, -0.01628449495629956, 0.055134162729881635, 0.20423260313299055, 0.39908030927552357, -0.14430546594984298, 0.30337176578862524, -0.04253447218007787, -0.28518302420782016, 0.10248403759684348, 0.1116048120600296, 0.07726407413124807, -0.12643583545512846, 0.134986053006558, -0.1816359185454836, 0.007046804902482617, 0.006552450297337622, 0.06313608884659827, 0.1305193162829395, -0.315181571447914, -0.3539317305389769, -0.11672891944985643, 0.06052063953690352, 0.41717989645478376, 0.23021788640111104, 0.06548152534907015, 0.026864571079469532, 0.004823318887535014, -0.0014935775479490525, -0.015328717122700486, 0.04855591403792932, 0.19371764151479456, 0.07336794980874037, 0.22168302754182598, 0.16379486858304132, 0.13658494592021495, 0.1698220271377373, 0.3515245468918552, 0.329124541796507, -0.09193506656290018, 0.15693560135105872, 0.10332630731331038, 0.22658703401346206, 0.31332435764315786, 0.04926070949517396, -0.21110389415213898, 0.008979437421098305, 0.029278355950015343, -0.030998667023042343, 0.028201067788847345, -0.020727569897014925, 0.33070709820960814, 0.17180761769929306, 0.06194536579383777, 0.013604525925101956, -0.0026385722108825957, -0.015220567217484089, 0.04884542440915658, 0.1329483472892775, 0.19894991538983167, 0.07218687842480827, 0.09885987713908112, 0.318784403342745, 0.5875422260382978, 0.1266944826222051, 0.08609201109279259, 0.2639267189049128, 0.1719097069153967, -0.10534842999931426, -0.05072638544523496, -0.13722084305608206, 0.022230616379791717, -0.044915219349260155, -0.20521790154257724, 0.1847170334760431, -0.008458899149717064, -0.16557385529603616, -0.1401673880968645, 0.08126118336525667, 0.14351631715574725, 0.09234062126262678, 0.025010097385385115, -0.006743271073269847, 0.0031881103243570842, -0.0029110125661700836, 0.11412681329793282, 0.26052827391354894, -0.022513338710041086, 0.09556616408444982, 0.022337676971473104, -0.5054856970107392, -0.03181821605026788, 0.22452269844956954, 0.14612360361516893, -0.08383612063212466, 0.13127959313164766, 0.019799058415398283, -0.02810478214771333, 0.09102462012153259, -0.06684054736436977, 0.009106486745964832, 0.14513699723038306, 0.2610087454813052, -0.030063199880704793, 0.026440900082112473, 0.08889845140968823, 0.28135751122022445, 0.2303853317305141, 0.08602153632804427, 0.01936495610747274, -0.011463865794872631, -0.0035237286847445344, 0.005866001285428807, 0.05260271734422778, 0.12887218002303158, 0.07061014058484845, 0.34028857661767414, 0.06752128704482889, -0.16352100011060122, 0.12894371815085043, 0.09677098866440316, -0.005703564609506179, 0.05480364462843852, 0.12113478833662565, -0.24507576433400338, -0.03638667363255614, -0.03744106448354764, 0.08397878992051196, 0.16169699534010562, 0.18897401095985283, 0.40487517218068325, 0.24008629409646082, 0.1977094021639256, 0.24297646681978316, 0.23665517243325193, 0.12600577331503196, 0.04731497276774504, 0.0035536336931372946, -0.002021420494711209, 0.0008656369943099862, 0.010183083283222483, -0.007880393138556714, -0.06670652169318002, -0.0969339333044687, 0.04754092450973524, 0.40028281236026725, 0.2204278665252078, -0.17398869663661617, -0.041078693370553095, -0.026296507663153418, 0.02257164305912169, 0.07605401512441248, 0.13991799314207853, -0.07817270550172238, -0.11207976368129956, -0.16201414104423703, -0.020090843141609502, 0.26582956114813067, 0.05249769736791262, -0.150463912773449, 0.1475225320972375, 0.17297859256172707, 0.12863580366834743, 0.10029023536549796, 0.055814319998553755, -0.011246474923214626, 0.005296213964451068, 0.009781497291264006, 0.0023498472807316367, -0.0035278150849066834, -0.03332373792380304, 0.10206694556613038, 0.024047169149656544, 0.022290421881845233, -0.04949793849075403, 