{"sizes": [784, 30, 30, 10, 10], "weights": [[[0.008331654733736689, 0.008985403539182344, -0.005681484100513921, 0.006625245113077405, -0.010053180790594552, 0.0032140860399335744, -0.0006809017805658021, -0.00398946588355848, 0.0009184563518724478, 0.004024292289780902, -0.007509029141373675, -0.004633241968649823, -0.0008574860530931866, 0.0005110317801349852, -0.01310582161673105, -0.013595721269952211, 0.00351290549426719, 0.011295337313512514, -0.0026658237332117386, -0.00267732349727708, -0.00348424408539162, 7.84374061115429e-05, 0.011625109403751471, -0.0027062346702109935, -0.009169455538919328, 0.009022138841614288, 0.011039254955369527, 0.017157999341140387, -0.0033152203593355785, 0.001826233337264853, 0.0008955308944023109, 0.0014542919812739175, 0.000195335418574564, -0.004285500160379322, -0.006933298956553639, 5.224631958836814e-05, 0.0016548465747752879, -0.011592158493199122, 0.0067884477779063595, 0.000841654977187958, 0.012096435660224718, -0.0006925532978881423, -0.008292026917627131, -0.0021919883510979673, -0.0005244409217727115, 0.0010290985087889138, -0.005169741687352429, -0.010036381415459613, 0.0034176312123488303, -0.000849935317514923, -0.004256595772499408, -0.013377875570472405, 7.124386533690919e-05, 0.008067066847636212, -0.009744570670496801, 0.009164289299701074, 0.003662752931777788, -6.076385321822032e-05, 0.008261362289038966, -2.161696986265522e-05, 0.0021370474131398565, 0.0027638986169260557, -0.006741032173358452, 0.0009897421577752979, -0.015353595768580378, -0.0015554939205607633, -0.0036259018146409037, -0.011020803093201293, 0.0021696894053365133, 0.002562584803277923, -0.002360820386936135, 0.005988729932040701, -0.011384723098785625, 0.0012977672931322264, 0.0048645175936938845, 0.01473238689457949, 0.001443089205113074, 0.0074178849435116625, -0.005357795392052605, 0.0052329091968298085, 0.005300528070268957, -0.021368595675387694, 0.014473665808654437, -0.00022392300148162784, -0.005368712320332484, 0.0033825288828773447, -4.490106815715418e-05, 0.0009941629316696083, 0.002948106186539764, -0.0004459615908412276, 0.002032572111869736, 0.00387189596233405, -0.00045906056780088575, 0.009274526282421435, -0.006998642598658532, -0.004562810431337445, -0.0002948310215478056, -0.007957751978635356, 0.0008710279853856584, -0.004512677340608947, -0.013975013027990282, -0.016649996333407763, 0.0031524611927277093, 0.0007124110995267695, 0.007945747752720698, -0.009472652161977888, -0.0009446155190518594, -0.010924664862932922, 0.0012258882197785372, 0.0033872532988617966, 0.011600490971048413, 0.00986143855879792, 0.010119652279373104, 0.004610586848122855, -0.003463741721142543, 0.007669631648902869, 0.006591096277452461, -0.0032244183591204397, -0.011290495197928026, 0.014093710876438221, 0.009523007616008442, -0.002244340235615745, 4.015964067027798e-05, 0.001277465890225932, -0.0067817456452461435, 0.004193196715132647, -0.014223187223462363, -0.008642071847643816, -0.0017439977675426158, 0.010028091008805607, 1.9336507668374796e-05, -0.012139467327927662, 0.010338087723597188, -0.0053395354173246925, 0.006826406379859966, 0.010964127331388514, 0.008454229086636384, -0.01213947701902223, -0.005683981584732965, 0.014433332947420545, 0.008837854176153409, 0.0003828435048139071, -0.002275360971534819, -0.01338920084774753, 0.0021942989418886915, -0.0024993127769796335, 0.014319155409191204, -0.011700880519662374, -0.001819341202633108, -0.013216357989584775, 0.012499188939709107, -0.0012693831727027005, -0.013270672614261021, -0.006658293815939364, -0.008655931458727275, -0.007048577189757613, -0.005549160336920808, 0.0008213015553964627, -0.009962242527306927, 0.014730204918890094, -0.003942708474104277, 0.00027213811582051627, -0.006178145752871535, 0.007942233256185956, -0.01032511488561716, 0.0017392991871554423, -0.009585668682797293, -0.01132846758820826, -0.005670861930294712, -0.0016868632925465849, 0.0003287711681244327, 0.013962706607268265, 0.0210521221071814, 0.005483814067825267, -0.003981019025436436, 0.020297792130261446, 0.00669452900670835, 0.004096490248229837, -0.0019868452899045657, 0.017914377508953912, -0.005037845271706731, 0.007289508225233413, 0.0041583748094257, 0.0029828681298428067, 0.002991620283524268, 0.005118356996588235, -0.011449977457502439, 0.001623436565820355, -0.00949919962105017, -0.005437777993216104, -0.0007692117382930556, 0.006475707200731432, -0.015394244264487373, -0.01748618130831275, 0.011644895611214219, -0.0006762562119332808, -0.00580577413264271, -0.003384106966272862, 0.003981725257498094, 0.004066864811778368, -0.0070523820696759216, -0.0006667420876659357, -0.0005521088681440288, 0.007184212421618102, 0.003077822165812851, -0.0002322184560438367, -0.006726383892108475, -0.008164934868344725, 0.011795126174798446, 0.0016566033677449653, -0.004714104553506595, -0.001579882883363587, -0.01345600313061452, -0.003198540398371264, 0.011493177299080037, -5.173139558534537e-05, -0.01697138641956988, 0.0003739154603717573, -0.0005175650391533345, 0.0032115700666169728, 0.006585294085261591, -0.006093223486087478, 0.004338627952532253, 0.00850380721090344, 0.009635157317740457, 0.0012814390655830293, 0.012965482519335478, -0.005773737061500064, 0.003954969440619203, 0.006342818847652657, 0.0033428424793422087, -0.00022215866541669906, -0.007186028695517219, 0.0056970289455859, -0.017341130630370623, 0.009598859685586011, -0.004707086658647156, 0.005601202173701402, 0.0014788044091986804, 0.012900339296209143, -0.006599091085979862, -0.0017531822281831352, -0.010119413102272715, 0.004839931724049669, -0.00393422714393553, 0.014777869590810778, -0.0035251445363079915, 0.01654366251217724, -0.003530686959669516, -0.016085086607287788, -0.0011048771776514255, 0.012440504517102772, -0.004863636625232479, 0.0020453136334399194, -0.006981198933429058, -0.002172403145930609, 0.002064923916010268, -0.002907037292804132, 0.005801336448256198, 0.007575499587875931, 0.003166701634172273, 0.005059485382250577, -0.0016011158985791592, -0.0006706855503268066, 0.0009187789738038288, -0.0016382807385973079, -0.005944772453077119, 0.002503716382863359, 0.008287310002791952, 0.009987125840308806, -0.011932819249994469, 0.0003280198381352527, 0.0013159592699427652, -0.0003097816233694694, -0.0005657640792546527, -0.0031554664494204835, 0.0019045738598957532, 0.008546796849171949, -0.0021018682409151834, 2.7014601610839267e-05, 0.013423372857810366, 0.007397270824830856, -0.01079757409695553, -0.004741512772886578, -0.002405063062663539, 0.0027088606088537352, -0.0025819157529305245, -0.009073059957426542, 0.005844893557313434, 0.00021758030882667155, 0.014916575204618756, -0.003792565452962154, 0.00940078932528636, -0.0016789309378547248, -0.0009950315014598079, -0.010891886040319772, 0.00021232796386748992, 0.0018361981167665732, -0.004486929978529195, -0.006140511334908304, -4.966507085632654e-05, -0.0006932232923159523, -0.0010552240730896524, 0.01615692265285374, -0.01518563149970802, 0.012852137036291745, 0.00462144009098883, 0.018320521167126357, 0.010660442334289007, -0.0017704570756377532, -0.0023859188409825526, 0.008335281141794729, -0.014894164383962289, 0.003685278910471492, 0.003496106832101351, 0.020833553492212203, -0.001033927070571674, -0.006799096549186368, -0.003969890570376934, 0.009158976890055471, 0.010653120723734628, 0.0015212763577847612, -0.0057532907966271404, -0.0016361421140711156, 0.011183309596968899, 0.0020741668371518003, -0.004050481248370676, -0.010932928899406905, 0.007119298534668483, -0.009427039501454215, -0.0005017953563748115, -0.0018645425776670466, -0.007867823990331223, 0.0036028331760794576, -0.004749276096130489, 0.004539773264280942, -0.012226239478212298, 0.0041075100565863935, -0.010618429964747803, -0.007842268141323216, 0.004996886951175717, 0.0038546932112262632, 0.014990578953733876, -0.0016359722979520925, -0.005044296341723664, -0.0007212269535557041, -0.008652914037457582, 0.0025347880836761342, -0.0012038417171708756, 0.0008774459602560573, 0.005289482732733781, -0.0004775905811115111, -0.013189881139164123, 0.003616316473029366, -0.008809406135174384, 0.009747477633878397, 0.012693296194172657, -0.003598481207324776, 0.00400873508381425, 0.0028434307708732247, -0.01069504736174628, 0.00275906781588985, -0.009211645793195613, -0.004650296143206633, -0.002702966512018871, -0.012542983399651219, -0.0012283049782895498, -0.011738618631668139, -0.008469128553281021, 0.013421030154463614, -0.00649349333356961, -0.01341663438309928, 0.0021021365051973775, 0.010078035088052854, 0.005052314408570572, 0.011645137722545532, -0.006273238035814428, -0.0038556668488561132, 0.0029711919715024776, -0.006631456329126002, -0.010909434886910699, 0.012134916864272297, 0.009971004777478507, 0.007815857827219299, 0.0005958374086771666, 0.0013559594433654853, 0.001468922579254895, -0.01291272466219371, -0.0014520599661994053, -0.0004600645868815772, -0.00018460567899447784, -0.015678482547652913, -0.0007763704892139743, -0.006419270605577675, -0.00031263458410014044, -0.00313685843227824, 0.007746692837425151, -0.0019779345862986322, -0.014641794005789029, -0.020771476116777446, 0.014308008915905671, 0.014399979064196473, -0.005258740941300708, -0.003274684796472053, 0.0012391992880317535, 0.00017480141986804553, 0.0011566030349698863, -0.009039936948772654, 0.004345820935917102, 0.013804059151802326, 0.00533492037203425, 0.018079752294285108, -0.012890502814489712, -0.012296235186112373, -0.0006807632333124063, 0.00907851247189809, -0.005721626675516011, 0.0006333000919337493, -0.006024275393736187, 0.012902379642760585, 0.002158914737011285, 0.0014292600866870255, -0.008648656520438239, 0.0005326808336102248, -0.001913244333451304, -0.00952328020279501, -0.015023626305767973, -0.007348362818724559, -0.002696873634160747, -0.008265037887823103, 0.010777891879130875, 0.003632700455196899, 0.007024874327198551, -0.003911134485018284, 0.0030755148368543624, -0.008932445897265062, 0.006046426054629833, 0.0030877978083202577, -0.01021156906719578, -0.012694949871122465, -0.0036061071294706004, -0.005102717221421227, 0.01641589736205404, 0.008943699552298777, 0.0006581176833660691, 0.01069828513264129, 0.0018504309316927138, -2.9381811994137092e-05, -0.002082583977253537, -0.0083064951346264, 0.011148403728504527, 0.001126095594056205, 0.008413151136616087, -0.001168385366480854, -0.004214168493976782, -0.006133266192327168, 0.009844493564918613, -0.004302760454705533, -0.0007723938150900472, -0.01793736539777264, -0.011468477421316419, 0.0007767225125324274, 0.02413484130574484, 0.008811627395624024, 0.0048643442413876786, 0.002264618336677492, -0.003737400478940596, -0.000602338754750891, 0.004841061789757645, -0.008351488009256851, -0.002751922253086491, -0.0012836163121878012, 0.005583284427513524, -0.00687024891086003, 0.0009491601596352371, -0.004963584655402729, -0.007773642235666016, 0.0019571497277430802, 0.00990978835100706, -0.0005675343430333273, -0.0032085705779954536, -0.0037985098048624742, 0.01361644161521203, 0.006370064491090268, 0.005369908541873548, 0.0059377136021923314, -0.002734894212967149, 0.009294942273892283, -0.005843509044637288, 0.008583617145428055, 0.000834145480059074, 0.007330924603445862, 0.0029597421968076566, 0.004155345994323957, -0.0026776222924021842, 0.002442787349740929, -0.0015555587582415985, 0.0037370835561144544, -0.006114667742434361, -0.012861340628668385, 0.0009854748516510319, -0.020496578785714783, 0.0028015830481561872, -0.0006578458429231094, -0.003927665473135449, 0.0022622934958576916, -0.02247050213435181, 0.005214034343871561, -0.004213198691517351, 0.0018473745555274755, 0.006056245382112187, -0.012576030965207104, 0.005360579852235611, -0.009288637961092897, -0.007744056423941348, 0.0009505242841818301, -0.0062497250479179485, 0.008338878170076188, 0.004064432354017277, 0.00011956702771557336, -0.0020479944820240717, 0.003169778928567453, 0.004506154553598144, 0.009120689781451896, 0.0033219542050530607, 3.975370457320149e-05, -0.00960188214657065, 0.005090054093478968, 0.006725485708382912, -0.008874744888829875, 0.0037935928442484287, 0.005086549265438116, 0.00743361605439489, -0.013860820716936952, -0.009937441473729299, -0.011017663060062547, 0.0005852468353795157, 0.013098726234200046, 0.0009046634382587603, -0.000929904198258661, -0.004533091694849805, 0.0054598591927872515, -0.0011512942473396568, -0.011391050466421549, -0.009056449362791603, 0.00131908109673219, -0.010528265507586303, 0.008169844585701422, -0.008384097647980012, -0.004014899447523028, -0.005706049265519244, 0.001025802545812546, 0.004013885430691614, 0.0044268083441006915, 0.006314894601441533, 0.012297041274468953, -0.0002807131633732439, 0.0012568172459494738, -0.015358632702519862, 0.001609820746427755, -0.002524451239031297, -0.002902581192279429, 0.005416476350110936, -0.0032789986913555644, 0.0014141983151246245, -0.002717759506947368, 0.0040729926576582465, 0.010052134319251674, 0.005080264355665263, 0.0038838032296545253, -0.007429560223780229, 0.006274938897974, 0.001853506417930666, -0.004495204617406168, -0.000595905317691525, -0.004446325257384012, 0.002313286471662185, -0.012581651356134179, 0.00568690377593043, 0.005035773044788382, -0.004595897065369199, 0.009175973085168494, -0.0030766299522842835, -0.007738722411894577, 0.007245641913373861, 0.010034157378071727, -0.004906141319398779, -0.001270210126949609, 0.007443603537493419, 0.0032668666671292483, 0.0015590133680303726, -0.004263329773725406, 0.0057184775751126715, 0.0017107988001012786, -0.007962076986001576, 0.006310993327518407, -0.002934473176597475, -0.005945672859187846, -0.007466767730228027, 0.0007361876065420021, 0.02228206700274084, -0.010460132497749769, -0.003507293616569022, 0.01729913961433383, -0.0011335052860188832, -0.008343221883521568, -0.009765759945924704, -0.012032217476807145, -0.0063835277444941035, -0.007120364850989944, -0.0003017542653941561, 0.0006396644901001776, -0.004292096602000261, 0.008842074185846479, -0.0058584089904778515, -0.012024912524131402, 0.006307908430895004, -0.013339880281642697, -0.02053537953108883, -0.002709363440331874, -0.0017324975323241986, -0.0002028037921149132, 0.011413303719566253, -0.010049954371307655, 0.010125830734688066, 0.01679370466658157, 0.006479129612336299, -0.004668051821800595, 0.0021356331499601264, 5.2224105735083246e-05, -0.0005506407491070066, -0.005654855209446383, -0.0061340215849501785, 0.0022060402853923576, -0.0010115519528472211, -0.007251541484252953, 0.006779719151527477, -0.00891812329608191, -0.004758485321956326, 0.0016355503851775033, -0.0031213969260357067, -0.003619499458364129, 0.014424708190797409, 0.013510153808472435, -0.013999266986495723, 0.010832518522531448, 0.006134361829239021, 0.004693951103994183, 0.0029858636618043275, -0.006314869396870287, 0.007121663861655958, -0.003722902690631299, 0.012498075166602434, 0.016548930650846762, -0.0010989017770416307, -0.00978584573933618, -0.0029394091229197317, 0.001347418951895798, 0.0022880368761043664, -1.0474096129642414e-05, -0.0023354055089732516, -0.009460981320069445, -0.0002815403219544793, -0.013316438234457587, -0.0032050923293936353, -0.0060218672589413685, 0.002532763444745438, -0.0011062854197325437, 0.005378668366686695, -0.0022528350915498774, 0.007785546443013347, 0.000703715663827048, -0.006068187485456619, 0.0003825300768313943, -0.010636017753425141, 0.0005572040966370987, -0.0007969499137593077, 0.018101544637279227, 0.0004455910238360435, 0.0016656033114048703, -0.0009247189496871762, -0.006264235135245066, 0.006067969454650508, -0.026512364639214792, 0.009033817064241903, -0.010011749423375866, -0.004838104109363511, 0.005541602686045438, -0.007850317139790456, -0.01702586286628473, -0.008303734307115757, -0.011169535513530119, 0.013145965691140004, 0.0027468143803946843, -0.008226317417286765, -0.009127313784632876, -0.000994830344798593, -0.008015003104257975, 0.0014955388634272117, -0.0023883819861299023, -0.0024540548997931933, 0.004491996750635053, -0.0021297993733535303, 0.002928305907685269, 0.0056015762271979476, 0.005383272837945852, -0.008040908323144054, 0.005169800289265146, -0.008418328090655881, 0.0029684634858123844, -0.0087317309368586, 0.005813754277000704, -0.010948028200687701, -0.005426244087043596, -0.007612796026494298, -0.004882808227054843, -0.010495768413119421, -0.00016647756531737486, -0.0035138694320202583, -0.020104268758383465, 0.0067113820501209275, 0.0005821560388215635, 0.013650562710704778, 0.012377562188503584, 0.0007022139976296291, 0.00468535619152238, 0.006541646636309817, 0.005762890732626494, -0.006923435831899104, 0.0053578553963277336, -0.0028103444412171893, 0.007769482415321752, 0.0005525225055121103, 0.004147488869995427, -0.008343792005538473, -0.010606260679746361, 0.006054818348034639, -0.006811166536902583, -0.00033749144395389, 0.006128332099536853, -0.0029602167820706703, -0.0044139891062630185, -0.002253844768835575, 0.010874840454912191, -0.007024871213546577, -0.0006280967435087489, -0.01443175128288758, 0.00846907154668059, -0.005614284684268818, -0.014765040585998828, 0.01429920303286236, -0.004298323333410953, 0.005113775335015735, -0.0012326684169287768, -0.00960126862287203, -0.0016245314030075145, -0.0051882602638843285, -0.009883709551898504, 0.008273013574226388, 0.004259298613464994, 0.005675807683700428, 0.005575157112409231, 0.003380124737306212, -0.004485574643827514, 0.005418492247812929, -0.006709534074058686, 0.007590444926564924, -0.0017881783459503995, 0.010963063725373794, -0.007787723047250252, 0.00013883949842242698, -0.005843049067441848, 0.01417544428107698, -0.0013270166190844366, 0.000439663567407183, 0.001222707842086606, -0.0032985925381829708, 0.016608585935683824, -0.006704369298309952, -0.007942920768934882, -0.006234307990635296, -0.004861053338045932, -0.0036248434343112436, 0.00010041745014298673], [-0.004815321247670598, 0.007607195795330678, 0.0028985894790819634, 0.0010052446592708967, 0.008327577808169805, 0.005364051363945413, -0.0029523755223092554, 0.01543987793118832, 0.005584763680855943, -0.0018510382503330453, 0.0009316590063918596, -0.00833379434824245, 0.010912372929611756, -0.005691302323900525, 0.002626560388412305, -0.022461863173206906, -0.0015392688958812903, -0.017718137188922137, 0.005577282969115193, -0.008624727102873713, -0.0014876612228059889, 0.002812011148980802, 0.007948875889517797, 0.006475553479115721, -0.0011078014499910555, 0.00563107090704698, 0.0007087649127338723, 0.004709370083506026, -0.009554724556274671, 0.009722934879594518, 0.00912477569481278, -0.0049063660299062855, 0.008301244196693999, -0.010266503346493884, -0.005958342015891054, -0.012956288430176677, -0.020521983230416447, -0.00029735841159039643, -0.0025043585329864652, 0.004881699207574722, -0.030035573114952828, -0.02011356874393827, -0.009793432765013708, 0.006603296110339992, 0.010471766539172136, 0.001691571750286105, -0.0015632822909568422, -0.009185457172691263, -0.005098014472428089, 0.0033697422189714003, -0.005545404316292777, -0.010725185743118171, 0.002784319607755013, -0.0049801225266273876, -0.004710415656722494, -0.011494765757188321, -0.013467813838543185, 0.015896170679490233, 0.0029459978563181094, -0.00799501632821227, -0.004873351194579753, 0.0005442467060480194, -0.013860969313581686, -0.027445687424568162, -0.02786709622653911, -0.015473541385191504, -0.04026551267693066, -0.03717169009362688, -0.07326856858012866, -0.08984343564207752, -0.09051097992056069, -0.03178934582809822, -0.0353841601753045, 0.0028495942373509865, -0.01598210865781048, -0.00960551666807261, -0.005559091102636614, -0.014100683549360452, -0.012711081789289942, -0.015687052155570834, 0.00364541187555754, -0.01831086034477226, 0.018502632208894688, -0.0045092345236154895, 0.018802425026320263, -0.016972667810473945, 0.00502041010129474, -0.01924139778494253, 0.001947540583721821, -0.004368120509542399, -0.01825895206675495, -0.047179339179124494, -0.04747369284936116, -0.037434090772510115, -0.03135515401570038, -0.030906125160524683, -0.1269590756317665, -0.21246534706285714, -0.19410473561000477, -0.15437477287644455, -0.09594206870542693, -0.04830025936666649, 0.00761691214779697, -0.019108026142832163, -0.026025135128329973, -0.023123941890692244, -0.0035997600052299693, -0.02449408067558466, -0.008315861931610559, -0.01006519136448048, 0.013760585902505678, 0.01895101394461504, 7.126584361713214e-05, 0.012771509492796457, -0.012447838365438394, 0.018327938088850127, -0.008825850876204912, 0.017789192368095088, -0.02190870068260852, -0.04080612803231356, 0.039941061657899755, 0.042068342527500024, 0.0013554738857928903, -0.1490606106953363, -0.2381290677363158, -0.22846860395116952, -0.2491345090881391, -0.19763574009363458, -0.15883519926614392, -0.15352325113773432, -0.0439020996756731, -0.06694874631639375, -0.09311200507102596, -0.015215350542639821, 0.07277309919656343, 0.03146308473699833, 0.012104084575631944, -0.01772688825975097, -0.019399798542329934, -0.0009590007815753305, 0.0015041628249305736, -0.00406425799008607, -0.004240210792593958, 0.0034024465672790423, -0.02335575756768079, 0.015654804121383138, 0.024636449468062753, 0.0521810784022779, 0.08367142189024332, 0.04377404710053891, -0.0035408458828549427, -0.13170768518243792, -0.11136867603629769, -0.03647377984367022, -0.022288227493357425, -0.0787332147431543, -0.1204822905834737, -0.04219667725321341, -0.1961064590439569, -0.07259733700888842, -0.034402258855107795, -0.07739029155157054, -0.022800599503661024, 0.0656642513840658, 0.005807569026977147, -0.021792287780204905, -0.03507927567458649, -0.0014459267084429217, -0.001227646562432728, 0.006081660762753925, -0.00036613969111995486, -0.0022174651225780003, 0.018739119176468574, 0.05440631146931608, 0.016592505720240614, 0.011023540980457297, 0.026855372066845982, -0.1325607379782012, -0.06757565507468544, -0.11067461228012986, -0.10937884672969421, -0.10846955909256135, 0.1266771600262071, 0.08443695313226525, 0.06746783927310611, 0.1268986478705302, -0.10044041733799547, -0.107469900080952, 0.03455597039584607, -0.039545796770691005, 0.09065592299750468, 0.015671449117312258, -0.020655430829334135, -0.08310327170322473, -0.018588980867280017, -0.0023877511922810756, -0.0007736135123282686, -0.0012226779847077111, -0.009429089197147645, -0.005450194333865585, 0.023301465095798404, 0.012218819020511395, -0.03467691902272169, -0.04169822013649878, -0.05958248024102264, -0.03257909167683679, -0.1196286756785692, -0.08256724778564854, -0.10597740692986189, 0.016464365866665092, 0.14436858531853222, -0.08725432663334844, 0.18443467279993073, 0.007770165579026611, -0.1527502589005532, -0.02703836799434396, -0.043910521370150245, -0.0596296283988824, 0.07902287621054638, 0.016357264510189, 0.05408594619100383, 0.015900963914912022, -0.04565420877412889, -0.0009784494766833746, -0.001908428297882311, -0.00649213441513396, -0.012021322464004171, -0.0402756797119069, -0.01560933885030433, -0.006778049773212445, -0.0389008581493936, -0.006742254882287593, -0.012228485690324208, 0.06885257474898208, 0.09229806681073337, 0.0110318472701646, -0.14688216207308463, 0.03885487109290399, -0.08061443480919503, 0.04113889212711473, -0.009940238024272519, -0.06836507314386941, 0.15524835334433842, 0.031079341706517175, -0.05427936409102386, -0.058852001137294614, -0.08503254401934683, 0.01493868812639469, 0.07620741683338067, 0.01766964007744316, -0.0343448024457348, -0.007251817596764056, 0.013674404169556793, -0.008732518261440243, -0.004457230924590173, -0.019533984216185213, -0.025203162508206384, -0.10111299204089498, -0.1021487082288498, -0.03173081586894091, -0.11905676809840035, 0.01204320665929102, 0.10404314120547832, -0.07878297189577108, -0.041219206089557175, 0.0148020772965516, -0.10190800892433326, 0.002402637624187315, -0.1084680164396764, -0.03791556054147578, 0.050478501208871006, -0.07941022472967581, -0.06051651067707224, -0.12957646481607402, -0.0833641221497811, -0.12178908464914558, -0.08885783380229577, -0.08499700296168847, -0.023708244959443334, 0.07220578720334697, 0.0031348822895431, -0.006922222918820091, -0.021133060055480848, -0.02806541331107882, -0.04739978548454441, -0.16592465413821, -0.15389933219704088, -0.055069466739297475, -0.0365571789617831, 0.010351248605145613, -0.04595180099351182, 0.0835961956927803, 0.16877477415947326, 0.025006456947229028, 0.038515542251079844, 0.15168014160575305, -0.07618947377678978, -0.19110396979406005, -0.10440881768544495, 0.00500257855815648, -0.0766133532419377, -0.09778669461062289, -0.08257853397918462, -0.05011051532848464, -0.04389496532961778, -0.024887887544126696, -0.016566096792687463, 0.011950761325545518, 0.0006039346032726111, -0.009652710093145379, -0.02909553615753729, -0.06570873461830315, -0.1506603274794452, -0.13483807237744946, -0.1326347673816762, 0.013243719670718196, 0.10405043187132043, 0.02886748201896957, 0.14783091128518944, 0.22886869536067364, 0.13394549460628907, -0.06553304133519522, -0.06809580198313486, 0.10342020158774207, 0.17517978324624878, 0.0671703705078089, -0.011761774342557409, 0.0056028235929886545, -0.034322992297364005, -0.013659110107429269, -0.06231608327101027, -0.06371718247531358, -0.03535042722987201, -0.027522900908248025, -0.037251243548535644, -0.011274375648824922, 0.009094248347805286, -0.012035533107344525, -0.020056249621804762, -0.08039926838749054, -0.1317337107510707, -0.13109657499070376, 0.03107576740976773, 0.09416933163940225, 0.16954349422064363, 0.06688137397238955, 0.15537173194418602, 0.15401468952890118, 0.15625587632604457, 0.13370294786833992, -0.012238034181209733, 0.12132275371014875, 0.2389257317468686, 0.08188730050346502, 0.003163268533267334, 0.10432747360643412, 0.026577367259645927, -0.01981027766181552, -0.10804792250516405, -0.11523326042131786, -0.050474514851884665, -0.06805562673792587, -0.007727549160891547, 0.007694099254681076, 0.012291239272656919, 0.007571112026199135, -0.01367240584595436, -0.05863713258607875, -0.08703709222364144, -0.0786699417045459, 0.04769244874762821, 0.3158655783742145, 0.05678946824569036, 0.12743348238087987, 0.13129037746251, 0.09763565058784075, 0.12100495321775466, 0.04600767511359325, 0.05575057839353354, 0.11786474395799948, 0.1766963070205496, 0.09145272690732822, 0.08975764996435685, 0.0945755595109285, 0.0647471708401054, 0.002728800954874624, -0.08760509878917085, -0.07352505120632755, -0.04847276061219023, -0.0177944006675988, 0.015537479544571823, -0.004006530362795691, 0.0058896338585196824, -0.00416851283689075, -0.016511539396126994, -0.023380151323220175, -0.015439897839238341, -0.117298047445661, -0.07565358262971009, 0.08417139950612325, 0.12354119591756299, 0.2525780527225115, 0.1871623344964056, 0.06495595059104613, 0.03967837220875735, 0.02803451440283569, 0.028643215437026876, 0.0805961858523107, 0.1948654313643035, 0.06702962918355336, 0.12229116081323796, 0.04316254258094483, 0.023299123672496952, -0.08002345229345943, -0.06619034818456931, 0.004773901521013154, -0.004178429926782516, 0.06805809140400183, -0.018901256802004752, -0.00755628380661997, -0.006148317975420461, 0.004219680270511279, 0.0031867617455218905, 0.011962222828136049, -0.028519069343770322, -0.09711652772195713, -0.10924186729700176, -0.09910670267794547, -0.01783127998993379, 0.03436407246023525, 0.1011532834185813, 0.00682129493126608, 0.14251838079291015, -0.07963860017993325, -0.011757598042936818, 0.32362756827826744, 0.1814130454667498, 0.17921621697105453, -0.015245095380264152, 0.024668755099183055, -0.07967599689331863, 0.0663900903803872, 0.08742936179330042, 0.00014341077801042403, -0.026331648904446038, 0.06810099025491488, 0.041484159582692144, 0.004139105951575179, 0.003768286925405884, -0.018538405211081042, -0.008316620370140278, -0.03003894123778356, -0.11573169513264536, -0.10771696296187899, -0.1780981408206724, 0.02750823335165248, 0.12851304964973095, -0.01024726968051581, 0.07857342823882893, 0.08214214638177035, -0.015986473358123483, -0.06324309852729738, 0.18245583186030068, 0.1526866568981709, 0.13372389413914537, 0.2020677727811797, 0.10818516422293656, -0.020078982849673483, 0.005141956564391396, 0.08826397805797233, -0.0025385534432064414, 0.028314324110524366, 0.036160566885957555, 0.012390261925642843, 0.009289980766129144, -0.0160495806163261, -0.007469649809921451, 0.0012656922285255168, -0.007810742801400914, -0.018195711146304677, -0.09030629547325454, -0.171217709251126, -0.20495807581332093, -0.1086699282461114, 0.007251271829889059, 0.015022024780244888, -0.021165943621673938, 0.0198644910666782, -0.03397627413984912, 0.06433852882928824, -0.035848635916383695, 0.20867511959138552, 0.031776503138258694, -0.08053841632185159, 0.005206851462345913, -0.025478243271396202, 0.018648186856804194, 0.1243577102222443, 0.010354872536904904, 0.02770937736392198, 0.04291558451304396, -0.01935114585743143, 0.0004885357650755483, 0.005022582881711345, -0.012947322622075534, -0.004347319727175357, 0.0071677629416479795, -0.010145787778965226, -0.03963091852664032, -0.04290034394652416, -0.09171469401135444, -0.15225377149163008, -0.1466380233648741, -0.2155351829229449, -0.1505401549761437, -0.02587799925465225, -0.002105984178375952, 0.07953957183422983, 0.03867367481006979, 0.07194135994329234, -0.08640570831039382, -0.11272863526519848, -0.157227955311358, -0.11481517631028124, 0.046952471781659996, 0.06891039333372465, -0.06577738742512863, -0.02932704734603109, -0.0061614060924573095, -0.0264428235238606, 0.014367429583492068, -0.008719679676898394, 0.008111980972687331, -0.005198315323875836, 1.986402268185548e-05, 0.004257393047778963, -0.03775356016804407, -0.04453701371406319, -0.04444474649185935, -0.1421661237230726, -0.2663882530583556, -0.40041231473776395, -0.33058349653517144, -0.15813566992606765, -0.19418308410886687, -0.12137130152510442, -0.024586963643387756, -0.046615984315042505, 0.03737027934926512, -0.25604740386412606, -0.2524421058619327, -0.25852253220141724, -0.2537334689790467, -0.1457000902582876, -0.11644172305520255, -0.025500307898571346, 0.002067593412242348, 0.02181911524871664, 0.027063388289578914, 0.006051027924185822, -0.006644310180551439, -0.008846340527921397, -0.016844090467775005, -0.022955700416033484, -0.051363862833065724, -0.10979737359713941, -0.13973549172435493, -0.23531430128020006, -0.277569827399402, -0.1924443003115035, -0.20158305728636983, -0.22487744632043027, -0.3249573061669017, -0.18409131104579915, -0.1420992313113407, -0.20874207027150204, 0.046406309958182124, -0.16687128574309745, -0.11595855859307737, -0.18883016675593525, -0.20451651534971219, -0.1407517891030173, -0.09782212369386296, -0.0358355601488958, 0.004409680189105462, -0.003473438321775961, 0.010210037274333837, 0.0008582974634410885, 0.005462136012255456, 0.0005514786132487391, -0.0015484297667704738, -0.02136550980027682, -0.04930168402860577, -0.0732592679041299, -0.197788034381622, -0.2008587109215894, -0.12966525304960433, 0.035204650948494905, -0.10579669568429576, -0.20855449320558642, -0.0519205614964236, -0.17763571677995305, -0.15975432312189433, -0.2422982580687064, -0.13548153902274931, -0.15086053732632157, -0.07443403715695598, -0.11928922234580129, -0.23939759959901605, -0.19084161933747934, -0.05290805249089983, -0.02274390181649658, -0.003816316585988122, -0.0012028513885851487, -0.014287431435893885, -0.005472235473112367, -0.013463053946143992, 0.003302209538525009, -0.0011689971477538415, -0.009773762459083958, -0.046243704519365714, -0.10370973573416895, -0.13049712926537113, -0.13496030508908696, 0.04670451471254814, -0.01926275623271708, -0.0467495416476012, -0.007004441454526176, -0.15797020098335235, -0.19557083680390683, -0.22178981496668282, -0.22310751829626924, -0.2089434355544466, -0.07834691079571406, -0.0708685366349294, -0.10681651228583013, -0.07052822204477294, -0.14389051130112102, -0.0705401729247513, -0.01951221581712152, 0.0023606596714550983, 0.00024429226389496183, 0.001247419159920427, 0.003646012288310865, 0.008320261084422178, 0.0049567144615812655, 0.003689907015452251, -0.013674906163530197, -0.07349858952897852, -0.1374219352063832, -0.05725767628121132, -0.05591716226575532, 0.06432117533711973, -0.09402244679024806, 0.023624072851986012, -0.06115534012578814, -0.08203200892475829, -0.050719671782522145, -0.15935634259740258, -0.11660360751390587, -0.30423064904015207, -0.11701611589960532, -0.10252908147455284, -0.03073187324137654, 0.02056881160310644, -0.03360099365030028, -0.02115553413112559, -0.027961592076107107, -0.03690760995707546, -0.007340524009687088, -0.006482359652637446, 0.014440625589915854, -0.0057281827495794255, 0.0013790391655913224, -0.0005774201576432218, -0.02602909744094655, -0.025651135436892323, -0.032066774174308324, 0.06903164718083292, 0.08492284603801326, 0.025846848671840294, -0.003594383369916285, -0.06596519332226303, -0.12016367410358549, -0.22792589504124333, -0.09164015275634052, -0.11243157865446136, -0.25583433997274985, -0.2442116103173239, -0.1758327619000292, -0.06888414329268748, -0.06259933382015188, 0.04549581095841915, 0.007958005421230083, 0.03156156275149756, 0.028344633305962874, -0.03246309865734736, -0.011498964085417345, 0.006876909702351919, 0.004998276814396847, 0.010197852385212395, -0.0008879233938807823, 0.005693716190704354, -0.00026566105763286673, 0.02845290401369368, 0.10379674907574381, 0.1111078637180558, 0.09042969487805358, 0.00020450188240643113, 0.01759385176655485, -0.0550766300358546, 0.012753687722669159, -0.07638727593226344, 0.02986376369196689, 0.015227442592052547, -0.09614998323743419, -0.009757544688557926, -0.07630952486596468, -0.16196065785628846, -0.18722281486593192, -0.015194325972390066, -0.03205510462659073, -0.0158734646962842, -0.01492474014801759, -0.020337658117207797, -0.007481977209626376, -0.009394790666408455, -0.00918035074251786, -0.003628720100328782, 0.008729524227167329, 0.003670486323251787, -0.014014595002154726, 0.026621227002933526, 0.06419403101454066, 0.09997105902947519, 0.08539347507342203, 0.06139975187387984, 0.07635271733084227, 0.08370315120334067, -0.022427117690650984, 0.005119889327035316, 0.0375710993545481, 0.12846304055795266, 0.07060670545312943, 0.014878067554369013, -0.003488152624355539, 0.03525675663358916, -0.04327167482460872, -0.03527869668544398, 0.007004702102890869, 0.015533422304779401, 0.006202070371879321, -0.013242846065744248, -0.001511713697151869, -0.0004176404815556222, 0.002522474183100535, -0.014426553997155585, -0.006137643197844401, 0.002599501964813261, 0.009279224348525131, 0.0016410363124837281, 0.017514750517031476, 0.0011275237238269075, 0.010360036734739075, -0.010086673026767823, 0.0037417533510378928, -0.020637103604775556, -0.012253749687596835, -0.0019120802242332468, -0.015197991170012326, 0.02582154339994728, 0.040372476030734586, -0.008759591017316565, 0.007537667642968137, 0.04950905922902398, 0.016714789591048607, 0.0023038860538830233, -0.0005128459598274309, 0.006737077347836007, 0.0009094655787977833, -8.375709605769801e-05, -0.007625429418353389, -0.007423989931910323, -0.008662474046439352], [-0.021014473082769648, -0.00278480655964784, 0.0051333697078548715, -0.014725033138253397, 0.004728118058112769, -0.0203907675131462, -0.0023929538137983522, -0.005092003160772008, 3.653936429679983e-05, 0.005868690941584539, 0.005164305714236457, 0.010551196949309892, -0.007511742203475455, -0.0021644046908276004, -0.0028449174576970866, -0.002821942464891277, 0.002560465287707872, 0.0023246547139690044, 0.0004738847978184818, -0.004383085894302705, -0.007183173736168686, 0.0033781376708293498, 0.005898894981158988, 0.005032602040263703, 0.007404405378670312, 0.003752383029921807, 0.007668486381002299, -0.016447090325889997, 0.013659777554104895, 0.011430538732549648, -0.008487002067619688, -0.002728672029715826, 0.009211428521164682, 0.0005010064139494019, 0.0016453946368515876, 0.008465992599849622, 0.0024324651753667476, 0.0004533203051251008, -0.023342491311246976, -0.0014693552619848703, 0.00221883947588529, -0.01151431865576969, -0.005677414410595567, 0.002730403157982133, 0.006674481298906506, 0.005370698782858419, 0.010878466554648001, -0.011954347996234507, -0.005912583200713836, -0.0009516632585926353, 0.00448655690033021, 0.003288228731090703, -0.010197726446585563, 0.0036393003597969646, 0.009217737697922784, 0.004182320940573994, 0.002331388762964356, -0.0009413069020308624, 0.003968039173648768, -0.02377561523374035, -0.007051285844329437, 0.002595700812089594, -0.008047445133015807, 0.012983066461633486, 0.018040128277759568, 0.0131955143662102, 0.01957853951309354, 0.044269930166935215, 0.033581183995204135, 0.05683178894678631, -0.038396371605579974, -0.0650993760292243, -0.06410995977706442, -0.051273550257970035, -0.024543681525838742, 0.0002292035160450544, -0.00903416369169212, -0.002920929694707234, 0.007964059830391614, 0.02524597083581315, 0.005249475623588491, 0.014697140332816327, 0.011609563069779215, 0.01239928095080016, 0.0033715873071748924, 0.005100561286600078, -0.008780602545541836, -0.002413330373178129, 0.0032954035386180466, 0.0053724391373630555, 0.025718195698876116, 0.034943927362153314, 0.015041328936455975, 0.009652508311101355, 0.05296392469576663, 0.10383924314974793, 0.02119737340514741, -0.12751549497046788, -0.23241946003767336, -0.23725076894953526, -0.15699388191009325, -0.0853898560328117, -0.01095723504392296, 0.06939380594451715, 0.033604536610025014, 0.0018426374028233353, 0.08988624786016237, 0.14159858229755354, 0.06450642710598496, -0.027822459926420382, -0.0007927254308705219, -0.011181122440241099, 0.007398120374162883, 0.001109628335229519, -0.00567026807275328, 0.010197615229220252, 0.019760115950518235, 0.04685611516672, 0.01916777240979386, 0.009793630704071198, -0.006143748186837113, -0.03070141069390834, 0.008343975864166223, -0.0016166872381082917, -0.02527054617479437, -0.11906158650327779, -0.24391544499949144, -0.2436461665337399, -0.10688742126499394, -0.06274200949946168, -0.027841909845134287, 0.07985917185411745, 0.22551915380861698, 0.18293106661550323, 0.24765897110287663, 0.173754738362734, 0.00020454307877537417, -0.02192371366507942, -0.027040350759088966, -0.003101796432061282, -0.000893060543021653, -0.006686046984463896, 0.006099767285963586, -0.004921314593744737, 0.026173626701542073, 0.06324881671347332, 0.0018777500752545204, 0.021281791755527416, -0.01250661324019253, -0.020350849512756217, 0.01095156248043543, -0.11386055061077377, -0.12158860600696103, -0.18143904051174642, -0.25756553022942086, -0.19756120718496814, -0.02258959469785673, 0.07749722349448424, 0.06174038852130148, 0.030250563109261632, 0.05029661755504937, 0.11787208272418695, 0.20191111248206345, 0.13654156228923736, 0.03445835338222779, -0.053032176090504916, -0.006546259135448756, -0.0013109251891189966, 0.002827324603226832, 0.006763457676890986, -0.004431376936875787, 0.020379619463033204, 0.03704028583875119, 0.03503828898272137, -0.03268259759358031, 0.019777814282500382, 0.033114187492792595, 0.02992005410262846, -0.07686770787017379, -0.3236200218136222, -0.3558579864463511, -0.4618661857620257, -0.27436659467147845, -0.0550218000191133, 0.000327247401681766, 0.07602546370977016, -0.010989571535358273, -0.10155486930602352, 0.022909645593087464, -0.016070448860512947, 0.045072372877321645, -0.020718847868237963, -0.02348607260773126, -0.05402245883306779, -0.00028578644349287085, -0.010199716126385235, 0.0015061225974384014, 0.008645935815989297, -0.009147285563931557, 0.0023732181110990218, 0.03984469268247062, 0.11126877664590858, 0.01620291563159934, 0.0979208684472738, -0.059508621697916084, -0.009624744005447864, -0.10037723655669828, -0.2681204302007304, -0.411083045692465, -0.320076875534045, -0.014057470984962558, 0.0952839873807844, -0.07997406971179315, -0.03285951591236318, -0.09318532261231582, -0.10258790606025814, -0.10969612186892114, -0.14506983407107457, -0.06415040653325003, -0.028610025032755507, -0.055204239214949706, -0.03906608086485053, 0.003912744362868622, -0.01745778961732539, -0.006000239529951278, 0.013225183735643627, 0.00736273721642988, -0.007492508785509178, 0.07345036010160699, 0.09027762531990567, 0.013889188492891355, 0.04312290542995311, -0.08951098390653979, 0.036234648767701515, 0.008325409108327788, -0.28066328377391875, -0.4850938390489801, -0.24715426424109055, -0.06706517343300425, 0.016632957538261762, -0.08607348951118667, 0.05556731443407265, -0.0788677447831868, -0.10461316408289092, -0.15149554080436275, -0.15061268029258484, -0.11147860790085466, -0.06449285890515086, -0.09260464111435014, -0.03788473739117166, -0.020557549667795993, -0.008153260936461232, 0.004120690454780309, 0.0029273249472227592, 0.002516127987066133, 0.0021604035703515455, 0.06914885865618099, 0.0411440169373761, 0.02546558192092258, 0.013670495401278876, 0.025613226454287232, 0.07136997763065513, -0.03090183053982338, -0.20512352390826383, -0.39028519427484937, -0.2912067520597256, -0.2539751157378928, -0.000992653423614613, 0.09730421691881458, 0.013028853921056946, 0.04936642907079612, -0.04920219272087131, 0.034908913861071346, 0.016621291239851316, -0.04868655747492403, -0.04322575217321185, -0.04920636763383999, -0.1025125169848293, 0.0015315013968270515, 0.004779415218558324, 0.01302412145438635, 0.02049236849603124, 0.015126154234712861, 0.015873170849664425, 0.03966429176163885, 0.06873969158274552, 0.019786847455949833, 0.12884803163637543, 0.0069840241046500665, -0.006618576619454777, 0.0129361237588221, -0.19321180954834805, -0.21294561207895013, -0.19111012472419148, -0.06977016148922512, 0.1291890696807149, 0.10132306683184003, 0.06236679024141974, -0.005875778622837493, -0.010799162652885991, 0.0420028326746414, 0.03766839718237242, -0.07682487485755557, -0.038402846727350115, -0.0447011020111743, -0.05218580696955704, 0.013780055626315749, -0.0007719891925981403, -0.01042666219858169, 0.006345121026638218, 0.026541248337077123, 0.034653649829588344, 0.05300468055799631, 0.11487768740192848, 0.061588095898873756, 0.14061086861872976, -0.010547733452862218, 0.08582972564002314, 0.1553699659095169, -0.06578427507433132, 0.01034133868121438, 0.11894435319927912, 0.17826533230905486, 0.19316828587686313, 0.196568638141794, 0.008783550630154622, -0.026330160496737726, -0.08175512469918196, -0.0869151587681637, 0.015317968129174655, -0.012886667580854168, 0.047993157456573635, -0.02526873801383142, -0.024063160624248334, -0.009884413777210901, 0.0037031582519145077, -0.011379761655211148, -0.013088663730225684, 0.01795445636735949, 0.03148677923569966, -0.025010605279782862, 0.01675511468760778, 0.037336562228897585, 0.06551569559852757, 0.07465927612384358, 0.09257624321296636, 0.07667632102486852, -0.005550942441585352, 0.012037207179640446, 0.11550609864327613, 0.07606416015651545, 0.10092981975788921, 0.20022099345329053, 0.06823634079794644, -0.025198273448379396, -0.027757590873746733, 0.016374410698599424, 0.08216461060476396, 0.079199040107978, 0.1134087092714954, 0.07896195868553997, 0.015437475878039727, 0.009678761400399716, 0.0042932592295625875, -0.00908298753556817, 0.004807791141954004, 0.0027930058585434758, 0.020274926633910804, -0.024954573662151484, -0.005487616629844457, 0.12786972922787054, -0.022564224064406467, -0.02175227467120786, 0.0047239590390997805, 0.12437288677439755, -0.06582960223812036, -0.06171355327856134, 0.011101949847106846, 0.019489725821787936, -0.023409390323607292, 0.09796666416687452, 0.11932123773695377, 0.038289489861494316, 0.013812188428655055, 0.1134909715447834, 0.023284304180909928, 0.031755911945656086, 0.1969796432569397, 0.1341963036081283, 0.045047880981493815, 0.011323635190103024, 0.005658604526464039, -0.014549894504415944, 0.0002018796124829565, 0.0024394975530066284, 0.0274293393485464, -0.05471085519027012, 0.0569964425237991, 0.04621860384146811, -0.05313155866252374, 0.03907055620318827, -0.018559594958946664, 0.03528359765144517, -0.0023232183421308247, -0.014962974011363492, -0.013855757396255521, 0.012246018019732265, -0.05602474242501353, 0.10725293221515152, 0.06705076495052502, -0.11696478954976389, -0.047268368913166874, -0.021551098220871784, 0.03440977715530364, 0.046239859464196086, 0.14491745497681147, 0.1317969473997655, 0.010438887583628847, -0.0015439629180032922, 0.0022939445196991804, -0.007121125976402329, 0.011932182154030165, 0.006584449464904943, -0.018100961923504043, -0.022780250152255186, 0.02499855234113441, -0.021972050385972625, 0.04784808263878864, 0.036903695613128194, 0.01731565029662213, -0.0988427911494524, -0.04838457186566109, -0.00864763726868406, 0.16976298246759744, 0.10725466206841965, 0.12381875993747019, 0.0350057058092201, 0.01737857520627445, -0.009591943659527482, -0.007654536505695504, 0.02779533186048692, -0.0025416154509077097, 0.00976472948001065, 0.11127197204942646, 0.10364977430460649, -0.013041939157610974, -0.021633939269100358, 0.008143021258431509, -0.0008042560107106366, -0.004310862216424875, 0.0026808911845626194, -0.004295890849881562, -0.011642939994416674, 0.036462506568845005, 0.02074779598163731, 0.04803084900060148, -0.0036434598265610418, -0.07280498045493894, -0.09830997932917818, 0.04922344757671941, -0.03600368439300765, 0.05022844164485739, 0.020561424486052523, 0.014100703026012545, -0.08955444970649537, -0.1332190377979967, 0.09730825841305016, 0.11945832307904204, 0.06170939623685685, -0.02923174139837861, -0.021688736951426594, 0.028578346194812015, 0.05082039919965977, -0.010691324404772677, -0.03464340241780552, -0.0003819897583995846, -0.005209457634197499, 0.0018071164826962839, 0.0026783600655470286, -0.005791453949308533, 0.021389935329258848, 0.11976227915590312, 0.01842349661400225, 0.09156308034947834, -0.003110988805534889, 0.014966841948446167, 0.11537564825590571, 0.07842842850184926, 0.05790169970038416, 0.023275250578396033, 0.0017830143414929544, -0.07669193568502065, -0.04962700001040631, -0.04393265327891499, 0.03749084734417257, 0.08138498808959485, 0.03135691734684138, -0.06076428288261229, -0.05295389546851631, -0.05605817499651942, -0.08057727575742667, -0.03314118318984611, -0.03205203248280219, 0.0022039590119682082, -0.009105953214788076, 0.017367779798066283, 0.010639506181957664, -0.021458157261665646, -0.039023587736081486, -0.02294883256681729, -0.06501616085159724, -0.06556785618170095, 0.06883468535360274, 0.1427635083500795, 0.017836488630552226, 0.10919002656518241, 0.15462353022695063, 0.08482872859956396, -0.0401666811255591, 0.04965904899829207, -0.033373114120293465, -0.08202552830803143, 0.23359013488754674, 0.023684719043256836, -0.03449244067026431, 0.01413519438462168, -0.05815033569316378, -0.04397166695608104, -0.0688819512857338, -0.0051713473326429026, -0.006984218179542896, 0.014107456406962319, -0.006222401283332514, 0.012900159214468647, -0.0020916433978372573, 0.012460477471622813, -0.0970242754296656, -0.0993078822553892, -0.10613282858275463, -0.11775659763697463, -0.04331063394565028, 0.02568660846122126, -0.01182132062965713, 0.08094364554482941, -0.04851687549874779, 0.03620682708112672, -0.0017775473932786592, 0.0649930010063328, 0.09031987754007188, 0.04261257962423656, 0.11000645750682876, 0.04707760682280751, -0.012581521990475231, -0.024926804414371277, -0.14310084330685977, -0.08342322327177136, -0.016961112587167152, 0.01999729237946657, 0.004267573814185988, -0.0008033159857786812, 0.0066610557631267145, -0.008683841533214992, 0.0007710473592325025, 0.015593198734937844, -0.031507181893126485, -0.13624334004150812, -0.0664462797304131, -0.009012442479380973, -0.017398131504200873, -0.008752071331713133, 0.09827570655155728, 0.06211600053373469, 0.06416745287945753, -0.1254520889102781, -0.011301937706848435, 0.032337410494496774, 0.08995294651058613, 0.0051293415204407096, 0.07002245522586964, -0.03829991429753066, -0.10672146935921305, -0.10241368489004987, -0.07713972162974513, -0.09641290762583914, -0.0071606126630851296, -0.018495619685578314, 0.00412075659525587, 0.002272313122658542, 0.012321492945424214, 0.0014638087188034207, -0.0016318371818067774, 0.0224708831751174, -0.022979741031435488, -0.03272306063515681, -0.051003833796349714, -0.026866232540635727, 0.07051341880080897, 0.017527324482812336, 0.049964828188128904, 0.05153936685693983, -0.021610114823753395, -0.06316767231350243, -0.0016934040857838925, 0.022207631003077162, 0.16633557739212093, 0.07549456194547506, 0.04732001103868985, -0.046929556536334155, -0.06658926824222203, -0.04443364488180905, -0.024968625644187992, -0.07206132242895383, -0.016619937339672892, -0.023077130001617475, -0.010084577040715923, 0.006219907425141823, 0.0038106518395887214, -0.009181127470238819, -0.021348058198756, 0.014475515016514857, 0.0025554439765416432, 0.02444712289652224, -0.016410348193169094, -0.11116468756446694, -0.09469568217568111, -0.05421374774983289, -0.050369782648030235, 0.015311432754113527, -0.10911687991567595, -0.03530132783017934, -0.025858680564661382, -0.029222852072416896, -0.04783782174367085, -0.05833879693076905, -0.06509377251679328, -0.038582670609036925, -0.03238408323906431, 0.0595631533969929, -0.018388132004570235, -0.09446583396926034, -0.018920506619954838, 0.014239149473955114, 0.005802610179462956, -0.016574072236154768, 0.013370724455092532, 0.00461263049836515, -0.0010525434243265973, 0.002853449138128133, -0.014077173333232152, 0.017862846564259734, -0.04392717100759727, -0.08276123732945317, -0.06730460960582688, -0.09065514151009904, -0.052100308198014096, 0.01108565486331739, 0.0855729389689009, 0.02344194574344679, -0.012852537591720866, -0.0019527477516504065, -0.046676834635245405, -0.17458685148188366, -0.032177084246768, 0.034037752645324014, 0.05152712061561989, 0.0530333754575029, -0.047449178521126234, -0.10256741169534367, -0.04873445030758295, -0.005057791098420006, -0.012312299841373416, 6.568397245180924e-05, 0.008812923703697568, 0.0011047715303292684, -0.010118500052546884, 0.002978567908874861, -0.012844958136688466, -0.01677743800226451, -0.07417688983386642, -0.13270508247197624, -0.053517836105291504, 0.01367028037340203, -0.07368406783634678, -0.043425145879888015, -0.038013310922998166, -0.09076302265981084, -0.02158184901097899, -0.03609199338564532, -0.024307313149500704, -0.04796289976400289, -0.021279511840013206, 0.03932202544795499, 0.04819711373746668, 0.059825163561452975, 0.002542051560928211, -0.042012613390056255, -0.04067011510341741, 0.012463682646369188, -0.01921052598035675, 0.003066614367611055, 0.004275714361165046, 0.007193078146273732, 0.008905725251967004, 0.0037393484000563804, 0.00186011187616096, -0.022307818343625472, -0.08233428064771901, -0.14208583928529683, -0.04039437405865306, 0.005310549705506081, -0.06619406346052813, -0.05017062618263208, -0.02348079201434283, 0.022737848709076015, -0.049918393208568786, -0.047744108941776234, -0.10087831968061448, 0.007250198440049297, -0.06469660956307009, -0.07801094460901066, -0.10382183593603687, -0.09463896589257688, -0.016522314195516415, 0.003401641444665827, -0.0020748306153435263, -0.0027192181256429503, 0.017265646634213417, -0.004823958656515648, -0.005101777528114563, -0.0022011555387658993, 0.01922152672523712, -0.01868453746270277, 0.002635825845558119, -0.0011678840657772152, -0.019594504582774393, -0.022946223074642055, -0.0026780275622497237, 0.00011125642032337243, -0.00547423077797622, -0.03623344451615872, -0.060365670115720825, -0.05847912984170169, -0.1290224120360716, -0.16605525875971514, -0.06378666825572919, -0.03212218204714204, -0.10575423523757663, -0.08034092822539657, -0.11562407967687155, -0.11932589709405142, -0.012785969416131427, 0.0026777258733910294, 0.002304822791617956, 0.005847706709194566, -0.004590238385957477, 0.00556093003644518, 0.01132791690921417, -0.004601776787678061, -0.00044165367209698074, 0.012560214308439385, -0.006681610287244281, -0.0020349437456082396, 0.005152929226564065, -0.020275839271177938, -0.008562370249708162, 0.0007040057921270014, -0.0033243863803471903, 0.006670063705543821, -0.02922975094375095, -0.02832938519816489, -0.027540745828237626, -0.017805549306687027, 8.218042605623023e-05, -0.028382310288582888, -0.02014253637524526, -0.012075534178359137, -0.01284941746475271, -0.0015571180865331965, 0.010893990755458943, 0.01644149557875872, 0.005729217357524221, 0.0006472357572336165, 0.013053435286780154, 0.0037131112228457426], [0.003076372796842733, 0.011879560419639995, -0.00817174660139438, 0.005594437076666832, 0.008732718655464608, -0.005722727608246058, 0.008134782894931858, 0.015183694174959456, 0.008118820733389535, 0.014135594866494327, 0.0061306654401746255, 0.0018006478064468902, 0.011336580530881164, -0.007488849830465269, 0.005482563662241719, -0.006656542315688014, 0.0005247219050565235, 0.006556785202122048, 0.0009108731252163719, 0.00751939552815943, -0.003309829459796797, 0.011044216312210314, 0.0010160485192401585, -0.008755486562310046, 0.0086235304459841, -0.010497224095355475, 0.014128191823178196, 0.0007265931334617162, 0.019710412690466247, -0.005677965974507385, 0.0026037773787917795, -0.0028351072686131893, 0.0016199665353001107, -0.001185620009867051, -0.004686572206091676, -0.00504145609715395, 0.006530715703067341, -0.0015381597241846542, -0.008757550990419033, -0.01049716683611276, -0.005048551633969721, -0.01910555384307205, 0.006531983957033008, 0.00405746785170403, -0.003049871575714208, 0.018481325440550787, -0.0077452519949474516, -0.0027163072164844773, -0.0029897688466578158, 0.012826658057937696, 0.002252076016802645, 0.0063370376115204265, -0.0017382836797064627, -0.003212453734660376, 0.004272531461343629, 0.001284628213848073, -0.005585512702244842, -0.009176297516637752, 0.013615337408315751, 0.004246724947629269, -0.004923456706496312, 0.0038654592748974697, 0.00928769253656365, 0.00967634621583959, -0.008209459831892115, 0.0016035424440939703, -0.014913754901869882, -0.007893447811434487, -0.0016284346426218624, -0.0012739002006437804, -0.002062620378355441, -0.010265247931973035, -0.00935788308019222, -0.0035959967432419157, -0.0012947152445589316, -0.012881582904198583, -0.006283453137689903, -0.003720024983842587, -0.02071332341906171, 0.005850040255423995, -0.0010665602214435573, 0.0028868332923830276, -0.002483517146530894, -0.006578541575144995, -0.014983561914195101, -0.009385149153885034, -0.002853907693715685, 0.01082091652324209, -0.0043621846131532555, -0.006584515904825588, 0.006260086359494842, -0.0016190926296921846, -0.009746761418528519, 0.012206187882847337, 0.005320442892697163, 0.008169772223789971, 0.016556207246263714, -0.0024748630874751386, 0.004547703212885645, -0.011219899836954853, -0.007724583282348964, -0.0034482687552538733, 0.009900800874267906, -0.0030084347222005354, -0.004033987238072048, -0.00359888906470824, 0.0030793854600801827, -0.0034706203026519493, 0.015449840097709461, 0.0015049638312680926, 0.011592698847865802, 0.0041197447309027045, 0.0007005785059963612, 0.0016400057041683442, 0.002916155330861535, -0.007477775099176771, -0.0039449115649895575, -0.0028051435259953536, -0.0023844353975984865, 0.007471072115133183, -0.0011516000255664097, -0.008586065759009623, -0.002744774894246382, 0.00832010302937787, -0.009575737440967158, -0.011234220488804738, 0.0007457152346987302, 0.003385135615771108, -0.0035363742971547315, -0.004700315733263296, -0.008572328614973257, -0.0042707951374542545, -0.01689899286118977, -0.0016997297132878108, 0.018486870356266467, 0.001276112228757133, -0.016945899891520087, -0.008528960129340497, -0.010365092491693177, 0.009618394336217174, -0.012854754814935861, -0.0010741150750137268, 0.011973191057916296, -0.006564315694084218, 0.008668055748362508, -0.00036399255526942814, 0.01153301889443556, -0.017831056518153, -0.004480391713819221, -0.0036784429358157136, 0.006831177065924904, -0.004659976193145789, 0.01885658756102175, -0.011316552835656973, 0.009795719542214672, -0.0019838995055811194, 0.007249541490644928, -0.00279712674814973, 0.008090640674503097, -0.0037963309463957683, -0.007420814728738574, -0.00520770737345581, 0.008650938220492083, -0.009392874911490653, 0.0009095048861391516, 0.00410190260822808, -0.0002226503463059829, -0.013643263685016768, 0.0049090599773859425, 0.0012059853195107828, -0.005395548613945039, 0.006973600352821663, 0.0032634607840485346, -0.0014945793222957678, -0.013531502226446425, 0.007137756847751982, -0.00599265951205124, 0.004435888607446822, -0.005757760480361744, -0.011278393985271787, 0.004316694000558065, 0.0009472045467022443, -0.016832394253834825, -0.00751264199668953, -0.002586210113602139, -0.001959458552114309, 0.0007622909180798005, 0.0068678450996632065, -0.0034070241994274522, -0.002171952756490261, 0.0059533658280745754, -0.0031169619686597103, 0.0003097228526650694, 0.005891157410638783, -0.004179215880511761, 0.006943832063826015, -0.005899779838347596, 0.003441892276107321, -0.0025914175973618396, -0.0052676443327279825, -0.0044747300009278, 0.005343772094823608, -0.0028260523356209515, 0.001588196138703859, -0.011205831297672319, -0.008985269044521666, 0.00570228005763969, -0.005758625304372616, -0.013242836079812918, -0.01693337319133512, -0.003334003789395452, -0.0006350372344329203, -0.012187129321798874, -0.017077185072526924, 0.003132428758074099, -0.01868856329803652, -0.004527918109478866, 0.003749976711582722, -0.018131787262877286, -0.002955968486554769, -0.004336154874687178, -0.013017739678941546, 0.000859877677931932, -0.0006521380913179991, -0.009646342282332599, -0.007462821090781108, 0.008467860734401271, 0.004392353847476528, -0.01764927572898412, -0.009289882646335705, -0.010802472953535163, -0.0043008714462355125, -0.002201023461231225, 0.0002575866683979193, -0.0037118587876469687, 0.0031429341215412315, 0.0061768666626734, -0.0053685271605476235, -0.008007182037208785, 0.0018816535731787378, -0.010427309895569099, -0.016225748674774464, -0.006969732596058249, -0.010109228057536345, -0.006265775533061677, 0.0029423171101784613, -0.004003361697869931, -0.007242027550383272, 0.0033237820735695055, -0.011294637623539274, -0.005698445322787145, 0.0021686716136424806, 0.0034357926957643064, 0.0068177814312479455, 0.004072399006530445, -0.019866258049555035, 0.0014361461119949538, -0.0004807720980310462, 0.0010401690308544467, -0.006012028176011736, 0.003977871925222923, -0.005717445240818246, -0.007728507672594265, -0.013886065282788426, 0.011198554847495821, 2.6624412349424603e-05, 0.0024186940257035763, -0.007931973769617764, -0.0035593060939803564, 0.0022451967027503914, -0.0037905415347753426, 0.00514926387137802, -0.01121628121927602, 0.01041133572804368, -0.0022440200916412534, 0.001741873951375864, -0.007133354035662691, 0.006865511205384583, 0.0031332507905031375, 0.003855271605582084, 0.019887792117672703, 0.0020992409537619774, 0.006286063573857018, 0.01668796638636288, 0.008802817029638395, 0.010892465294260682, 0.0022418608196542616, 0.003131248813776553, 0.011202854101184531, -0.005508996402115464, -0.0011671555152168666, -0.006454118858055359, 0.0003024780471896345, -0.008385699079705643, 0.010449979068238753, -0.014592655594967899, -0.010609136874332027, -0.007605608560563445, -0.022199771643287725, -0.006061139321446202, -0.0058816861711680915, 0.0051916834097793995, 0.008542603355774246, -0.006337714582590442, 0.004375706036825049, 0.00515603651273752, 0.0022984000018298574, -0.0009757407577516004, -0.001670300143371473, -0.005326000805292481, 0.002368584989478109, -0.0015136213444112132, 0.0072704679602523855, -0.006838419801348618, -0.007652937834216077, -0.012495322655345495, -0.017830477885340836, -0.010288623477467432, -0.011282528572235575, 0.010828073925194593, -0.00580377273444984, -0.012626489554462045, -0.02113384451034771, 0.0035105063078859555, 0.013606899417739557, -0.009767969686416184, 0.0014624555958615856, -0.0062622497590711715, -0.004225216438588869, 0.004662787472226984, -0.01228948077602149, 0.0017540003945847019, -0.00498796586263571, 0.004207822743688417, -0.006061728505607124, 0.004449650746135944, -0.000642424342593298, -0.007699840387188744, 0.002981754778835342, 0.0027163520212703206, -0.0018403412328151512, -0.0015207842368707084, 0.002636439896738746, -0.002283605773990791, -0.0003230999422008463, 0.0004237864083805902, 0.0005589778333025733, -0.010375525596580382, -0.007906181679357254, -0.009151174953465778, -0.016585296556750666, -0.007553189582459929, -0.01193334624381846, -0.0025872204118582783, -0.005952701511508075, -0.0016989006223018667, -0.004812329507597244, 0.0024285053954186788, -0.0023152342860621356, -0.002546735366975447, -0.00583399484463471, 0.006611188208686509, 0.001336609117225116, -0.0007356340649947548, -0.0072168450236777945, 0.012026230245729696, -0.00419438446691274, -0.0016938467062174226, 0.008468052216357035, 0.000855114681122094, 0.004901561283178829, -0.009952037775644035, -0.007178202595882722, 0.00019001691917197483, -0.01635033717693123, -0.01738541508195571, -0.003423854042834813, -0.01028091595907863, -0.01647229270671247, -0.014992073903751249, -0.00870710119804413, -0.024742764852663975, -0.02257920725812238, -0.0077693200694215975, -0.003850408790177811, -0.0008399517364657356, -0.004224830081407811, -0.006424863828993869, 0.01495257065575147, 0.013297784377678082, -0.0012827227834618777, -0.002293334620911276, 0.006476228911727893, 0.00022555765995702285, 0.0037377188580254984, 0.0018594041959755832, 0.01562658921861668, 0.00583780659679082, -0.01626588774023607, 0.004933613809130045, -0.0119408931517918, -0.0061860829992321596, -0.009253720028954514, -0.02030608170711104, -0.008330579311307101, -0.004333223055858257, -0.006001928983120037, -0.006619051917336274, -0.011821541706112791, -0.011929008809815138, -0.010742801627621009, -0.019742349008639012, -0.003189780412593568, 0.0021294128292991673, 0.010172317825113955, -0.005512888184527863, 0.011903199727569534, 0.007133124856503884, -0.004558909136234572, -0.001381006990536874, -0.0011019511175773644, -0.003264879639126844, 0.006412966244021616, -0.002463814759340261, 0.00489257745503259, 0.006866735600932606, 0.003993093675050071, -0.006540356091693416, 0.004741390229566427, 0.0015299497359650275, -0.00427332649365488, -0.0033631747739211425, -0.007626820908546696, 0.0033461227318873797, -0.010210174321885252, 0.00012369535672971757, -0.007143473647355799, -8.656821224509036e-05, -0.003714731136802801, -0.009302160448795121, 0.002422505544959261, -0.003711043931625784, 0.013137644339333478, -0.008716214085430073, 0.005633104955512168, 0.009875648513648774, -0.003944115034834865, 0.0019451559159019264, -0.015609255072088185, 0.018975496595089587, 0.00485266377314448, -1.7435452552019884e-05, 0.006925312539826248, -0.008109573205976151, 0.004316269290739948, 0.005224908585088331, -0.00021664528179571137, -0.007454881105506724, -0.007201030790352603, -0.009804764487555575, -0.003299658969196749, -0.0008982230993053764, -0.01034955553312748, -0.020130810241289605, 0.002482619224527674, 0.0054466256374366626, -0.013411987606319346, -0.0032846461982678214, 0.01715814180217671, -0.004562344322975512, -0.008276577753589094, 0.0036819961330172833, 0.0014572278283502883, 0.0011337869974893705, -0.010139751392002561, -0.009596999544837777, -0.004653375691666541, 0.00796608470358466, 0.0013782630307330988, -0.0022656144015065494, -0.008569525391184496, -0.0257334880268952, 0.006307613536354097, -0.004049550286286032, -0.00021333010647729705, -0.007493544026132077, -0.030354543241903516, -0.014176469431096447, 0.010509027439888751, -0.00993819152291314, 0.0038965221530280897, -0.009606447917279107, 0.003918519014492776, -0.005330068346014826, 0.008383890132460691, 0.0053822584421491446, -0.018244819864693226, -0.01442460977535546, -0.005022118726838545, 1.446386301035313e-05, 0.007924194143582652, 0.008106653117002729, -0.010862026648495183, 0.0019318914836243119, 0.00838041925453355, 0.0015559573607861472, 0.014398654494712728, 0.01342142536893972, -0.008179558266910242, -0.014274820913839926, -0.010452379143111376, 0.009529695878111366, -0.014955433949351117, 0.003413010387941363, 0.00016284908573882485, -0.005389996993258631, 0.0009129268083428541, 0.0005645585135334163, 0.0005768476098538391, -0.013201851361982321, -0.004500868511906004, -0.00025677310639154067, 0.00830382192598923, -0.019895660360514485, -0.011238411098526038, 0.005456020736003201, -0.014937772763242804, -0.0016727119581011597, -0.01169127653730629, -0.0035140355410065317, 0.003673611243388298, 0.0007311583583773954, 0.005640446343130725, 0.009884291258185872, -0.006733140686916111, 0.0073406638445883245, 0.0016755980840396812, 0.003503782469429886, 7.554268504976217e-05, 0.001026349155109554, 0.0067115488808569615, -0.0031930606681244136, -0.009462645660940438, 0.001068335282723489, 0.003213561078421078, -0.004267273074756403, -0.0031324999089421632, -0.00214272312206266, -0.005400782951784229, -0.01806540822975987, -0.00759334043199399, 0.0079439705968856, 0.007480828742368837, 0.0027256282360643112, -0.005956245637021082, 0.008211807816703656, 0.005740950040350752, -0.004071229502680387, 0.0025340186485978784, -0.0027467487178222186, -0.013031551922645185, -0.007477324609871475, -0.0027267292588616992, 0.0161796439404466, 0.0022891881715342783, -0.005583334281449685, -0.012481746484254872, -0.004777940072526853, 0.009638515976553625, 0.0014379378184193022, -0.0012571622734324798, -0.0006493354291986709, 0.0006886280925459243, -9.568786692244858e-05, -0.011489149222355234, -0.017336677698976996, -0.0013922654421129558, -0.01025685089505151, -0.01796057532494893, 0.00023775023110285024, -0.0012018672226291696, 0.006563783668708118, 0.0006739761519683494, 0.0037805297321794403, 0.014325210916300624, -0.0027647513743835703, 0.012264212198236304, -0.0006329365858055942, 0.004422099856845707, 0.009465712620557702, -0.00021674486619735226, 0.01761800405140523, -0.0045656167555215895, -0.005932234241336676, -0.007926865621395114, 0.014249655800694691, 0.004863086919976451, 0.0028037403079944107, 0.0052753041249342155, -0.007749057184390593, -0.0074348254259641745, 0.0020190180986033703, -0.006967663965926456, -0.023771334173542123, -0.0156843819963327, -0.010308480531721356, -0.008212252366770938, -0.005890823154362789, -0.0027669767969676494, -0.0023887961790645677, -0.013008951566034054, -0.0026315586428072328, -0.01822647943810894, 0.006945360048838506, -0.005689884415211397, -0.004104871741972327, 0.004253608484473646, -0.0034032527712570394, 0.00048675826214431597, 0.007279682518736452, 0.008759294908110456, 0.01050225518826607, -0.0005807999577698182, -0.010362109089157669, -0.0002719351100796664, -0.004558644387381418, -0.011016033350234159, -0.02314393906397359, 0.0087494952594868, -0.008335059615945325, -0.0005621320311420924, 0.004799337965686443, -0.010695648178975354, -0.00160834952497832, -0.017676693694599215, 0.004090253345151414, -0.014606840111538233, 0.00013849688478692856, 0.0007834391734364343, 0.010272165003587666, -0.018845246722561694, -0.0009123653723759241, -0.012774305472602237, -0.006793131225491609, 0.007439053587860032, 0.0030229709066263715, -0.004924181727634976, 0.004669524029002385, -0.004683826080908767, -0.0024450260939735988, -0.0011661759821011404, 0.010040591910792323, -0.0005077169412689388, -0.012075029653385482, -0.010402196229145103, -0.00295140997480507, -0.010071083708022455, -0.006635237138973117, -0.01478624682170023, -0.003988050887151444, -0.013531924496285583, -0.013400080672376403, 0.011075207850985048, -0.0141320108823775, -0.012065439862546053, -0.003945553336118987, 0.004980279295942199, 0.00825133051265425, -0.005662010081790339, -0.016005916709897892, 0.003247183088558296, -5.512713399324663e-05, -0.0005324305325558313, 0.004506006395788081, 0.0005253067307590474, -0.006114042459366689, 0.006062405210864658, -0.008144116069596386, 0.013431680195612302, 0.003799215101420781, -0.003138943781593258, -0.0005343116318533508, -0.000807310710369034, -0.00977356778787917, -0.016978371368741373, -0.0033177934597670216, 0.002009390434310029, 0.004819631119508866, -0.006037699214301153, -0.01226313569308206, 0.0042215372892952865, -0.001604227237905475, -0.01064100138683043, -0.00045220906377431284, 0.010643444181458793, -0.005181227417483471, -0.0009267858678478093, 0.004966408536387019, 0.004435778450189592, -0.0029204392441283525, -0.0034064275636157943, 0.002004821309038168, -0.0038127275308325547, 0.00776550823270407, -0.007372449876669086, 0.007074211434119627, -0.006999586008642132, 0.007803505983538676, 0.004515552944124038, 0.0009994870350488567, 0.0070610834497165246, 0.01752852655212607, 0.0025392654893583626, 0.004349517438519528, -0.0010815425487733536, 1.2046765840321054e-05, -0.0034251765144561654, -0.004908720372326141, -0.007486601437471201, 0.0016224718012846228, -0.014438121703459726, 0.0030314475262070177, -0.0014752706065099825, 0.0033245591826027124, 0.014771313795628292, -0.008740184735244265, -0.009268576948086844, 0.0038519117634297803, -0.0008057696198771558, -0.00162741733476017, 0.009556890105424239, 0.00111054442769357, 0.00512220121569096, 0.0033215024560692722, -0.0011953997549319247, 0.006874000782651183, 0.007860780673025855, 0.005793521056578882, 0.0028393128795872902, -0.001677036188075752, -0.004316039720895368, -0.013069353835169216, -0.0021485432126556766, 0.005153824902893161, -0.005258268484410539, 0.011565032487336646, 0.0011817109623639746, -0.001602900371024279, -0.016409724496707672, -0.006244567067565213, 0.011748758585003672, -0.0021934637430341885, -0.006291072914401672, -0.006150603672634176, -0.009135476467005299, 0.0005962850576736251, -0.003554309427123767, 0.004232868331819793, 0.00010044566813014266, 0.005713326421756546, -0.007758298322598549, 0.0006760565209303097, -0.0014259620332706488, -0.0042192995164740945, -0.00574146103210556, 0.01426366565404069, -0.0003033955485042425, -0.009699565259162586, -0.011114793900285356, -0.01688064424142417, -0.007226026602987375, 0.01142201275142409, -0.005943858561741069, 0.0005245096853522559, -0.001004852413162865, -0.016343976634257306, -0.010175755532529564, 0.0003935788387476153, 0.0019008059912683898, 0.0034198214932610518, 0.003744332964924379, -0.011260595163064045, 0.0003086353507635623, 0.01160083238838671], [-0.005413215105921513, -0.002304697175351841, 0.014782334651872807, 0.0004890633631885285, -0.02377463718961187, 0.008121937159962754, -0.007412681394964253, -0.005220438329011024, -0.010514311071081651, -0.009215571572316183, -0.0029562681314340743, -0.0052438032364967605, -0.0024913849494930178, 0.0022890248948645745, 0.004490248223977877, -0.005199517021162308, -0.011120954198069742, 0.015530423816129976, -0.0006607176614173697, -0.004456562615339144, 0.005573263687605728, 0.004719629653240426, 0.0033393674184890223, 0.009965965625229485, 0.008929641387548705, -0.006155236411852449, -0.0061116189503757695, 0.0038361025278986424, -0.0008272292811655594, -0.01139580230048412, 0.007757861467677187, -0.0007779443446214053, -0.00037509075051746617, -0.0006413786062495207, -0.015999943242725773, 0.00601862352077797, -0.005515444151465892, 0.010867074488654644, -0.010941606428242035, 0.0023316292340597126, 0.008779613820532018, 0.013951390864960085, 0.0026551474895524967, 0.003790663537714886, 0.006512472623201109, -0.0008253285769027726, -0.0036685424132695396, -0.003950378314856013, 0.006096594493291703, -0.010909390001489376, -0.0014870280365952262, -0.009497543930771513, -0.0069616712435506154, 0.011874933039244064, 0.007606794366902082, -0.016361375577450796, -0.00221961502501066, 0.008293948744492139, 0.010255210619056591, 0.0078109578431157164, -0.00390527158404846, 0.0018289735956622177, 0.0020076119371400213, 0.0025093850381914507, 0.013611568770138027, 0.005129750322486346, 0.005458120483582583, -0.016988156680864244, 0.00744838751572893, 0.002294782523623816, -0.009412523876993734, -0.0010567882332848126, 0.0014371974052118247, 0.0092094243261641, 0.012362697423527531, -0.0014837998370951162, 0.005040495817085719, 0.00029842379250760194, 0.003104315378899724, 0.00764347250901393, 0.003391613970251067, 0.007305706478711762, 0.0020771019932784435, 0.00298298549224144, -0.0027645191499452025, -0.01443516409039674, -0.011322199962805386, -0.007241308398535382, 0.0024930850993462217, 0.0031587228201616882, 0.0030217996873370596, -0.010841824441623637, -0.012194129648882586, 0.0025295956393311825, -0.00959307082457138, 0.004001934817798866, 0.009152046757073385, -0.010520887984910592, 0.0018585185314248746, -0.004732818477833808, 0.008232236776665144, 0.010255119809902605, 0.00528876024693193, 0.009397140887556728, -0.016514018278257648, 0.010365583257391797, 0.00975432655907767, 0.004379560314087784, 0.000741901055124296, 0.004582465912199274, -0.004056602760763425, 0.007913518923859152, 0.003783818315720137, -0.00466031926290493, 0.0028342449064956117, 0.011933084880628268, 0.004965999878105088, 0.0023841231010241284, -0.01333297385886254, -0.002897823726162736, -0.0047320071129892255, 0.0062465781609370215, -0.012568198519696197, 0.002518696408277014, 0.0096442122660292, 0.010820116778569443, -0.0027430394550788627, 0.004328521422889406, 0.005968318193531633, 0.001469015914490038, -0.013169895332991965, -0.0017347883954019834, -0.011566167613141007, 0.000936335034704901, 0.003383341647793891, -0.0025074169523793734, 0.010194586452278998, 0.007492390600658226, 0.006533783340553608, -0.005302749335269811, -0.005705424326148059, 0.008936552671673566, 0.004181340398032783, -0.008965388707943629, 0.007164801559278372, 0.014991792373109861, 0.005812022752346333, 0.005606718387272985, 0.0009287198959244204, -0.005142224630094555, -0.0014633308047681257, -0.0007949404924985134, -0.0035856409966889755, -0.0070420946584267355, -0.0009468166755816155, -0.0038491421999087235, 0.005111018101829572, -0.0018984042035873052, -0.01381981556082492, 0.00413741176022198, 0.0012408737742638269, 0.008197386467578097, 0.010821951673465302, 0.009409093153674865, 0.00683262982380696, -0.012703301184515391, 0.005306113156137772, -0.006713216345149737, 0.006846443289108838, -0.0035046600870980897, -0.006303681009858142, 0.0008068422615457347, 0.0010085355881151272, -0.013555812295068291, -0.0033472108037483827, 0.002510484806987673, -0.007788992043190972, 0.00929597242118326, -0.0014728610576900912, 0.005767550504514484, -0.00874346670106948, -0.0046938682233214684, -0.011000639982287423, -0.0013056866043500454, -0.00038213976355842534, -0.006246297309675286, 0.011707603331100946, 0.007868422229533453, 0.007889250313706521, 0.0029988532346206364, 0.005443959723371841, -0.008694939622077793, 0.004212113207169496, 0.010570661618633152, -0.011600717222328612, -0.007341645154176173, -0.01653939193744817, 0.0019876279272279217, 0.0017821854059657987, -0.005473434718063011, 0.00467797081392771, -0.0009824174520963887, 0.0004538891671104052, -0.004451415970543438, -0.00960000774926923, 0.005562793806509672, 0.0016993168635639987, -0.0019894173730177537, 0.006589829276462064, 0.0025162686380457277, -0.0004387014570274708, -0.002700849630858863, 0.005799196501807323, -0.013154258005431404, 0.0006596884840642294, -0.0018962648593155522, -0.01150222718919953, 0.008695977729380355, 0.016470091183792005, 0.00512282400223693, -0.009655364996331527, -0.003658484423212326, -0.003626658295499175, -0.01242658430649511, -0.007665496178260166, 0.006690652042846425, 0.016035977948737366, -0.002347546362846517, 0.011360921645158558, -0.003671982310204643, 0.0017487533345577962, -0.006903631556796468, 0.0011211504850379055, 0.013054842893869227, 0.0027223719828373192, -0.010881024502178907, 0.002742592830270919, 0.0016408804115028198, 0.001953810185153038, 0.005788631399873509, 0.010775738137332234, -0.0025069526039224912, 0.00482128606542834, -0.0005122606708243962, 0.009132053505494741, -0.02414204007851893, -0.0005985765071131226, 0.01026911356423154, 0.004784311859295321, 0.014813546083119673, -0.008633282625574779, -0.00048579629299044027, -0.0020326849546007577, -0.007250957835522558, 0.0016238629520305972, 0.006763164450988068, 0.00241375204892958, 0.002740538687104261, 0.019625420340718985, 0.0140477717666428, 0.010958571571824297, -0.0011788202262922685, -0.0073259048720482845, 0.018965299148555315, -0.011628660314540401, 0.00012055612680340453, 0.007563571969159755, -0.016108806669434716, -0.007751210661721226, 0.01430554861937988, 0.01676786024739848, -0.005614048994425072, -0.01135844195707557, -0.002250104738294501, -0.0013944101387068648, 0.0060029783938051395, -0.015547579621800795, -0.003642889785649289, 0.004700603536574817, 0.0034767760301256576, 0.0025230496993377516, -0.0029097643398028968, -0.014421728816177577, -0.0025772710327489714, 0.004755639962899125, -0.0015460636967344343, 0.004488405022177409, -0.0012928022550461255, 0.001030026447599888, 0.023494743472786107, -0.01160076096181991, 0.00987483258750095, -0.006798778634152667, -0.0027119936228922046, 0.008010311156798325, -0.0060467848917870335, 0.00019321500333354375, -0.004004545698363917, 0.009575474703222423, -0.0021307840781798395, 0.006258698783925267, 0.0055477974424434, 0.005912422957988216, -0.010149231887015877, 0.005180869979140042, 0.007230633768329449, -0.012254604994005623, -0.0004366316791497852, 0.008556193060202683, -0.00744183020668436, 0.007409704036159881, -0.0038830626621517246, -0.01574218109159121, -0.0069161120537396354, -0.002583967178676331, 0.015591119279862157, -0.001549867246782579, -0.010388692081389338, 0.0011418984194810585, 0.01025093092991777, 0.014019394839408691, 0.00140071660340873, -0.01174252276647171, 0.00026548691123709647, 0.0032424950566340817, -0.008484406450543084, 0.008397079872452052, 0.0014712055866507741, 0.008066804747600735, -0.003486442506153098, -0.012982066006414167, 0.012101727412955711, 0.010054484071311237, -0.002508986120416206, 0.0008511745780731133, 0.003089826819601874, -0.006060727784886394, -0.005454585665556198, 0.004754981148103173, -0.005446203179201015, -0.009543577660389442, -0.007309336719182779, 0.005997477419025814, -0.017046323866259566, -0.013121734874760862, -0.0060202123628796105, 0.0011117828861137147, 0.001481130454935214, -0.00083862668346692, 0.005418498178539716, -0.00018780515691287279, -0.0005036109913255474, 0.00573769029611669, -0.004096927981102221, 4.189839492053938e-05, -0.0029604777712928074, 0.003919111099462691, -0.002870200909260451, 0.0050762166440944285, -0.0048789218716322556, -0.02347565843693125, -0.010187374670089552, -0.0010533915162138853, -0.00023749363964898658, 0.0040114928169917245, 0.0129046307155543, 0.0009413624203479698, -0.008226846080944039, -0.004328879348319701, -0.020119881814727306, 0.0001835844947905092, 0.0072603699959435525, 0.003993335480271613, -0.003186093320796931, 0.004274010929903968, -0.0065782913233964, 0.01586668160568425, -0.019257110207709874, -0.001179250696003017, -0.0009127922452806959, -0.0012170449313891889, -0.00065672264710811, -0.005126457972326823, 0.005076598255283935, 0.0013100861892788693, 0.0008782825131852188, -0.009281405427041332, -0.008310451484897721, 0.009187223586118131, -0.006157435007384904, -0.014406711845996387, -0.005088209090576859, -0.0007696906707467594, 0.008891576737443929, -0.0021032168128056164, 0.009326771924402715, -0.0046367686126647335, -0.01699048263782903, -0.001972246441307015, -0.003584060349318178, 0.005611240571382132, -0.0006820411767999957, 0.004713421295506775, -0.01252417165803525, 0.00019385319310446828, 0.0014036719786420363, 0.012169726584087314, 0.005725163387929647, 0.0035351206012677245, 0.0026242717717681516, 0.0012538076476113706, -0.014810522842971722, -0.0013123018227380997, -0.0031300873535801774, -0.0023631106937093468, 0.014334619021200794, 0.014681678051642921, 0.0027913571883607918, -0.0027516975007980983, 0.005222040520272404, -0.006029539285159685, -0.001267298461205141, 0.02003964269151541, 0.006927267823858893, -0.00025956609584592096, -0.010776624538142179, 0.003233378674375264, -0.0035165803326375066, 0.00910604739648183, 0.0155710813547494, 0.007184542933236139, 0.0028977939717059653, 0.010328962939653467, -0.001672670475584395, 0.012402478045381086, 0.00431719269293139, -0.0030712460217268275, 0.0002554060139833073, 0.0022245882080207087, 0.01071782036973897, 0.0009598178162514378, 0.002238722707753133, 0.008827999347634357, -0.002800130106373494, -0.010758125854960847, -0.005208571452463437, 0.005217458535787805, 0.009915464023433193, -0.004183855715945788, 0.006943356858780686, -0.01710760994176203, 0.004017253573429072, 0.0016160521347170686, 0.005007071612010106, -0.0035069169074135324, 0.006417772933989191, 0.002765309943343737, -0.008147556624381606, -0.0018171784844908802, 0.014016161297286786, 0.012818186574438437, 0.012763850051709992, -0.004722379892737336, -0.004480560861573925, 0.011068953943509303, 0.0010772364265217186, -0.005860489062958865, 0.001533068732078746, 0.006760432380574619, 0.004095844805499325, 0.007407183412741247, 0.018539423493003585, 1.9682997991065198e-07, 0.009433180802689305, -0.010263176090883123, 0.0005598077927112002, -0.011744585691469196, -0.008367756375813065, -0.00991153917300297, -0.003994890519422215, -0.005191514623503976, 0.0001855237589782581, 0.00034927896193811636, 0.00894105999070771, -0.011094786377053995, -0.003102643130708621, 0.002931251317122856, 0.01134210874552954, 0.0017072525385689174, 0.011243403051019922, -0.0015525042331209352, 0.0020699616359808005, 0.002020829000568022, -0.009565978042259261, -0.01226274949497232, -0.007931430482044432, -0.020000314328538302, 0.0017935315767083984, 0.0007180798915990322, 0.0040927830155757985, 0.006424943806813195, -0.017411966198086555, 0.006572054266150511, -0.006675506037588033, 0.007558414758694324, -0.0014716494291147559, -0.0002509823108282841, -0.009268445040495683, -4.577621671474372e-05, -0.011501902995642407, 0.0014140382606086421, 0.0014832186648871812, -0.007855146209646871, 0.016119976996335633, 0.0032755179067951398, 0.012018913820152875, 0.001606844582925577, 0.010937009733842911, 0.016850136182922432, -0.00652590723979875, -0.007161172386587379, -0.007289982401732122, -0.003296600786510005, -0.002578790814324883, 0.002046792403473616, 0.00660508042840529, -0.01585448104608887, 0.0031431681836811267, 0.0030099885299535198, -0.005506512007967577, 0.0016826784865905478, -0.0004674946289479299, 0.0014824936987441937, 0.018544551517938847, -0.010107783357510666, -0.0035149433176576757, -0.0014062715112523577, 0.013039941810316563, 0.00349056317778164, 0.012698695233271943, 0.011167364883408113, -0.006198327592409061, 0.017042254920936695, 0.01620360483111268, 0.0008883847507687941, 0.01553001675408263, -0.0008545599160312572, -0.006591314375469803, 0.005885495850098406, -0.0011858374217150578, -0.004351067472602764, 0.01396841408267256, -0.005068720894488419, -0.0039036900663315197, 0.00603032995516009, -0.01237919176209119, 6.635473043952966e-05, 0.004523753909906439, 0.015216572357370818, -0.002173257373453025, -0.015488422132659416, -0.0005946062129762997, -0.002399785383108817, -0.014119723944802683, 0.0028659357138858775, 0.0030298112601427436, -0.004986203323573793, -0.0032350510631409643, 0.0032962571695695168, -0.004598985372203381, 0.009107529958067535, 0.0062868915289330035, -0.0018407084205692783, 0.0036554836023122766, -0.007337331132515523, 0.009409958608616004, -0.011509923575416196, -0.005252406111383316, 0.004317235306979128, -0.0010293078984981976, -0.011025332520139016, 0.006105394530175598, 0.0016804394081319162, 0.0021065288113321003, -0.0008696871701352332, 0.00901428705710412, 0.0027860347801273284, -0.0012352228394866994, -0.0031425006901425433, -0.011982644331197523, 0.00980672203561978, 0.008541591824097704, 0.009025818586221462, -0.005396526487735228, 0.005774291543576763, 0.005060840662142136, 0.010153472935909529, 0.002924692235024507, 0.005045942733030115, 0.007715561638576012, 0.003119321707108198, -0.001245762116019834, -0.01355385028869292, -0.001686462679548553, 0.0033049586563857936, -0.01281418389466637, 0.01136708330996669, -0.0051855038984176295, -0.00974761077998239, -0.007695215249870833, 0.0015357074059953871, 0.00022109638103816494, 0.001161602470763764, -0.007449132688475676, 0.0006404058101857577, 0.0018738150728904225, 0.006798318087420905, 0.004634391524331818, -0.0061461567429073475, -0.00016587332062260825, -0.0021249250490561326, -0.007685944998638323, -0.003476173523233139, 0.0018502913881182676, 0.008136191411149948, 0.0050247394315711905, -0.012096799191024103, 0.0013587607565073905, 0.006710978250685809, 0.0063714757458626006, -0.005901936985557799, -0.011929359763555436, 0.0009408340664474187, 0.003452989026342297, -0.0028534623178728146, 0.0032420254009724817, 0.0034382342261192805, 0.004951636803527766, -0.009222846305443072, -0.00609627110178172, -0.008917987462310503, 0.00016360988003792767, -0.001967256563576452, -0.0037246111387179448, -0.0012853371960562662, -0.00574305434545848, 0.0007105092346685713, 0.01754215495494653, 0.0074852777324844275, -0.009855245408857412, -0.007054242479563595, 0.006156856491494152, 0.0017968448779525702, 0.004783196912794768, 0.005961974588050874, 0.000924383075075108, -0.0013472969517362317, -0.007664338830433935, -0.005336591441661859, -0.00278615161107006, 0.012925047399862725, 0.004823836541929201, -0.0020782085672880345, 0.001453148832801634, -0.005890403691662021, 0.0018937136343076127, -0.004181225171960802, 0.0020956327243937824, -0.0063373101470841995, 0.009921699570818775, -0.00579844473156184, 0.0015481464670545901, -0.0005707326937241373, 0.008357334992673734, -0.015503899080942678, 0.0007417714353314607, -0.006498183698893038, 0.005259116879348918, -0.005833133123402265, 9.139063782758542e-05, 0.00040375027438763596, 0.0009996045239274362, 0.006947456080106022, 0.009729498496388654, 0.005359725564739924, -0.0013864106508393265, -0.0034495982549464636, 0.010315807565515303, -0.007558683575634315, -0.0074823969171535325, -0.0010412317733195532, 0.010812643273918147, 0.005190270049790163, 0.001316772433404749, -0.01108996439088512, 0.008103685234057585, -0.008727719203159963, -0.0030811612212226554, -0.003076591750067974, -0.005536033532395413, -0.00381124891945247, -0.002558981509180722, 0.0077188550523668974, 0.0037966401090588544, -0.009310862356085503, 0.000626902450863211, -0.022002634877042744, 0.0021792031666933755, 0.003092810240762917, 0.006445377879445761, 0.009412129798001023, 0.0016973447675894494, -0.010712908723815471, -0.0018923989704673638, 0.006896753554185074, -0.00944257519074118, 6.648665198331762e-05, 0.0010317959094993873, -0.01146228990176226, -0.007377735494437866, -0.008647682154449107, 0.006111685945243741, -0.005428896264863469, -0.014242105893144785, -0.00614010730853735, 0.0028911500859876626, 0.0030441287645566334, 0.0003827959115925974, 0.006146661560286879, 0.003333565064467721, 0.004310490753097756, 0.004944193019041299, -0.012200216193286572, -0.009203602599060504, -0.005422354055997314, 0.015403884627219694, 0.01560414450974537, -0.00887626975881099, -0.00974668611046705, -0.012966138105262847, -0.005220238225773385, 0.00519329108723051, -0.015612133021067337, 0.007776981354494632, -0.005441636451243199, -0.004308418980082959, 0.006766527094546493, 0.01797680870513804, -0.006162657389948622, 0.0027648701796737277, -0.008458201317122691, 0.011977753642986335, 0.0017938684429865796, -0.012170367407105195, -0.008480080355898341, -0.017236071108644998, 0.011428950537418306, -0.008515047699151021, 0.0007690162656633757, 0.0008688717405598934, -0.00406550099049227, -0.005946304964851043, 0.009542705715028924, -0.004366768020910412, 0.0027949447255187897, 0.011310391887001432, -0.016223958537071696, 0.004391357561112454, 0.010352699172606672, -0.0008492221476737563, -0.002957307437758206, -0.0050479093426422286, -0.0038236825768973985, -0.0078112656266900015, 0.0027624847468012107, 0.009201825520168454, -0.0021398003315426586, -0.004135422859621811, 0.00445992248040004, -0.01142730496125686, -0.006435387407653599, -0.00748009226073443, -0.0033201174358266907, 0.006385030388092629], [-0.0011826368606777365, -0.006845660255459926, 0.006691373691597641, 0.0005941572494294825, -0.002289650812305635, 0.005634941775016139, 0.0038501137565821538, -0.0005406648221852368, -0.005458672495350213, -0.006355135165031674, 0.003297988656958252, -0.0039435302435590685, 0.010602071839992398, 0.014577426597397405, -0.001058860648013171, -0.01490833667101724, 0.011737643583583344, -0.002856414734279789, -0.018057278214617813, -0.0076384626948470605, -0.003309651993582494, -0.009255143472153053, -0.0016445998300694093, -0.004567823245195901, 0.017611743567803807, -0.011817869218122393, -0.00026477014429890247, 0.005783751671204781, -0.01127496787161465, -0.0001986729263313532, -0.013248634812332663, -0.01630782095924183, -0.0013346822131425125, -0.002569213127572419, 0.0038312298295030927, -0.0029215390419354156, -0.0047899909208694415, -0.014801650834971012, -0.0016441609838638814, 0.004177104474050061, -0.004084219854774223, 0.003487120760179621, -0.00013567172457961522, 0.003159436035326763, 0.00895360596761192, 0.00030732532291849045, -0.004675530803758778, 0.007859595875688416, 0.012344103929276802, -0.0018705342740772005, -0.01271851632601357, 0.0018544852255479507, -0.0057652311535591715, -0.0011927842850902519, -0.014646410402926717, 0.005353224200471355, -0.0038945037490147804, 0.003019317243508778, 0.01650308802682622, 0.012209485356736412, -0.016575642091389006, 0.0017935690021279422, 0.0031178534192722028, 0.006052668435464685, 0.0002939950708998928, -0.00969715989854582, -0.005896689355115432, 0.0007921100945091741, -0.001300360766188551, 0.0016530757534332207, -0.01790771362851334, -0.01571074680057546, -0.02541789941993051, -0.022806327974040995, 0.0005420239998415975, 0.02290630768454327, 0.005062204243853753, 0.01225008952672096, -0.00030195427802874413, 0.00861584769147903, -0.011593913257937015, -0.012204080822500898, 0.006400459671533503, -0.000626932562515874, 0.005871685408277546, 0.012863560844039201, -0.0024642998091561827, 0.01367212651104321, -0.008519931561317915, -0.005050314620442993, 0.012167933927169644, -0.006633679834831926, 0.004842381403553198, 0.0010283554787938601, -0.004025652799380612, 0.02987542871166436, 0.03746702739689122, 0.00882796286533961, -0.04960559938596658, -0.0487916581594037, 0.013526563513590191, 0.046002775341309705, 0.007909500701305784, 0.02662763252483762, 0.03632388706253765, 0.016670693471062526, -0.04347775041208291, -0.035170485814130584, -0.029522808616696178, 0.002857028399374945, 0.0011618421332412752, -0.0012969405673356829, -0.00660436501039704, -0.004836558993535272, -0.006923234853695184, 0.0029910975827070287, 0.016380195485094826, 0.032473399062916845, 0.012237515700973266, 0.00025098229985883407, 0.017283094343039943, -0.07852542680855903, 0.06651817360045302, 0.1849394595387907, 0.0077121218855996775, -0.07512949475041245, -0.07854550519375658, -0.08405635762990965, -0.028190242810941204, -0.0009842947493543808, 0.028890325782700996, 0.025168688700708406, -0.0152895300885322, 0.020208957295244166, -0.07003400236080491, -0.03937440700693103, 0.00026889844966400606, 0.012140483178936377, 0.0042380664246240785, -0.004528461785298053, -0.009287842201825054, -0.005261249485026469, -0.000905952293849862, -0.009986787105344118, 0.021312453166480373, 0.0453613205917444, -0.09468563396005156, -0.094573605319991, -0.04375522554072378, -0.04344810902708356, 0.05286949963510031, -0.08562607760218134, -0.010182986034505471, -0.08175208231122136, -0.033075799282638874, -0.04384813540208466, -0.020607159061733573, -0.024038328050581308, 0.010611896080723032, -0.012944675894777373, 0.016761720962873927, -0.13705565360454666, -0.10178079978950873, -0.036575437378541666, -0.027118063516260345, -0.0012549197885441058, 0.008587515328492917, -0.007178280568006549, -0.005763445438020826, 0.0008500557889313158, 0.009106889823220759, 0.01689373659259736, 0.01621887042635208, -0.0023571294651572854, -0.11472032380681406, -0.09038958651889978, 0.11005357715449748, 0.15976778640486758, 0.09572624820149901, 0.0718844259673757, 0.019641367042979387, 0.23104524832239073, -0.010487965614698965, -0.056142833807089364, 0.06125540028893813, -0.119602889997902, 0.18154799653599502, 0.05530911562409236, 0.12163878027970831, -0.03867239895826612, -0.09478433592096877, -0.052011722845386195, -0.037571647228496076, -0.020869700722239513, -0.0006517526850401926, -0.004478409322144762, 0.009270579479192641, -0.008125584582669843, 0.04318421606774494, -0.026212314221549897, 0.05399476766229339, 0.05496803341606795, 0.09362693937004316, 0.010931912384876785, 0.005432304679916498, 0.05059068480278218, -0.02440539114004361, -0.09651888409525247, 0.05775043367229407, 0.053214423287436, 0.061850468012244295, -0.02437414853067905, -0.036442831706165496, 0.07545658666144828, 0.01057393525519233, -0.009520297298675902, -0.01547963862948168, -0.007615059347501197, -0.0743552165589418, -0.12068967145820508, -0.09070772257557048, -0.029019775740262734, -0.002574292372216901, 0.0012002425471478804, -0.0104833335818456, 0.006594693953244905, 0.04134861642065631, 0.02486148824181192, 0.004244708685108876, -0.0514695534464009, -0.1150100982317428, -0.014269426492570481, -0.07858695856284419, 0.03059346643644843, 0.09643956765832912, 0.005428612776960443, -0.0921707248746452, -0.0479845555566705, 0.07867616080544955, 0.10316962963739743, 0.03562146377288076, 0.10768588520888131, 0.2266838493550473, 0.11335490912616987, -0.12530005226831276, 0.08843866050774382, 0.0015962254166868586, -0.18976273875896552, -0.13158187461849846, -0.02454168332187598, 0.008973519160590354, 0.004708686554814766, -0.006653206952621489, -0.004364457708979105, 0.02867403455500034, 0.08880806710332749, 0.01593421202498404, -0.1930731611654944, -0.020223002552444132, 0.00968799260803587, 0.07914472232329502, 0.026440111130164402, 0.01861462392232019, 0.07120382807499286, -0.03542339985792587, -0.09843571064341357, -0.1061354885918211, 0.022075498578008435, 0.10105470553315472, -0.033623174937351875, 0.0516623376919534, 0.031072027451380702, 0.04393764014373377, 0.09005348521036835, 0.11495102157797583, -0.0011833616784195865, -0.10940284915370045, -0.04756880976345791, -0.04048467035732014, -0.0008632952342653339, 0.0020309367712931974, -0.0072171830086061655, 0.01733833856387155, 0.09259053945303013, -0.010225472832889288, -0.0394160209981435, 0.04684616306054569, 0.08451869200221397, 0.20225138231893683, 0.025526972424128432, 0.03126022675310524, -0.0548537376328605, -0.14131146060943525, -0.3409525918072337, -0.1992184196675733, -0.01606098751329428, 0.08417119920096923, 0.13101069812073138, -0.0463548488576019, 0.07292252386791619, 0.12363023316014031, 0.03165497189070183, -0.033793658253931345, -0.002215033203221369, -0.06557271591457614, -0.022150502101466747, 1.7634806788977955e-05, -0.011232251460025617, 0.002272647515437127, 0.012906871045726147, -0.014272029175234143, 0.03810046414910386, 0.0237077933927104, 0.02200487991653404, 0.03214582575455622, -0.16771055846819352, -0.024240919906549557, -0.2492337829537024, -0.41417703039735293, -0.5534654513830097, -0.5608305728218171, -0.10222434324351638, 0.12811087428717313, -0.014402591140407227, -0.053670231212518786, -0.004216114697174233, -0.10060409970626057, -0.024577533986906985, 0.14545640122986275, -0.008268486091381332, -0.07477193668209021, -0.027963606630003243, -0.03413846299767935, 0.005967914086945015, 0.005416407872041122, 0.003004889657724886, 0.0118202009112077, -0.017560175493723747, -0.015909816095863713, -0.01939439107247829, -0.004747353824079727, -0.11789387478128649, -0.20965694857659897, -0.32953484582575565, -0.5086853718106354, -0.6998349594325078, -0.5372360944326986, -0.296415245737269, -0.07925747900730047, 0.16836721910740754, 0.2051123941389416, 0.05742467892888264, -0.026131634096267658, -0.11298362525456936, 0.06440304325618325, -0.17359938610021133, 0.03826298123277249, 0.0030133920684732277, -0.04262095356902704, -0.09912254649186954, -0.011750769917404981, 0.0069419942433223475, -0.00023292000831278274, -0.0035976299486813897, 0.02125252396029035, -0.02186646120387964, -0.009119467517283165, -0.019954961867438285, -0.08977191274358404, -0.18384141041483262, -0.3432664314624249, -0.43527176748809704, -0.3886485282946576, -0.36133392183047436, -0.09549727432646954, 0.23160058573482462, 0.1763176558342548, 0.08072075348461347, -0.05042104319832156, 0.007016002902758305, 0.06281054257595241, -0.0013614650243491233, 0.10652468166568056, -0.13524802230757024, -0.011459907395524603, -0.0028276509057791814, -0.15694267030172837, -0.08077493909430118, -0.013172074831226377, -0.0023320198370924013, 0.0019775250554202586, -0.0116924775922611, 0.004312846856743949, 0.0013745499692815351, -0.008494407876329968, -0.021637345466255675, -0.06194689516279252, -0.14235090356477942, -0.24354908130025413, -0.17331222266764634, 0.020037395473332442, 0.05625757091825465, 0.12350327705338963, 0.05984547750816763, 0.10976909589752842, 0.14515079776394915, -0.0026989896410253363, 0.1303666082355825, 0.10444229819463464, 0.11730117849427613, 0.029296719546132735, -0.09299869007772428, -0.12423667169365119, -0.101818308254209, -0.09182668865098109, -0.07784041117479168, -0.02980110122685216, -0.03712056710882626, -0.008732457803503924, -0.0018870621838707811, 0.012108491505699039, 0.009299765098638543, 0.006201497835017375, -0.022463251216982418, -0.053342720356020515, -0.06605733577482044, -0.12983719504932942, 0.0402754868029174, -0.054983281793604684, -0.022883974479204247, 0.015662054556030473, -0.050059746339624574, 0.041506311255624755, 0.14779075917970733, 0.18821375239748303, 0.016405407503603517, 0.04263149868996651, -0.1297028065178478, -0.12231504906378622, 0.047553010865480694, -0.04727201109509188, -0.025400631420030576, -0.016640405935096338, -0.025377879253861927, 0.005692569072046607, -0.03855950432488647, 0.0004280363023154655, -0.004362579126822376, -0.010941437941251705, 0.009710010400316393, 0.029833493635743894, -0.006588067392907468, 0.02338184014744837, 0.032864752230999765, 0.00433752680232861, -0.032880131946811296, -0.18685072870646935, -0.05693387287395977, -0.058633593640196345, 0.13951072572092701, 0.22670631629484972, 0.2134083503751802, 0.10921307496302043, -0.0007732406831373845, -0.004876969238880743, -0.003636491013774774, -0.05245098546078707, 0.06868180093834281, -0.046708707536252114, 0.024951054831853798, -0.0841144749743857, -0.041358866213175575, -0.0064403198369756545, -0.039827273241951476, -0.014261062287688387, -0.005580259755555772, 0.015361949439710735, 0.005475186113395466, 0.02694545962400625, 0.028778913812090103, 0.038089090140163095, -0.03399079137482069, -0.18717885802039136, -0.24693931302446992, -0.2326346013699676, -0.24402251395975522, -0.12524937261230373, 0.05820718607961671, 0.1653648542991104, 0.03800393295747722, 0.24846852266440164, -0.05174538126119399, -0.09032677723728225, 0.08157933363611984, 0.20192138471360066, -0.004627293658296123, 0.039503007892440684, 0.10405622042789173, -0.030918482544898256, -0.08308584187929235, -0.11355977644556857, -0.03366538625447022, 0.0016126122332943322, -0.010333713115670868, -0.006149685576659395, 0.011684349421543812, 0.025811544797732344, 0.06362981119992453, 0.014525178938502643, -0.15922277608734803, -0.23781508805602736, -0.24449769863096693, -0.31794041286434993, -0.37642617129393874, -0.32063015601504424, -0.27152587380206766, -0.22756759081520508, -0.20440519912182475, -0.10024984571176053, 0.21484011158077276, 0.0911335358765213, 0.08690615869276132, 0.037722943336445804, 0.001735094470254843, 0.14915894068649477, 0.13569376038064976, -0.005017799947408327, -0.20670468131546624, -0.14354772042211908, -0.010362001667090087, 0.010399095216612995, -0.004195612287967089, 0.006586393667073628, 2.4846090758766875e-05, -0.0040556887537017, -0.004902478576427086, 0.016511050636409105, -0.1257942169419544, -0.12517416898330083, 